1 0 0 0 0 0 0 0 0 0 0 0 0 0 0 0 0 0 0 0 0 0 0 0 0 0 0 0 0 0 0 0 0 0 0 0 0 0 0 0 0 0 0 0 0 0 0 0 0 0 0 0 0 0 0 0 0 0 0 0 0 0 0 0 0 0 0 0 0 0 0 0 0 0 0 0 0 0 0 0 0 0 0 0 0 0 0 0 0 0 0 0 0 0 0 0 0 0 0 0.00106831 -4.06503 1.56502 -4.54967 5.2555 -0.901669 1.87228 -4.58336 -2.13944 0.265847 5.93075 3.0221 -1.69253 5.32069 -0.971068 -1.40876 4.04929 1.61721 2.96197 -3.83462 1.68935 -5.83316 -2.77569 2.66814 5.22944 -4.3513 -1.26655 3.4919 -2.93854 2.17869 0.264443 3.93844 3.39454 -0.218665 -1.2107 0.954954 0.80163 -4.50304 3.90518 0.596729 -0.422651 4.0632 -2.46007 5.66018 8.58947 0.106235 3.12372 -1.07935 3.31355 -3.21387 1.41139 -3.58541 -0.257241 2.82427 -2.85546 2.19974 -4.14963 -3.1438 1.74349 3.0354 1.30464 1.0473 0.210364 -1.584 1.11023 -1.0929 -2.56206 0.401532 -4.12223 -2.76037 0.106601 -1.32667 -1.60195 -2.83062 -0.641896 -0.738639 1.21192 -1.82235 0.435591 6.37693 4.86584 0.0878627 2.47545 1.78506 1.53761 2.94031 0.638478 1.16266 3.72097 -4.31315 -4.23051 1.86966 2.6549 1.65261 1.77017 -6.42155 -5.81155 -4.30998 3.87588 6.19565 0.767083 -1.02234 -5.97903 2.51274 -4.77746 -3.61464 0.484237 -3.97165 -0.932493 -5.64186 -0.00711082 -0.627064 0.965148 -3.75613 1.4875 -12.2243 -5.92416 5.01013 3.71963 -0.982787 -6.04105 -3.7148 -0.120029 -1.70821 1.72329 3.66189 1.44185 -0.566271 0.108066 1.19684 -5.59511 -1.06964 1.18903 3.05036 0.131077 -1.83059 -6.61168 -0.800897 -4.04495 2.3516 0.485885 -0.8399 -0.237831 3.51064 -3.69149 -1.33589 1.71889 0.0750446 -0.203833 -6.78314 -6.66216 2.41154 -1.87869 5.4828 -2.92035 -1.21473 -1.44179 0.430464 2.66021 1.17615 -1.21595 1.18036 -4.7351 -0.612964 -1.69832 -4.51549 1.85556 4.88507 2.67058 -0.214881 2.74468 -3.1919 -2.76641 -3.21906 -5.35243 3.57802 4.03043 -2.55419 2.3773 0.556139 -1.42482 -2.56804 1.38227 -6.81927 -1.79897 -3.20191 0.31193 -1.97855 6.64562 1.00073 -0.20249 -2.81231 0.569506 0.081393 6.63402 2.53337 -1.29969 5.99472 -2.44914 1.08899 -2.71892 -0.99353 -0.23545 0.163487 -7.48415 -2.89227 4.49046 3.55135 -2.2982 -4.62633 -1.39051 -0.718436 -4.27354 -0.787163 0.677969 -3.652 6.62999 0.438338 2.45677 2.85931 -1.09174 0.10239 0.164586 -0.961302 2.25474 1.02881 0.62566 -0.474777 4.41765 1.9827 -1.48781 2.39756 -0.130039 -1.58608 -4.13608 1.37025 0.974853 -0.285806 -1.93167 0.59447 1.33296 -6.08042 1.49873 -1.4994 -3.9982 -0.194739 -3.01215 -5.876 -1.72427 3.29719 2.33238 2.34501 3.70803 0.153111 0.00820949 -0.513596 3.06799 1.8384 -0.707633 1.7062 -1.0766 4.53764 -1.02844 -2.38481 -2.47539 -3.75552 1.82937 1.56856 2.68963 3.86129 5.099 -8.94238 -2.63042 3.24372 0.0658286 2.65087 5.59066 -3.85806 -4.98651 -0.0935393 -3.5544 2.95624 -1.30616 1.71267 0.842158 -4.742 4.51408 2.47569 -5.32521 -4.98669 -1.37562 0.606555 3.12616 0.436689 0.0979949 4.73376 -2.22965 -2.57561 -1.61495 6.08579 1.17725 0.497177 -3.76455 -3.51918 0.697012 -1.80734 3.26966 -3.64382 6.11844 -1.15558 0.392499 4.28092 6.88269 -4.31559 -3.76577 -5.61678 1.54689 -0.790338 -6.19608 1.13874 1.17811 -4.25498 -1.45119 1.94498 3.37062 2.14426 -4.00168 4.93213 -3.4311 5.56588 0.192907 4.43754 -0.607471 6.25925 -2.93054 -0.410932 0.636463 -3.69851 -3.99435 -3.57082 -7.35066 0.219947 5.70095 -0.980041 -0.23191 6.43889 -4.41618 -0.0335398 0.495712 5.48817 -3.06085 -4.20475 3.11853 3.91159 -1.06995 -0.372906 5.43928 -0.18833 -2.28245 0.577013 0.320963 0.968871 1.85171 -3.67403 -4.27244 1.47023 -3.87045 -1.70394 4.94751 -2.20792 -0.892148 1.86898 -0.314188 6.26487 -3.54878 3.08435 -0.279519 2.86303 -2.68938 4.25797 -0.200537 1.26045 1.91617 -0.0470901 -2.52617 4.07901 -2.42918 -2.25401 -3.44771 3.27912 1.23743 -0.777276 1.863 0.621632 -4.10227 -2.3585 2.01218 4.14231 0.881954 3.70309 -4.17386 -2.42558 1.34718 1.86221 -0.833979 2.66124 3.09503 -1.378 3.79653 -4.71154 1.92001 -0.758049 7.00684 -2.61876 1.67025 -1.69344 -6.34019 -4.4998 -1.78939 -1.41719 3.3683 4.07291 -4.52336 -0.389019 2.47093 2.19974 0.80578 4.46171 1.51314 5.97336 -0.269082 2.09861 5.90823 -0.754509 5.4319 1.78426 6.46635 -1.21931 1.01978 0.968383 -2.51103 0.734489 -4.14566 -0.910275 1.10242 4.39415 4.07425 0.737968 -4.47032 0.116855 2.52684 2.60546 1.98166 5.40748 -1.70687 -0.328837 -0.143895 0.06534 6.98718 1.05182 2.93512 0.349956 -3.9827 -5.04175 -1.73635 1.08997 0.00772133 1.19666 0.4008 1.68062 0.551256 0.646535 0.729545 -3.09272 -0.505295 6.16044 -3.48946 2.52831 -2.06211 0.317301 1.37385 2.55736 2.13395 0.469771 -2.07486 -1.81582 6.48112 2.51976 -5.83102 3.26911 0.790887 -0.135716 0.419843 6.34623 0.0199898 -5.05359 2.40287 6.08011 3.65889 -10.1515 -0.778802 2.10697 0.953246 -0.633656 -4.11332 4.20139 -0.841487 0.999756 3.09241 -0.298624 -4.99133 -4.69817 -6.08029 -1.86306 0.584094 -0.980834 -5.83059 0.993408 1.772 -1.53938 -8.00296 -2.45134 2.50359 3.53951 1.54769 0.722282 0.955809 3.91415 0.272134 1.87509 2.90619 -2.32212 2.6165 2.49315 0.425764 6.02689 3.76705 -6.30222 5.1015 -1.65767 -3.85464 -2.48198 -0.0277413 -0.863216 6.33409 2.85937 -0.632374 1.28443 -0.878048 -1.88876 -3.16456 2.98639 2.36522 1.3296 4.34959 0.904721 -4.66515 -2.07199 -3.02228 4.89953 8.25639 -3.17719 0.207434 4.80895 -4.28745 -1.04089 2.10703 2.71215 -6.38652 -0.833735 -0.484054 1.10932 -1.59413 5.27192 -1.54933 0.454146 0.218543 5.41597 1.91128 0.483383 -1.37208 -4.4976 1.27894 0.775384 2.73583 -4.2758 -3.50978 -3.02454 -1.7629 -3.90091 1.17756 -3.87179 1.17652 -4.04263 -2.04044 -2.44737 5.07416 -2.68688 -3.92685 2.6964 3.10816 -4.9375 0.532823 0.409528 0.0473343 7.94174 -0.995727 -0.926633 1.61458 -0.815729 -0.420148 -3.978 3.97037 0.818659 -2.35392 -6.30546 -0.991394 0.53325 -2.97504 0.954222 4.14554 3.05969 1.58431 5.01501 0.292459 -4.99866 2.4959 0.40965 0.701956 1.05133 -2.66308 0.439192 -1.63155 6.53136 2.21995 -0.460799 -5.32002 -1.80483 3.13031 0.00216674 0.999573 -3.76894 -0.323893 -0.506027 1.86898 -2.6007 1.41926 0.798151 1.52113 -3.7557 1.99063 2.23106 -1.61031 6.32048 3.16364 4.16001 3.30091 4.36442 -3.91354 -5.9335 2.03543 3.3564 -4.15055 1.58913 -6.0488 -0.596545 -1.41798 -0.0176093 1.35292 6.38798 -0.735954 -0.564196 -0.710379 -2.69048 -0.561082 0.6798 4.48149 -3.72896 5.01813 -3.67202 7.04822 6.03281 5.36067 -1.61641 -4.26267 -2.91986 1.81991 -4.64818 6.33616 -0.856685 2.94098 1.39796 -2.04929 -2.90161 -1.50124 0.980957 -3.14942 6.19901 1.56276 -4.58928 0.551439 0.56151 -1.22199 -3.24451 3.83755 1.86056 -3.95383 -2.45268 5.40345 6.1489 -4.20103 -4.28678 -3.19813 -2.23881 -2.95318 1.17707 -3.60726 -5.77462 -1.60598 -6.43278 -0.0304881 -0.876949 1.20478 -0.533982 -1.23762 4.83673 1.11023 2.63836 2.49706 -3.87686 -2.95788 1.68282 2.19901 -1.5533 1.98221 -3.46779 4.434 0.0121159 -1.38746 -7.74709 -0.332865 -0.566149 0.056734 -2.42961 2.43291 1.98044 -1.1012 0.564318 3.99802 2.33012 -3.33491 -7.0307 1.21064 -1.22431 2.96185 3.51991 4.22166 -3.18409 2.44737 -0.228493 2.75927 -0.928892 0.838191 2.84491 -2.34349 1.46077 -3.87576 6.52263 1.30689 0.580553 -5.81008 -2.86053 -0.256264 0.21543 1.02332 3.70388 2.02823 7.92764 -3.29768 -1.31526 3.63234 -2.3452 -4.6505 -3.0907 1.50667 -2.73913 -5.76785 4.99701 3.51711 8.96991 -3.7897 0.77813 5.94388 -2.37602 6.70586 1.13117 -0.277749 0.708426 1.38929 1.67183 -0.878475 3.0694 -2.23154 0.737968 -0.460311 2.27097 -3.13208 -2.89508 4.11252 1.52815 4.18271 5.86703 1.81332 -3.85147 -3.89932 -6.07456 2.74102 2.42601 0.975463 3.52132 -0.724662 0.918088 1.03821 3.24415 2.79382 1.05084 -3.6617 -3.03723 -3.36787 -3.01758 -3.10041 -3.88833 -1.01886 1.66939 0.275246 1.76681 4.40129 -2.93536 4.69787 1.95352 -2.3516 1.39521 1.00061 2.6256 -1.50435 -2.55199 5.51039 -2.25559 -0.764092 4.80566 5.08728 -1.09461 -0.43968 -4.03049 -1.49391 3.94174 0.490707 1.30818 -0.633778 2.94891 -1.94052 4.76299 4.71581 1.16254 0.426435 -0.741081 0.575182 3.13105 -0.889401 1.74825 -1.44331 -0.384259 2.03592 -5.17145 4.75536 -4.33689 -0.929136 4.87622 1.10706 -0.720634 3.751 1.62172 0.4008 3.14838 -2.12638 -2.88006 -2.8731 4.83215 2.65294 1.0401 -0.642751 -4.11447 3.11548 4.2169 1.83456 -2.66845 3.43538 -2.5963 1.47029 -0.0755332 -0.112094 -2.83923 -2.57256 -1.35401 -0.887814 -0.182958 0.983459 1.87014 -1.63125 -4.55541 1.35707 0.631275 1.48238 2.78411 2.68737 0.437666 -0.845515 1.052 4.35228 1.06275 -0.663015 -2.42216 3.81655 2.75719 6.3477 3.19971 -1.8085 -1.68642 0.423139 0.357707 -0.299661 5.42799 2.39122 -4.17045 1.22907 -1.21406 -0.84759 5.03461 7.15961 0.323771 -1.34327 1.85226 -2.33567 5.08899 0.0646689 -1.11029 -4.34513 -0.852778 3.77938 0.136204 -1.43092 -1.03082 3.0365 -3.05908 -3.81307 0.734306 3.74227 -4.7467 6.65954 2.99097 2.24277 -0.938719 3.94253 3.10944 -2.28458 -2.0311 0.81811 0.965148 -3.13129 1.84494 0.694754 -3.71065 -2.36094 -1.51509 0.370098 -2.87176 1.56978 5.22358 0.950255 -2.16037 3.56154 -1.56887 -0.895749 0.0746787 4.68224 -0.164098 -4.15091 1.17676 2.72277 -2.39158 1.0481 3.43349 0.185338 -2.85662 0.811884 -1.37519 -1.60665 1.48079 3.9899 -4.70067 -0.588733 -1.70217 -3.06189 -0.780084 -3.54207 5.41664 -5.24696 0.413007 6.50694 -0.242409 -3.84365 -0.735893 1.75289 -0.318034 4.22056 -0.910581 1.64315 -4.34361 0.120823 -0.369793 0.150059 7.18238 -3.89541 -1.10187 -2.02133 -1.08032 8.86047 -0.182409 2.39567 -2.04617 -4.52477 -0.906186 0.367229 1.13135 -0.823298 0.755058 9.6935 -5.59157 1.03015 1.79421 1.82241 3.15174 -1.20533 2.3574 -0.95764 -2.67827 -6.88195 -4.08878 5.72561 0.484237 0.257424 -0.171056 -1.67806 0.579333 -2.48503 -0.169714 1.78805 -4.60674 0.577624 6.71819 -2.87091 6.66619 -3.05518 2.83984 1.76162 -4.22953 0.634571 -3.27735 -4.63842 4.9096 -1.64583 -0.689627 0.901181 -3.24738 -3.67696 0.244728 -4.44377 0.471786 1.93582 3.62606 1.17261 -2.91156 -0.548082 -0.305887 -5.02509 0.0926236 -2.09891 -2.13804 -1.78372 -3.74435 2.39128 1.54469 -0.560228 -3.41945 1.00464 0.216224 -1.9432 2.3289 0.473067 3.13788 -1.08234 0.055147 -5.18299 -5.81265 -0.435407 -1.40419 -3.8619 6.23759 -3.14087 1.93954 1.74911 2.50633 -3.3343 -5.07465 -1.16584 -0.665212 3.28248 5.70254 -3.17695 1.81326 0.304544 -2.11533 -1.33418 -3.29658 -0.389874 -3.64998 1.19959 0.0904264 4.15299 -2.39439 3.79171 0.203101 -2.74657 -1.33003 1.44783 -3.16065 -7.92825 1.40266 1.57295 -2.16477 -0.0480056 -1.77944 0.570909 -3.98733 1.3238 0.139378 1.47279 -0.952879 -6.1456 -2.9248 2.77892 -6.30906 -0.469527 -2.65319 1.70382 0.787164 -0.640004 -3.68636 0.0113836 -1.48396 3.3871 -4.91064 1.62661 -3.69149 -3.30085 -4.73534 0.212317 2.86718 -6.87988 0.5833 -4.10141 -1.27461 1.27381 5.49867 5.35255 -3.2074 0.702811 -0.438093 -1.62728 -2.68456 4.74041 -0.43321 -0.796869 -3.30952 5.81008 -1.605 -0.255593 -3.42286 1.84762 6.49864 0.859554 -1.26508 -0.46617 4.95544 -1.04773 -1.96786 1.02124 8.03909 0.0144352 -2.94116 -2.15616 2.23435 -1.67629 -1.2179 -3.2992 -0.356853 -4.01859 0.68273 -3.20392 2.71148 -1.52321 -5.18946 -0.574816 -3.78079 -1.53169 -0.806208 -2.50462 1.47047 -3.03461 1.04126 3.66787 6.6184 2.10092 1.17646 -5.19379 -1.93417 -3.3202 0.139012 -2.57555 -3.12244 -1.30451 1.39106 1.81429 -4.85919 1.99442 4.06766 -0.452498 2.21366 -2.71624 -1.29511 -1.96487 1.7955 -1.33436 0.391827 0.83227 -4.23716 1.8851 -5.22919 -2.62218 -4.29868 -6.51884 -2.66472 0.853755 -5.92477 3.03021 -0.542955 3.85452 -0.0284737 1.65926 1.58119 2.55113 1.35542 -2.96558 5.02741 -4.95953 -1.22492 -4.00632 0.830989 0.564989 2.45488 1.02264 1.07007 -4.71154 3.70791 -0.24308 -2.89447 -2.67705 0.61504 -2.29978 -3.82113 -3.31495 -1.09601 -0.655446 -3.19752 0.87524 -2.04117 -0.121189 -3.61898 3.76498 2.91009 4.67638 -0.500229 0.480453 2.73302 0.747734 2.31852 -0.029817 -4.70336 -0.65685 3.50984 -0.0576495 5.30018 -2.10154 1.17621 -4.13761 0.0290231 -1.49397 0.185461 4.69543 -3.11951 -2.90051 -2.63726 -0.917295 5.58156 0.544664 -1.02594 2.64031 -0.9541 -0.183508 1.94034 4.06333 -2.19321 -1.54439 7.22187 2.72985 1.95969 -3.51161 -3.19697 1.48689 5.55318 1.00067 -1.27168 3.30622 -0.630237 -4.45018 -4.39183 1.5005 -0.970885 -2.39427 3.05298 4.18552 0.35197 4.20505 -4.54534 2.67394 0.924741 7.00916 -2.43254 -5.50667 3.80062 -1.04968 3.3141 2.71123 -1.72542 -0.341533 2.26212 -1.74642 3.67098 -4.1514 1.20765 -3.08759 -0.921934 3.86282 -2.70147 -2.27982 0.972351 2.55235 2.13993 -1.61611 5.66475 3.68691 -0.682852 -5.53407 -3.49068 -1.92306 -1.22498 3.99905 0.812128 -3.39796 6.48961 2.21854 -3.62526 2.32469 -1.13153 2.10947 -1.38624 -5.11579 -1.67635 -4.55596 -1.80892 -2.64348 1.44539 -1.99368 -1.90561 0.762749 2.22013 1.68593 -1.89694 0.418989 3.73104 -0.868709 1.57961 -2.6834 2.77404 -4.35136 -3.47993 -3.28699 -3.16962 2.0361 1.81008 3.12653 -0.167577 3.03485 -1.39198 -0.0785244 -3.84182 1.09503 1.81204 -1.33015 3.29695 2.13089 -2.46892 0.479354 0.617237 4.96545 -0.488205 2.47142 -3.3202 1.14234 -5.5547 3.6006 -5.47041 2.79858 5.10504 3.00092 5.40797 -2.71874 1.23957 3.04822 -1.68404 0.200354 -2.82891 -3.67824 -8.12284 -2.39964 6.02725 0.659597 -0.0752891 -5.0575 -2.45567 -0.511216 -2.74108 3.58101 1.39021 1.62007 3.01227 -5.57643 2.92737 -4.30241 2.0524 7.46638 -4.63024 1.48531 -0.128575 4.88012 5.26038 1.1825 -0.610279 4.35002 1.20954 -3.04535 -0.885861 0.345439 2.83721 -2.1348 -0.907163 2.01071 -4.15397 2.39695 0.0976288 1.365 0.174169 -4.24717 2.47581 0.498825 