-20.823061 8.6484 -7.88367 9.85369 17.4147 -15.1953 9.24394 -6.38448 -7.10489 -10.4838 -0.655409 -6.45491 -16.415 -3.57005 -1.66582 1.32785 2.17957 -3.73467 15.6618 -54.2209 28.7028 -4.50399 12.2641 11.0168 40.0512 1.72569 2.45235 42.7789 16.979 -1.26658 -1.26908 3.96862 -6.48481 24.2365 12.5669 -3.63676 5.81622 -14.6867 26.0814 11.5155 -16.542 28.5299 -0.307559 9.84167 -9.82677 -2.26161 12.6904 14.9055 7.00967 -9.40805 -20.2619 21.8759 20.9413 0.709485 0.335891 -4.81801 -6.0857 -3.44695 10.1967 -3.64659 -18.6793 -2.00554 -2.42591 -20.9501 -7.07859 -2.44892 15.5275 26.2763 -18.8033 -0.680255 -16.889 -17.2298 12.1464 8.60865 -35.4732 3.61651 -4.4886 15.2332 17.1849 10.0076 -0.548724 9.51652 11.7142 21.2127 -17.3585 9.97584 4.92776 -14.2729 4.82053 11.6952 -53.3115 -15.3776 26.7711 30.3745 -30.2458 -5.93908 -5.26482 13.0821 -4.47712 -27.9814 -27.7312 18.6919 28.7369 -1.81537 28.5448 -11.0031 -17.8781 -11.9494 -17.9376 7.52489 9.96404 20.1899 10.8438 35.0283 -18.3899 -30.2806 4.01354 -13.3325 -32.0665 10.9617 5.8548 21.8922 -28.2971 -17.7348 -0.711997 -38.0163 -7.07879 4.05365 -6.21045 -15.6784 -9.92166 -8.97543 -9.25682 4.29535 -11.649 -10.4365 15.2366 1.93805 -0.251052 7.32268 25.2882 30.2376 -5.82189 -5.99587 -6.47834 20.1193 -15.5463 10.3324 18.2685 -2.85086 -29.7438 0.186597 -4.89748 -5.11411 -15.9873 20.9611 -26.1653 5.9502 17.7217 9.08163 -16.0758 -8.2353 21.7125 -2.27662 -14.6711 9.99831 -13.6434 -14.2906 -8.19106 -1.3278 -0.315793 -13.3899 3.64696 21.983 19.9757 7.009 -1.17917 -3.21415 12.2659 8.97233 11.6139 -19.2112 -4.20655 -22.2942 -18.3524 5.42089 -2.60957 15.3888 -3.6281 -9.61907 -36.1969 0.20088 -36.0278 2.90165 -22.0459 17.5419 13.7408 28.667 24.1496 -5.56871 -11.1506 9.44261 -6.80197 -19.9033 -1.39965 -3.62011 34.5042 -2.24361 7.07937 -15.984 -1.93207 4.57606 -6.7349 11.9554 3.44317 20.8289 11.5798 5.23618 -19.3912 9.22937 19.8585 2.39949 1.81579 -2.53444 -28.229 -15.7772 23.3275 16.9119 -25.3158 -17.8306 0.128728 -3.47001 7.94543 1.48967 -13.4343 10.9616 -5.38999 -17.9533 -20.0878 -2.19862 1.62877 9.80568 9.88775 11.0698 11.4316 20.0128 1.1013 3.8548 -14.0189 -0.923974 -26.5573 -0.83883 -43.7451 -9.87944 11.4082 -28.0705 -21.8425 -16.7752 -30.6513 3.26157 21.8759 -8.62764 13.6929 17.8114 1.6773 7.05789 13.0607 7.38115 3.13859 -37.4016 -24.6507 3.70097 -7.19121 -4.8582 -3.25506 7.38396 7.32401 -0.671028 1.67151 -7.90784 -1.05722 -13.3172 -23.3342 -5.1356 0.527071 -13.3403 3.22637 13.6504 12.9666 48.3985 -17.452 -16.9783 -15.979 0.145144 5.241 3.07968 1.63464 5.38895 12.9547 6.53926 -7.3585 -1.34269 16.9639 7.00639 17.9537 12.022 6.66633 -2.55105 37.1533 -8.72804 3.04704 5.84508 11.5449 -19.2012 -21.9489 3.01987 18.6325 6.13928 16.9209 -6.3199 -10.9695 9.23203 -5.55461 15.624 2.83683 -14.6482 -19.8304 -41.8599 8.40394 2.72323 29.5247 -5.38773 -27.4158 -20.1647 27.9028 -17.7269 -14.6015 -24.5662 -39.3294 8.19367 -25.8704 -9.79064 -5.87171 -5.58415 29.8776 -12.8363 14.3736 27.3075 -24.4704 -2.33057 1.14097 16.0758 0.191655 -15.7789 -2.43319 1.49309 11.0301 32.8614 6.87929 -10.2011 -16.4308 -13.6958 3.03928 -23.2192 -4.57082 8.75179 -21.6878 21.058 10.4827 -8.62624 -3.21244 11.5482 -3.53399 9.50786 10.8154 -35.8891 -16.9784 20.5232 11.4021 -17.598 -8.81552 -28.6266 -4.46834 5.88762 5.28188 -23.1426 -30.5666 20.0644 -3.68901 -8.45991 -9.23228 -12.1415 29.7194 -9.62403 -41.2256 1.22649 34.635 5.02224 21.3481 29.9153 5.53886 -39.1705 -3.9641 -13.559 3.37083 35.5356 4.00451 -33.7648 9.07144 16.6159 15.913 -8.01025 12.5548 -21.6345 18.7468 -18.8247 18.1396 17.6351 -13.4313 -14.2383 -12.6074 15.2563 10.2331 -4.87558 4.43531 10.1786 -10.9952 -18.8757 -23.3405 13.2649 11.1524 -5.60435 -10.0961 -8.2013 26.4416 6.80269 -38.9429 33.6577 -10.4053 13.0944 -4.89554 -15.8132 9.68156 6.74728 3.60162 12.7657 10.4291 22.9928 5.5968 24.0429 -15.5031 38.0216 7.9878 -31.1241 16.6741 9.40251 -5.6914 -10.0471 23.0045 14.6607 -17.0323 5.09848 4.87558 35.0605 15.9146 -6.7308 9.02499 13.5639 14.7378 8.24159 2.48616 -2.00904 -12.7885 -5.02317 -24.5235 -9.6452 37.2883 59.6885 5.2296 17.3919 1.49272 -5.42625 -6.25734 -10.7338 6.80208 -5.73211 -11.5126 -10.5065 22.9213 14.944 -12.958 15.0104 -5.97918 -4.86172 -23.3338 -32.5428 -17.0953 5.23521 13.8128 -13.3477 -19.3834 -21.345 10.5732 23.2313 -1.52324 -14.2721 4.482700 9.49242 -0.428239 25.2494 22.7984 -14.5738 12.6635 -3.27873 -4.17249 2.93191 -10.4493 16.2972 -16.9252 15.2067 16.8604 -26.6092 42.3972 36.3549 1.27889 -8.99825 23.6733 -9.85351 13.2141 -21.3133 9.82605 -11.0007 33.9113 11.2678 -23.2421 14.1175 12.9877 -7.81543 15.2533 -14.163 -14.5845 -33.4335 13.7808 1.15701 -13.0567 -13.0249 -22.7244 3.44322 12.9439 6.83163 -3.16765 19.3448 -28.2882 8.54151 19.3374 -14.1287 -14.8 -38.6943 2.04352 -7.31967 -9.82539 -2.38167 -2.91116 -13.466 8.82895 -10.5578 6.93887 -3.04172 -6.17225 -10.9148 -0.222783 -9.92767 4.78098 3.76167 -6.1739 19.6335 19.1691 -9.16745 7.61169 6.23279 26.6908 -19.262 17.1606 27.7124 24.0638 -31.369 13.1395 -20.2575 -4.75118 -30.3314 -5.07279 5.61431 -13.8756 -12.9792 2.62612 24.1875 6.58382 -0.451188 -9.98615 35.0556 -2.9147 4.17615 13.426 -22.1248 -3.37175 15.949 1.58446 8.91208 -6.82308 -35.2213 -8.64361 29.7306 -20.4976 19.887 18.4568 -12.888 1.49772 10.9067 -17.9239 -8.85128 3.88471 -11.2929 10.4713 10.5021 34.3993 6.8876 -3.54025 1.88684 -20.6163 0.952912 3.87926 2.71201 -10.1552 6.19636 -12.0305 13.9278 38.9198 -6.75667 14.7018 -19.9536 -26.2003 0.312879 8.0354 -14.6368 -12.9069 -4.85783 0.115853 -0.6451 20.6036 -38.3949 -0.577523 18.2676 -13.4313 6.03852 -28.1754 11.8986 -22.6681 -9.78974 11.6139 16.563 8.44221 2.02478 27.4349 -30.7645 -5.80736 -5.11092 2.18402 19.907 -35.3874 -3.23649 11.8293 -6.90719 18.8809 -28.0789 -7.8294 -0.436278 -11.8279 6.37067 -5.45756 15.2394 28.9666 13.977 25.4504 2.27645 -4.2367 -1.72198 13.1389 -6.64033 16.2651 10.9809 12.1121 -47.8576 -2.03277 0.128653 2.5801 10.9326 -6.78586 18.9966 9.84174 -15.5065 1.67169 18.6294 -15.387 -16.8942 -10.7524 -2.89913 -0.714313 3.76116 2.44746 -13.5593 9.13119 -9.42808 -6.83181 -13.7438 -4.56886 -18.6402 18.9272 -10.9521 -20.4445 -10.5631 11.5279 16.1909 4.97653 -22.4386 -4.82931 -2.36824 6.21309 -8.8965 26.998 28.2609 25.7167 -24.6327 25.0569 -14.044 3.70281 -21.8606 10.7417 6.34199 -26.0954 4.38422 -17.3668 -18.78 8.28175 -11.8427 -7.19866 13.6915 41.6414 0.695945 -7.47831 22.9614 17.2288 -6.31172 -11.5402 7.83196 22.2324 -15.2534 14.2681 -4.09498 6.23035 6.05542 -1.37541 -6.57589 11.5821 17.2112 26.7281 10.8595 -9.25374 1.24814 12.1962 -28.8671 -6.44801 -19.1388 -25.5605 -0.42483 -20.6099 -4.19757 14.4471 0.519915 9.35302 -29.5379 -1.9917 -0.365918 23.3062 16.6695 -20.6027 -35.1019 14.9031 -25.3742 -21.5373 -0.690579 5.53276 5.0928 4.18598 -3.77087 30.2102 5.69835 5.64556 16.4572 -25.6073 8.48737 -6.55024 -8.02759 -11.2501 21.6268 -3.42153 11.3737 -21.1415 -9.69226 1.69347 -14.0141 -21.1608 7.84234 9.84868 -8.3147 -32.0674 15.9301 3.67291 9.38365 -8.9918 13.1325 9.97145 -4.78267 4.01642 24.5196 10.7641 7.41783 -4.62477 -6.48721 -18.2293 -5.13414 -15.7113 18.9104 39.3346 -1.65087 13.0222 4.10578 18.7613 11.4815 -17.9149 -24.5193 13.1255 24.3325 21.3766 19.0122 -30.4988 -7.26623 4.26227 -7.97095 -6.37392 -7.72417 -10.424 -6.80745 -3.99836 9.99359 -3.41788 37.6414 -19.5544 -23.2705 -14.1501 -1.66704 -13.9328 13.2068 -8.91439 -23.427 13.6886 0.756369 12.8928 12.729 -20.3074 -2.2331 19.4648 10.1276 2.32925 18.8002 29.2356 5.15256 13.4318 -10.6057 2.43788 -23.482 -43.4104 21.5708 2.62807 28.7377 -31.2345 -0.993862 -8.87351 18.7603 16.3189 42.9142 7.40959 -9.16093 2.49416 35.595 22.4314 -1.47014 -12.6527 10.6856 39.8837 -5.07369 7.09226 -36.9022 -7.60093 -15.9516 -16.1097 -20.3692 -24.3113 20.4448 5.09464 -2.71371 27.6128 9.9563 10.9056 -9.74295 -30.8117 10.6952 -10.5245 0.622092 0.550061 17.1861 2.46584 -16.296 -7.17277 -7.28989 2.01111 -6.85709 -13.0297 4.83602 -23.8526 -13.3719 -9.48228 23.1284 -10.335 -32.6613 5.28624 -3.94849 5.39702 -21.9317 -12.9887 -7.93421 -15.0439 -28.9766 9.93183 3.89447 33.9024 6.32959 -18.7208 -7.00376 -1.65936 -7.79302 -39.2512 29.2192 7.97558 -36.1531 11.8749 12.6272 8.58089 -18.0265 28.357 -13.4537 -39.0752 8.0788 -13.6802 -7.23699 -8.87454 3.36131 7.52281 -2.05908 13.4317 4.3553 10.4786 -11.8035 44.4766 2.22681 -27.456 -23.1128 -0.0808126 2.77889 17.9252 -7.42528 -1.4274 10.1315 22.6246 2.16443 -25.0678 -8.91343 -8.67378 24.2702 -6.83628 1.20291 -20.7662 -0.287853 -0.483721 23.527 -0.185561 12.2622 -23.8203 13.0288 9.50766 -7.479 35.5844 -12.2692 18.361 14.0191 24.1129 29.5122 9.60044 16.495 2.29267 -4.40131 -0.852076 25.354 -6.132426 -12.2419 26.071 -1.67052 34.4252 8.16255 -1.04476 8.31495 -16.2801 54.9507 7.25468 29.3946 12.7563 -17.5346 0.523571 17.0558 -7.45445 -44.7924 -13.36 -8.40436 -17.5648 16.4403 7.93195 15.7095 -0.670798 -21.5051 26.2464 7.2631 37.3584 11.7816 13.9739 -47.7363 -9.0203 5.45811 -34.0125 -22.9841 6.53475 2.8157 -36.4635 8.44508 3.21384 4.32575 29.0653 15.6423 32.4804 11.3882 0.970611 -4.43007 4.92942 -10.2288 11.3196 -4.02954 3.57604 -34.277 9.46544 14.4492 2.58742 1.79522 -1.36839 8.75325 0.449847 -6.68269 40.4266 21.2413 22.5772 0.59822 -7.72296 -7.46861 36.3525 -26.2092 -27.1578 -16.6615 17.6018 29.4534 -19.6887 -4.48909 19.5259 21.7865 -35.3214 -2.76285 1.04427 9.57989 -15.0577 45.4522 19.5903 15.8268 16.2357 42.4184 -2.65346 -20.9721 7.90467 9.51761 1.90514 13.2001 11.5231 37.2102 24.3852 -8.45698 9.83477 -7.82409 11.9594 -1.17008 13.6459 -9.32409 -34.1561 -0.55551 -2.35394 7.05869 9.7271 0.150947 16.174 -5.51177 27.5993 -23.4972 -26.0922 0.840109 -7.9378 15.987 36.5168 -1.20634 -3.93377 12.8121 -1.78594 -4.88876 -18.9385 5.42113 15.2938 32.0991 -3.38577 -24.3375 6.55809 -33.7413 -7.55754 -1.32713 -6.27985 -0.863801 17.9093 -5.57708 -3.28281 -16.6629 15.9226 13.9761 -3.02347 4.75044 -1.69586 -0.589861 27.6158 1.94274 -28.4194 -21.5528 15.5788 -20.2425 -13.7899 -11.2373 20.7085 -7.91107 -13.748 8.97299 -3.24203 -15.1604 -19.5263 -42.6793 35.3483 -21.9164 -4.10816 41.0645 13.8414 -13.5996 8.74978 11.5033 6.17097 -23.5976 -48.057 -32.2477 19.6116 8.45343 -20.1279 6.16584 24.463 11.5648 -50.2709 30.4544 -10.3032 -21.51 -1.7611 -20.5014 9.53452 8.00508 -9.1843 -4.1534 -6.05731 -26.6377 8.18012 1.89001 18.1017 11.9543 9.3901 18.7438 1.7785 5.1472 -17.6685 2.79952 3.65746 -0.691484 4.63124 -9.02817 5.60185 -6.97238 -5.98518 -2.36257 -20.1536 -24.4912 25.0979 8.24623 -19.8532 -36.8294 9.61384 6.63748 25.8424 -2.58565 25.0876 5.03524 -6.13081 12.5968 8.93839 17.733 -14.2824 9.1757 11.0214 -18.5438 -17.693 31.0568 5.61206 -6.56727 17.8248 2.10993 3.82037 -9.87038 7.46977 4.90401 -24.557 21.6926 12.1671 -37.4175 15.2673 11.0646 -12.8006 0.977569 0.793108 -3.20627 17.78 -8.12743 6.40199 14.534 16.5616 -11.529 -17.0392 -15.782 0.0936303 6.05255 -6.12524 1.94311 1.20341 18.8066 -7.44401 -10.4814 16.3208 27.864 4.34364 -9.28598 8.74037 -4.48994 11.8663 45.201 -7.17613 -23.4114 4.82681 -10.8459 4.13025 30.0926 1.23997 17.5885 -5.50394 -20.0679 -6.90507 -14.6702 -2.95804 3.91664 -44.5397 -24.2876 0.128613 5.88929 -7.96319 -14.054 1.23716 -13.9225 -9.87865 4.17504 -6.20601 22.6209 -5.95983 -6.77967 9.93817 5.27761 -4.00487 2.02338 16.2144 18.334 17.3606 -0.243105 -4.78914 11.6936 11.4162 29.637 -7.86145 -0.848847 6.50312 -12.5824 -18.665 12.8631 4.64797 21.5851 -0.278757 18.9916 6.59089 28.2085 16.1821 -4.44862 -9.72888 -12.4823 -8.10756 -4.56283 -2.25489 -6.8602 -17.4173 15.6339 -14.4594 7.03275 -2.26582 -0.381242 -24.5441 15.1132 -16.285 -8.04078 -13.2216 -25.4485 -2.14381 -5.91961 -17.0371 13.7898 18.4649 12.2367 -26.269 -31.8021 -6.22986 12.6631 -0.376474 6.46974 22.8133 8.90667 7.96453 -9.33614 5.266 -5.63189 5.29407 -27.0381 3.20151 -0.990511 3.21659 6.09552 -8.21466 -18.7488 14.6982 8.46621 9.91612 -1.92823 -2.20813 -1.04074 -26.2029 -7.72296 -4.18975 10.4381 -3.54686 5.97162 22.9273 -21.0756 -9.82677 5.20743 20.2227 11.4754 6.90249 14.8221 13.1648 -8.26667 -10.4383 6.46938 1.52282 -21.817 -8.68374 4.83376 -3.26914 -9.92303 19.7663 23.0359 -8.32686 -15.942 17.0888 12.21 9.91643 -7.52935 -4.88924 -3.70489 -4.62008 4.35531 -15.6762 -33.0054 1.44004 -21.8713 3.83088 -0.069523 -5.52985 2.96486 27.2259 0.978129 24.8298 17.8416 -8.57015 5.79412 24.268 5.29326 -18.5495 7.53998 -1.20304 0.847193 -1.92651 1.77581 -38.0338 -12.8691 21.5046 -18.4482 15.6126 -16.2964 11.9455 1.68968 -18.9918 -8.46884 -33.8988 7.23991 13.4821 -14.8227 0.637469 -10.8621 29.4567 5.68266 19.5539 10.0533 2.92007 33.1069 -15.4831 -22.6031 12.3647 -4.21375 21.1277 -9.44648 -2.8785 7.26732 -7.89532 -4.72335 6.16565 3.92859 -1.56297 -1.71807 -7.65893 -11.7219 23.4483 -18.9851 -16.9673 34.9619 8.80953 -20.3696 -11.732 30.4409 -12.5054 6.1358 15.2646 15.3704 -7.33927 -12.2711 20.4014 6.64194 -4.5279 13.3334 -4.34993 12.1517 -11.1302 -17.6945 8.42128 35.2131 -1.7376 -5.65515 -22.146 39.6919 18.1622 1.57421 12.5646 -1.19189 -26.165688 21.8263 -23.2129 4.63539 2.46956 -5.89917 -7.9939 25.2836 34.3012 15.2244 -25.0202 4.7668 32.3204 4.6838 -0.769253 -13.431 5.9458 2.65683 14.9599 15.8821 -9.79614 6.22657 -11.5998 -22.4553 -30.0596 0.78194 1.62114 -17.3406 -20.0496 -16.3894 11.7407 -13.0889 -15.9467 -13.3243 -1.39115 -28.4546 26.1074 11.5799 -4.09222 8.07318 23.9531 11.7106 -5.30802 13.6208 -38.6948 6.59847 -33.6308 -29.9973 -21.4185 -4.57754 -1.87347 -30.5292 -2.35004 -11.2561 21.7766 -21.8693 9.54033 31.396 -40.9522 18.0809 2.07837 -4.42816 -3.66637 1.20597 0.453508 3.12271 27.8346 -24.3134 3.74291 21.9944 -11.8156 6.17547 10.3511 -0.0993059 1.48302 4.66708 15.3916 -17.8491 57.7818 -8.93656 -8.96762 -1.3137 1.99287 10.4116 8.73343 -8.71098 2.25513 -44.1586 16.4603 7.98675 0.725181 -3.80852 -4.18445 1.63757 -30.1992 -8.69057 -3.88391 -18.2828 -7.20328 10.0501 8.4034 -9.72295 -7.95452 15.9593 -9.61018 -12.9043 -20.5583 -18.3474 23.3519 13.0225 32.423 28.8655 9.94464 8.50313 -9.61245 9.19339 7.97528 20.2934 2.54995 24.5432 7.09752 39.3637 6.23584 -19.7618 -8.56276 12.9864 -27.3934 5.83795 -4.80983 -7.98352 -7.16575 -7.37518 8.11016 -15.6427 -0.296447 -13.207 27.974 -12.3958 21.6524 -2.67879 0.955834 -2.10736 0.257515 -2.47493 28.9682 15.9269 -13.8485 -4.68984 18.9032 15.1832 16.3728 5.09988 10.8493 23.3295 20.1688 8.46266 -15.7817 13.7973 -11.7885 -55.593 2.82357 8.57673 -5.71727 -7.59435 9.8879 -10.8355 -7.63274 21.0427 7.99616 30.7295 2.20124 9.41051 -27.0192 -5.56065 -1.75363 30.1629 0.748927 7.00876 25.1197 -8.74642 -5.96454 -9.61108 -1.56688 3.38225 -7.88459 20.6881 -9.89465 -1.89727 -21.5693 -4.74862 7.07481 3.63989 9.16562 -25.0522 -15.5216 1.3853 9.75821 6.62803 -11.749 22.0746 4.35725 -29.227 -19.8268 -13.3366 33.1996 -14.6543 -3.65032 0.89139 -19.064 2.80832 10.1253 20.5169 24.901 -4.65847 0.442402 20.2555 -5.70166 5.24466 0.63601 -4.5948 15.3492 3.52842 -11.3414 1.14872 13.3621 21.6902 27.7564 10.5531 -9.25486 7.67674 30.5648 -13.7463 -0.0449211 -4.95425 -16.3427 -7.17612 -3.61651 24.2892 -4.47176 -43.1691 4.18128 11.3794 -4.9922 5.59105 -23.9817 -3.53099 11.1114 3.58751 1.78941 5.80578 31.3446 -24.3904 -8.75556 -14.1934 1.42332 -10.4501 -10.4354 10.3539 -10.5489 -10.0941 -17.1261 20.2435 -2.48408 -5.04696 -31.3105 -8.15388 3.73736 -21.366 -11.6913 -10.0513 -14.256 34.1023 -1.87189 -18.2254 26.6004 5.96778 -9.08805 -28.7961 18.1499 -43.756 -10.0092 -13.8264 10.8157 -7.04031 9.39323 -19.7329 0.830286 -19.5361 -1.0787 25.4955 -10.0983 -17.57 3.16641 7.25327 -17.6819 -3.4633 -12.5399 8.4825 10.4987 11.8362 35.7489 -1.99604 5.95774 13.8148 -6.57155 -15.9491 0.741423 30.1416 36.1094 15.9744 26.2713 -3.90428 15.3021 21.1553 2.63845 -19.3023 -27.9356 8.08984 15.3419 -27.4934 1.57823 6.66891 6.4421 -19.8765 -6.35348 32.64 -0.816251 8.37288 16.1613 -0.741302 -10.9725 25.1717 26.4747 1.13743 0.128971 -3.90973 -0.269052 -0.738855 -11.7351 -14.3987 -20.8718 -5.79223 -36.8182 -13.9939 17.1192 -19.4477 -16.604 -20.9356 6.53694 9.45247 -7.58531 -42.7058 10.6861 -3.5703 11.4089 -4.02381 23.3391 -0.670625 -8.67709 50.8281 1.69317 11.4806 -8.5893 14.3807 13.2603 -8.97421 -2.77981 -17.9564 11.6804 13.4625 5.00985 8.84164 20.4971 22.3392 -12.4006 9.84539 37.8419 -24.827 14.6768 -18.6957 1.08097 -20.4638 2.51271 -24.554 8.39192 -15.6678 2.13746 -0.0211696 26.2642 5.25492 -17.055 17.267 5.95484 -10.5495 -9.26572 -11.7915 3.87926 -27.6504 11.1928 -0.203561 -19.0719 13.7063 5.80718 7.35539 -8.26625 11.7912 -16.7704 14.4786 10.8671 -3.18015 9.06485 1.65777 2.97097 -15.4787 9.09795 -5.42217 -28.1557 18.9319 -3.03586 -6.87545 27.446 21.3446 -8.73787 -17.9415 -6.15552 12.4755 17.0847 8.39791 7.10818 -13.2089 -6.99618 22.4617 26.1252 12.049 0.496042 -10.3697 -10.6322 26.9999 48.7875 19.7751 42.5957 -23.7042 0.145942 19.3663 -13.5205 13.5877 14.6291 -8.69332 19.1936 3.78246 -42.7759 1.40616 -27.0904 -18.473 12.4846 30.5741 -6.7399 -1.14371 7.5449 9.68834 -31.284 -0.97421 -19.38 36.1596 0.913606 29.5452 13.9131 -20.8354 -7.08146 -30.6103 25.9788 -33.4031 2.42275 -44.59 8.50765 0.673601 24.8821 -13.088 -7.43333 -2.75094 5.58611 -36.5628 -16.7446 3.8144 1.67857 -9.26494 -0.175972 -8.82547 19.1019 -4.0976 10.2033 -16.1775 -4.52212 -3.26481 6.99741 24.0034 3.94604 28.2495 -12.1087 -11.5532 8.9111 -0.604812 -18.4838 4.81704 -7.25062 10.9666 -21.964449 18.8225 4.44746 -10.3238 -20.6275 -14.9762 21.171 27.4552 8.39326 4.34286 -16.2255 -5.10513 5.4907 23.2305 -14.7356 -10.0835 12.146 11.5446 25.169 24.6017 2.09771 -19.8885 14.8703 -14.7833 15.2706 -13.0301 -11.1318 -5.55572 15.114 -6.69888 4.9758 -21.2348 6.41444 -11.9483 -31.5461 14.0606 12.5108 24.2494 -14.9045 0.385752 22.9723 11.9843 -23.7771 6.93839 10.6966 -30.8929 -13.35 -17.7969 -20.5435 -13.4051 0.560074 0.298046 12.8853 13.6053 10.3344 -1.49735 17.8825 -16.7739 -16.687 -11.036 29.4802 1.91461 -4.50434 -6.38588 -3.86968 11.6087 -0.825961 -4.75679 12.4377 -10.4607 33.5116 13.7887 10.3282 0.72952 1.0474 0.794635 39.6525 -5.82616 -0.844873 -34.9338 -6.77639 1.71642 21.4265 0.510883 1.31902 20.5972 -0.0137409 1.16002 -3.43376 6.70883 -14.2295 24.3887 -23.6745 3.52764 9.71177 -2.68203 -20.5301 -4.26855 -6.12074 -24.5962 -19.3836 10.5119 -6.43801 -5.78515 24.7988 1.5703 -8.73214 -6.6067 -4.43482 -7.20237 13.6802 -0.186218 -14.4669 24.6524 -11.4611 14.9177 -33.6424 24.207 -11.525 19.2442 -22.8433 -4.0932 -17.2377 -0.855438 -19.6374 -11.9961 4.01794 4.68209 -11.9811 -2.33754 14.8451 7.72436 23.5077 -0.21399 -8.59968 -26.7795 25.7179 16.5016 -23.0888 14.6641 12.6524 -21.6544 -15.8797 8.74642 -4.53053 -31.86 -0.325083 28.1964 3.96612 2.54921 19.4512 21.8103 -17.5107 6.31555 -4.18781 -15.3383 -8.6979 -1.7871 -16.1836 9.51079 -5.63733 -8.35376 -22.6566 2.3832 34.5725 4.97757 4.17462 11.3616 -10.577 -17.4897 9.00009 -36.4647 -19.8792 1.1829 9.37657 -0.830835 -16.881 -4.07232 17.6062 -19.9728 23.1036 -23.2575 13.5587 20.9122 10.4016 -25.5747 -0.553727 -24.6297 -10.1472 2.02172 25.506 24.6071 16.09 -7.07712 -16.3509 32.5597 6.27063 -5.29576 28.0313 36.19 -16.75 3.59496 19.5582 -12.0613 6.18274 62.6802 3.34696 -54.6118 13.5695 0.755817 2.10309 -20.9077 -24.2726 -17.0947 -29.5509 -2.39484 -0.272289 -10.268 7.18437 12.7024 -14.2716 -11.7056 -7.51732 -16.2247 -18.2168 -10.2645 19.0345 -9.56829 10.0644 16.583 -3.88276 12.2599 -6.46657 -1.2562 -6.3921 -21.1957 -3.95129 -6.80099 -37.0717 -23.2902 -3.09823 4.36451 11.9445 7.06955 2.80466 -9.84625 14.7712 -30.0573 -3.6961 -19.2788 5.55144 3.08383 17.6383 12.9042 -2.85514 -8.17597 1.02921 -2.67332 15.7733 27.1832 16.4147 -10.7714 -3.41568 -4.86935 -8.38864 23.9495 -18.8284 34.061 -18.071 -13.8896 8.02192 5.43724 12.2069 5.49791 12.8994 22.6386 -5.70746 -27.3959 30.1709 48.9853 22.9672 -27.1086 -13.9299 1.94532 1.29343 -9.28751 -21.1085 20.5549 -1.58593 -2.0622 29.1391 2.99081 -5.21959 -1.73589 -5.42008 -6.64718 -22.183 22.2061 1.27629 32.6372 21.0373 15.7841 25.5242 8.87296 13.5681 -14.1035 -2.25623 1.47826 17.1544 -8.62447 15.2989 -21.223 -18.4492 2.73158 29.2651 7.71789 -0.595613 13.5905 6.12433 -13.2267 -20.4749 14.8131 -18.5961 -14.9674 3.6253 4.30159 -5.74791 8.48262 -0.509116 3.50316 19.9434 -39.5382 5.57951 -12.4178 7.33311 7.32481 14.074 -35.6961 0.249699 14.2701 3.34776 6.58425 -2.19782 -7.61773 2.89682 -34.2668 -7.34221 -6.17005 -28.3169 -9.59746 36.2377 -11.7166 -23.0543 8.18951 25.8445 27.4952 -3.59112 -11.0409 2.74916 -6.9244 2.96415 6.83279 4.19513 6.46888 -15.2271 -0.124942 10.3504 -23.9058 9.80877 -1.53691 19.191 4.69447 7.8363 -6.65395 -23.6709 -4.14936 -1.16771 32.392 -21.2263 -5.28751 16.8431 29.0187 -2.37025 -22.1098 -5.73565 -10.6866 -3.27012 -18.4505 19.5934 20.8573 8.22004 -9.3162 35.5764 14.1911 0.0567085 -7.4163 16.8249 -19.9704 4.47054 -18.5099 11.8569 -22.886 16.3415 7.42826 -23.4209 27.782 -9.46984 -31.7634 6.20057 -7.80419 -22.8634 -0.205695 0.587664 -29.6983 -10.2997 17.3996 -25.9346 30.4295 11.3384 -6.6194 -27.3637 29.6079 -32.189 -30.1371 -0.341505 12.5667 20.552 -4.26082 -17.0564 -9.58876 -19.4079 16.8138 -15.692 22.0026 16.4755 -9.84834 24.5396 1.00449 3.05167 -22.4006 16.8347 41.6428 -17.7319 9.50621 -0.364396 -13.8768 4.85044 5.61547 -2.06551 -9.22727 -20.0608 12.1684 32.0033 -8.16864 9.67492 -21.8301 -23.4508 -4.04828 31.7025 -10.1372 -32.6554 -13.611 -1.38204 14.3707 8.24342 3.86596 -8.63735 1.54559 -0.322767 11.133 7.54441 4.99014 3.5689 -17.7839 -4.30617 5.27397 -2.30646 -8.65114 -11.5256 -13.6586 -5.53985 -5.4091 9.80902 -3.91076 -8.84963 -12.8556 0.958588 2.15809 -11.4118 1.3405 -13.4684 -8.1142 39.2399 0.32813 -26.5605 11.4674 35.7541 -29.5526 -10.2193 -6.7104 -17.0488 -42.7165 -9.3458 0.463211 2.24415 -7.58501 14.367606 -0.467242 -2.52557 -20.1561 26.9736 -21.6183 5.22604 -8.87607 11.2194 6.32507 6.54476 4.16497 -0.193236 -24.62 -14.8925 20.7241 5.0657 5.73712 6.83462 -6.4015 -11.0359 6.40577 -4.07991 24.4935 13.5016 10.0637 12.3261 7.57794 20.0296 -0.925807 -8.30897 9.73131 -3.48241 1.70868 6.68679 -7.52012 21.7446 -6.45686 6.81771 -11.3832 -12.5569 -2.94497 -22.3605 -31.4925 47.3728 2.39326 32.4431 13.0948 18.3258 -5.65466 17.3434 -17.4353 6.0824 -7.50799 0.833029 -8.25807 11.2975 21.5461 0.760882 -6.8724 -25.6789 28.878 -10.2516 28.6548 7.96069 -9.76857 -19.9561 -10.8808 -16.8151 22.6319 -1.17784 12.3086 18.7564 15.4604 26.9032 2.79306 21.8022 -7.24814 7.93158 14.4439 12.3347 25.642 -11.0239 -7.40373 16.6977 -21.9692 15.5752 6.93661 26.9442 -3.58257 8.21686 6.05243 -2.824 -19.071 -12.749 -27.3228 9.79271 -19.4666 25.258 22.6336 2.69717 -2.55239 13.825 -23.5607 20.4301 17.7193 15.7915 8.63705 -21.7569 9.00986 -46.0945 -6.23664 -3.88244 -9.44352 8.94589 -7.94098 15.7035 12.3274 30.2357 5.81915 -16.7867 22.3585 -8.34626 -12.5327 -20.7586 31.2822 -27.965 -13.7067 2.53377 -0.958224 3.03518 30.8869 -13.3264 6.79879 -2.58748 -5.74133 -15.2634 -18.99 -45.2339 -17.3455 16.8474 0.720544 -2.29091 -2.95114 19.6985 21.0171 -2.53938 -5.68193 -16.9977 23.685 1.89703 1.13273 -30.1225 14.0455 19.034 7.49432 4.1692 -1.00943 -5.06174 26.9959 -4.29163 -6.81242 15.0907 -11.2536 4.51845 28.4898 -41.8312 -11.9969 -23.047 5.51597 5.29166 8.46632 32.761 -11.5581 7.67212 -0.71188 8.09875 3.95416 11.7331 19.745 -20.5074 1.40769 16.6473 14.6185 -0.285893 -22.8393 -2.68233 -0.754656 -43.3966 14.1118 -2.20612 15.2723 -4.16108 9.40008 -15.8677 -5.91875 -5.37077 -30.6781 -8.31703 -7.08449 21.3514 24.4135 3.82489 2.68887 10.1298 -26.2742 -0.871056 6.47664 1.34154 -8.70247 -4.02698 43.7061 -24.9292 3.80212 11.5714 5.01981 -5.50677 6.38625 -15.5351 -5.15995 24.1976 -2.30128 -10.5613 -11.3813 -25.5484 1.10892 -18.1269 13.757 -1.59965 13.1046 -9.46101 5.23991 -2.79482 -28.1171 1.82897 -9.06277 6.10669 7.12907 -7.57946 -8.39546 -15.5476 -18.0209 43.3938 16.5645 -27.3641 -7.82756 10.7567 12.0757 0.988129 -0.604095 1.43883 -4.60403 15.5946 35.8077 -2.28943 -20.4735 12.0675 2.74404 -22.975 3.64202 0.235352 20.6407 2.32398 -29.7846 -5.21451 -12.8951 -0.236521 -2.17018 12.8384 8.20624 2.8801 18.6657 67.4571 -6.0752 22.2038 -12.3094 4.08851 22.8246 11.2866 -9.46801 -1.02585 -29.1255 -19.8001 31.0314 22.4476 -30.5121 -4.55677 -4.51179 -3.79009 -12.2672 -8.70333 14.6027 -12.472 -0.267464 -2.37807 4.08771 11.3703 -3.74108 -2.91013 -33.0173 -0.527067 -24.4926 8.84543 2.64974 1.36978 20.0673 13.613 -0.54842 22.3242 15.0616 -4.75106 2.13062 17.2246 -17.5012 -4.29082 -19.1401 13.4027 14.8026 -7.52757 0.995266 7.40427 14.5085 -0.601325 18.5067 4.68063 7.18839 20.0212 6.09797 1.228 -19.4764 -3.73039 -30.9846 -29.8414 20.595 -16.3524 -8.44819 10.2242 -15.6672 -26.1642 -26.7853 39.2436 -14.8135 -0.2707 -4.38844 17.5091 4.95102 11.9257 -51.0012 -19.8931 2.79885 -6.36451 1.53887 11.1728 -3.50005 -4.95517 -35.7807 -0.911101 16.812 0.105162 -19.5146 -10.3656 0.0808088 -27.2376 -10.4554 0.0472441 -3.9826 -20.3715 0.361771 7.03666 23.6558 -17.9176 5.34563 5.74182 -3.49259 18.8152 24.7194 -9.39311 11.9094 -14.1901 -5.43052 -0.786945 13.5368 12.7668 -20.3867 -7.96198 8.13526 -17.0575 -4.38948 19.1544 -14.5943 -2.53798 -19.5047 -13.1359 -29.8921 -40.9703 -2.81356 -6.71842 3.33379 -19.8788 33.0754 -4.16529 21.961 2.56276 1.2147 -20.28 -2.67372 3.5883 -1.80759 26.2892 10.0508 -8.67398 -6.31313 -1.63482 -3.93213 -13.297 -19.2896 -0.475363 -17.1561 -11.1945 -4.45259 20.2716 -19.2239 22.6766 24.371 12.19 8.78787 -15.4646 -4.44349 5.01443 -18.9072 23.4629 -15.3215 -14.3601 -15.8195 -31.5154 -12.8147 -29.9258 36.9502 -5.86151 -20.223 -14.675 -8.94089 27.4345 1.46818 6.21418 -35.5525 27.2818 -18.6797 32.1572 11.058 3.3441 -30.1066 -9.15868 -4.27014 -56.6674 -12.6495 9.88376 -10.7049 -26.2635 -12.724 -38.6085 0.85641 10.9868 -2.83187 22.4786 24.2467 14.0669 -31.3739 -7.29203 -4.31728 -0.448871 4.2151 -28.5076 17.6134 -17.9054 4.03051 -29.5923 3.73094 9.33769 4.93844 -18.5461 4.20557 30.2693 -4.47902 -21.7396 -19.9332 0.0208084 -36.3207 3.22103 -0.186342 -21.9054 29.9609 7.56467 -18.8256 -6.96884 -38.4638 -26.6307 -0.916411 12.514 11.9051 -1.484 46.83 5.91166 -4.7532 -16.4326 31.3911 8.425331 -5.51153 27.5971 19.9733 -9.29581 26.0564 -6.05517 -23.2844 -13.7099 12.2939 4.93094 -25.4047 -9.67669 4.59939 18.4745 31.5236 2.07225 -5.77465 3.67692 13.6041 -9.06867 3.77569 6.33992 -1.37535 0.0370503 18.3897 31.3978 2.69288 -15.696 -12.3867 7.31895 -2.92716 -6.08654 -23.0369 -8.57765 8.22761 -13.7793 -33.8378 -0.849877 -45.9808 -4.87894 -26.9205 6.24696 -14.8795 -23.1705 -3.64773 18.9167 0.598583 29.1293 -0.311277 4.88302 4.69728 -10.9765 12.8746 -17.5891 -4.20099 -10.1501 -25.5562 2.24897 28.5789 10.8177 15.0618 27.5204 10.3409 -24.0061 -5.42926 22.5419 -1.44969 -0.27729 9.75371 11.5937 16.5479 -2.53156 -46.2544 28.611 -1.55509 -20.8784 -25.8218 -27.1804 -7.77482 -28.2747 22.9704 23.3269 -5.98834 -11.3561 -7.17148 1.60687 -23.465 8.16175 -10.5614 -27.0289 36.793 12.5367 -17.6714 -0.0537737 -6.13009 4.47408 -4.57027 6.5995 -16.0064 -19.9539 8.31886 0.798365 -16.2744 17.0479 -14.8401 -36.5847 -19.627 15.7887 -19.6759 -8.53853 0.580639 29.3259 -6.31671 4.15802 -11.8999 8.12811 12.6298 10.9521 3.76537 0.18365 7.74023 10.4625 0.636678 -16.4547 35.1624 -10.6288 -28.6564 30.3085 -17.3469 22.2429 -19.3842 45.0254 -7.64758 -18.7116 -30.0131 0.566917 7.19126 -4.93558 -2.28938 0.413528 -29.9739 -22.8873 -15.1563 -3.61382 20.4471 13.5268 22.5188 -27.19 -9.73222 -25.5333 21.4174 12.1284 -19.2857 6.62081 -3.58129 -1.06735 -11.7031 -0.433 -6.5577 19.4614 8.36184 33.1227 -2.53054 17.4973 21.3454 2.58705 -23.2395 -12.2626 24.7034 -19.0441 -13.7357 5.58507 -4.46937 9.04667 -14.804 -17.6305 -13.1207 4.57741 -10.1807 19.0295 6.73702 -2.81972 18.4197 -16.7972 42.7319 4.34383 -12.5574 0.78365 5.48125 -12.6933 15.8439 16.8923 13.6719 -0.115791 -25.3926 29.2972 -34.2118 13.2179 6.47694 -14.7286 3.56414 -0.513438 -15.1652 16.8876 6.0813 -18.4628 4.81411 3.7387 5.5966 -4.53707 -16.4391 18.12 -9.97059 -0.889488 -1.29508 19.6229 11.1539 -20.471 20.0128 10.1849 3.45444 -9.63373 21.2261 -23.4391 18.6994 -3.82159 13.0893 19.2623 3.17851 4.70455 20.5632 -3.12111 -11.36 8.05475 -12.7706 30.9066 25.9154 -36.142 7.88073 7.95356 -17.7858 -38.6711 -3.70592 -23.5838 -26.862 -6.71761 5.20024 14.5974 -33.6491 9.08005 -24.5683 -6.78181 17.9603 -22.4833 29.2733 13.4347 22.5629 -13.346 -31.0357 -20.7742 -23.9975 -6.43178 23.4506 -16.7299 41.8039 -36.9417 -17.748 -10.7724 -13.724 16.2829 -0.424697 -8.52741 -0.647357 -37.6748 -6.42525 -18.7404 10.0536 15.7216 1.83691 2.33466 -6.30775 22.8893 -9.99231 18.9762 35.7403 -17.467 -11.3425 -0.533331 -2.62166 0.959193 -18.709 -9.97302 -14.2436 -0.665052 28.5689 4.15894 11.9138 1.8993 17.7087 2.44063 -2.59114 2.08349 -19.9261 13.7594 0.625993 15.6011 11.9614 10.9805 5.76788 7.44884 1.54302 16.0508 -28.4584 -6.14197 11.0453 13.5385 -13.4652 0.18757 29.0676 7.6228 -9.73491 23.7419 0.123111 -2.49898 4.92961 -43.4724 0.34742 -27.749 20.8437 -7.02926 -15.5992 10.1263 -7.44579 9.53509 10.5632 17.2736 6.65498 11.3031 15.0036 -9.08506 4.27399 -21.5129 -1.7484 -18.0488 -0.730855 -0.11622 -25.1552 3.99438 -10.9095 0.2555 -4.82295 -20.1383 -0.660786 -1.35166 -11.487 -11.5166 9.01682 8.67176 -9.78558 -10.7352 -18.5427 -30.3236 6.13661 -17.1265 -6.04669 -8.08893 9.21554 -20.5237 -14.9487 10.5792 -6.74398 -26.5986 -29.4375 1.86223 -1.11235 17.2514 3.23874 27.8681 -19.2846 24.4309 1.14479 9.50697 6.66909 15.1451 -4.2848 2.33192 14.5202 -15.1909 -21.492 -17.7157 22.6038 1.90449 31.627 -1.58855 23.7186 6.26826 4.84945 9.48323 -0.784145 -5.16978 -9.56109 -10.4211 -19.7235 1.77709 -19.3716 3.59764 -18.6164 -3.84173 4.82235 -22.296 14.9617 -6.06994 -36.5591 -10.2822 -9.7793 -2.56545 -14.4841 26.4372 13.1949 19.3165 -11.104 34.8964 38.9417 -16.117 -5.78557 -11.4261 8.95125 -31.1052 -10.5146 -34.4746 -13.2607 18.7946 -3.56938 -28.5499 -5.38006 -5.62591 19.4648 -19.286 -7.33006 -12.1145 6.38001 8.29377 22.8842 -7.4185 -10.275 -2.34071 -10.4875 9.68798 -0.145941 7.61234 -19.4076 17.8377 2.67477 -8.97409 23.658 17.9141 -42.9136 -17.4345 8.64235 -13.6586 -6.8981 8.3133 -5.02914 17.8303 1.64464 -19.6569 39.8403 -3.46947 25.0593 23.2389 18.6748 32.6458 3.28593 29.5354 -39.2103 19.4697 -3.26353 -0.890538 9.22612 -12.1289 8.84805 -26.4932 5.77081 25.2138 11.3343 6.1994 18.1838 -16.297 -2.88455 -28.2183 -15.4095 -12.8086 -28.0593 7.11716 12.0863 -0.602129 11.6981 5.40452 -7.51152 -19.419 -3.59392 -17.8078 28.3286 -10.355 -4.09632 7.343265 -16.014 -5.32084 32.2163 -11.1623 -12.9617 26.9415 13.6162 2.77115 -27.2205 -6.72567 -2.6324 -13.0629 -29.0545 13.9668 10.1658 -15.3777 3.60888 -38.9675 7.2476 -21.7868 3.26505 -24.0396 -42.793 -7.21634 38.1246 -8.13568 3.4984 -8.40326 -2.44057 9.09945 13.6012 -3.4359 16.7758 19.2988 -21.0933 2.62032 3.63031 -11.1394 0.273441 1.05166 0.678246 -9.13914 -11.7331 32.7676 -2.62185 -3.58751 3.1022 8.48476 9.49401 10.4527 21.2606 14.8738 22.6896 -1.02273 -2.20722 3.62736 -4.70188 -11.287 15.3284 -9.51908 5.29942 30.2167 -7.25431 5.14976 -1.5393 11.4129 -23.4484 23.2281 10.6819 -23.4121 29.9394 -33.0033 11.52 29.8078 -3.47594 6.21009 17.9088 -8.24848 13.7966 17.7689 3.05598 37.0327 -0.77804 3.37017 11.5373 2.91006 14.0683 18.0873 -46.4343 10.4666 -14.1142 18.8645 3.47654 -4.7947 6.70407 19.9807 -6.65029 20.1062 3.89393 30.435 16.8709 -3.91015 10.7287 -7.74322 26.3593 2.94718 -12.3687 -17.2112 15.9661 9.69665 51.1135 9.8697 -7.90425 13.3625 29.3782 -13.0198 -30.0123 -4.78103 11.6516 9.30778 7.48772 -0.543476 20.1663 -28.2307 -22.9797 17.2824 25.8452 -46.0465 -5.25591 -0.53347 -7.32712 13.0139 -4.12024 -5.67815 -14.2398 -30.5241 7.24888 -15.8786 -3.91803 -24.9725 -12.0196 -9.04312 -13.0829 -6.80868 -12.5775 7.02482 6.96702 -4.02704 -24.7767 -3.63512 -6.83939 21.4411 -21.389 -0.979337 -5.84136 5.22325 -18.1376 8.65469 25.5346 -9.02853 30.9519 6.57869 -0.368302 14.7402 -11.6148 -4.75327 -12.8487 -7.69177 -10.7568 28.1648 -2.63259 2.45106 -40.6191 7.24418 -25.9202 17.1289 8.8381 -15.3914 -25.7694 -2.37464 -16.5786 5.80907 -11.7866 -24.3697 31.4959 -4.50351 2.85995 28.2475 22.9314 2.5345 6.13806 15.9276 -28.7267 -22.47 32.5145 2.38508 6.07068 13.826 -21.9831 -2.60194 22.4033 -11.0935 9.97848 3.58012 6.60061 11.2703 0.467599 0.0787504 -18.8554 3.69928 -3.58325 18.2102 15.7632 4.01301 -4.57681 -25.9683 -0.307689 6.21955 -1.7437 8.8633 48.1586 17.1338 31.0248 -11.2769 -3.98126 -0.594318 -3.93939 11.7252 11.6125 10.0189 2.4781 -17.6052 -14.2246 21.1919 5.40983 -24.0604 -34.9372 -7.25639 20.9474 23.4442 -17.848 12.8822 31.763 16.9983 10.4255 -21.5649 -9.58733 -4.21197 -2.24415 -34.4761 -2.65689 40.0984 10.4677 -32.3412 24.5618 10.2555 -15.5112 10.2921 -9.98547 -12.4698 2.69204 6.78781 -4.35091 -6.05237 -0.580585 -3.14829 -31.8503 -15.9462 11.2042 -13.624 -34.6174 -24.383 -7.33867 5.74108 25.5098 -11.7364 2.59108 1.54088 -8.20337 -8.95151 -50.7567 -9.25332 16.1131 -8.02931 33.7961 -25.674 18.1165 -5.57617 0.99008 -10.7256 -6.88271 -6.42273 -2.01111 2.0935 3.64745 11.7046 6.3907 -33.2788 -42.3041 13.4448 -21.5515 -10.1201 6.64718 0.00390948 22.4802 -7.13401 5.90332 -28.7181 -17.5624 16.7869 -20.8112 4.96347 6.71035 4.22425 7.55692 11.5108 -12.9337 6.3451 16.0556 6.12696 12.8268 -23.5641 -10.887 10.6382 45.1835 -15.1041 -2.40852 -25.6878 -13.26 12.6407 -29.4645 22.6385 -26.7692 -6.03394 -7.39738 -1.0029 -7.58983 -12.159 10.184 2.32747 -14.8527 -3.36339 1.21335 -4.32105 5.70837 5.29228 -24.334 4.73659 16.216 21.9264 9.74486 3.26102 8.30232 26.8697 -25.26 12.4829 26.9523 7.15776 -4.40174 -0.5765 -16.4761 29.4427 14.1661 23.154 -33.0233 -23.6574 -3.88006 -4.0021 -19.7431 -0.749107 0.59389 -11.3317 -9.10318 6.55019 3.48229 -45.6561 6.79348 -1.71355 41.4385 -31.3277 18.1686 0.278334 -12.4462 -23.2734 8.72164 -15.3454 -22.2578 23.8915 -17.0238 -4.1618 -17.2181 1.68292 14.801 -37.0388 9.07419 -8.48298 -21.8808 23.7248 -2.93533 -6.59608 -7.17277 30.6848 0.37556 -5.41527 22.8688 -9.01217 -3.38652 -24.8911 5.52091 -9.45799 -3.14328 27.3448 -1.14566 -2.38582 20.8506 -15.5791 -21.6099 -21.1202 -19.1351 -11.3682 9.93881 -27.1005 -0.734699 34.7405 -0.381607 6.03851 22.7555 11.2519 -21.9163 -12.1801 -17.6981 -17.3867 -4.07855 -3.27628 27.7717 19.3468 -20.7606 -14.5882 4.22535 11.1219 -3.55724 2.39687 36.9226 -10.2274 25.2066 -12.8528 19.9999 -4.75394 -1.38591 -0.367637 -22.1548 -14.5194 -28.4869 -4.69753 -15.8396 27.2436 -13.9655 -5.49572 3.70043 -1.1188 7.3034 -0.65981 11.7037 -11.9756 8.35046 -23.0423 8.02423 -8.77438 -2.80856 6.28314 16.9348 8.52894 -12.8819 9.1853 19.6215 25.9842 41.1522 -16.9161 -1.63243 -12.9038 3.69646 -32.0059 13.4292 -15.7907 -1.61303 15.0076 29.5892 -25.16 -18.8945 -8.80075 -10.5988 -0.0728166 3.20714 -2.00201 4.13178 -18.9624 1.91246 -10.0286 -18.626 1.49876 -15.0973 -0.938643 -7.64244 -7.51987 -15.9024 -5.536831 5.94849 0.998512 -20.3802 10.6392 20.325 -19.1322 14.9418 -13.9434 -12.6436 7.59301 -1.7672 14.9745 2.66311 16.1833 -29.1175 5.9546 -11.6484 28.9183 -31.7769 46.5028 -6.54244 -15.9531 -2.58376 3.35198 37.0658 -11.5634 17.5541 10.2086 9.1135 -36.8781 0.939489 5.90643 -50.1075 -1.16025 2.54182 -9.97987 -40.766 24.467 0.654379 4.90134 -5.62865 15.4055 9.73487 9.16629 -24.4973 4.91562 18.4274 23.6107 -1.95691 9.36857 -12.2157 -7.43704 6.54707 -5.54387 -19.3359 7.68292 1.33891 17.3156 -2.6758 -14.8138 -9.18192 -8.39387 20.1968 -6.48757 4.45344 24.5356 20.8484 30.4411 -0.531508 -11.2143 26.1406 -5.38541 -23.7849 4.41835 8.569 24.5438 7.22691 -16.3137 -14.2148 6.00049 6.96841 27.8118 0.31648 10.8943 -6.73397 12.6615 4.46376 12.5512 1.43761 -13.5947 -0.605486 -15.5482 14.0884 12.0812 -14.5785 -18.6032 21.6172 -21.8957 8.46467 2.10956 -11.6095 15.7255 1.70397 0.283152 19.6313 0.403949 9.41747 13.0665 -0.0517487 4.1482 0.0175786 -10.039 -5.38328 -12.2365 -6.74862 -14.7947 2.48415 -21.9414 -29.3842 18.5452 -26.3983 22.9828 13.943 -12.5291 14.5423 -14.3089 3.1719 -0.104747 -15.6247 0.57247 0.325701 -19.7605 4.37086 6.18329 50.6498 -12.004 -5.64287 10.1399 39.9621 9.69555 -7.21146 -9.05375 -22.8252 9.32993 -4.51607 3.75164 3.01919 14.2074 -5.9348 -4.94948 3.9309 15.2459 5.07828 1.31882 4.14978 -27.2992 -1.20451 2.58798 -12.9974 14.3421 -11.2767 15.9629 4.35682 7.04087 -5.22745 28.0582 -28.7205 -3.16563 -24.8604 41.3966 -27.1237 16.3933 7.86145 -2.27065 10.3153 -11.06 -6.9393 7.29831 3.04764 -2.38918 -13.1206 7.03384 6.20723 -2.75729 12.1051 0.688254 16.1955 -10.3945 -13.5319 -4.08063 23.4674 -24.9272 -18.3485 -12.7041 5.49101 -10.2759 3.96613 8.24797 12.9038 -17.1143 -8.27864 16.9475 15.8467 -9.88117 14.2867 1.147 29.4931 -1.3712 21.8397 0.927215 17.7695 -25.8749 -31.2075 -1.5946 0.252753 -15.8802 39.9265 13.3638 -26.7442 -5.35563 2.17475 15.8346 -5.88134 -10.573 -4.84691 12.6003 1.65654 22.502 29.3174 -35.3505 -14.1779 -8.76278 0.840787 40.5678 -24.4544 -13.1653 18.18 -19.1548 -32.2406 17.233 -4.68832 18.1621 32.6115 11.4674 24.6744 20.5653 -0.129082 -3.53319 -9.21941 6.62013 -12.4834 17.2784 21.5351 -2.51894 9.51555 -0.260933 14.2214 28.8959 -6.21772 -9.4184 -2.8069 -3.83336 7.34258 1.9737 6.2425 -6.97215 -8.34034 15.5018 2.65841 1.47563 21.1744 -3.41386 -2.0293 -8.4759 -9.99501 12.3429 4.38832 -14.0884 -12.1317 11.8646 11.914 24.7311 28.1551 17.968 -2.83796 29.0072 17.2103 15.3446 10.8456 -5.79326 -20.2006 12.1779 0.960472 -13.3064 23.7686 -17.8192 8.6686 6.10498 -19.134 4.08014 11.8398 -3.31701 -7.21355 5.5261 -10.6921 30.5406 5.37784 -31.5397 -11.1984 11.8421 -9.95166 -35.0983 -52.4329 0.967077 3.34868 12.1734 14.6768 3.56017 27.7567 28.5796 16.0172 -20.4426 -31.3627 2.50031 10.9893 17.13 28.4041 -10.0556 21.8616 18.5698 -19.1569 3.53002 -37.1595 21.121 4.65523 9.88834 -42.1859 -24.2695 5.16362 -9.46201 11.7843 -1.24296 -26.7855 7.16641 -3.0156 -0.395768 0.278749 2.35877 -5.30503 9.2917 -11.2909 16.7786 29.7331 -9.03108 2.22669 -22.2416 -3.35814 -6.6282 7.55406 -23.6475 26.5629 -5.80284 -3.72827 9.81402 -16.221 4.43269 -38.1671 10.5092 -7.01456 14.6202 -11.2127 24.2829 -5.79685 2.05475 -6.82492 -2.76119 20.4061 17.9149 13.1252 1.98273 -5.16611 1.34569 -9.37395 10.2803 -5.01737 -4.53212 -2.50643 -12.8352 10.2926 20.3218 -19.4761 -16.5107 10.5144 27.7597 6.83206 -2.10792 21.7739 7.27029 -33.6239 -14.7763 -10.6886 19.7339 2.68234 -1.59569 -2.07715 0.130682 14.7327 12.7101 -20.9281 12.1726 -4.93179 -14.4951 -12.2903 11.8757 -16.9407 2.41634 -2.2436 9.07584 -25.6294 -15.0692 -10.6991 -16.1258 -26.3818 -3.56005 0.458385 -2.96914 -18.7991 -2.27455 -11.0623 -2.72195 -12.6619 4.87075 16.2852 -1.40862 -5.72558 -7.38499 -26.1879 4.38582 5.69053 -19.8386 3.2307 -14.3496 -15.7153 12.3906 18.9429 2.02777 -9.43669 35.5296 -22.9505 18.8163 -4.21167 12.2673 -21.962 -17.0691 -7.85901 7.29386 -15.863 22.7853 25.0628 -7.72515 4.39265 7.10812 -11.2266 -8.71883 -21.6046 23.7207 -0.00396844 17.6282 -14.2604 -24.7827 6.85489 27.1865 4.11731 -5.3765 5.96032 -0.904195 11.1471 3.94916 -1.30595 24.9489 2.8533 16.7136 11.6745 -8.61762 -16.1294 -40.6107 20.398 31.1319 2.29511 26.7962 -10.9068 -2.49776 -35.7501 10.41 5.73864 37.2933 7.13975 -13.3582 -14.7218 13.1513 -13.43 -21.9738 4.03004 18.3631 -0.0211096 -6.736572 -25.7335 21.0848 -28.0613 -29.2117 2.0061 -4.98721 -11.8395 -30.2125 -35.0427 1.49004 -36.8344 26.148 13.6935 -7.95619 30.6722 -24.1667 0.974089 -7.63274 31.6351 7.82629 -7.71527 10.7451 -22.9932 43.8792 -11.4518 13.8956 14.1731 -24.7917 -35.9806 -24.7207 28.0567 5.14499 24.3907 -21.1847 -0.0599367 2.69794 -11.9469 -12.9416 -21.0386 -13.9326 -6.42983 -25.2002 29.292 21.1033 4.33051 -4.88736 -21.993 -4.32441 11.3856 -23.1686 -21.3443 -12.9891 9.47185 -3.53142 -40.5108 -33.0447 -24.765 -18.4267 5.41319 -17.8376 4.63169 -3.47594 -11.4103 14.2418 -13.4923 11.753 -9.23566 -7.17929 -14.6093 -22.579 -1.7501 -7.42625 -3.55766 14.5254 6.61482 -20.8452 15.6174 26.4293 0.0503599 5.09464 -13.9972 -0.143558 6.43696 20.613 -4.65145 -13.6962 -4.91702 -17.6041 15.7726 0.896573 0.157422 15.2872 22.6676 -8.31921 8.8251 -8.07697 5.80023 6.35426 -10.9702 -0.691304 17.573 41.4388 12.0175 -12.6704 -4.50063 18.8735 -33.5005 -5.79668 -0.145932 35.074 -2.46242 5.86096 27.5123 13.4019 -10.908 0.27546 24.9755 -0.915556 23.2746 -10.2777 15.5858 3.57361 -10.7228 -12.0186 -2.0664 35.3371 53.003 -16.5329 -17.5553 -11.9171 -5.64611 -2.69112 15.155 -8.55861 29.2569 -22.641 9.67516 11.0571 -28.6818 13.1453 -5.65093 35.1358 0.213085 -17.2502 -0.410776 -33.5732 -4.26166 -3.34972 -29.6007 -7.35417 12.5584 15.4609 -24.8951 38.3189 2.63674 8.64449 3.2338 1.07626 6.36056 -0.852631 -2.37794 23.3996 7.35296 36.9721 -12.3088 14.7711 11.9591 4.68678 -31.1029 -4.71377 16.4344 -0.123174 -8.5945 25.6998 20.8203 -2.46284 -11.0863 -13.1018 16.4958 15.3858 -21.3167 -2.17419 -19.5743 23.1325 31.7635 16.8374 -6.89761 24.6739 -21.6278 -20.515 -0.850623 6.23493 5.51408 -4.23683 7.64617 9.44249 -16.265 25.7606 -4.88406 26.3331 4.09681 -7.22691 12.2163 -30.6994 12.3295 -5.14866 -6.90139 32.9948 11.1677 -24.2296 -5.52293 -24.8705 1.87969 2.4593 -0.627878 -16.7422 -2.01318 19.8443 6.54152 20.4659 4.15606 28.152 8.60495 3.00394 3.29953 -6.36391 -16.1531 -19.1287 -27.1569 -4.2549 -21.2775 -5.67803 -12.7968 19.7298 2.03077 1.31255 17.424 3.67712 5.79131 -9.10679 9.02658 -20.9909 5.80293 5.53105 17.0414 21.3832 10.8869 -32.6342 3.20591 -8.95029 19.8237 -8.57863 -5.61241 -16.34 -1.03043 26.7285 13.1556 -7.52043 5.57664 -21.5927 35.5722 9.06455 49.7708 1.67901 -14.8556 -0.636437 -13.7539 8.8116 17.9935 28.2661 -7.35868 8.01038 -23.8256 15.5737 -40.4123 31.2387 -17.7783 34.431 35.4635 5.97998 45.8537 21.167 4.81321 -12.062 3.87299 13.5973 3.49094 -6.32033 6.26412 10.7547 21.4506 10.1971 -2.52852 -18.9494 -11.7523 -11.5736 -18.1489 17.8899 -25.7729 -24.3044 -3.65691 -2.30171 16.3916 24.1179 3.29033 23.424 19.9533 -18.1035 -47.5214 -7.56078 0.591208 16.6189 27.3556 7.9021 4.38026 -12.5832 4.41438 -13.4515 -15.5948 11.1353 -1.1945 31.9224 13.0845 27.3911 -20.902 -11.9583 -24.8497 -26.4128 -13.745 -37.4871 22.3458 22.866 7.77869 2.06342 -1.21849 9.98792 8.05133 1.5208 10.0133 16.1632 -28.1348 25.2469 0.766738 19.8086 -31.8589 3.97015 24.3889 20.2528 -1.18107 8.09833 24.9582 -10.636 -2.04212 4.44133 -0.902485 -49.865 -9.9925 33.3746 22.471 -10.8128 -7.7163 -12.548 31.9644 16.2187 14.6042 -23.5547 -9.44432 7.39505 -14.861 -14.1723 25.8847 -12.3244 -20.5624 -16.3148 -16.5212 27.0726 25.6439 -20.9205 19.7079 15.8444 -7.10989 -29.1649 -10.612 -20.3569 -42.1007 9.77544 1.10612 -0.418408 12.7566 -6.61746 25.1982 12.2463 -5.13278 -8.08815 57.452 -9.35069 -7.87604 26.9339 3.45666 7.11295 -11.7665 41.3055 4.68471 -18.9104 27.2509 -18.4044 -2.77866 -1.06595 22.2918 -0.0571254 -3.7948 -11.4089 -12.5664 -39.6566 -9.05698 4.24335 -10.1855 -45.6191 3.72802 -8.12415 10.8956 31.4014 11.3282 -1.20896 -4.06481 22.1075 -7.82757 32.0635 12.6431 -5.39085 2.22358 -3.08555 -33.9889 -20.0905 -5.46799 4.05139 -3.64525 -0.191041 -16.5146 -3.08377 9.51337 -7.72851 -9.25456 -10.108 8.25484 1.21049 3.86053 -27.5612 -30.1211 23.7275 0.579364 4.16694 2.98099 -16.2316 15.8519 -10.1569 -3.58232 31.2474 28.5005 -24.6482 5.4655 1.56273 8.60232 -46.4279 -25.844 2.60823 0.542822 -4.7924 0.810026 -11.8351 -11.2351 -22.4568 -20.2636 32.7751 7.1995 6.14575 -11.8437 -24.9794 17.3846 12.5063 7.27392 12.2681 12.2793 6.60372 6.56723 -28.1803 -11.2411 11.4262 -23.7579 -2.45924 -8.20399 -51.5824 24.8972 12.8778 -0.668111 -29.1376 -18.6531 -2.64231 -9.16508 30.2122 -8.33248 -12.5027 6.55141 -7.66161 12.3973 -15.652933 -41.5698 4.74964 12.9442 -11.6393 -2.24494 7.71421 22.1803 -0.53438 0.442454 -3.66716 12.211 11.8933 15.0462 -21.437 16.3435 2.20222 2.43214 -5.84033 14.2428 -5.3613 -11.8439 -36.4436 23.2631 5.12082 20.5257 -8.29364 10.9834 11.6422 5.3353 -10.1752 3.91881 -41.8507 22.3098 8.10339 23.4223 4.81632 14.2184 4.33699 11.775 19.7835 -4.31122 9.50561 5.46477 -6.67965 30.702 23.2808 -21.3551 -6.55917 7.77001 -15.5261 7.80473 -38.0662 -0.184214 -2.57069 16.5829 -16.1451 -10.2692 33.3448 -16.1884 7.4365 18.6114 7.52715 -0.266308 9.4453 -8.29987 -10.3972 15.3963 -23.0267 -16.989 5.65032 -11.7616 -19.3213 -4.36616 5.26884 2.88143 -7.55962 16.7199 2.59823 2.08177 2.46877 44.1825 22.2598 28.8911 38.8511 22.0567 -18.7473 -15.0155 -5.47251 15.569 -14.2298 22.2092 44.7176 22.8693 -0.0344256 0.272712 -22.2432 -9.52754 -4.35005 27.6697 6.41869 -8.61592 17.9274 -9.24905 -1.38401 -21.1058 -20.2281 -1.9804 6.58761 -18.9105 20.5408 20.5812 -0.504593 -14.9696 9.4155 -8.1972 6.4712 11.6189 -1.20042 -8.84731 31.0962 -9.8429 4.6363 -6.77254 -1.68426 39.6038 16.6677 -37.0375 -7.1989 -2.50704 -22.361 -3.95294 3.73651 -6.42995 24.4401 -0.506728 -28.946 9.08817 -9.83892 -44.5688 10.0986 22.8091 6.13098 1.07194 17.7342 -17.3131 -15.1603 -4.15283 28.8847 -23.7592 24.8455 6.76406 0.521387 18.6115 0.58754 28.9246 20.0727 17.3046 0.152894 2.23871 -2.71365 24.629 13.9732 -10.6656 10.5154 -7.18272 -24.5392 -8.35775 6.45558 -23.1681 -15.4125 16.6758 8.3086 1.8656 43.3947 -10.5149 13.3918 2.51753 -1.56798 -6.67158 -28.827 -1.32932 7.16336 -5.50108 24.7645 5.04947 -16.7248 0.350306 12.8211 19.4653 11.9484 -16.4773 -7.07937 14.7464 -1.95263 1.33555 -2.6617 21.3665 14.2669 21.3825 18.2804 -8.25568 -5.80157 12.3011 43.5568 -22.7464 -12.6499 8.75008 -12.3185 30.8894 -8.91123 11.5525 -2.57423 -13.3532 30.5255 22.0358 -25.217 12.59 23.3467 7.5642 -1.60076 -27.4229 2.57417 1.24998 4.41974 21.7128 18.261 -15.1439 -4.20692 -25.5451 45.1296 -18.113 -25.0125 6.44264 -12.857 21.8662 7.17332 8.96432 2.02685 6.79606 20.817 11.1678 -15.2914 -25.1806 14.7293 22.9152 28.7055 14.0557 32.5449 9.34805 28.4517 -12.3826 -46.3603 16.1336 -10.4434 6.84835 -0.507639 40.3958 -21.9878 1.69964 22.4643 6.3343 -4.68088 -12.6589 -1.95868 -17.4609 10.5684 -22.0772 -0.5007 25.9905 18.447 -1.44633 -7.99439 9.72116 44.1922 0.439158 -28.8342 -14.7869 -11.5235 22.2376 41.0067 -19.5586 1.23343 -11.4312 10.3839 8.62624 -20.5833 -29.2542 14.8514 14.661 -0.298352 20.6724 4.93948 -5.76085 -4.88491 -7.07828 -32.0995 2.65945 12.6237 18.0298 7.86852 44.3248 -9.37004 -30.0492 17.4589 -4.08191 9.43602 12.7155 41.8264 8.28577 19.6135 19.2615 -39.8726 25.9893 17.3473 31.4713 -2.53829 -4.45228 5.68133 18.3771 6.20234 -4.62202 2.72426 23.5767 -18.1981 0.414628 -12.2127 30.8104 -11.9729 4.41363 2.45663 -9.26147 2.61525 -15.0454 -6.39772 -0.0795273 -9.61291 -19.8784 -36.6635 -9.05032 4.78957 -0.125181 6.88846 14.8075 0.875635 -4.89499 21.4388 6.37491 -37.2882 1.38889 -7.13046 14.167 28.2602 36.415 -30.5209 -2.78152 10.643 10.1031 -26.3909 14.1834 14.8811 8.42286 -1.7838 15.605 15.0794 27.8802 1.38817 32.3903 3.00411 -0.295904 -18.203 -4.54934 -8.85244 8.72219 12.0776 -0.446289 -0.797457 17.9104 -12.8465 -9.65911 2.97323 -6.35695 6.50819 15.5477 6.73744 -13.3659 -12.6316 19.4034 -21.9595 -32.4546 5.8566 15.2227 -8.07557 14.3018 -14.95 9.18333 3.59308 -5.9129 -4.99006 10.2885 40.519 25.0306 21.7139 29.5216 2.98586 -15.4306 25.9511 -20.8189 -7.92493 35.5191 -0.855386 9.42138 -9.92431 -3.1973 3.11966 -25.0537 12.3434 -16.0929 -27.2137 -9.06742 -10.4124 -16.0167 -3.20067 -20.8915 17.6193 -5.33311 33.1104 13.0291 -2.50539 -16.4295 -35.51 5.54644 3.14145 17.4693 10.9849 1.46342 -18.6124 4.16059 16.2831 -39.6315 13.4553 -1.95221 13.0582 40.6701 -21.1408 -9.63945 -5.77502 13.7961 -1.21506 -2.90067 -4.86514 19.6165 -12.1325 -2.33729 1.71349 0.020327 -14.5783 -6.86013 -6.4596 -4.30506 -32.8828 13.3235 12.8561 -14.9068 -7.91662 -8.6174 -13.4927 -11.4145 -15.5587 13.2368 -4.15326 20.8002 0.299142 -11.3838 -16.4568 10.1432 1.15898 -9.1942 8.35115 10.5251 8.7801 -11.9201 16.8097 -19.7448 2.46724 -2.17895 -13.1286 5.1359 -22.203 0.334789 -3.50926 -1.26218 -46.198 13.337 10.1254 12.861 29.5582 4.1432 4.18219 3.1934 11.2327 -3.4597 -17.5836 17.1494 -5.42826 -4.65884 6.297270 -3.10636 5.81065 -4.36659 -20.9804 0.561719 28.037 -2.28675 7.20889 16.656 -2.03083 8.704 -2.45302 8.63913 16.2067 -18.1323 3.11215 12.7121 1.88225 16.6023 5.32494 3.77544 12.7729 26.1178 6.90732 10.5872 -6.15546 -20.1877 6.76632 11.0981 7.23142 -12.6616 15.8208 -7.02189 -29.3504 -10.666 0.756309 -5.66352 19.2642 13.8679 8.733 -16.3797 -24.0382 -8.44728 -27.9857 13.7045 27.1085 28.3605 -4.45125 -20.8304 0.691307 -22.8884 -3.52311 29.7693 -8.06006 30.6704 -9.42179 13.0756 -6.6343 31.7972 20.6693 1.32688 12.2411 18.7286 7.90966 21.4513 -3.48624 -4.59724 19.082 -12.7197 -27.8265 -8.58907 -5.22105 14.9562 21.0345 -31.3922 11.5458 4.51527 7.966 13.4247 20.9524 10.6698 18.5683 -14.1409 -27.3949 -14.2299 -19.7293 8.1701 -13.9024 23.961 5.88227 -21.7647 18.8964 7.51359 -17.4412 20.6229 23.1635 -23.6349 -30.7634 24.3274 -11.4802 15.8236 -28.5232 -19.7913 9.74594 25.4684 -5.234 3.11472 18.4142 2.25086 9.23686 -10.3207 13.4694 26.7648 6.84738 -31.1656 -2.2655 15.7093 -16.024 -14.0176 11.3623 5.54778 2.4789 -18.1311 -30.7755 6.34082 18.1496 -8.85659 -4.76973 18.7788 17.6572 -26.3978 -9.40592 1.39207 20.8888 9.13016 -22.9696 18.9586 -6.25171 37.3132 21.8949 -10.9116 -9.6151 -23.2566 -11.7509 10.0078 21.8656 9.03348 -3.11331 2.51595 -1.73192 -7.52099 -6.73024 -26.8597 -2.75863 4.44147 -23.5755 -0.514547 13.9722 19.4054 0.759903 16.7432 -12.3934 17.7214 -16.1707 -3.58263 21.1135 -3.95855 9.03603 -3.76739 7.56481 -11.5571 -1.74138 -7.78875 -10.1287 -2.76705 -6.56056 -30.0444 -23.0421 12.4457 28.0863 -13.8807 -20.6455 25.0239 -0.279913 -10.9521 7.25699 18.6948 2.27327 3.62865 19.9873 13.5264 17.4002 -10.6883 -22.0749 -9.82518 -6.25156 -13.6709 11.8661 9.81146 5.15513 -16.9039 -3.20078 8.7529 6.78219 31.7958 13.1573 12.7664 -9.80912 39.1649 8.46198 6.06281 18.3554 7.44981 -19.5505 19.9823 -22.3907 -15.4302 -25.3912 -3.63018 -14.4599 30.4508 -12.8447 20.624 -6.20143 -31.4562 -11.5537 7.4536 14.8756 29.562 3.85564 -1.6972 9.79125 -5.64629 -0.958524 -6.52083 21.7354 11.0229 0.698564 5.95879 20.6488 -16.8168 3.71099 5.87781 1.71826 10.4367 -14.2371 -7.27489 2.83896 -39.9866 8.38746 18.2092 -2.00042 8.63057 -22.5629 22.8142 13.6043 37.4943 20.0096 7.05343 12.7309 -20.4645 -1.20603 -1.61162 8.33857 3.81036 -21.1247 6.86904 -5.60395 20.0735 5.9624 14.4278 7.96369 4.57369 3.04246 6.88212 3.19803 2.00982 -17.4953 -22.3829 -9.69504 -19.3167 -11.3241 -2.04413 -3.57225 -0.153873 9.7968 11.2167 3.46503 8.2123 -23.5551 7.4613 17.8412 -1.3112 -4.60921 19.9304 -0.801409 12.2696 -12.1114 6.15968 -20.9654 -25.8752 19.407 28.7909 14.2838 8.88601 -12.207 -10.9305 12.8194 0.0974725 -9.11266 14.0275 19.9074 -13.1166 -7.43907 -13.6488 -27.4066 16.7785 -3.80804 3.94537 3.03091 29.7576 4.59413 -17.8254 -4.27186 18.447 1.36045 1.799 -14.2351 -8.46528 8.66707 -6.40522 -23.0762 -18.6413 16.4935 24.6663 -29.2458 30.6766 16.2984 -2.56795 -36.3974 31.6331 -1.8794 -27.6778 -11.4572 11.9198 -9.87389 -10.8613 7.27568 3.10849 9.58512 20.1214 32.9487 2.18073 -19.7114 27.6833 -3.08421 3.23886 11.4109 -28.14 14.444 6.41506 -33.208 16.4194 -11.6606 34.9571 7.68292 10.6685 27.5328 21.4977 25.8935 -12.0394 -2.42432 14.5422 14.417 1.86827 -19.8888 2.09406 -39.5408 -16.9408 -21.7576 -20.4857 -12.0644 -6.14393 8.86654 -23.4606 0.368548 -4.51906 6.92801 -1.50243 -14.7459 16.9835 -13.3722 -33.2894 -17.1434 26.8729 -1.44584 -8.90883 26.4357 -21.582 11.7557 19.9074 10.9149 35.6497 11.7589 3.75518 -31.0167 -34.9686 -26.4893 16.7136 45.65 -4.14374 -17.7292 -10.3231 28.2069 6.27314 43.4352 -1.11192 -3.3336 6.05682 -5.71215 16.6503 -12.4004 -16.9684 -13.2827 1.22947 -5.55883 4.19739 -16.1602 18.9501 5.21495 24.5312 -4.42141 1.4591 6.69796 -27.5139 -7.82403 33.2055 2.03486 -6.81692 14.6411 -35.9189 -7.22349 22.2711 1.13407 -11.7255 20.3579 -20.5151 -15.6997 -13.7201 6.01849 14.9059 12.5195 27.1285 18.1611 14.8782 -11.8907 -26.2264 4.13417 -5.36339 -16.529 -3.29289 -0.522169 14.6232 -33.8521 8.70602 -8.42164 25.4707 21.8526 -14.1831 -5.21812 14.6883 10.3963 -14.4961 -2.06848 6.04462 -8.39559 12.9881 5.35051 -7.38761 -7.88878 -13.2277 -11.7376 14.5198 -19.8568 -27.6421 5.6458 -3.61821 23.2063 -14.8492 -0.479816 -12.5687 -20.2782 1.54497 -6.31142 7.31199 29.6158 -0.794638 10.8944 16.5862 40.8073 -8.47732 -10.5659 8.91337 46.6801 -4.71505 19.574280 -4.0783 1.455 -7.50316 27.1452 -18.232 18.5194 1.41587 -13.7663 24.389 -13.3134 25.7748 15.7674 18.417 -6.59885 9.16427 21.1879 -9.17508 -2.13411 5.64446 1.30687 4.21674 -18.8761 -12.4915 -11.0195 -13.1693 6.06891 -20.7459 -24.7979 -17.7776 -15.6141 -1.26981 13.6596 -18.3583 7.45976 4.48074 -7.29728 -5.92529 -13.8307 16.2711 7.76823 1.00607 -33.3298 7.80169 -10.7639 0.84927 -32.9058 -37.3846 -13.2814 -7.94196 12.1748 22.1829 4.79415 -22.0484 2.82638 33.1754 -4.82894 34.196 -26.3442 -23.062 -1.70023 11.9917 -26.5822 26.1427 13.4074 -12.0524 15.3923 1.61674 13.9847 27.6458 10.7099 8.3855 -2.29926 7.86536 -4.3788 -8.12629 -10.2374 -23.4578 21.6883 -12.6852 -11.2975 -34.6261 15.9242 -30.6615 17.6111 -11.8632 -18.1317 -23.2463 -22.1959 -10.3278 2.59749 15.506 37.9354 0.579731 4.67182 -31.1742 9.52378 22.5861 -3.97564 19.5897 -2.05011 1.59876 14.7908 37.8219 31.869 -14.542 28.0596 12.4182 -13.942 1.36755 -22.4248 -1.93811 -1.27579 -9.98339 -12.6151 8.29584 -21.7834 -4.61245 14.4003 21.8054 4.21638 11.2534 2.91305 -27.1173 6.31917 -4.64125 -15.9557 3.08932 -28.9058 0.293585 -12.8661 5.07541 -9.43723 6.05218 -1.93873 -12.3751 -8.89333 5.27549 -24.4941 40.8665 -0.166826 6.19093 16.1582 -11.335 -4.63228 -7.77514 19.8346 11.2313 14.0768 3.32207 37.5718 -5.12089 -5.25968 -6.0697 -2.37343 -11.9945 20.6641 -1.30754 8.43598 -7.76728 12.2089 -15.1867 -0.509964 -20.2471 24.783 16.1215 13.1669 5.85901 -8.748 -16.1908 16.4925 21.6441 19.8016 -3.12278 -0.167971 -34.0737 -31.7791 5.24333 3.54081 -12.6757 -2.35352 -19.4434 -10.4735 3.53502 -39.2863 -28.3053 0.762118 -21.2003 7.17937 -6.04902 21.7439 -29.4368 13.9497 -15.1113 -3.13316 12.3079 -13.4312 -50.0772 19.7592 -8.42787 -6.86074 12.5552 8.53566 20.1865 7.66942 4.29755 -2.00207 9.65361 3.87049 21.3129 29.783 -7.24444 -25.6112 -5.28994 -22.5838 -19.6779 -5.52458 5.54186 -2.65749 -7.80419 11.0785 17.4988 6.86696 -6.61294 32.4051 12.2629 28.0398 -19.5878 18.8862 -7.41983 -37.5169 -17.1776 -7.39458 -9.99908 -15.8407 -3.0833 -41.8497 -1.68321 -16.9466 0.648098 -0.0981513 -4.32423 -1.17105 -3.29454 14.7696 -47.6039 -16.6115 -15.2009 7.35599 -2.5384 15.3939 -27.8781 -23.4304 -45.2966 7.70439 25.0064 -3.34325 -2.32336 -19.2208 20.7517 -2.30964 -19.7972 20.9927 -19.3362 -3.5134 5.64269 0.889676 -10.7292 14.9557 1.80193 32.3996 0.716627 -35.1021 24.5758 5.95678 7.35259 12.2427 -14.7648 0.59279 -14.4814 7.69603 8.44745 -32.0672 -4.48853 -1.13461 1.9361 -2.84689 -19.2756 -17.2048 -25.1302 17.8626 7.00158 1.9483 -42.0888 -8.06959 23.1532 -11.3828 3.96935 -14.7515 -4.32296 -11.2055 -7.37795 -3.57231 6.66409 24.4513 3.2512 13.4382 3.87665 15.2716 13.8443 -6.82223 16.0382 -11.173 20.4902 0.990695 6.29084 -23.8245 -11.4404 31.1146 8.85037 -8.09529 -35.4106 11.061 -12.1569 -4.38428 3.82518 6.94857 1.34019 21.836 0.475169 -7.24112 13.5625 -2.62123 -10.3593 0.542987 2.29255 11.1414 9.94835 2.54592 -29.5435 7.31771 -4.16096 0.289478 -5.09104 23.09 6.58132 -20.4124 -22.6116 23.714 -15.0569 -33.5171 -19.316 14.0727 -21.4256 21.1465 -13.0421 23.6555 7.0579 2.69198 7.28237 -12.0253 -4.35005 3.94562 -10.6415 33.4216 -31.2709 -24.8593 -11.5921 -17.4454 21.909 -14.4466 -1.72643 16.8427 -8.16279 -15.9211 -26.3143 1.81616 -15.2865 29.7471 -11.2613 -12.3135 -31.5479 -8.8406 18.5359 0.382344 17.5701 17.8941 -14.9786 -41.9717 -14.2742 8.81277 -11.964 -4.12665 16.9881 18.3326 -9.50587 -9.37047 -21.2465 35.622 6.81905 -22.7185 9.37175 -18.2653 -24.4933 7.30573 -4.54366 9.69336 30.9277 -50.6572 7.88056 2.49043 -14.7309 -12.6919 5.45676 4.04218 -18.2985 -17.0795 -8.68654 -13.9228 -10.2814 11.6975 -33.0511 -4.04176 13.6524 17.366 -7.01835 4.44166 -8.60067 1.7163 -18.4211 2.38044 -13.6768 6.90481 -18.4187 -10.6366 31.3372 17.1694 -8.68696 -22.7194 -1.81532 -24.9919 14.074 13.8444 -9.09146 10.788 11.3222 -16.9707 -1.50322 16.7752 -9.44853 -14.5295 11.7252 -9.37957 16.8453 17.7759 9.18796 -12.7124 -4.87747 -20.2042 35.507 6.3935 24.0754 -5.17954 10.7312 -7.98974 14.7817 15.7138 -8.05897 1.8938 31.0272 15.9923 -31.9879 -10.8525 -1.71441 -15.1698 6.588 33.3405 2.41518 9.02109 4.21887 0.0289963 -12.9768 10.8461 -13.2763 -12.239 40.5303 -17.0844 6.699 1.476 17.903 6.9216 -28.762 9.36974 14.1073 15.3366 -17.1567 6.18444 -9.78673 -12.9425 -13.4986 23.939 -14.7886 1.97174 -14.0319 -40.9056 -3.49363 4.649082 -5.76513 19.1704 6.1037 13.9121 11.1753 29.7699 -18.527 7.9776 5.39158 7.07767 12.1198 -8.97647 33.2388 12.7669 -27.1864 -42.6635 4.03247 -27.6421 -3.45702 -16.6725 -11.5317 -5.98681 -15.8835 -9.33097 21.1971 6.76643 23.4864 2.37153 -5.3958 13.1877 3.7309 -33.2048 20.7815 21.4914 18.7549 -9.39714 -23.3307 24.0842 33.6438 1.63592 -6.59084 -16.4681 6.73281 10.7513 -31.1424 -5.00455 -17.6495 -2.42896 20.3132 -13.9328 29.251 15.194 14.4101 25.0845 11.7369 -17.1809 11.2056 -1.16202 -1.53288 15.3376 13.4761 18.7605 -14.0498 -15.1773 -1.84514 18.5186 5.73461 -13.0072 -26.9951 2.05658 -27.7279 -2.40125 -22.546 13.0874 8.48487 -2.25564 30.6184 0.996794 8.00018 11.1444 -18.4876 12.2115 -12.9034 6.33283 -43.5318 -4.01935 13.3144 -5.21226 -9.2891 -22.3857 5.77149 4.01917 -8.86324 0.150881 -15.8437 -15.4267 -12.7137 -44.5456 -16.5877 3.97833 -2.50893 -0.227478 -4.89243 6.63888 -8.78878 4.70113 -13.5042 36.654 16.5696 -21.3927 -3.74028 16.582 -11.9404 17.4992 -22.0526 15.141 7.45433 34.2907 16.0912 -13.1582 -7.11216 -6.44246 -13.9832 -11.4331 -10.8573 -5.30607 6.34193 2.07569 18.1069 18.5198 1.15501 9.46006 -31.5731 -11.6788 4.88852 -7.47228 35.3581 -1.66345 36.8826 -6.87582 39.7711 2.66738 -29.3819 -18.5971 -32.6154 -18.3605 -13.3291 11.0182 -16.8314 -9.4036 -1.68926 -19.7434 -20.0797 -15.8748 10.8229 -9.8745 22.0503 6.72513 3.49961 -17.6501 9.54516 -33.0833 15.3269 14.3352 -2.87772 -10.2153 -14.6427 8.03779 -8.42976 -3.04726 2.7579 -4.19191 -15.7303 3.00681 3.57261 14.137 -18.0826 -12.6529 13.1365 -13.636 22.4198 0.489257 1.21409 -6.69235 -5.01443 19.7811 -19.1999 2.84658 -32.5918 -6.41828 27.6202 21.4244 -6.47175 4.86288 -2.70095 0.501355 -24.1218 -24.7503 23.2572 -1.05417 16.5325 -1.4882 22.2463 38.3526 -2.87216 16.464 14.6088 -5.69567 7.08689 10.3324 -5.79236 -19.425 5.00821 6.55214 -4.95424 -4.73396 10.2638 -24.0165 -4.42597 1.87536 -14.2226 5.59862 15.6948 -15.6861 -13.0118 -46.4362 -10.564 12.8591 12.0017 24.807 2.32832 8.02442 9.92193 -32.0255 -9.54131 -18.5957 22.3991 -17.1272 2.22145 -5.5714 -8.6791 -12.6959 -6.24776 14.0533 -2.26075 20.3715 15.0435 22.4081 -9.06461 -8.80191 -18.2438 15.364 -3.28868 -15.8893 -18.2814 1.05124 25.8576 5.23493 33.1085 -0.696555 -20.2073 -18.4656 15.3147 19.0451 -5.58135 5.30321 3.5147 -27.3864 -20.8666 -0.926054 7.90509 0.0311814 -19.9466 -12.0252 -13.3617 -7.80865 6.42019 10.5317 -18.547 10.0022 -20.8232 -5.11893 -55.0353 14.4578 4.76303 1.45776 2.68397 24.6554 15.0615 -10.9158 -19.324 18.737 12.5632 -38.4775 -0.0426055 -3.21782 27.7044 29.4588 -3.46874 -1.36986 -20.6126 10.8992 10.1488 -4.35969 -8.28889 19.0568 28.735 -0.607019 -2.14588 14.6197 21.5157 -1.67315 14.1735 -4.50368 -8.18115 -50.6953 -8.51265 14.9723 -15.4205 9.14768 22.532 -26.6769 -14.4851 -4.94418 -23.3883 -28.1405 5.00015 9.00962 -29.5468 -1.60137 5.6264 35.1007 -13.7797 41.1865 8.446 18.7759 -2.27478 -15.7436 16.9071 1.05362 -2.15558 1.22342 9.47233 -1.35008 -17.9002 14.5021 -18.0662 -14.9424 15.4398 -9.01004 2.40108 -6.44343 17.1961 5.1647 -30.0144 -42.8433 29.2483 0.627342 16.1836 16.5016 -11.6478 23.0856 37.9173 2.67122 9.68206 27.7711 -28.7116 -0.0391862 -3.47612 18.2907 15.0219 17.5738 1.19834 -12.0738 -29.4328 -10.7493 16.1404 -17.6399 -20.0723 -2.13788 -25.8271 4.85019 28.1384 -4.099 16.9858 6.81704 3.4608 26.9449 4.7721 -1.08634 16.2504 -22.9706 14.0782 -48.52 -28.4836 18.9949 -19.1727 3.48692 -5.83178 -7.2778 11.5388 -7.13511 15.9462 -11.6515 -30.2802 -6.68514 -22.9574 13.4024 -11.5296 8.53567 21.4189 -19.1341 10.2458 10.8843 46.7867 -20.7928 -9.16953 -36.5094 18.3044 -0.691184 -9.50956 -11.1983 14.9444 29.3698 -2.69179 -3.45318 19.5488 18.717 -22.2875 10.1748 25.5799 19.579 3.19724 -1.3068 -4.45259 13.7807 0.213148 22.9776 4.1394 7.37309 4.27148 -0.516492 -28.9804 -17.7818 -0.790357 -7.56987 18.3324 -16.5028 -19.3398 -4.59865 29.8829 -3.84545 -27.2923 -48.62 -6.99643 17.292 -35.2766 -19.7581 -11.8729 11.4872 19.3937 0.665547 9.01212 -9.94274 -13.0714 11.4865 -23.3057 7.26438 -9.51792 -4.50471 -19.9015 28.4415 1.7232 -15.3337 -5.64818 9.06876 -0.381726 21.8272 25.7735 1.79582 13.4042 9.75565 4.56319 -5.62126 -9.27037 20.7366 -33.8264 -10.4285 2.0061 -28.4699 -3.6325 -30.0475 3.92212 -15.2016 -7.04056 -41.3195 -6.83346 -10.0461 15.2533 1.20158 -6.66645 30.4595 20.168 10.877 -23.9964 6.903188 20.0326 19.5647 7.02957 0.405226 -22.9009 10.1257 -9.00864 -9.23524 -8.28462 33.8796 4.86196 7.95344 -32.803 -8.01715 -30.1676 -23.6312 10.3909 -8.23652 -29.6477 21.4102 -19.0884 -23.0275 41.3394 11.809 -3.9093 -9.01028 -7.42992 16.4509 -5.41906 3.95545 -14.7045 -13.4147 7.67674 4.85366 15.9959 -3.49539 -24.697 1.50908 28.3542 -12.3597 17.7073 -22.447 0.404982 -16.8825 -36.186 13.2986 -4.11519 -10.2786 5.31102 47.5698 -1.25627 -5.66936 -16.6355 -6.54403 17.8721 -10.2406 17.0755 19.0259 -19.0024 11.0594 -19.4142 7.95123 30.7782 -0.757106 -22.0981 -28.9181 -21.9269 23.4606 -25.6234 11.9716 33.4184 30.5958 17.9006 15.302 -16.3333 -4.6849 -59.2323 5.29173 16.8416 -2.45179 -28.7531 -20.9877 22.1475 -11.5973 -10.1923 -46.3489 26.2004 11.5188 -16.9283 4.70925 -5.58012 8.86733 18.4247 -11.8651 34.6279 35.9811 22.3289 13.4066 3.81481 -4.3932 5.31272 14.5355 -4.88369 -45.165 -11.3338 -23.9804 -10.0488 14.6346 -14.199 -5.26542 -19.62 -11.1903 13.316 2.75001 14.6172 -16.5417 -25.2665 -21.9127 4.74971 -20.2039 -16.0504 16.4399 -2.35586 -8.53462 -18.6633 2.78262 -19.973 19.2566 19.5696 -6.03332 -15.2236 -3.7188 -29.8994 -10.7779 -16.6256 -5.42093 -16.6288 -18.391 11.5641 -7.8438 29.6572 9.40441 17.1861 5.4672 -28.3669 -17.5776 21.2112 -3.66582 -30.3649 -9.71427 -41.0482 -15.6964 -11.4253 -32.3874 -7.52958 -20.5639 19.5687 21.1664 -18.8441 -11.4669 -16.7569 15.9155 55.5165 -2.17933 13.7388 19.059 1.12802 -22.9699 -5.61498 -17.0338 23.8085 3.97089 20.0738 0.0700123 -15.0681 -1.51738 -6.68171 0.682575 3.97919 -3.12912 3.00443 -23.2338 -18.7622 15.7547 10.8156 12.6303 11.7075 10.3661 40.3589 -34.4423 -14.8082 -27.726 15.9681 -30.6 -10.4184 -2.4427 18.2144 8.06959 24.3045 -27.5959 -6.9305 -12.007 -19.0116 -14.8374 -2.20539 6.50887 16.3036 -10.187 20.4885 25.1804 -16.018 5.89587 -33.6669 7.05874 -12.9657 27.8557 -0.461323 16.8888 5.15738 -17.1598 27.9488 23.236 -23.683 -0.0606667 13.3613 -26.4294 -8.46882 -6.16907 2.51942 3.27159 7.82971 -16.0891 -4.20527 -6.41744 0.409806 21.8172 -21.4353 21.4929 20.9771 -7.57585 2.25885 42.5605 9.26982 17.2506 8.11444 13.6825 8.7748 -20.6826 -29.3909 26.7861 -20.3734 -25.5525 -44.4193 -7.53185 7.71074 -20.0132 -15.9625 -19.4282 -9.07915 -22.0241 24.6486 -19.3062 -4.36128 11.7604 -10.0699 -10.3626 24.3788 39.0247 1.12522 -7.20652 -2.3664 14.2763 -27.254 -19.5283 -25.1028 -0.229744 11.8382 36.1608 -20.1175 -2.14514 2.89834 3.72038 -31.0799 -26.2292 9.50335 -1.46831 -2.44919 15.8805 -16.3835 1.55614 -15.6976 22.3309 29.5916 -8.64064 8.65797 3.16325 15.841 -14.9478 6.19812 -23.1373 -0.7839 -4.81354 7.95244 20.3271 1.07107 1.56402 30.9234 -40.7116 7.99891 15.0171 -9.2064 -11.8224 -29.731 -7.9082 -2.15967 -7.6016 -33.0506 -0.302071 -2.98263 2.0796 -25.2833 0.670129 17.2342 -1.77435 -4.65743 39.2909 26.8173 4.3321 -13.1102 -50.2711 -5.82843 18.4241 -12.4194 -13.5559 26.614 -21.4619 3.34861 13.4859 -11.6032 0.646132 -29.9128 17.7766 22.9357 11.9954 -10.4075 -4.70065 4.19526 26.9182 10.1704 7.24136 -25.7091 8.04529 -13.0487 35.0628 22.2664 18.0008 2.89217 -44.4921 1.04617 -23.5263 -26.5487 22.5673 -36.3953 -4.20838 11.9639 15.3411 19.2964 -6.12629 26.6976 4.88533 -32.6234 21.6757 28.5988 -31.0393 -19.2623 16.0191 -1.26744 21.7405 4.78683 2.90609 14.401 -24.5671 -11.4476 0.240239 -15.0603 -3.12008 -7.04276 18.9922 30.2356 -19.9602 -8.72165 5.80736 6.88931 3.46092 0.80556 42.0536 15.1039 5.64916 -5.32035 4.29268 -2.76942 -2.5907 14.9189 5.21097 19.0213 16.0956 -26.3718 5.96081 28.5595 -5.18919 33.4206 -9.04153 1.88519 13.5529 15.9796 2.12433 -27.6993 -6.72586 5.85907 -2.46748 -5.63879 27.9088 -7.56193 31.5358 13.571 -20.6907 -0.925078 -32.7087 20.7456 -29.8569 -9.55548 10.7576 -5.93029 -4.29139 -10.9293 -30.9098 3.84863 1.7008 -23.9592 -3.46953 -23.0624 -19.0877 6.89999 4.65847 3.86931 -4.1333 -10.2488 -7.84362 9.64709 2.39075 -39.4727 14.9619 19.2632 -22.866 -3.54216 11.8738 4.86307 -27.9868 16.7176 4.59804 -18.3725 6.59688 11.27 11.225 5.32951 -14.5687 -9.1055 30.1545 4.57193 -12.6945 -14.5979 -10.5621 0.73672 -18.5567 -12.9685 0.588644 16.5902 -8.34846 8.05048 -4.19856 -3.4006 -0.620022 5.51989 1.61516 -2.06604 -9.25546 -25.7331 -1.9682 19.1351 28.4721 -12.9611 -3.94763 -8.50197 9.78274 -9.16452 2.65974 -21.8714 -0.77616 -11.5586 -13.7708 25.6886 7.42656 4.141 17.3984 -14.1787 11.872085 -1.38037 10.3405 -14.7087 -10.8199 -25.9474 1.51567 -14.2257 12.3906 -1.61364 18.8253 0.364762 16.7615 -22.2048 28.2202 -8.25001 14.5802 -11.6564 14.7469 35.0951 -6.5265 -24.1795 23.0212 18.5837 24.7386 -1.23296 8.15863 -21.3178 -18.4081 -18.31 26.1178 -12.9401 20.3864 1.46941 34.4974 0.217294 9.72739 -12.058 18.7651 0.789393 -19.432 -4.31629 -3.06912 -6.45369 28.2074 -6.02832 11.6497 17.0807 27.2389 13.9398 -29.241 8.15998 8.44459 17.9073 3.27183 -16.1875 44.6202 19.9255 23.7768 12.0523 12.3248 2.47805 -13.6895 6.32069 -35.4088 8.3838 0.642531 0.607988 -14.4355 2.89523 8.00574 18.2619 -5.93616 -7.03171 -10.7329 -2.52492 33.1054 -43.2737 6.53158 2.48658 6.34455 -33.8756 7.18473 -0.563121 -19.5331 1.77232 9.3701 15.9315 -33.4852 -13.0276 21.9184 -8.71346 -28.8551 7.93273 -14.3143 20.4701 6.82266 21.1696 11.3645 -5.29326 19.9684 5.09293 42.7045 -22.1952 -11.9746 14.7913 10.1718 -10.8599 20.4812 -3.00947 22.0788 -21.658 -1.20298 30.2104 -27.8997 8.66879 -1.6837 11.098 30.2807 14.0562 9.08006 29.9624 4.41768 -41.1206 2.57985 -15.5145 18.9556 7.3734 -22.5285 -3.37113 52.2503 -8.24495 29.2085 -12.2853 -0.685565 0.0424731 -5.39854 -23.2915 0.978606 14.5352 0.353889 -3.30862 -19.5012 0.012759 0.494278 14.4981 -5.39885 -9.40532 19.767 -7.43993 5.95905 -9.69306 -0.0438184 7.9486 2.11469 12.3246 16.1511 -24.4334 -2.17041 -28.1008 5.94317 -5.43077 9.88344 15.9975 -3.442 -33.0616 -2.69735 2.58638 18.9406 -8.72212 -27.9772 12.6517 -18.2471 -13.2402 -10.995 -30.1377 -21.665 6.29072 32.7669 -5.04007 -4.41243 17.843 -20.6298 -32.2019 19.7939 14.9879 -9.15812 10.1102 22.3823 -18.3955 1.02005 -28.0842 40.6323 -6.20752 -26.1492 -5.32914 40.2958 7.94835 3.12839 6.05737 19.1903 24.0503 2.64339 -6.5199 -7.30174 -2.87546 -4.19306 1.26304 14.2193 17.896 27.6848 40.5071 -12.4448 -22.3783 26.4761 12.6537 16.2415 24.132 -8.56185 -18.2695 -11.2019 6.03003 -11.7634 8.29114 -5.06638 -1.89521 -35.2591 10.0238 -16.3123 -21.0814 14.2518 -7.92986 12.4988 -20.4187 23.1745 6.01526 28.2138 4.71676 -9.88382 -21.4222 13.0431 18.6187 -0.559523 14.9738 -3.55607 -18.4205 -5.76634 1.97968 -2.05109 7.43742 15.7375 -10.3227 -8.08124 -8.72901 -5.80829 8.88863 -42.7488 0.311657 -5.86401 -8.70662 21.0161 -10.9668 -6.86551 -10.7589 9.01573 21.427 6.95187 -7.75049 -15.6779 31.4665 -1.85553 15.1758 8.7065 -31.2413 -6.8801 11.1069 -15.9747 -15.6046 -1.3925 17.9025 6.56324 1.96033 -3.42435 23.4464 -0.728348 8.75887 6.59474 2.57924 4.98399 -23.7832 0.622944 -15.2758 -14.456 -13.5301 13.2392 -8.80849 -24.1112 0.139464 -15.69 9.17105 32.0495 6.30073 -16.8997 -18.5762 2.10498 -16.3711 4.81057 -11.3541 -0.925755 -0.251603 26.5572 5.53368 10.7326 7.75341 41.7917 -8.47787 9.37822 2.92331 2.15846 -4.77284 4.52602 0.626428 -4.2114 -24.4428 -18.4462 8.40957 19.0237 26.5368 33.2679 23.2776 4.58809 18.7778 -8.58437 -6.84987 17.1981 12.6905 -2.8599 15.5282 5.59679 16.3358 -42.6395 -31.6818 12.0414 -9.00644 -5.89434 7.87268 -9.78492 -12.5971 7.76154 -4.80728 8.59169 21.701 -0.720298 -22.6592 22.218 18.0393 -11.6851 -6.97017 17.9484 28.8916 18.2987 21.3911 -11.8794 -5.94269 7.4464 2.94675 21.6473 -18.6612 22.7109 -2.23756 -24.4361 -12.0845 -4.33613 -6.21588 38.0238 -8.60062 9.33243 10.371 -28.3128 1.57933 22.9457 -14.0041 -3.39433 19.8686 -10.3603 19.1717 -20.5043 -6.59621 0.101875 -6.48786 -7.52208 -23.1268 41.1329 -25.9632 2.24342 1.00345 0.164798 -6.38221 14.6561 18.741 18.7124 -25.3648 23.803 -13.8723 -30.2463 -3.17216 24.4657 -19.1351 6.05988 6.30377 5.04423 -0.454049 -13.5477 8.76719 13.9141 14.5967 3.00821 -0.0839318 -17.789 -4.09986 2.1872 -11.9637 18.0713 -5.89575 28.9159 -30.2303 -8.70839 16.6095 14.5942 -9.90619 -0.561413 -20.7397 -9.95542 3.45518 -3.6076 20.7193 -17.5971 -10.8731 -17.6749 10.5111 28.9372 1.72655 -9.88019 25.79 -15.1912 1.93127 -10.775 1.7517 25.7819 36.3848 -4.05206 20.7695 -27.1573 -12.2211 -12.8113 -12.8042 25.7986 16.1467 24.6025 38.8682 -7.24241 8.30335 10.2062 -31.734 8.60797 8.52342 -17.5772 -13.5746 -32.6154 -0.638325 7.56658 4.45497 5.61175 -18.3078 -12.2507 -10.1949 1.53539 -9.08004 0.250004 20.2006 15.3577 -1.62114 -14.7071 6.2502 17.3475 -1.07522 17.2938 3.76996 -13.0753 37.7187 8.51113 -11.2347 27.6793 9.17875 30.1679 -17.8732 15.2987 -48.8556 -12.0211 8.99264 17.478 13.2119 -16.8528 3.8117 28.7316 18.2592 12.756763 22.0872 5.15739 18.1636 -32.3003 19.8122 0.135933 22.7048 -20.1672 -20.4113 -12.0315 4.65071 18.8446 26.4397 -11.5501 22.0418 38.3544 -7.69921 -32.6206 -3.35263 9.53416 -7.79284 4.0152 -16.3757 14.1483 -12.8378 -27.5524 -12.6437 -6.96792 12.6994 13.9467 8.47834 7.01993 -19.8769 13.1962 -2.91043 35.2876 9.45265 15.5164 -4.83498 32.1525 27.0266 15.9842 5.13582 -10.6991 -15.1762 7.51927 -4.33015 -21.5331 12.4641 24.8881 -10.3613 -6.48281 12.8741 3.65655 1.2689 15.0136 -19.3237 -6.92581 5.47666 -7.82073 28.236 1.90533 -3.59502 17.3326 10.4119 -5.82379 8.13067 15.7209 -9.01139 3.89246 -7.43413 -8.16388 -2.19752 -12.3367 1.55943 3.13027 -12.4595 8.27829 18.16 4.18489 7.2465 28.2233 -5.91528 -15.6722 -10.5037 0.11982 -17.6209 -10.3381 -7.72382 -6.87142 8.25068 10.5517 -5.46368 -7.74626 -4.90414 -6.45876 2.43782 -2.37856 4.71395 10.7129 -20.7114 -7.33086 26.7154 1.47117 10.1625 -9.71677 16.1048 -2.21455 4.20624 9.88157 -15.9368 -4.15302 23.6413 -13.591 0.913598 -10.822 4.44173 10.3071 12.2655 0.18078 -14.2934 11.3837 -8.64071 -8.89285 24.7206 17.6457 10.603 -24.5139 10.6978 12.056 -16.7314 36.9738 -17.7825 -7.75933 2.41139 -7.35521 13.3469 -15.8839 19.9472 11.7327 -40.5647 14.4705 18.9394 4.78475 25.6405 -8.52914 16.0545 -11.7221 9.07481 -17.8869 17.2261 19.6557 -0.294015 15.6129 1.48247 7.80962 0.904572 25.7238 -6.018 0.00170464 -27.3169 9.00107 27.2288 -9.7866 -33.3542 22.0077 23.4644 13.9427 -4.40277 -11.5645 -30.7318 -7.56907 10.8528 -24.8017 -42.6636 17.337 16.2359 12.4313 -11.562 18.8384 -8.2375 8.43837 22.5693 -5.8286 -17.9799 6.58896 12.2981 11.6197 18.2045 -2.86289 -14.7106 -15.0773 18.8874 6.98142 -10.9811 -12.8553 2.43982 6.36542 28.6757 -7.05259 -21.8425 9.51445 41.2494 10.3405 11.0671 26.2136 -13.1841 4.83839 1.41936 -6.68758 21.994 3.06845 -26.1238 -12.8201 8.60005 20.8147 -16.612 10.0885 -13.5117 18.4975 10.7379 -42.4633 -10.4222 -6.9109 2.79898 -26.4811 10.072 -8.52211 30.4669 18.715 19.8509 -3.75122 -46.7304 20.6275 6.06899 -3.0754 -12.3 14.6626 7.92858 7.62627 -3.81682 13.1398 -4.3492 -5.81871 3.78137 5.23593 10.6216 -14.3311 -26.4458 -11.1183 1.73052 -34.5983 -18.3767 -2.42769 -11.0964 32.3336 28.9154 21.1413 14.8174 -16.0764 -15.4097 -12.5471 -24.2063 7.43216 2.17682 -33.9554 -5.09635 30.643 13.368 -15.3069 28.2303 15.0348 -9.47944 23.9358 11.3396 8.38766 -7.15641 16.5093 -31.0621 -4.17401 23.2624 -21.2582 14.7053 -33.7032 20.9787 -7.11222 -1.68004 -26.5099 12.7225 -10.6329 -9.31901 2.19428 -10.3185 -2.01953 4.31177 47.083 7.11845 -10.9577 5.93701 -11.0446 -12.3135 9.45684 -39.7275 -20.6001 17.4237 10.7239 -4.00989 -13.1014 21.431 33.8915 22.8576 -26.633 28.2491 34.4479 -48.9099 14.1447 -18.083 12.135 1.88111 2.40001 -7.28306 -11.2786 -7.90137 -33.0037 -8.39394 -5.30619 4.20808 14.7858 -10.6618 -2.10506 16.3476 -21.6755 -20.7239 5.09964 -10.3835 18.0615 -23.1174 -6.47438 21.5312 -0.0752551 0.909511 -6.71505 -7.31901 -44.6213 9.26083 13.7658 5.57097 14.902 -11.4407 10.9617 14.6438 -32.1063 6.39101 -5.27109 18.4961 -1.95203 -24.7697 -23.0076 -10.715 -6.87259 -0.921292 11.8735 24.3166 -5.78942 -8.24977 2.77047 -5.18888 17.3496 9.89367 3.36809 -21.1079 12.6764 -10.3532 -18.4131 -10.285 27.9498 -9.96075 -20.5272 19.8216 17.5321 -15.9776 -15.9865 -19.3399 -14.1893 4.23292 -34.0884 -1.69616 6.05352 34.4259 23.2753 42.3517 -28.3058 -2.41865 9.25346 -30.9817 27.0774 -18.2697 22.6192 1.41429 -1.39482 14.4444 -3.72661 -5.99627 -12.6357 11.014 -7.30222 -1.73645 6.16187 25.3271 17.3425 22.5242 3.99567 0.422252 2.94491 -7.0129 -5.01292 19.7411 1.79571 20.9521 0.72755 -33.9473 -17.0629 19.2103 -0.92648 -16.9126 21.3076 -23.3608 -15.6216 -3.16948 -18.209 19.979 2.15974 9.52897 11.2638 19.7952 -6.79959 -6.62684 29.5151 3.63334 0.101813 0.864469 -21.8548 17.3585 3.25424 2.87569 6.39766 -18.3224 -4.74282 -6.59738 22.9006 8.86911 -11.2209 -22.0159 -7.61724 -15.3367 2.84958 20.8411 8.30622 -55.6466 42.5836 31.6685 24.4386 14.0598 -2.64718 -34.8607 10.3647 10.1962 0.395643 -5.90601 -18.0654 -1.87493 -19.1431 -20.607 -0.339609 -35.0005 21.2675 15.5021 -9.97602 -10.2119 15.4565 -17.2907 26.7506 -10.515 29.9219 -42.9153 -20.9964 2.52082 39.6091 5.08401 13.5275 0.347242 3.14578 3.86066 -4.29425 2.21302 36.519 -13.7309 -7.40355 4.13581 6.16112 21.5423 10.8597 5.04648 8.5143 14.6602 10.115262 -8.86538 -19.0046 -10.5843 -7.52872 1.37345 -18.5792 -13.8418 13.8719 19.2307 -3.13768 -0.776029 -22.7968 -0.416386 -13.0664 -10.9424 11.2419 1.79369 22.5306 -5.97478 -16.2558 -0.0075675 6.99227 28.9092 -2.01464 19.5459 2.70681 9.08548 12.185 -11.2986 2.15802 3.4021 -5.09244 -21.5619 24.4037 -13.2635 -0.611218 9.48553 -12.011 7.23874 -14.2156 27.5367 -34.6846 -28.736 34.3805 5.65801 1.41507 -6.99581 22.7243 22.8759 6.19922 -24.2188 17.7044 -26.049 15.1122 -13.9492 33.5544 -8.64851 -18.7562 25.0922 8.80891 30.3965 -30.1264 17.3646 -8.81051 -15.4073 22.4484 -11.4193 -18.5753 40.1837 28.9959 -9.55823 -4.98655 0.829188 5.99059 31.08 -13.0729 -6.4529 -25.3627 10.1679 0.246827 26.7724 4.61244 -28.258 -0.271724 19.6479 0.213201 -24.3116 -0.675503 -24.5124 7.98433 -37.0731 14.633 2.43165 20.751 -28.712 -14.727 4.27717 13.0916 31.0649 2.226 -17.4862 -32.7266 -6.73866 3.08378 28.541 16.5984 21.5291 -3.75024 5.0563 -16.814 10.7883 23.0856 -12.3376 -2.77255 21.5282 2.96896 19.6337 -25.3707 18.814 -19.677 22.8834 0.139045 -1.03903 -17.4485 -3.88464 8.86953 -31.0846 -6.06733 15.1708 19.2971 -34.6966 10.4439 2.54133 -5.33689 2.18763 10.5169 15.101 -0.150634 -31.5146 8.7433 16.9912 -7.35228 -11.8912 13.5111 -29.274 -9.49144 9.75501 9.57445 7.4633 5.70036 -8.58456 -1.42888 33.4652 17.9164 16.5588 2.46687 -4.24806 -28.6823 2.98886 -7.05673 -16.049 7.02017 -8.57911 11.7237 -38.687 -4.00025 24.7162 10.8363 -6.06463 19.457 -29.1863 -6.19483 9.15519 19.6092 -7.62987 -11.2024 -21.8551 11.917 12.0404 -11.308 -2.30586 -6.24171 -7.50932 1.09287 18.1642 10.5302 -25.9134 3.27433 18.6466 -9.81499 1.25083 1.07475 10.3021 -12.7729 10.53 -33.2854 -9.10997 -16.8855 7.33566 26.5655 23.4817 -9.87031 -3.61425 33.835 0.352361 -22.3473 26.8185 -6.78207 -0.901638 9.91321 -11.0014 -1.52953 -34.1222 -1.85686 -1.96941 -0.0900903 -7.08993 -9.81083 0.914523 -17.1253 11.1002 -17.4468 14.4435 -15.8955 -19.1006 7.87689 4.74533 11.0697 -9.67871 4.85122 31.5405 -20.7732 -8.83962 -16.4224 -27.9376 0.228947 -37.6097 -14.6321 9.68994 -17.9527 19.7634 1.95649 18.2528 24.0605 -9.42863 5.18703 -0.976715 10.05 -19.3685 -11.8947 -0.593577 10.1662 6.42159 20.511 0.308109 4.80337 19.427 5.92987 -30.8121 -4.56972 13.6657 -8.96237 -24.1794 -12.6532 15.4082 -5.48528 -6.28693 -6.61104 20.0738 -3.66161 -17.7693 9.55877 39.3216 10.5099 6.41536 13.6058 9.33011 -7.77241 -10.5347 -12.4698 21.2622 -7.50852 -15.067 7.0452 -13.0852 -2.85811 19.5872 -9.05496 22.5611 -26.6527 -0.024416 -0.553116 -2.02526 20.516 5.67314 6.44776 3.65161 16.6528 -9.79529 -11.2878 9.20353 5.15202 8.68435 15.0258 -46.051 -12.9675 1.1058 2.25794 -35.2965 -18.3999 -25.6521 15.3808 17.7277 -11.4446 21.8585 -3.58965 9.88247 -3.46721 30.0238 -4.69618 1.98169 15.0907 -5.77685 9.7718 5.30558 -12.8827 -2.41535 25.0527 -1.67914 -15.3027 -0.593167 -71.4061 12.586 -6.60615 -7.71007 -17.2805 2.83267 7.98701 14.9401 14.1664 -9.7462 2.64254 -0.338995 19.6217 7.95776 34.5103 7.55248 -19.8373 53.6328 1.77168 6.35762 -16.3479 -1.62957 -8.87924 -7.9519 -13.9489 -21.2902 -6.31769 -34.9518 -21.3167 -1.1533 22.363 -7.81701 12.4417 0.0264855 3.64826 -16.7099 3.91712 -15.8541 8.83431 21.5358 10.4769 -17.4703 -14.3137 36.4017 -8.72652 4.88547 7.56522 -9.62164 -18.8017 -4.53493 -29.0595 0.334909 0.764796 9.40568 10.3992 8.56861 4.93062 -11.7536 4.0431 -11.4403 15.8659 -8.34181 2.3608 -19.597 32.6445 -33.6715 -8.49489 -1.07133 26.8898 -30.9298 -13.9682 21.5092 -6.66134 3.08792 -27.9263 26.5574 -1.63358 4.4369 9.93149 -4.29152 -8.58168 1.68884 19.1291 -7.30546 2.41419 33.767 -33.1151 -16.0995 16.0629 22.9664 -28.9617 -6.39125 -27.8793 4.18293 -5.59985 18.9353 -13.3978 9.3007 21.5461 -6.55318 8.90976 -18.2121 -4.95468 -1.52141 -16.0995 6.48433 -1.86407 -4.87911 21.9179 -36.4567 0.821796 15.9068 1.71868 -2.39301 -11.5806 -10.8184 -14.6257 -14.8673 -0.458705 -10.838 -19.9069 6.92605 22.5038 6.68691 -24.0253 -5.14707 -50.8083 -10.3595 12.7183 25.7433 7.3585 22.0868 12.2536 -8.52382 20.3341 25.0623 -1.68724 -17.7302 -14.7893 -7.91449 3.95379 2.13526 14.4474 6.34009 -10.0017 -16.475 -22.0984 -9.46497 -2.58088 26.1874 -7.674 -15.5292 -3.32871 -8.82063 3.27231 -10.7117 14.9512 5.09872 -9.54948 -38.6066 26.3881 21.461 -0.469677 -4.91152 0.191101 12.3157 5.35746 30.8756 -26.2793 -10.9957 31.6345 -5.55388 -14.5027 -6.86014 7.069935 9.37852 -14.8452 12.7458 27.6606 4.4978 -6.67947 0.603966 -9.79711 10.9428 6.44764 13.7846 9.18204 39.904 9.57024 -8.65346 -27.1174 -3.94256 14.0084 -28.7408 15.6456 3.6986 6.999 27.4847 -3.42265 -1.46555 6.27436 -23.7603 -7.25998 16.1905 -3.42668 -7.5111 -12.2603 -11.6144 17.0884 -16.4243 4.77938 -6.18635 -15.1478 9.06888 5.13285 -15.3042 21.0665 11.7901 -6.93198 24.0255 3.35661 -6.97043 -43.7984 -1.49791 2.97933 26.9476 8.28993 26.157 -6.05145 11.1628 5.45623 5.66015 -6.8785 10.5306 14.8663 0.311777 -11.7962 9.11337 18.8314 -46.2701 18.6965 11.3196 11.3457 2.22432 10.7896 13.2571 -27.9264 -3.15335 -2.82137 -24.7467 0.769555 46.1462 4.83608 -19.4254 17.1202 -15.4104 -48.3031 -18.6765 7.0504 -6.29566 39.3149 2.53042 -15.5475 -17.1344 2.41279 -8.5666 15.3492 16.8038 -13.5891 8.93991 13.4997 14.7805 1.87766 2.28028 -27.5548 16.4726 6.90402 29.8501 -1.0081 -16.4867 -15.5678 11.2318 5.11844 -2.24452 -8.47097 -12.586 19.3437 1.19254 5.56692 2.19543 -3.48789 -5.41332 2.36947 3.76861 27.0294 29.7728 -32.7087 -12.5003 26.5243 -21.3441 -15.7791 -35.1025 10.9585 -8.09754 21.5316 13.7635 -11.8344 18.2974 -6.03192 -17.4738 -15.1578 -12.1878 -6.5234 -6.22413 21.9518 -40.652 -36.0398 13.9766 -18.4141 -1.82428 6.97952 12.3666 -13.7388 26.0427 -12.6123 2.05426 23.6463 18.9954 3.91248 -11.7142 -12.2748 -34.136 7.65562 20.9208 17.4141 -21.5363 23.5547 -11.9245 -12.4089 -7.55693 -6.24246 9.96752 11.5905 3.86169 1.95972 33.945 -39.8955 -17.5814 -20.3469 3.69078 -4.44069 30.4071 -10.6639 1.64409 40.8859 -9.68524 9.64232 13.5699 5.76239 -11.8513 -0.580461 22.3481 35.2921 -6.58149 31.7394 25.9358 -11.9205 -5.16838 -9.15463 -11.4827 4.80838 -3.34532 -2.95438 -0.148013 8.19465 -1.22435 0.529355 -22.2134 5.41747 25.4577 29.1327 -7.01212 -16.0294 11.7526 9.03696 -51.1714 11.9677 -17.3527 1.40721 7.49199 -4.15558 3.85369 3.96342 -32.7622 44.5582 11.313 6.49405 -22.1286 -0.831447 28.3734 -6.69595 -12.6027 2.90414 9.66955 -8.39534 30.8608 -11.3856 -3.32451 4.83406 6.36397 16.7211 -10.0468 1.91925 41.2996 2.53847 3.08067 9.47899 3.7293 -5.90547 -2.71858 -0.0459576 2.00398 21.3498 1.72698 28.6914 -32.4885 17.8589 -5.46403 -13.0566 11.6594 27.8908 -38.5485 1.82813 -3.97998 -8.03968 -24.768 -13.7913 18.6698 -6.18298 8.67647 3.52287 -20.2756 47.8536 0.401497 -13.4623 -26.9544 13.968 14.2578 -16.9414 -20.8526 8.85496 -38.5432 -20.4429 6.28358 14.7366 0.384279 25.7528 28.7272 20.5308 7.08133 5.1127 9.23026 6.45393 -4.55599 -1.68371 2.68637 5.06655 4.08521 -13.3688 -6.03651 -22.2438 8.89676 -3.7567 -21.0731 -30.3513 -13.7069 8.51247 9.66845 15.9699 -21.8496 21.1785 12.891 -9.1694 17.4232 -10.5083 -11.49 -32.5322 -22.5563 -15.7071 1.43193 2.90981 -8.05646 18.0226 3.51024 -7.92894 -1.29185 -6.33418 -11.2971 18.3108 -10.0308 3.64549 12.4189 -14.6017 8.45198 -16.3562 -17.9752 -6.05413 -3.87725 -35.6347 -2.4084 23.2547 10.63 0.233279 5.75989 5.61022 8.41311 -25.9711 15.865 -5.9923 3.52446 18.4675 15.1887 -7.66802 3.11259 -12.3004 16.4327 -5.04476 -9.38456 -14.2245 -21.6222 6.77224 -18.3733 27.0249 10.7166 18.702 7.4591 -12.6261 -1.92474 -4.41975 -14.6208 1.6212 28.245 -28.4629 26.5585 27.6244 -8.4363 -10.2219 -11.3257 24.4454 -25.4757 -2.1852 -31.7613 9.41783 16.5443 -12.865 -30.4204 -32.8356 -29.0765 12.3131 -20.4681 15.5457 -4.9877 0.543043 24.8036 11.5423 -29.4661 16.6268 -4.96395 -5.91864 7.13011 12.3866 -17.4434 2.80227 32.0587 -16.4742 25.8051 23.7483 27.1057 -23.0772 -34.5524 15.0089 1.67302 -14.6524 38.2099 -4.7062 55.0598 -13.3453 7.34068 0.443131 -21.0837 -25.641 -41.1755 4.87374 -1.08927 14.7074 0.236701 -47.0298 8.55581 5.13413 -2.69863 23.4167 2.24457 -18.8003 7.14792 13.4333 14.462 4.9329 -10.7653 -19.9969 -13.8137 29.6275 -15.0229 -1.00289 15.4873 18.0722 -10.9517 -16.7542 9.28515 -26.7778 -6.61517 -21.4447 29.3388 4.30373 -9.13907 2.6567 29.3798 -6.6508 9.67094 -9.91302 -29.5443 1.18734 -14.63 -7.97644 3.47198 -24.1421 -2.35646 18.0356 13.8847 14.4671 -3.2808 12.7896 -14.3833 1.47832 -25.4997 -11.3166 21.146 10.4459 1.37596 9.42191 20.7812 -7.82153 -8.29626 -2.47127 10.1208 16.3574 -8.99081 14.7948 22.7213 -52.4464 5.84759 6.66145 14.9202 -23.2565 -30.6389 23.5547 7.87005 5.19658 5.53648 -7.86506 13.7578 -22.1588 3.12272 -16.4971 -6.8024 -14.9379 8.26643 -2.66182 26.8311 -16.0715 12.81 -3.696077 -25.9066 -0.141671 15.2937 -55.6166 -21.8093 -18.272 -20.3647 -27.8165 18.2425 7.41409 24.5103 7.468 -4.37872 -17.231 -35.6106 -5.34447 -12.5089 13.051 11.3179 -9.74865 14.5092 3.76396 24.3142 -29.457 -36.2667 -26.0354 3.51189 -34.7611 -20.2801 -17.016 -42.0365 30.0389 -11.2141 -18.4039 6.14155 -26.8541 1.48155 0.632529 -9.89249 -1.27428 -15.7535 -5.99194 -7.60215 10.2808 7.24528 -26.7797 0.577215 -23.0228 19.3908 -23.7425 6.48195 27.9154 3.57011 -30.0513 1.15708 3.31132 -22.9675 28.7736 10.4793 -12.3419 -4.00292 7.07248 -9.53996 27.7761 -26.5935 -28.2705 9.24271 6.83791 8.91988 -19.7238 -15.2085 25.3185 -17.9613 11.4262 1.25657 3.87201 13.4674 -2.93857 -6.96396 -2.83163 39.6256 18.6525 -8.48122 -36.3587 -34.6319 -16.8945 -34.4779 -1.79675 3.89824 -8.92775 -1.58543 -5.13425 -5.16409 -1.34714 -13.0889 12.3302 31.5152 9.59462 -15.4115 11.4834 -37.5652 -13.1261 -24.9454 -4.14094 19.9257 12.7528 -20.1741 4.018 10.9686 -11.7488 9.88587 16.8743 15.245 19.0708 -4.07801 -1.04074 11.3361 -11.0529 18.2787 -21.3848 -17.8695 5.44689 3.55608 10.1403 -3.57982 -8.81046 -9.06241 6.85013 37.6637 -6.47406 25.1727 -13.8968 16.9632 5.6361 -0.732627 -24.756 23.2097 26.0734 -4.14991 7.48754 -4.56991 11.7489 -1.75945 -9.25516 0.307939 17.3487 30.1846 -7.61095 7.90119 -17.819 -22.7142 16.9511 -19.4599 -12.5165 1.14768 7.75048 -6.07294 -10.8593 13.1542 -6.5154 27.4066 16.8607 20.986 32.7263 10.4237 -21.23 -11.2093 9.37556 -7.80504 6.47518 -5.92938 0.0581721 -16.4702 -4.48066 -3.77783 4.42952 -10.1313 8.32136 13.7954 -4.54286 -3.50768 18.5215 23.4212 -15.3968 -9.07127 -38.2306 -14.5697 12.9733 11.5405 -12.0308 23.1803 13.3814 -10.7019 -6.06727 1.01847 6.36902 -22.2466 -2.50881 -8.0025 -16.8495 4.18824 0.0416872 2.22847 24.5011 14.9489 -7.47941 -3.05454 0.577353 9.98248 1.82707 5.24991 -19.3159 5.54221 22.6778 -1.45835 13.9751 30.1034 -22.1096 5.64935 14.081 2.43506 -13.865 9.63 -33.3112 -13.1057 32.0809 -16.7339 -6.93912 -9.11979 -3.99182 24.2539 -11.5331 11.4939 -4.13928 7.06718 26.5902 -27.6347 -17.2857 30.5284 26.8339 -8.29976 -11.3004 -1.96174 -12.4052 24.4791 6.35755 7.52196 16.463 17.8654 2.43129 18.045 4.34516 48.7948 7.09849 -17.8784 12.5572 -7.2515 39.6386 20.7198 -12.1783 14.7347 15.5342 -2.07636 -1.77502 -12.5873 8.01972 -3.67213 -26.9018 11.46 -8.93715 22.0875 29.8496 -10.9188 -19.223 -13.3466 10.7141 -26.2682 -5.72283 -19.776 22.4649 -2.97854 10.9793 17.858 22.0428 1.79442 -4.67851 -16.7241 29.1338 -3.58116 -6.05903 9.37016 22.6784 9.24528 -7.7243 12.3774 -5.67901 -13.7449 -20.3977 0.753816 -26.1986 -31.0883 -0.473893 -20.2635 3.27146 13.1778 16.8931 -13.4127 13.5619 22.732 -17.8547 -2.48079 -34.6231 -16.6256 -15.8818 -8.66896 14.4444 9.61797 -7.73577 -9.29393 3.56536 4.45704 -6.67202 10.2106 -13.3506 15.3423 -12.5529 -6.01983 -6.34504 -2.67525 -17.3064 -25.9136 -22.5291 -15.5991 27.0656 20.6011 3.7495 14.045 -9.11698 -3.66649 34.6639 5.90728 -9.32737 15.2744 5.60466 -2.26728 7.43577 -10.2914 43.8252 -2.55611 18.389 7.02982 18.0017 -7.58183 -10.867 13.2355 -2.23731 -3.04698 5.25853 12.1011 28.1246 18.9225 -3.6173 1.06815 -0.119264 -17.3918 -2.3603 -1.20878 4.9321 0.737939 3.58751 11.3827 5.54289 -3.31108 3.57256 10.3538 -15.458 7.89936 -2.48201 1.22965 -26.5451 5.45128 -30.8454 -22.1347 29.5929 10.8554 19.6935 17.432 19.0402 31.0119 -21.0788 -0.893887 -19.3743 14.3568 10.754 41.4431 -8.19672 -0.787986 6.21252 -0.574179 -34.533 -10.6896 2.83761 22.2282 -3.27585 13.5058 11.5525 2.62667 38.5875 -25.3242 -12.0515 -6.86075 -24.3874 0.820215 -30.9774 -2.1706 4.48347 3.32615 26.3445 -13.2034 -19.496 15.4438 -23.3537 -27.6376 -26.94 9.92861 -19.1076 13.949 7.01328 0.891996 -3.25589 -3.37553 -20.9974 -13.1831 -18.5303 -3.6397 -2.27192 1.78662 -11.6763 -15.0416 35.1389 -6.12909 25.3173 -12.3203 5.56956 21.7305 41.4588 -17.4608 -4.17529 8.3849 29.4201 14.3205 9.17909 -2.81917 5.64404 -13.7609 10.3292 22.9482 6.88681 -27.6699 2.2848 -50.6751 16.1945 -12.5001 -29.8129 17.315 9.32316 22.2725 -18.9221 7.9638 -9.40031 27.2198 12.594 0.288346 17.2072 36.0917 33.5994 -8.63912 6.91506 -7.38634 -12.2338 35.5853 -9.74246 13.9949 -20.9121 14.1543 18.1253 -1.89795 -5.67571 -42.2871 11.8191 15.3321 21.3899 -0.80178 20.5232 -7.82598 -17.3294 1.85571 -2.77 3.45678 18.3023 -26.5382 16.0903 -1.7257 -1.64609 -14.2689 -6.445056 4.6155 -23.0285 1.89324 12.8584 -46.3342 13.4525 25.4805 -6.80678 12.8132 -8.74349 -12.71 -20.6995 4.31599 7.94928 -2.46565 -44.2243 34.6927 3.10007 -9.81458 52.6981 -12.2389 -14.8992 0.49635 23.0315 6.40627 13.9203 6.71743 1.50493 -18.0094 -19.185 -2.99363 23.8961 12.4953 -12.035 -19.4956 25.7509 -13.6828 11.0365 -10.3728 -4.43664 -15.2338 -2.29541 4.51973 11.3839 -13.7497 -18.9006 -13.2869 1.84703 -34.8475 23.194 -23.0335 16.6696 -19.6207 -0.876012 -21.7125 -18.4457 34.612 -4.54427 -8.84469 36.5568 21.2377 31.3797 -16.0838 -1.13388 -6.0243 -2.14881 13.3766 -34.9536 14.1822 -14.3369 -25.4199 11.7049 -19.1542 15.4578 -5.22648 11.5825 8.27497 -41.3272 -5.44266 -7.88391 8.46053 -31.5607 15.2241 1.40653 23.1464 -0.609569 -6.70979 2.64402 4.5654 -4.56722 -4.79251 -10.0458 -34.1222 -23.5585 25.2692 10.7021 4.29555 10.9028 21.6889 1.2139 15.8797 3.4815 -4.10579 -29.0512 15.0477 26.5402 11.9814 -1.89227 17.7531 -17.4273 3.3673 11.6681 31.3553 -29.3863 -18.3652 -19.1319 -13.8222 9.54857 -23.4462 5.13188 -0.239879 -8.62624 4.30335 9.41215 -19.2166 7.40024 22.8653 -0.0101338 1.69737 12.3939 15.6206 19.7111 -28.975 7.64226 -1.87743 -6.36322 20.3611 -20.0293 7.07181 -21.8278 15.0528 23.6924 4.4527 -1.41075 19.5775 -3.50981 -2.12054 8.01558 -15.409 4.24836 -9.86316 -7.14566 8.68838 -24.1981 -9.12937 5.63799 23.8208 -23.3455 -18.49 -7.68438 17.4258 -7.40263 6.34882 -7.00284 24.2373 -11.7102 4.82163 15.1033 -15.2237 -8.2218 -22.0256 -14.0137 5.54027 23.9341 10.1119 -2.03388 -8.13069 -22.1595 -3.36076 8.80735 -19.4944 7.13487 -10.9091 6.64791 16.8427 10.2449 16.3414 -17.6584 -8.14649 -22.3966 7.01144 20.2663 -26.2804 26.7881 26.0581 14.5354 29.1331 -17.4221 8.54506 -10.3171 -12.7107 -3.01542 -0.380078 44.7627 -24.4141 -15.8107 -38.3465 47.8856 1.97637 27.4415 25.5929 14.2071 -12.9633 -1.14182 5.4724 10.3474 -23.2872 15.2209 -2.85549 2.23847 8.7524 26.6484 16.1739 -12.5761 -22.1774 -0.763085 -0.0758267 2.78604 -1.67206 0.650782 18.8485 -7.28813 9.89136 -4.3874 13.9369 4.70681 20.5557 -23.6348 9.38474 -6.57132 20.6384 -8.9401 5.41856 2.17383 16.3018 -36.9348 12.3351 8.78956 -10.2069 6.25647 6.70944 -26.9636 11.3833 -0.820092 -33.2036 12.3792 -26.0214 13.2201 16.1295 13.2095 -2.55769 35.6597 0.284797 -23.4752 19.5739 -11.3143 1.8565 29.0356 26.8153 31.3572 -1.39555 10.6879 -10.403 -0.526443 -22.2038 21.6692 9.41734 -7.58996 -0.265455 13.8103 10.5767 -18.1284 -4.53567 -20.553 -16.3864 -16.3972 -40.3117 2.71359 17.4286 -6.99111 -8.14905 10.2673 1.09019 3.74749 -11.5911 4.46272 8.33006 -3.77429 3.30674 -18.0434 17.7326 5.06125 23.6219 24.7461 -0.404186 14.4579 5.4091 6.65449 -1.49828 18.5352 22.725 -7.75421 16.553 5.59514 -5.15665 -28.8191 -13.6908 19.3143 -3.3427 -4.98532 20.4126 -6.12085 -4.72768 25.42 14.8898 10.0699 -16.2227 4.8569 9.15073 17.2614 -32.7821 -7.31907 39.6759 -5.62162 29.7406 -2.31122 18.3778 -1.21811 15.9333 22.0908 14.6727 -3.90979 -8.64139 25.9317 -11.7844 -12.0548 -0.729508 10.9513 -14.6602 -23.2898 -7.49913 4.87051 50.1778 -9.89733 -14.4314 41.1303 9.45916 28.7724 -16.0554 -16.9574 2.02924 -0.189522 -2.4792 -12.5778 -7.99219 -6.79471 3.26256 6.6042 -1.31754 2.22041 -17.9532 -0.062317 -1.95459 -7.27562 22.6964 -0.295899 -16.944 -5.55047 -7.82074 -3.53361 -0.429098 -4.80727 7.02987 30.8668 10.9587 -5.04715 -7.0754 14.8553 -11.5848 23.0022 17.4649 19.3614 43.9568 -13.1022 -10.8561 7.38969 25.1042 22.4434 11.4958 -18.4252 6.25446 -32.4524 -2.56509 9.1577 1.73876 25.088 -1.21208 -4.6017 -26.4317 -4.37043 -14.0015 12.4382 0.869654 45.1596 -8.95572 4.5857 -51.9977 12.7026 12.5147 -28.9407 -7.62555 -49.0944 13.8915 1.14176 24.9263 8.54927 2.01672 0.792681 6.3238 53.988 4.74398 -14.3106 -40.1681 18.5398 0.774682 21.711 -2.13227 -1.17496 -27.3121 -8.15083 23.2439 -6.99265 -27.8429 34.5763 -3.89569 -17.9954 -17.6479 8.61714 11.5544 8.6268 0.520948 7.202 -3.04594 13.6386 9.77995 0.724265 -12.0728 -2.21375 -10.9299 -17.1575 20.0399 -5.26395 -19.6883 5.03366 33.1648 -36.0349 17.7448 12.5588 5.55241 -7.41241 4.45399 30.8988 6.57222 -40.8934 11.0878 1.5919 -20.8599 -7.86646 9.7565 14.5454 -27.1507 36.9992 -15.8767 -30.256 -15.2273 11.3441 36.6869 15.444 6.95724 4.63368 -5.76757 -0.247016 -10.3849 22.5912 -17.4976 -25.3093 -9.01286 -20.4004 -4.97543 -0.338209 -29.0917 2.02199 5.13749 -26.6255 23.049 18.260702 14.2162 9.19877 4.84848 -3.06057 9.06222 2.95456 28.1365 -10.9106 3.50103 -15.8518 -10.5543 17.1715 -38.8381 13.6379 5.00498 12.1114 10.4347 -1.26621 5.41807 -17.5524 -9.37564 -13.2518 9.04648 18.2183 -1.70391 19.9823 25.0548 13.7788 -5.20256 43.119 -2.83486 -13.4283 19.9748 -1.8957 -30.9088 16.8232 13.0744 -18.5671 54.6549 17.1764 11.8364 20.8748 11.5917 17.2692 6.76669 -25.3618 -25.9383 8.24684 -8.39528 9.99544 2.819 -9.79365 6.97732 -13.7041 -11.9192 7.5916 8.23774 7.47837 -21.8962 -18.496 -13.5164 -7.03677 -13.5877 17.982 -16.2111 -7.97858 14.7403 11.1815 17.5971 -7.43236 -5.35697 8.52967 -44.6965 -6.61776 10.8266 0.784761 8.05053 -35.2146 -28.879 -3.93939 -3.32535 34.7475 6.17958 -7.23386 -19.1291 -14.5848 -38.1649 20.4932 30.529 -26.8873 39.1799 13.847 14.2541 -21.2549 -14.7159 -43.7946 -13.9058 3.66247 -14.3443 -9.58659 -44.5665 15.9428 -10.6519 -2.57698 13.0866 -5.86682 -22.2319 -14.1311 6.56977 17.415 0.176636 23.5791 31.5739 7.20137 -13.1287 10.0221 0.606713 1.19223 13.0526 -25.303 -4.15162 -1.15341 34.394 34.4605 13.1622 -0.697171 11.2716 -3.22837 -37.6831 8.73623 -29.2872 -6.08155 18.3943 6.14344 5.01297 13.1326 -2.63594 4.59078 -9.96593 25.6689 -25.1206 6.85966 34.221 21.8235 -10.7725 -7.43041 3.26005 20.8766 7.48985 -2.28584 -20.5272 4.97933 7.87798 -10.3602 -15.1361 -2.01561 21.2627 -15.5306 10.8659 -25.7999 -11.1128 23.952 21.776 40.0978 -28.7231 12.7572 -7.12571 -0.0731155 -4.68477 23.2119 -1.75793 -5.66795 -11.4659 6.45705 1.24106 -7.18327 -34.4301 -10.9377 14.7129 31.2228 -16.1749 -9.93433 -2.16005 11.1102 -14.704 35.4552 -19.2906 -7.9267 -6.38918 13.0824 37.5623 -21.9845 19.2371 11.0231 21.7102 -17.6604 -0.10876 0.368973 -10.8208 13.0861 -10.8789 -8.54183 8.00738 -14.9916 22.0899 -37.4569 24.2335 -22.417 -0.467606 -10.1101 3.59703 -24.0364 -5.08146 -7.66533 -40.1064 21.8632 -2.21748 27.2531 -6.95077 -58.6275 36.2614 6.97616 7.84997 -21.2579 -4.20795 -1.33879 -3.61498 -18.9467 -16.9619 -1.43357 -14.8302 -7.12125 15.9598 -26.2056 -20.0533 -0.154364 15.0976 -5.54637 -20.8108 -5.85167 -16.9607 1.265 -20.7223 10.9991 11.0733 -10.3936 -11.6204 -10.9871 -3.98256 -33.0105 5.99713 -20.4653 0.265994 -5.01211 -16.7783 -10.0998 -10.016 -15.4255 28.6683 -16.3674 -9.47484 1.93379 -4.91422 -7.42167 -11.9883 -24.3222 -20.3201 11.9921 4.11572 10.5256 17.1017 -14.4677 -6.97666 -23.6038 2.12611 -6.77737 13.5936 -2.03418 31.0372 13.3328 27.6819 35.6343 0.669753 1.2045 -14.3167 -27.0475 -17.8305 32.0189 -9.75652 13.478 16.4244 8.47689 11.1567 -7.94311 -11.8303 20.4634 2.45626 43.5733 -0.176339 17.5979 8.69778 -13.9064 29.9627 -10.2396 -30.5858 1.49676 9.50911 0.535791 16.7861 -1.50048 -27.3906 26.5961 7.45294 13.1424 -0.812097 0.0316763 -4.43226 19.7081 16.1911 -5.3878 15.9999 -16.9229 -35.4794 -31.0187 -3.26395 15.5235 -11.3338 13.7994 19.4739 10.9343 15.995 11.8094 -6.6042 -20.5065 -5.2371 17.8571 -8.85659 5.776 -16.2108 3.83635 3.95215 39.2949 -7.16135 -12.4244 3.00962 6.47547 -1.33579 -3.335 1.97174 -24.9129 -52.2319 6.21307 13.6813 -5.91291 12.8287 17.5511 18.0683 -16.0839 1.81421 -21.1355 2.24158 8.22803 12.8098 -37.2264 -6.22939 -9.93744 33.4958 11.8421 12.1364 11.4453 -33.6632 1.02176 -14.6008 -22.5676 12.4683 -23.9555 7.03512 31.5962 11.2212 -25.2478 -14.0491 -6.07105 -9.59743 10.3411 -13.2825 -9.78215 -27.7903 19.5803 -5.04318 -14.1759 -12.1422 -13.0686 28.9434 -31.086 -0.115601 11.6445 -1.63024 -33.8659 -14.8502 0.742268 3.3239 13.7163 -14.4789 -1.00816 6.43367 5.00521 17.2371 12.7794 21.2071 -8.53731 13.9723 -1.05991 35.5637 2.06812 -3.41777 -14.4809 7.54044 22.1818 8.53615 9.4655 12.21 16.8326 -9.9613 -35.7256 -1.24467 3.45386 27.8398 -5.43413 -11.2479 15.0507 17.7253 0.579369 -7.36253 6.79763 -27.2952 -4.35725 27.3569 3.09666 -8.11048 21.5514 0.204533 10.0397 9.03538 -15.1196 1.85527 28.3407 -0.202407 -6.72884 37.5786 3.68572 -23.3281 -3.39194 9.63006 -18.4755 -9.40098 0.167301 -24.1425 7.30662 -11.7107 -5.31352 21.473 -6.86093 4.20753 0.377699 5.00613 27.9032 -23.7411 7.87664 -2.52657 -6.21027 -31.8323 -14.8696 -24.2923 30.2846 21.5272 -34.7809 -1.1102 2.58137 4.54543 -1.87932 33.2599 -12.557 -9.5153 19.4068 -7.97966 -12.5091 -21.2177 2.88237 -0.566364 -11.0659 3.85247 6.15698 -21.9163 3.74114 18.5913 -29.8408 10.3592 -18.7596 -12.4514 -18.4109 -28.9107 8.17384 -7.1862 -0.704242 -21.6029 -30.576536 25.5653 -24.3919 -4.28212 23.6285 0.312937 -8.40761 2.01679 11.1665 -11.1572 5.25919 19.1895 -10.6858 20.8302 9.69142 -4.34296 -12.202 -13.8545 4.12324 -6.85818 3.18998 -0.133242 4.9512 21.6265 4.02557 10.9425 -6.31843 7.51048 6.33369 -20.4288 -7.18059 -6.04528 -3.37303 14.2681 -19.3088 18.3966 15.3159 3.59557 4.20729 6.27687 43.5661 17.6124 -19.4384 -4.06147 -45.4195 -10.019 22.8706 -12.2871 -1.64226 -0.212894 12.7355 20.2023 -5.17521 26.0298 -21.228 -11.2622 22.4653 9.80547 -11.9518 45.0418 7.35466 -8.81979 -4.52852 7.05398 -6.35561 -28.248 12.1185 -22.0259 14.4797 -16.1149 17.4917 -6.52951 14.3487 -0.338999 8.71725 6.07336 -18.1204 16.4823 11.6915 -18.2217 8.076 12.3935 -0.858909 7.81719 24.9791 8.07019 6.64865 2.62165 15.7708 2.50673 -8.4114 -7.0175 -14.6773 -2.61519 -5.97143 -2.62027 16.1779 9.13286 20.5404 -3.48675 -33.0443 17.6745 -18.0351 6.02851 14.2284 8.85616 32.123 -3.60246 -23.208 -8.42732 -19.5722 13.0339 21.413 -21.4204 13.4909 15.5432 -1.01138 15.9794 -3.39763 -0.787923 0.15308 18.4119 22.2048 1.6433 3.32646 -31.0775 -15.7354 23.61 20.1842 10.5291 -2.39747 9.06541 17.5835 -1.54759 21.1548 3.3801 14.9178 -1.93677 4.1728 2.71975 -0.0927201 39.4991 16.3553 19.6585 11.8289 9.96558 -37.0723 -10.0661 -16.8105 -37.2508 27.6589 11.4324 2.82589 -2.11053 -7.20896 38.3267 5.44884 19.544 -17.0492 -6.57882 14.6264 1.05916 -12.0452 -34.3158 -1.80566 -1.28507 -2.41755 3.95269 -6.87472 5.15232 1.26884 -8.15876 2.80856 3.4962 11.7451 -1.16948 -2.21436 11.1684 15.6083 -1.4564 -33.0818 -21.6241 13.8404 -6.78511 7.99751 -7.69438 -18.7525 -26.6644 -9.22416 11.9829 3.86168 15.499 -0.537602 -19.162 27.2476 -12.5756 25.6277 -2.0473 0.772481 -24.8211 -9.43669 24.9883 36.8113 -10.4328 -17.9163 7.81304 -10.1305 -23.2679 -9.2572 35.8051 -1.32688 1.93029 0.511803 -12.1519 -5.83233 -0.508209 -13.1199 4.02864 -47.5267 -8.02184 33.3977 3.9859 33.771 27.5207 23.6572 4.98459 -17.8759 0.343687 13.7151 -9.34195 -20.7541 21.488 -26.0591 -26.561 9.19479 10.7019 -20.6818 15.688 -22.9953 30.5435 29.1647 0.48848 26.2752 7.64507 13.3057 5.1594 12.6689 16.1904 -8.31769 -11.5758 -9.63455 -1.4431 12.3938 0.293282 -1.54966 -17.8349 -20.8333 19.6154 -7.76183 -8.506 7.29497 0.322098 22.5306 -13.6921 24.9729 -6.6268 9.81939 -4.94894 15.0992 3.36448 -3.5764 -19.5596 -17.4938 2.8431 -8.43812 4.24371 5.63354 -24.7002 -5.63586 14.2406 -12.3826 27.8625 1.82287 8.37855 -42.1474 -19.3509 8.67666 -2.88827 10.9596 -34.1558 -11.7652 34.9314 2.20496 -12.5626 -28.856 30.0712 -21.6354 -13.3438 -36.9171 -22.5811 13.0103 -3.91448 -1.60089 -2.39362 -2.7654 7.48137 -27.3188 -12.7193 -17.1666 -1.73534 21.2801 11.5726 -5.10343 -2.29289 26.7459 -10.2555 4.86142 21.7956 -29.7818 -14.9586 16.9902 13.7953 41.7647 23.7093 3.27892 -28.5015 -11.3854 14.2043 -4.16794 -21.845 -1.61443 -20.3904 3.63866 2.09088 14.205 -27.7809 0.807693 16.022 8.78298 -20.689 25.2415 39.047 36.4366 31.1152 -3.27098 -11.6733 4.02827 -10.0382 -8.49323 41.4737 21.8547 3.63458 -9.77985 6.58126 7.47503 -14.1194 -23.6478 -7.00443 13.4649 -22.8623 -1.91553 -6.26063 2.12525 12.4302 6.57204 -19.375 6.11275 -20.5391 -24.3136 -14.9191 -31.9888 -12.1103 30.1918 11.6327 -20.1423 20.7984 -20.6729 15.0904 -20.4288 11.3343 -13.128 24.4241 1.35471 -4.43336 -33.3889 -9.68132 -28.9881 -11.4964 -1.73596 -26.5793 9.2167 -9.69829 -11.1696 30.2723 -6.30157 -6.31837 -3.6096 -28.0708 1.39744 25.5103 -30.6679 4.27741 -24.4788 1.57335 20.0222 19.0188 14.5705 11.5514 13.902 10.3623 4.27509 7.16812 -20.9549 16.3928 5.49486 32.525 -2.87289 26.1285 -28.9722 -10.3682 10.8484 15.2667 2.39229 12.1287 -49.2168 7.62346 -6.493 4.17268 -15.3134 -8.75491 4.3338 17.5446 -27.7938 10.2273 -16.5428 -18.0893 -29.9344 -10.8039 0.59406 17.306 38.6636 -4.49002 -9.96404 -4.23493 31.1117 8.1189 -3.95556 25.1818 -32.2759 6.12269 -0.828385 -7.67937 -17.0621 0.0254513 -5.48143 -3.95691 11.6558 20.661 -7.05491 23.705 12.0445 -31.1834 -17.8074 25.7444 -0.229745 4.54696 -1.03104 -24.5394 -11.338 -2.84176 8.95388 -27.0122 8.82059 20.9027 7.75353 -29.5679 25.1562 -26.6557 7.7813 9.22007 29.3702 -16.5793 -9.91256 4.62356 -21.6263 20.1892 -11.8818 -15.5224 6.15448 5.25052 -15.5864 -14.9171 14.0477 27.8875 15.2512 -10.7109 -11.5166 -8.14491 -23.7967 7.77941 11.1475 18.8967 -24.3272 -7.46794 0.58901 19.9067 -4.238637 -8.52566 6.26386 18.8156 -35.5247 -8.68185 2.016 4.14356 43.4284 -6.40467 -16.0098 -14.7516 -7.28659 -25.1385 -12.0074 14.26 5.31404 26.1137 27.2848 -15.307 -23.2232 6.36091 9.80694 23.7704 36.3111 -32.5829 -20.1474 -0.597738 11.7747 28.8659 -4.82315 12.8867 25.649 6.19428 -7.47563 10.2701 30.9051 -14.8432 2.63154 -10.5962 9.83763 -6.70936 5.62255 3.69878 12.8289 19.6267 -10.1185 -16.4456 -1.96203 -6.40071 -12.6606 12.4818 11.0495 12.1381 -11.7983 4.90482 -30.5647 -14.0657 -11.8803 16.6702 5.28348 -4.08411 4.79453 3.21543 -1.37577 -9.10224 9.0217 10.4524 28.8394 21.4184 9.17294 15.32 -11.0325 16.7649 -13.894 -6.96975 21.9856 -5.802 15.5335 -27.9959 3.98829 23.3478 18.8003 13.4935 17.3373 22.8018 25.1312 32.8812 0.732863 23.8818 -5.71954 -14.3118 -22.7811 10.6176 34.6553 -18.7451 -18.8509 -7.11021 25.8418 15.1037 9.0507 -12.2237 -11.3989 13.0093 -20.5337 4.07141 13.279 -44.2659 22.7102 23.0097 5.65423 -16.5242 -20.4381 4.16058 -16.7491 -37.0306 -18.0833 -6.47347 -4.94815 32.3134 -19.6563 -17.1876 -0.328626 -15.5471 -4.38837 4.89536 -13.0343 -1.62615 -12.8782 -3.52367 -35.9307 34.9681 31.3168 22.9157 26.8809 -11.4113 24.9821 -1.73357 9.97409 11.3071 -5.4766 -30.5135 29.9593 0.836401 -5.84021 5.84325 -10.7231 11.1556 6.06159 -11.5028 -20.573 6.81942 -28.5771 -8.71517 -9.37023 25.9541 7.47802 -4.31769 -5.0588 -15.0601 -2.55709 12.9591 3.79314 7.78435 0.406507 8.51406 4.9689 45.1776 2.16126 11.4041 26.0291 -25.7645 -36.0517 -11.9361 -14.842 -4.04864 -7.82299 11.2027 -5.53112 -20.7107 -13.9567 8.89254 22.7192 5.01589 4.11695 24.8519 0.490737 22.185 4.84532 -9.09409 20.7922 14.3204 -1.992 2.64407 4.09662 10.2974 2.09876 19.2509 -27.1721 8.88766 4.65455 0.539933 -13.7206 -11.9847 2.51259 12.1692 -11.0372 -12.3118 11.0153 18.0404 5.40691 -34.3842 