1 0 0 0 0 0 0 0 0 0 0 0 0 0 0 0 0 0 0 0 0 0 0 0 0 0 0 0 0 0 0 0 0 0 0 0 0 0 0 0 0 0 0 0 0 0 0 0 0 0 0 0 0 0 0 0 0 0 0 0 0 0 0 0 0 0 0 0 0 0 0 0 0 0 0 0 0 0 0 0 0 0 0 0 0 0 0 0 0 0 0 0 0 0 0 0 0 0 0 2.89636 -5.23432 3.99985 1.33772 4.50304 -0.423017 -2.67364 -3.87893 -4.26701 -2.47044 3.37727 3.7228 -0.775567 3.49312 0.203345 -4.98785 0.299295 0.70043 5.50032 -6.27787 2.30131 -5.50435 -3.88907 1.68862 7.62624 -1.01215 0.825068 4.20829 -1.60732 -1.21198 1.90237 3.20905 3.68575 -0.968932 -0.229286 -1.08405 -0.687551 -2.14267 6.32542 1.69692 -2.99304 -1.45235 -0.727836 6.78399 5.02228 -0.50029 2.95251 -2.44975 1.04413 -0.769769 2.08524 -5.96408 -0.627857 0.592761 -0.137608 6.40373 -4.70788 1.39723 2.84173 4.01938 -1.40553 -0.380413 4.06638 -6.16208 3.15656 -5.61055 -1.14661 0.789361 -3.45454 -9.05859 -1.31007 -2.15714 -1.43324 -1.27961 -2.33189 -3.55312 0.697256 -1.17688 -3.09626 7.02667 5.3473 -0.0271921 5.37251 2.22349 0.879574 3.20319 0.60033 -1.42354 1.33222 -1.55208 -2.35185 5.31605 4.77331 5.21992 -2.17417 -6.02835 -4.76629 -1.43556 1.57582 5.47493 -1.84927 0.48381 -5.04096 2.44322 0.259194 -3.99399 0.189734 -4.66118 1.87069 -7.89865 1.64217 2.18387 0.476974 -3.37959 1.78341 -3.47938 -6.3834 5.4496 2.45756 1.30982 -8.06424 -2.93243 -2.03702 -0.556627 -1.60713 2.69543 -0.638844 0.572985 0.530564 5.21815 -5.5475 0.927183 5.76479 -0.925413 -5.14093 -4.18021 -5.38099 -1.69906 0.649403 5.52309 -2.15006 -5.08917 1.94034 4.20365 -1.60915 -1.19581 -0.0730312 2.60118 2.06326 -2.60808 -5.24622 0.144322 -2.01724 6.12119 0.691763 1.18476 2.60613 -1.90854 0.0381173 -2.95904 -1.65285 -0.0510574 0.186621 2.53856 -1.28944 -1.75698 5.30378 4.73174 2.8692 1.43843 -2.95447 0.501267 -0.368938 -2.23618 -6.24058 -3.29572 5.73251 -3.90872 0.598926 -4.42479 -1.61354 0.0281077 1.99606 -4.94202 1.03803 -3.58986 4.92792 0.75988 6.25144 0.38963 0.411176 -2.78625 2.67144 2.29392 3.66817 1.13776 -2.00015 4.45555 -1.6072 2.37614 4.91852 -0.810786 -0.433576 -0.787714 -6.10288 -5.88845 6.24772 -2.25755 1.83309 -2.01205 -1.21607 -4.00833 -1.55867 -0.706839 -0.120334 0.46617 1.35542 2.6751 1.95181 -0.173864 1.85568 1.50899 0.222388 1.36604 -1.82186 1.72726 -4.02561 2.9928 4.3314 3.11615 -0.584033 8.38682 1.36409 -0.737602 -1.41426 0.0328073 5.01917 0.342143 -0.260964 5.81185 4.71215 -0.0638139 1.65322 -0.163792 -0.229224 0.0594195 -2.71361 -6.77783 1.87558 1.59273 1.23206 -0.521042 5.63411 -1.69332 2.40025 -1.79025 2.23075 3.66067 0.37083 -2.19217 4.09116 2.5656 -1.15076 -5.16443 -2.50945 -2.69689 -1.3343 2.7766 3.05426 5.78146 1.75771 -6.15738 1.07538 3.31678 0.565234 2.53233 7.60463 -1.86325 -3.71346 -1.3835 -1.77267 3.77792 0.424177 0.251503 -0.512436 -7.42268 5.06232 2.89544 -5.12085 -4.5573 0.310159 4.72521 -0.646901 2.08322 -1.64431 4.23234 -2.72887 -5.10407 0.556139 0.694937 -2.25175 2.69189 -8.98651 -4.79534 -3.68215 -0.552477 -2.93347 -1.05945 0.859554 -3.72658 2.13742 4.3773 6.72637 -0.217078 -4.62822 -1.88656 1.00592 1.05304 -4.48839 1.01032 0.861202 -1.63924 1.43245 2.32389 5.87857 3.88522 -1.21345 5.52345 -2.63567 5.56136 -0.806269 0.477462 -1.46516 6.27488 -0.594715 -0.296243 2.52104 -0.416181 -1.10852 -0.640431 -5.85824 0.153783 7.2837 4.66961 -3.62429 4.09787 -7.89468 2.47288 5.46596 3.40315 -1.75863 0.579028 1.60231 1.63869 -2.43498 -1.37831 3.1156 -2.8753 -1.81912 2.09281 -2.88195 0.757195 3.70333 -3.75002 -1.46565 4.66802 -5.9827 1.58321 6.45354 -1.08179 1.96109 1.52504 3.74343 0.401044 -0.642689 0.0966522 4.86718 -0.850825 -1.15656 2.1746 3.83193 4.23435 -1.07038 2.06449 -4.78503 4.43791 -1.27644 1.07324 -3.7991 3.89425 1.76461 1.76272 0.566454 3.88046 -4.60405 -6.42338 2.5551 2.94787 -4.87689 3.52425 -0.428266 -1.41823 2.38414 2.6101 1.64418 0.574633 -2.82141 -6.30088 2.57866 -6.69762 3.99185 -0.498398 6.75616 -0.909421 2.4434 0.366192 -1.50008 -6.14286 -0.889766 2.57006 5.95883 5.22169 -0.0495318 0.792108 2.43242 0.264137 -4.22758 5.45918 1.09223 7.12696 -1.81661 0.645741 2.02029 3.64187 6.4572 -0.774163 1.51125 -6.82763 2.75494 -1.04474 0.575793 -3.14069 -1.85714 -3.82595 0.577013 6.455 4.83703 -1.17866 -1.05524 2.93408 1.11548 3.44179 -5.10089 3.07379 -1.65975 -0.121616 -3.87564 -0.820734 6.51927 2.33634 2.32914 0.156102 -6.15433 -5.49629 -1.36976 1.10382 -3.33644 3.42073 -1.29975 3.6296 -0.71923 -2.22007 4.61254 0.060091 -3.92178 5.34993 1.32209 5.74612 -8.64837 -2.79461 -1.27528 -1.3578 3.3169 -2.5443 1.22193 -1.64626 5.72317 4.15525 -8.2595 -0.165502 5.51082 4.08444 2.1362 1.92355 -0.0543532 1.09174 -1.07935 3.91086 3.67574 -7.31996 -5.74685 -1.68184 7.13898 0.526536 -6.87097 3.08155 0.766351 1.62398 2.70592 -0.679067 2.4174 -4.26981 -1.29743 1.89322 0.47911 -4.18332 -3.18714 -3.09638 4.07395 1.1944 -7.93472 -2.62432 -1.19135 0.0176096 4.07193 3.25465 -2.49394 0.841365 5.09851 0.942809 2.35191 -6.07218 4.90075 4.54924 1.89865 7.98617 -0.745171 0.0384839 7.36244 1.02918 -3.8702 -3.52602 1.65053 1.04651 2.429 3.53578 -0.444502 1.16675 -4.75439 -0.497971 -3.44331 5.00562 4.57091 2.88678 2.66344 -1.11267 -6.61882 -2.08713 0.737663 2.6209 6.05765 -4.98199 -0.261513 1.52492 3.05963 0.569262 0.317301 1.38551 -7.19507 -3.01685 1.20972 -0.964477 0.683523 1.43788 -0.145054 4.24107 2.14109 -1.6429 7.68606 -0.415143 -2.21824 -6.13511 -4.47722 2.03537 3.417 -4.61235 -0.488876 -3.11756 -3.00171 -3.40095 1.03797 -0.263588 3.37922 -7.10822 -0.930662 -0.731071 0.834956 -0.436506 -1.65975 8.39158 -1.71633 -6.09452 1.8392 -5.44911 -0.856441 3.38124 -2.97742 -3.16163 -1.23548 -2.9187 -7.80239 -1.41145 3.37001 4.64678 0.510727 -0.832148 -0.549364 -0.161962 -2.02335 -0.370403 3.54286 2.95141 -1.00702 5.93173 1.33247 -4.74316 5.76662 -3.60408 0.0193182 3.65517 -2.90069 1.10608 -1.11927 2.73272 2.96924 -0.0790123 -2.02536 -1.58901 -1.66732 2.80169 1.91214 -5.63009 -3.39344 -2.86755 6.64635 -6.562 2.24613 1.72475 -1.79379 -2.86676 2.87255 4.19272 -0.676748 1.54512 -1.6249 7.38789 2.87457 4.74395 -0.562303 -4.42027 0.0928069 1.90384 -1.08527 0.0702839 -7.52473 -0.670705 0.505173 -1.07263 1.32844 3.57222 6.15238 -1.46925 3.88424 -1.17792 4.61486 3.60884 1.93387 -3.23188 2.6433 -4.53423 3.90646 0.106968 5.19739 -0.926878 0.335245 -6.10636 6.14536 0.723502 7.6487 -2.07974 3.88015 0.930967 -3.77731 -3.69338 -2.70635 0.262124 -0.366497 3.49812 4.5407 -5.20856 3.04437 0.846004 4.03476 -1.13776 5.66829 -1.02564 -3.88778 -6.15323 3.2447 2.10337 2.80261 2.58776 -4.53978 1.53035 -1.86135 0.209754 -3.73849 -5.5522 -1.54933 -7.00507 -2.01334 -0.708243 3.07746 1.99789 -2.73559 1.79971 -1.06934 5.09735 -0.391704 0.978149 -0.643666 0.170324 4.64879 -0.847529 0.722342 -2.92792 4.94018 -0.699149 -0.822626 -6.88592 -1.72268 1.84732 1.013 -2.27586 2.46611 6.11173 -6.9295 -1.02057 4.47331 4.59606 -1.37239 -4.30406 2.9079 -0.69921 7.2013 3.76626 5.76022 -3.7452 1.70864 -1.57155 2.34062 -0.553087 -0.579455 -0.840937 -2.64318 2.34837 -3.85586 2.87194 -1.93802 -1.78713 -5.92563 -3.88559 2.4185 -2.65886 -1.24946 5.94778 5.20771 4.49675 -2.44432 0.195654 4.02799 -3.33668 -2.80114 -3.24268 0.118442 0.328227 -1.38984 6.65954 -0.0602739 10.4827 -3.30354 -1.45387 8.45946 -1.48073 1.38881 5.2909 0.0699788 -0.772149 1.41713 0.412275 -3.91549 4.06027 -0.7434 2.99066 2.74114 2.86419 -3.32136 -3.2331 0.656911 -2.73077 5.34339 2.11039 1.67171 -4.08713 -2.12546 -3.4521 2.01236 0.691885 -0.149632 2.53832 -2.2794 -3.77047 0.152562 6.17917 3.27967 -2.25248 0.104587 -4.46458 -2.62249 3.52327 -5.15497 0.279886 -1.2544 1.12891 -6.63646 -2.67779 6.00668 -0.36784 4.64873 0.129063 -1.52596 -1.04944 -1.62972 4.41221 -2.16245 -3.45357 -0.447432 -2.12607 -0.32841 2.64708 3.65645 0.701468 0.707938 -5.81808 -2.47899 2.49174 2.80554 2.62145 2.5988 2.301 3.55666 1.90402 3.92013 -0.500229 -3.52986 -2.35643 -0.776238 -1.87436 0.664113 1.79922 -2.30143 -1.58174 3.00616 -2.00143 2.76116 -1.77236 0.645925 3.70107 2.31895 1.97903 2.86499 2.38652 0.949278 1.88412 0.194128 -4.0383 -0.565905 3.08783 3.72762 0.567858 -1.91037 -2.56755 2.57146 3.97647 1.32063 -0.465255 6.37181 -2.2349 -0.148412 -2.14389 -1.15082 -9.54366 -5.94497 -5.54378 -0.712088 -3.19019 4.82806 2.12088 -2.09525 -0.547044 -0.554003 0.544176 0.0489212 0.0405591 -3.1623 -3.73971 1.15937 0.129124 1.71242 0.00753793 -4.57567 -5.04834 3.98239 -1.78732 2.07346 2.28587 0.914121 -1.71541 -1.75063 -2.40666 4.45006 2.4058 -1.61367 -4.36711 -0.868161 -0.497421 -0.958739 1.71731 5.07025 2.09311 -0.890072 2.81487 -0.605457 1.68783 -1.63265 1.67721 -3.38173 -0.559496 4.2714 2.18143 3.36256 -4.27073 -0.0383009 -6.92456 -0.129368 1.36171 3.40266 -5.68685 3.75478 2.08676 2.59172 -0.835383 2.40898 -4.89648 -5.21387 0.295022 3.52925 3.25373 -1.3238 0.992493 2.17509 -2.41685 -4.55535 -0.262124 -2.18772 -0.0332346 5.65279 1.30164 -0.225074 2.47343 3.8843 0.554003 0.579577 1.16816 8.09348 2.17905 -2.46471 3.03742 1.58541 -3.52119 -3.91629 1.71572 -3.42604 -1.54677 3.30641 -3.28272 -0.75219 0.346233 5.03644 -4.15647 -0.71038 -1.15656 -2.98352 -2.53185 -0.220557 5.11029 -4.46513 2.37425 4.42296 2.85705 -4.02109 -0.15598 4.04117 -1.38087 4.74596 -0.322306 3.26002 -6.56096 0.944517 -1.16523 1.33662 6.1395 -4.66948 0.38438 -5.94113 3.37068 4.90698 -0.548753 2.65752 2.62804 -3.37117 -4.15519 -5.33363 1.41646 -1.34284 2.06137 6.67254 -7.24274 0.585559 -1.65877 5.8851 2.22361 -2.91052 1.47639 -1.52846 0.686941 -7.56905 -4.95227 -0.41026 3.97079 -3.74599 -2.21317 -2.94269 -0.411115 4.1124 -4.25791 3.59694 -2.23417 -2.83648 6.94769 -2.4116 0.919187 -3.52907 4.26652 3.27851 -3.20533 -1.65365 -4.88543 -5.63124 3.44288 -5.82626 -2.26316 1.93307 -2.78106 -4.84765 0.731376 -1.40681 0.00546293 -0.607471 3.50722 1.89901 -3.17377 -2.19285 0.363445 -7.16224 -1.9404 -1.7676 -0.123081 0.425275 -0.574023 4.21677 2.28556 0.302469 -2.06418 -2.08683 0.554613 -1.71432 0.999634 -0.478744 1.8168 -5.19788 -1.13373 -1.30122 -7.13324 -0.851558 -0.400678 -1.59786 4.40721 1.51173 2.75933 -1.4247 5.72091 -2.309 -5.00501 0.134617 2.47276 4.45463 3.72164 2.68322 -0.686453 -1.53011 0.0743126 4.39335 -6.01736 0.748161 -0.667715 -0.505356 -3.40577 3.53548 -6.01108 1.80599 -3.20588 -2.4069 -0.332805 -2.25504 -3.52461 -5.20008 1.05658 -2.74041 -1.26057 2.01859 -1.92917 -3.88852 -5.20801 1.15674 -0.595447 -2.04556 1.45955 -4.62847 -0.319559 1.64345 -4.98627 -3.657 -8.62725 0.208777 -2.00668 -3.4388 -4.30076 4.94104 -3.29298 1.56178 -8.34019 1.01263 0.111179 -1.95041 -4.57958 0.0859708 3.74319 -1.15485 -0.778252 -1.66585 -4.59838 2.59435 2.00082 5.3213 -5.73922 1.17457 0.919919 2.17313 -3.89334 2.74139 -2.01852 0.480025 -1.62142 1.34577 -1.0788 -1.63399 -4.29032 7.06635 4.56615 -2.83441 -0.347819 -4.41307 3.84524 5.14124 -0.731071 5.16706 4.64006 -0.318339 4.28904 -0.072787 1.66207 -1.57826 -4.49565 1.40608 -2.45445 -1.28846 -1.89389 -4.68981 4.34257 -2.11698 -1.36537 -2.59758 -0.393597 -6.25315 1.24439 -2.53484 2.25553 -2.24509 1.96146 -0.726432 2.3986 2.27018 0.626332 -4.47868 -3.68453 0.377911 1.20667 -4.37138 -3.22437 3.68069 4.16861 3.37794 -6.11673 -1.49361 -4.40336 4.30937 4.64177 -4.02286 -3.25715 -0.182775 2.41295 0.365581 -1.29914 -2.11777 -3.52522 -0.813654 -4.11331 -0.62328 -9.15033 -4.5468 -0.984497 1.88308 -5.39918 3.54292 -2.7362 1.96182 2.78027 1.09803 0.300088 -0.194739 2.2161 -5.58254 5.87643 -4.78423 1.32875 -4.24027 -0.336405 0.846064 4.16086 -1.99954 3.02429 -6.3632 3.80856 3.08856 -2.59929 -3.60488 -2.55644 -2.27293 3.0177 -1.55672 2.116 2.72643 0.576586 -2.72021 1.51418 -0.540513 -2.36351 0.192541 2.88458 3.86294 0.364177 -2.24509 2.28666 -2.58367 2.343 6.14853 -2.62194 -0.459639 3.12934 2.24656 3.91317 -1.14832 6.24082 2.39726 3.14277 -0.291848 1.26673 0.842891 2.30723 1.48604 -0.212744 -1.28498 1.40315 -2.97375 -0.213172 1.53822 -1.58266 -2.31602 2.25364 6.18656 -1.7878 -0.577441 8.6502 1.22309 1.25098 -2.61333 -1.06287 -0.431013 -2.65044 -0.605213 -1.14624 1.42805 0.646047 -0.212134 -3.87985 4.41392 -1.03101 -1.93295 0.269204 8.81512 -2.20292 7.76736 -0.217322 -1.07007 1.99777 5.9938 -0.774834 0.41905 7.52687 -4.93243 6.06247 0.602039 -1.71548 -1.28645 -0.153844 1.64284 4.3093 -5.77371 1.46516 3.55965 -1.50166 1.05682 1.13605 -3.00446 2.0452 1.25373 4.82891 -3.30915 5.77694 0.19657 -4.18418 -4.41252 -4.41673 -0.937803 1.02911 6.51347 -0.876278 -4.54436 6.91003 1.37165 -0.00405937 -2.35124 0.446028 2.7879 -3.44057 -1.13898 -1.92074 -1.86508 -0.399945 -2.97858 4.17093 -1.11133 -3.98276 2.44816 3.71133 3.24207 -1.26753 -5.1186 2.96869 -3.08118 -0.00662242 -3.68526 4.75201 -3.87411 2.27268 -4.94934 -10.0114 1.57759 1.94351 1.42817 -1.7054 3.53182 -6.08383 -1.34651 -0.77282 0.777825 2.43376 -0.823237 2.91394 -0.492477 -5.80142 -3.95511 1.73489 1.01331 -2.96319 3.67721 -4.24662 -3.85342 -5.73208 3.49135 -2.41941 1.47621 3.98331 4.82757 1.36006 -0.918515 1.4095 4.59911 -2.43834 2.92334 -6.44499 -1.88699 -7.72866 -4.27702 4.317 -1.50472 2.66485 -4.70617 1.24012 -0.840144 -2.64928 2.25614 2.11905 -1.24311 7.27631 -1.9227 6.62566 -4.95965 3.87307 1.37782 -8.85009 1.0904 -1.85708 3.42933 2.04892 -1.6722 -0.639332 0.793756 3.47578 -2.23862 7.08563 2.03842 6.9964 -2.09915 -2.8294 4.4575 -2.83605 -1.2248 -2.54411 1.74667 2.24992 -5.50258 1.82943 -7.43666 