-0.675200 -0.980343 1.13782 -4.50719 2.71978 -0.0997605 -2.43602 0.593249 -0.462205 3.32838 2.91998 -10.2499 5.95724 -0.299361 -0.98883 1.55782 -2.82983 -4.48296 1.10236 -9.06665 -2.71288 0.856866 -3.26667 -1.07843 -2.81677 0.0788882 0.870479 -2.50694 1.33772 3.55971 3.94632 -0.330059 4.72265 -0.727164 0.362773 -3.72872 -0.194373 0.0356713 2.00986 1.60683 2.72777 7.22449 2.3657 -0.581838 2.71862 0.77368 -0.253089 -2.60655 -2.18455 0.278416 -4.7423 5.55458 4.94165 1.00018 4.01669 2.83886 -0.587391 -2.39958 1.20685 1.18592 -10.0671 -0.592517 -0.468856 1.43696 -3.8616 -9.97123 3.61391 0.367046 -1.24433 -2.87072 3.9288 5.15656 -0.562853 -4.82537 -0.19199 -3.38411 -1.66737 0.967341 4.09299 3.48042 4.46226 -3.22596 2.99444 3.07807 -1.04572 -5.13153 -6.27787 -1.30543 2.20689 2.29142 -0.553518 -1.06079 3.03864 3.65096 2.1522 7.42726 0.889768 2.76739 -5.04718 6.09159 -0.862972 -3.02008 8.42393 2.43669 0.584823 0.924563 0.512864 2.04556 -2.80725 7.59713 4.6046 -5.34767 1.10651 -0.484538 1.28077 -6.90393 -0.951107 -0.20762 -1.64046 -2.53667 -2.85931 -0.0731495 0.761715 -6.26444 -3.79446 0.135838 0.771055 1.25568 0.62908 -4.97064 -3.74355 4.31767 2.82885 4.45036 1.40846 -1.79678 -1.59871 4.28049 3.5594 -3.02929 0.00735505 -4.96075 -3.35078 -2.69286 3.05762 -0.925596 0.898679 1.76449 -0.739001 0.164405 -0.75127 -8.31736 -4.89923 -3.6545 0.136448 3.12134 -4.70238 -2.22917 1.16163 -7.89932 -1.67775 -1.58107 -2.78765 -1.51833 -3.97708 3.46376 -2.3895 6.77581 0.430402 -0.887388 5.83798 3.21833 1.79616 -1.2649 -3.59279 -0.596602 2.93689 2.08634 4.44231 1.79934 -2.06155 -2.55907 0.523667 1.45314 0.287759 1.44887 2.36948 -2.79681 0.491317 4.52763 -2.08951 -1.29639 2.24674 -1.39705 1.32099 6.58257 -2.77575 -4.99268 0.569384 2.03495 -0.472152 3.35243 0.0521546 -4.82293 3.89163 7.18635 -1.12842 -3.53633 2.67882 1.24946 4.31882 0.480819 -2.25773 -3.8605 -0.870423 0.436995 2.21299 -4.80071 0.069799 -5.34797 -1.72482 -0.560534 -9.58395 5.36756 -0.00717155 -2.68987 -0.105014 1.18061 -2.75115 -0.868954 0.636952 -2.57561 -0.137851 2.995 -3.28101 -0.200289 3.93912 -0.0423905 3.84731 1.57228 -0.470138 -0.676567 2.74713 -0.348372 1.64535 -2.15946 -1.17505 -4.14084 3.70156 -0.376628 -2.34012 0.701163 -2.54961 0.602769 0.890804 1.95743 6.4636 6.33189 0.0602113 -6.60033 3.22688 4.94592 -1.02203 -2.04898 2.91449 -3.90268 -1.83377 -5.40083 1.8956 -4.32273 -0.0485515 3.37599 -1.95108 -0.868588 1.75906 1.71609 -1.06665 -2.81231 -1.81924 0.507613 2.89075 2.80914 1.37477 5.14587 1.13099 -2.82409 2.3577 -0.0975061 -0.12626 5.5223 2.75481 0.926267 -1.4004 4.62646 5.56929 2.18405 -2.52251 4.77947 -3.46462 3.65291 0.0317664 2.03494 2.61528 4.08457 4.10794 3.55849 3.19837 -0.35844 -0.795282 -2.11374 -3.41994 4.73254 -0.770131 4.90777 -8.73827 -1.65645 0.742908 1.38075 6.65386 -3.80771 -4.24802 0.797722 0.72863 0.00845363 1.1222 -6.59039 3.20038 -3.74642 1.65846 1.22285 -4.21976 -0.400067 -7.07062 -2.21763 2.08036 -2.53044 0.890377 1.5522 0.722587 -3.04187 0.369978 -3.29609 0.218543 6.44615 -4.51872 -3.86777 1.18091 -8.78534 4.02542 -1.49971 0.427409 3.38142 -3.06183 0.137428 2.54539 -4.54302 0.860531 1.59468 -2.52635 -2.14524 -1.12555 1.67269 -0.333477 -0.35844 3.48402 -5.26484 5.4026 4.86614 0.893613 2.12333 -6.1995 1.75784 0.651719 -0.52794 2.1052 -2.87658 -0.279946 -3.24152 -1.19611 -2.75701 -6.97125 0.880978 -0.859981 -0.41563 -4.41465 -6.41709 0.580183 2.64654 -3.80495 -5.45674 8.8037 6.24327 -0.142491 0.435593 -2.22721 -4.45781 2.90302 -0.228732 0.449385 -4.82989 3.92593 -5.65615 5.71426 -5.30488 0.58641 -0.917238 0.0600299 -2.19755 -0.666743 1.12592 -2.38359 -3.52687 -1.88198 5.93167 1.06586 2.48021 -4.84167 -4.76207 3.02106 -0.488205 -0.183019 0.680231 -1.58314 -1.7623 0.650746 1.88131 -0.509506 3.62886 -5.29371 0.829092 3.90121 -1.15754 1.10932 -0.649953 -2.44291 4.98822 1.02167 -0.507738 -5.28358 1.08325 5.02051 -0.36631 -3.08466 -0.486801 -4.03128 2.1232 3.29182 -6.69097 -5.56423 -4.73095 -0.13187 -1.44808 0.730587 5.49196 -3.64681 2.22001 0.609852 -1.55763 0.0233445 2.79015 4.72674 4.91271 5.25019 -6.09617 4.8783 4.33897 2.23692 -7.5843 1.11841 11.719 -2.47893 -2.87213 -5.20643 6.7467 1.81088 -2.46642 5.56996 4.98938 -0.284341 -1.12543 1.50777 1.90597 -1.06488 2.82794 0.253337 7.52803 -0.534898 0.133698 2.40367 -1.38691 0.386822 4.47813 1.10889 -1.91409 0.802184 -8.06052 2.97864 0.570971 -5.52779 -4.67925 2.34977 -6.15824 -1.26899 3.66219 -6.02219 -1.0105 5.777633 2.26738 0.222631 -4.87384 -2.9505 -0.457752 3.7767 3.4391 -0.152807 1.96334 2.01456 -5.60079 -0.583728 1.48537 -1.98733 -1.04926 1.41011 2.70641 -1.68971 -0.523303 -2.32603 -3.90329 -9.53035 1.36897 0.7954 -3.3921 4.50108 -0.994323 -2.58208 -2.02664 -6.78967 -1.04859 -0.107642 -1.99039 1.54073 4.19321 4.81762 5.24067 3.95828 0.222942 -3.95773 2.14396 -0.0443427 -3.21857 0.684927 -4.65679 4.73083 4.07523 -8.26615 -1.94815 1.10157 -4.72552 -2.20328 -2.91595 1.72341 2.11789 -2.44975 5.74496 1.67061 -4.58501 3.46523 6.91149 -1.55947 -0.716788 0.361249 -4.38182 -2.54961 0.910822 -4.64458 3.46003 -3.92032 -5.32612 0.770563 0.118869 -5.66885 -3.58931 6.55956 2.3394 -2.83624 -3.33241 -0.187536 5.65432 -1.43562 4.73278 -6.08762 -4.82622 -3.57667 -5.73422 2.89355 2.76049 2.26908 -7.66158 3.56801 2.88903 -1.06903 -3.30201 -1.00952 -3.48573 0.190647 -0.93701 -4.18723 -6.74639 3.48256 -6.72869 3.09583 1.19855 1.70858 4.08658 -0.857604 0.667959 1.23005 1.4734 -0.0890225 -8.78582 0.0945159 -5.83493 -0.423261 0.200659 -0.433699 -6.67723 0.794363 -5.75265 -2.98041 -3.89297 7.23488 3.88168 7.25624 1.97165 -4.04685 -1.3199 2.31254 3.49556 6.15115 -0.762502 4.81842 4.55644 -6.10721 -2.74328 2.96655 -2.32981 -0.651909 -1.91635 0.160925 -6.70044 0.109166 2.9972 7.39931 -5.04981 3.15723 1.56124 1.46168 6.86224 3.03448 5.36116 -3.04205 0.112518 2.78644 1.42628 1.30341 1.94296 1.23414 0.661123 -5.32032 0.117953 -0.856685 3.58998 2.05314 -0.866881 -0.149999 2.72979 -2.70263 0.0865229 0.904047 1.90719 -3.50087 -0.984192 0.297101 7.82895 6.49864 -2.47258 -2.1666 6.21549 -0.269203 4.51848 1.20844 5.81802 -4.56761 0.811393 -0.643668 -1.37666 -1.72823 1.51241 -1.36964 -0.434248 -3.53133 -4.09994 0.376873 -1.94882 2.46458 -2.33195 -2.53252 -1.38465 -1.79465 -0.677661 2.34959 5.01916 -3.89877 -0.44554 0.179055 1.09857 1.72469 1.39894 1.59901 -1.31532 3.30744 -6.01083 2.72301 -6.10227 -1.89694 -2.27854 -1.10968 0.135408 -1.32557 -4.35679 -0.248024 3.06384 -6.8316 -3.12293 -1.74966 -2.07505 0.643178 -5.10963 1.05866 -3.52443 1.50727 -1.57326 3.03674 -0.137364 -1.86453 3.90964 1.27082 -3.24195 5.72305 -0.869808 -2.74206 1.05408 -3.56172 -6.9646 2.79693 0.443586 -1.05634 1.42305 0.146642 -1.81216 0.335853 1.36195 2.02103 1.38814 0.579887 2.14463 1.97525 2.07669 2.49162 -4.40868 0.748589 4.43315 5.33277 -4.48863 3.1297 -3.55501 1.08301 5.13861 -3.09888 3.32142 -2.54918 6.34861 0.429303 -5.02985 -3.31721 -2.52038 -3.53774 -5.14033 6.23966 -0.440173 -3.30414 0.567616 2.39286 -0.24369 0.672964 1.33467 2.81688 1.86105 5.57533 -3.06561 -0.775079 -3.37483 -3.52455 -2.82543 4.12345 -2.24839 -2.39384 0.335123 6.73742 -7.63936 0.210975 1.86538 4.17856 -0.256508 1.54244 -6.35771 -3.08753 3.20722 2.5634 1.11359 2.58867 -3.16321 0.921812 2.6256 5.2953 3.97733 -1.24561 -3.7391 4.3057 1.24775 -0.113189 4.48948 3.37165 4.90838 1.99008 -2.05209 0.633839 -4.61736 6.25534 4.66417 -1.79641 2.75921 0.154578 -1.97092 5.48824 -6.93249 -2.16007 3.84329 7.31135 -1.83462 1.75686 -2.2653 0.901669 -2.9776 4.01993 -0.726244 -3.19446 -0.761345 -2.87414 0.0874965 1.78494 -3.41139 -5.44099 0.294534 -5.22828 1.41926 -3.14551 -3.43501 1.93063 -2.29496 -0.32078 -3.87485 -2.09867 -8.42283 -0.503219 2.01419 -0.725275 -0.863766 -2.62285 5.9067 -0.624378 -1.63521 2.51188 -0.184361 -3.59774 4.94732 -0.00179727 0.987484 -0.00180531 -5.18433 -5.54097 -0.702689 0.30595 3.22975 -5.94656 -4.53484 -5.42232 3.2005 8.44553 -0.601612 -2.60643 3.08075 -0.707633 -1.02442 -0.439131 0.123203 -5.18275 -5.41529 -2.2537 -2.17283 5.0224 -2.27043 -0.0852383 -0.1218 1.11024 1.01099 2.62609 0.50401 -2.32194 -0.19608 -0.739433 0.0475178 -2.7603 -5.06446 -2.76709 -4.4207 -6.35618 -1.31953 -2.74463 3.35487 -0.049959 3.38514 4.71483 2.9328 -2.67791 -8.96631 0.225746 7.7662 4.50731 -4.93218 -4.57763 6.07944 0.454817 2.77197 -2.94982 4.84087 -0.353923 -4.46184 -2.57951 6.64848 2.69268 5.32399 -1.70809 2.33445 -0.235575 4.61064 0.241432 -6.89074 1.41639 0.180398 4.58232 -2.94983 0.368694 2.02322 -0.10215 5.74887 -5.19221 1.68148 0.252114 3.93826 2.76965 5.35249 3.13624 -2.10447 2.16745 2.0554 -1.78396 -6.54991 -1.97348 2.17728 -3.05371 3.39863 -2.51268 0.709707 -3.89487 -4.86017 4.14389 4.4923 1.32112 6.35343 6.27091 -0.231668 -2.35124 -2.48607 -7.48488 -2.62694 -4.73992 1.07812 1.60128 1.86148 3.30836 2.13401 -2.37925 -0.110264 0.0318301 4.34104 -4.53453 0.164399 2.15921 -0.0328724 1.97037 -1.73037 2.234129 3.83505 -2.67907 -3.31373 -4.97553 -2.00998 4.29923 -2.68627 -1.22743 0.907101 -0.0824303 -1.18976 0.858028 -1.96096 -2.98547 2.05936 1.43141 -2.46757 0.367534 -3.91885 0.375286 5.91055 -1.11072 7.69466 1.56709 1.54268 -1.53303 1.24611 0.938288 0.713671 -0.99048 -6.27903 2.39915 -9.89932 4.26438 3.54171 -1.31245 -1.52687 -4.03397 -3.62929 1.20954 -6.57085 -3.11921 -3.76614 1.92508 1.97867 -5.69546 3.26795 3.35279 -1.21369 -1.41639 4.40922 -4.25334 0.887386 4.21677 0.342998 -0.487594 -1.30909 6.10172 3.00994 -2.0748 -1.92441 2.48808 -1.0017 -11.7912 -0.598499 -0.800165 -4.875 -9.95645 6.24015 0.692011 1.52101 1.55837 -0.358379 -3.50258 2.53081 1.8779 0.749808 0.635796 2.74664 -3.72097 1.57619 -5.46162 0.476914 1.02802 -3.25276 5.05616 1.97452 1.9501 4.03811 -3.88772 2.72747 -0.196266 4.50047 3.563 -2.86883 0.518235 -5.99479 -4.17551 2.85009 -0.644887 7.00409 -2.16367 1.18415 -6.94183 2.32768 -5.08411 1.7535 7.05658 3.83127 4.07175 0.806817 1.77731 3.70132 -4.66564 1.47768 1.13806 1.23469 2.67382 -2.7094 1.27491 0.89904 5.05439 5.23389 -3.42952 -1.50142 5.20344 -2.288 -0.95001 -2.75738 4.6461 -6.309 8.19669 -3.45882 -3.42799 0.344343 3.25989 7.33308 -4.90191 -0.482466 -0.886223 0.764026 0.487226 -1.67818 -6.27384 0.024079 6.88666 2.16862 -1.6924 0.155797 -1.85165 -0.444201 -1.80575 1.65138 -5.70535 4.92584 -0.464949 0.642809 4.19114 4.89587 -0.160006 -0.493023 0.984989 2.18643 -2.54466 -1.31031 -2.11655 2.54613 -1.9725 -0.433023 0.817499 3.00189 3.0155 1.15308 3.57064 0.728446 -5.68154 -9.53175 -2.07895 4.86798 2.0806 3.38166 -1.62899 4.59654 -0.271092 -4.26524 -1.98544 1.76229 11.3187 1.56795 3.12018 -0.60033 -2.76428 -1.74709 -3.02472 6.43522 -2.669 -2.64983 -1.4322 -2.10221 1.53737 3.0008 -5.33943 4.94659 3.03912 2.66418 0.822075 0.0246286 2.0585 2.02103 1.97836 -2.54302 -0.687731 -1.15668 2.04502 -1.19849 -0.789235 1.652 3.20612 3.26618 -0.145113 -2.02792 0.397506 2.50359 1.89864 -0.000522057 -6.43791 -3.89944 -8.66399 -5.51326 -2.7644 -2.93036 -1.72249 -3.33259 0.0265847 -2.34489 -3.22493 -0.973266 1.55525 -3.22858 3.76278 -1.2685 -0.590254 -6.62016 2.1721 0.535878 -0.313212 -0.87652 4.28513 2.96752 3.67446 -9.47908 0.390972 2.61559 0.242409 6.04947 2.80139 -1.67287 -1.49568 0.40788 -1.70498 4.12479 -1.69113 -2.70531 3.05011 -1.33644 1.12659 -1.00665 -4.87396 4.03201 4.89471 4.09257 2.56071 1.71175 1.3802 -0.356487 -3.86068 2.51652 3.62538 1.07538 -9.09095 4.30943 2.03726 2.17454 5.48616 4.32139 2.68663 -3.55806 -2.7702 5.87826 -1.62759 -3.85586 0.345077 -1.64724 -1.97776 0.368084 -1.0315 -5.85184 0.985106 -3.61037 2.30784 -2.46623 -2.22086 -0.326456 -2.10611 -0.86462 1.86673 0.815731 2.00913 -1.09546 -9.99949 2.73492 -2.64671 -2.63305 -0.275307 0.435957 -2.98877 1.97366 3.57393 4.64891 8.78222 -1.64114 0.549672 -0.339766 -5.06421 7.3216 -7.57643 2.64806 -2.54118 3.34235 -4.56267 0.834161 -0.152196 -0.550769 4.95929 -0.236303 -2.48277 0.24009 3.65871 7.0285 5.88693 -2.11795 -1.23237 -5.25959 4.20035 0.893119 -3.02039 -0.922913 2.15092 -1.47841 0.56151 -5.80038 -2.63146 -7.46272 -0.768055 2.8681 -1.17011 3.24476 -2.62737 5.05481 2.26072 1.52943 -2.86651 -1.11957 -1.41377 -0.243382 -3.00305 -0.826529 -0.502 -0.675283 0.358313 7.97525 1.19062 3.69447 -4.30857 2.2941 0.344093 -3.2975 -1.14277 -4.56774 1.40162 -1.02563 -0.881466 1.18714 -2.78741 -5.75655 -0.572131 -4.75732 -3.89877 2.39757 0.54149 -4.92877 -2.57604 7.05609 -2.46537 0.644273 -1.32349 -1.50178 -1.73153 3.27723 2.21464 1.75124 2.38017 -1.08771 -3.34859 -7.35231 0.35136 7.15992 0.993102 -4.32706 1.22504 -3.60091 -5.42793 2.40556 4.52708 0.265358 2.85015 0.371258 0.957213 5.8226 -5.86227 1.1189 -0.585376 -1.25709 -0.686331 1.32997 0.914304 -2.1962 1.58339 3.77761 -5.03815 -1.99039 -1.64046 -0.0561847 0.95111 0.659169 -5.68678 -0.887382 2.13798 -2.33573 -4.33293 -0.255894 4.76342 -3.56343 -5.21516 5.94986 -0.119419 4.65215 1.12873 0.875665 -3.54549 1.20667 -0.360942 5.80984 -6.70953 -9.32252 0.605396 0.823604 -3.64107 -4.40049 6.08505 -0.238926 1.07746 -0.129674 -1.06306 -4.61059 6.11093 -2.40343 -2.46794 -2.47966 0.255222 -3.30335 -1.80111 -0.0817024 2.96454 -2.43321 2.47343 -1.19526 -1.9136 0.126686 5.20966 -3.22541 -0.634877 -4.44194 -1.38289 -3.06677 -4.72185 6.04587 -5.71206 -4.93042 5.76828 2.83526 2.27158 -3.32209 -7.57191 -4.08041 -0.73577 6.63744 0.7116 -4.33152 -1.02411 4.36625 1.71908 -6.2913 -1.26704 -1.7394 -0.494225 -0.625904 -2.6162 0.231178 -4.13657 -2.96789 2.56511 -5.85104 1.94693 0.602402 -1.60341 3.01538 4.30064 2.58043 3.66323 -5.33509 -0.147313 -2.12387 3.54597 0.819822 -1.3603 -0.218117 4.97034 5.2992 -1.58247 -1.61861 2.62578 4.20695 3.35823 -7.28535 1.72756 -2.10141 5.38984 -4.9945 -3.42445 3.5519 -0.256386 0.272439 -1.01837 -3.85794 -0.728872 -2.3737 -0.384995 -3.35536 -4.90862 -1.42329 4.34428 3.26819 0.136754 0.650746 2.62346 -3.45985 3.14996 -0.357647 3.99667 2.04953 -2.29417 0.804316 -2.22495 3.66213 1.81362 4.29112 3.95151 -0.977965 -7.33882 -0.829157 0.420639 0.151406 2.07138 1.31526 -3.44301 6.95929 3.22095 1.48067 4.22202 -1.52858 -3.80044 -3.10731 2.2573 1.60011 -1.04328 0.649525 3.53224 0.25614 1.20905 6.25016 -5.40138 0.625172 -8.13407 1.56825 -0.970031 1.41414 1.53908 1.57692 4.48863 4.88354 -1.30818 2.14181 0.603015 7.47865 1.00299 -1.80947 -6.29789 1.86819 0.492299 4.57775 -8.52061 1.20966 3.98422 10.9493 -4.35838 3.44472 7.46198 -3.07422 -0.388047 -1.55373 -0.119415 -5.08429 5.34321 3.8254 -4.99933 2.86707 -1.69143 4.20743 -1.19929 -3.72586 4.73327 3.79788 -2.96374 -0.247597 0.118686 1.04273 -1.49214 1.49043 1.13996 -2.80023 2.59337 -7.1078 -0.0376905 -4.36528 -1.38264 0.728141 -4.95178 3.64803 1.61281 -3.90493 -2.48436 1.65236 -1.96061 -2.48668 1.1084 -6.48845 4.02353 -3.54298 2.84265 0.84924 5.6769 -3.35322 4.39287 5.14258 0.0627142 3.40053 1.27717 -3.58351 0.36784 0.369484 3.90634 -1.65273 1.845 -2.03763 3.55794 -3.41444 2.08432 -3.22431 1.34132 -1.88113 0.184179 0.336524 1.20924 0.478558 -3.62606 0.478374 -2.91308 -3.39112 6.66222 -2.34245 -2.82537 8.20933 2.05881 -4.47869 3.48775 -0.642877 4.95056 0.0448929 -4.29997 -0.76421 4.1774 2.54534 -2.65124 -0.234168 3.38069 -7.11158 -2.53435 -1.03723 0.182411 -1.80026 -2.30369 5.82864 2.76196 1.38966 5.96994 3.59084 -0.615221 -1.19037 -3.21644 -4.89654 1.45595 -2.65087 -2.83892 -4.78088 -2.34971 -1.71273 -1.64974 -0.055513 5.6932 -3.79238 0.321211 -2.80187 -6.6574 6.29777 -6.87146 0.973878 -2.85485 0.332255 -1.80203 -2.27036 2.52147 -1.32936 -2.3975 -3.19013 -0.254677 -1.4416 2.38865 1.71841 5.3849 4.06833 -3.98502 0.0450762 1.75692 -2.02347 -4.02958 -3.1258 -0.0326856 -3.104 1.62575 1.47029 -0.904726 1.97372 -2.61248 2.06406 3.08349 2.46837 3.21888 0.551991 -2.10171 -3.48048 1.57949 -4.08805 -1.47646 2.42113 -1.13873 0.16068 -1.65431 8.70837 0.367292 -2.34733 0.499064 -1.62239 -3.0896 -0.454573 5.72951 -4.45445 -1.91641 -1.7687 -3.66158 -2.13815 -1.72908 -6.43974 0.77496 4.98956 -1.54213 1.65584 0.431009 -1.5375 -2.09507 2.1428 -2.79015 5.23768 6.74773 10.5989 -0.57622 4.2465 1.58608 4.03842 2.58684 6.26749 -2.87823 4.24826 0.666067 0.423811 1.91177 2.77832 4.35105 7.62532 -0.705801 -1.58992 -4.09519 2.26157 -6.44322 -3.09454 -4.83819 0.464767 -1.59621 -2.14102 0.229958 0.247598 5.78493 0.452375 -6.53648 1.83651 6.15213 4.9403 -3.73037 -2.49516 -1.79672 1.66457 1.30549 -2.77355 -6.81994 0.420759 1.63619 -4.54472 1.77334 5.98141 -0.589226 3.34675 -3.29286 -1.40748 1.6202 -6.26597 -2.93451 -6.74176 7.49935 5.17151 -0.590259 0.620895 -4.86334 0.353372 1.7698 -0.751641 -2.14469 -2.77129 -2.44585 -3.85043 3.92117 2.11667 -4.54833 1.32283 2.15024 -2.86077 4.38279 1.14991 -5.02789 -0.716667 -0.43791 -1.54708 3.51143 1.40407 -3.25751 0.023164 4.25059 6.48119 0.691822 -2.56633 -0.158055 -0.556136 -3.02826 -2.04776 5.62124 -2.12815 -0.917661 1.3614 2.39329 1.88998 2.02982 -0.496507 3.05017 0.564928 0.383042 2.3596 -0.417095 -6.87927 1.88187 3.47713 -1.9501 -3.71896 4.65758 0.555959 -3.93338 -5.94711 -0.869625 -3.9905 4.3745 3.26691 -1.35646 -0.690974 -4.9425 9.17951 5.89951 -8.07437 3.96426 0.457991 -0.741511 2.68468 1.89773 -2.14292 -0.0343901 0.339697 0.141942 1.89511 0.359964 5.18324 -1.12311 -0.150182 4.14292 -5.49434 4.05716 1.38514 0.751458 -2.28599 5.30408 1.11335 -5.08606 5.92099 -5.61703 1.4178 -2.55974 -4.17606 0.82659 -0.163245 -1.68655 -5.32349 -1.73959 -1.67092 2.1464 6.17448 -1.99735 0.730826 1.06146 4.0596 -2.50676 -0.2855 -2.94024 1.26496 -1.88107 3.56673 -3.05615 -2.59716 -6.00583 0.0930509 5.84866 0.413862 -7.73745 3.96597 2.44975 7.19007 -1.52016 2.82378 -0.084811 -1.01874 -2.3585 2.43889 1.64907 0.402691 0.416787 -3.73526 7.90695 1.84743 -6.84655 -4.327 -1.67086 4.12613 -2.78521 6.19413 -7.52901 9.1391 0.207862 0.0747427 3.37556 -4.60258 2.67443 2.46727 -1.73476 6.20542 2.79535 -4.44554 0.907367 3.3105 4.68169 -0.0649163 3.21296 -0.154454 -2.887975 -0.430707 4.65251 3.3639 4.15207 -2.39256 -6.671965 -1.21516 4.60906 3.40993 8.09415 -1.93515 -2.059825 -1.93368 0.894587 2.4008 2.85553 -3.2602 -0.334126 -2.21879 2.7232 -4.87011 2.6309 3.69973 4.890948 0.385967 2.76372 3.84018 0.816157 1.76748 5.098719 0.544605 2.44243 3.3758 1.3824 -4.1171 