14.616305 -30.6454 8.33155 -26.9587 21.0486 3.45055 22.4829 18.1452 6.47749 18.7533 0.399492 21.175 6.31543 12.6354 -25.9715 8.06556 -6.55489 10.3861 -6.31459 -24.6332 -8.24957 -0.225413 1.81768 -1.55687 -32.9927 23.8491 12.1412 -26.428 -13.899 2.80708 -6.48415 47.8164 16.9101 15.828 -4.05298 -13.4664 17.2513 -8.24915 -3.94196 2.43519 25.2504 11.4512 -18.5508 10.0122 7.52116 10.8127 -12.6961 1.25743 13.522 -16.847 -3.42309 8.5245 -1.53416 -12.0019 -10.7765 -7.57866 27.1674 11.0401 15.7584 14.5831 9.17478 8.22046 -1.43424 3.2379 -0.383798 2.73422 -25.6538 -12.5861 10.0602 -2.09412 -40.977 -2.33228 27.8404 -1.25163 8.54458 1.21055 14.1605 11.1168 -21.089 13.3145 -0.607197 11.3361 46.827 4.85653 21.9356 15.1416 20.3379 19.9006 18.9691 -1.14732 -5.15049 3.16043 -12.4367 9.61711 -2.12683 -24.7445 16.4276 -2.37892 27.8926 -12.404 -9.26206 -18.8629 8.72779 10.805 18.3687 -4.7178 -3.23624 0.530535 55.965 13.3585 -15.5817 -13.4581 11.1554 29.6594 -0.770838 10.9622 -2.64424 10.607 -4.06061 -18.4739 -10.5273 -0.887921 2.93429 35.7555 -31.0678 6.99717 52.4411 5.86218 -3.62353 -9.59233 -14.1782 -1.63147 -25.5819 -12.9643 3.39288 12.1791 -7.16838 -7.93304 -3.93677 -8.89976 22.537 21.724 -7.73632 -3.38219 -9.23363 17.2335 1.46397 10.8161 -6.19917 10.1793 3.68938 7.32658 35.6142 -7.9784 -21.5957 -7.82049 -5.17203 -29.2638 24.1449 24.425 -5.63896 -12.6091 0.249521 6.39315 8.11646 3.56822 -9.88732 7.50151 -26.9014 -15.5048 17.2739 9.43063 -16.6438 34.7743 11.7645 -7.40018 -25.9336 3.5421 22.0802 11.7718 4.21961 -5.99218 12.1233 -23.3075 -13.8051 32.1599 30.5311 -0.367019 0.662618 15.5839 19.7391 -20.3209 -14.8423 -16.7574 4.16084 3.70971 -9.28635 -22.9232 -1.13802 21.8568 10.9186 -1.67089 -7.90045 25.4019 15.7795 15.4458 7.11076 8.91177 30.7745 -17.5546 -9.49878 -35.4494 21.4376 -35.3734 -37.3528 -9.5974 19.9047 6.47474 -6.54481 -9.31737 -8.26943 2.65974 0.852804 -4.25281 13.4196 -12.994 -14.5841 -10.2726 -23.0271 0.282909 16.4856 15.7059 -18.0954 -6.2909 27.1268 26.2677 -6.96555 3.05093 -4.63326 -28.6426 2.47127 4.17609 25.0277 5.25773 0.147455 -15.0581 -0.44886 6.59864 -0.706031 -3.70378 -5.80322 17.2758 -0.800687 -2.53394 -8.01308 -29.8834 23.6696 4.10601 16.7584 -10.7607 11.5296 -11.7234 38.7069 -3.11875 -22.444 7.14988 -10.1947 8.66294 8.22613 -22.7236 22.4759 -8.88107 2.62533 -4.65963 -23.1678 -16.6344 0.927046 2.23157 -4.013 18.8078 -5.20059 15.3273 2.64943 12.7272 -9.89061 -14.1238 0.521318 15.6577 4.31227 -7.66588 3.79242 26.408 26.8935 10.5271 24.1186 -25.4058 1.24449 -4.46168 0.472126 36.5945 6.33566 -9.81714 13.2499 10.747 -7.42576 30.9263 21.9715 1.72619 -11.7785 -19.8479 21.9951 -4.07586 10.7278 -4.35731 -12.4204 5.73231 -24.621 -1.85978 26.7093 2.60732 31.6227 -0.136226 11.0111 16.7682 11.4516 32.8749 -13.8053 -14.5683 6.21051 -3.8559 -3.67046 15.4434 12.2138 -5.79125 -6.61996 10.1712 13.5341 2.28773 -14.6375 4.56556 -11.6417 6.73202 -7.52123 24.2225 29.2636 -0.303297 0.632339 14.3637 -16.2024 18.8808 -32.3264 4.58326 -8.24792 -8.761 19.7751 -10.7649 3.46361 -14.4615 -8.71638 23.3529 -14.4227 8.60402 29.4586 -30.0341 14.5912 16.1638 53.4339 24.6967 -21.4098 3.15848 16.809 5.481 5.53136 -5.62261 -10.7733 -10.6538 16.4608 0.316169 -19.6731 10.0637 4.03749 13.096 -30.5765 8.57704 12.7272 -30.6171 -15.6782 28.0969 29.0677 -6.88778 -13.3934 -22.3117 10.3399 -21.0683 -3.18357 6.29707 2.07588 1.2346 18.8503 11.0014 4.70883 -20.3511 -17.0166 7.45231 -10.1851 9.8733 -5.10246 8.32386 -19.7466 -17.299 22.0582 -22.3513 10.6358 48.1632 2.83578 -9.04524 2.44899 -6.4087 29.7646 15.014 -1.73162 10.5644 16.2597 15.1553 27.3677 25.5207 -19.7663 25.9401 -4.85818 10.9831 29.9445 5.13688 -9.27213 -7.75726 1.43779 6.82846 9.16014 -1.63207 17.0253 3.54826 28.4534 16.4316 -21.9095 -14.6812 -5.99036 19.8271 11.662 -30.5437 12.6954 -18.4672 2.08741 19.0291 8.95846 -0.764727 11.2127 11.8324 39.4057 5.13028 4.41866 7.77734 -3.8532 -6.6548 7.9071 -5.46586 41.3643 17.7956 30.5976 1.33372 -6.61489 33.3959 -35.9837 14.7948 -33.2665 5.45738 -8.42897 20.641 0.453036 -25.7865 14.5295 -6.80019 1.11381 5.25729 -7.84521 -7.44798 -35.1051 -3.15605 -2.68593 -8.81796 15.0728 16.9046 0.950583 -23.932 -10.6791 -3.36699 -21.196 -24.0037 17.2008 5.54313 -12.2423 14.0714 -1.80816 -15.1436 9.15964 7.20939 -23.3386 -7.89226 -0.529959 22.5578 28.1337 17.8244 2.94114 0.675863 13.2369 -6.81851 9.70514 -0.62968 11.717 -20.5179 -10.7145 -29.9592 6.866 14.3558 4.28267 6.44142 -1.23436 -2.46694 -6.425 -14.298 -7.29478 31.094 19.1005 43.5157 17.1541 -12.9614 -25.391 -6.68696 -0.335274 -28.9174 3.82085 15.389 -36.9111 -16.4701 -6.72324 -14.2491 -7.54051 -9.89757 1.34868 -11.3497 -3.06932 27.6198 -5.27513 -13.3837 5.1555 -16.6262 3.74987 3.90563 -17.5356 7.10673 12.0374 29.207 8.21777 28.4294 15.6691 3.51305 -32.2836 -1.40832 -0.596386 25.0066 5.05331 -6.53839 -30.7486 -3.16996 -0.757587 -9.42069 0.78567 -22.334 6.06318 -56.8093 -7.42619 12.9275 17.9242 -19.9031 2.10028 14.4953 -9.81384 -1.77435 -8.44313 6.84182 2.2688 -1.20926 -7.12017 -12.5637 17.9492 1.90955 -8.61002 -20.7024 -2.79385 -1.45182 -6.55037 17.5596 2.00671 10.6956 -32.5462 -6.05011 4.3822 -5.39983 7.60143 5.03757 7.19432 -4.00464 -12.2567 -7.88341 9.95817 -21.8676 -7.23801 -3.36402 -9.92251 15.5488 40.7868 25.0073 -0.0897821 -19.6037 -12.3336 -17.3046 -0.0112299 4.26765 5.06571 -18.5369 -31.1824 -7.68634 7.53087 -24.3796 3.58488 10.6104 -14.0536 21.1944 -37.8261 1.58818 18.7232 3.85449 -11.1148 6.43495 -1.90607 13.5045 10.1684 -16.6788 -3.06956 -8.62715 -37.1752 -19.644 3.39115 5.53349 -15.009 0.111094 54.843 -5.33598 -11.6978 6.61141 -13.6307 19.9894 9.62901 25.6668 21.3095 -16.7874 -5.28001 37.4123 -4.8763 -19.622 10.1641 7.91864 4.02862 -38.5158 -25.9679 16.8053 17.7388 9.75368 9.56536 9.62905 -8.29883 18.42 12.3 2.042 4.20465 2.92765 2.9924 -27.506 25.7173 0.393625 0.728176 -11.577 -0.149663 -33.778 12.5853 -19.2367 7.31698 13.7332 42.219 -4.3302 -9.74952 -9.29819 1.76519 -3.66021 30.2707 4.67261 17.4149 -12.2243 -10.338 4.90362 -14.965 23.3986 5.04732 14.8566 4.24537 10.3669 44.9334 15.0718 -22.7331 0.48372 14.4849 18.3163 -1.02066 17.5658 12.933 4.89145 -3.49169 14.1344 -1.03697 21.9539 16.766 -21.6547 19.4752 -23.2695 26.2725 -6.02289 -0.921231 -12.4702 -12.3197 12.3954 -2.2715 -25.6342 -0.662187 -22.654 1.81426 21.1477 -1.71789 -2.52821 6.15493 3.22124 5.04788 11.3927 -11.7908 4.23133 -5.35606 -9.73406 39.919 22.0981 -1.90039 12.685 4.53322 -15.9789 -11.0834 4.76053 41.8117 28.4109 24.8509 -11.6724 16.9574 17.5498 29.3617 -15.9182 -15.3247 -3.0685 1.1102 -11.4323 -8.27388 -4.87533 -8.09487 -14.1271 -4.66987 0.00939588 37.4357 -41.0952 4.83309 -22.6804 15.1886 -8.86033 -0.0189162 15.3126 5.93074 11.6941 9.18442 -10.5401 -2.89663 32.62 1.15548 1.06009 -15.4578 7.26646 -36.7225 11.5963 4.85342 0.634111 -9.88492 40.7631 -11.1377 -21.4705 25.3794 -10.0016 -5.51433 -15.5438 -19.2143 -8.55713 11.4115 13.0825 -10.8313 6.13752 -0.0508425 25.1643 -8.8298 -4.61025 14.4492 10.8195 4.95346 -8.83254 -2.36304 -4.00324 4.27528 -30.6268 -15.7348 -6.9562 -5.69682 -22.0863 22.4366 26.2225 -1.46445 -14.6071 14.9797 -22.9249 -7.75988 8.35632 3.26725 -7.5083 -32.2694 -33.0965 9.82843 24.3637 0.909633 10.6103 -35.8596 21.7016 18.4111 0.554946 15.9795 2.08892 0.747634 -6.58566 22.699 3.34598 6.81539 -2.57844 6.81216 38.2813 -18.8494 12.1177 -31.7407 9.39062 -20.7042 -20.2591 5.72271 -15.5793 -7.3391 4.1548 -0.628919 -18.3857 -41.7563 -16.8522 11.4193 -20.4435 4.61875 8.0404 4.85367 -9.51756 -8.49751 20.4079 0.72055 -20.0925 20.3515 41.85 -11.6556 -4.50496 -2.70693 20.6471 -17.1523 -16.0229 41.8324 5.19729 -11.6497 -6.93826 24.6396 -29.9074 -10.7724 -18.8398 11.8623 -27.2695 37.7929 41.8426 -16.7153 -19.6906 0.785865 -10.1481 13.7383 -24.889 5.04911 5.61649 -4.87875 -0.0759263 -35.2573 9.05972 -5.57713 -8.50661 12.5075 -6.35365 -10.8975 -16.1308 18.9164 19.5098 -14.7809 -4.48 6.61098 6.53059 -20.328 12.1117 -0.492805 -21.7387 3.94 -15.2051 5.40055 19.5615 -43.3195 19.8919 8.40943 0.809001 16.5818 -10.1279 -0.433001 29.5882 -5.18399 -22.5459 13.9993 -9.30454 -51.5025 8.74607 32.9973 -36.6252 -9.48802 -8.71804 -0.568256 -19.3746 21.0686 -13.1734 -19.1861 -24.532 20.3845 10.8351 -11.5573 1.06621 -22.1346 -15.5714 10.9418 17.5388 1.13999 -7.22112 42.6431 -3.63683 -17.6582 17.7551 -18.8783 -12.7463 -4.9877 4.72556 -7.69213 2.35005 -7.0131 13.3802 -42.5066 2.63747 -3.33378 24.4583 -25.3122 -6.55215 10.0052 -21.7647 -21.3831 3.92089 -16.3622 -3.32329 -2.20112 1.29375 -0.514066 -10.9041 -34.9675 -1.08659 8.24311 1.22697 -18.285 -11.1716 7.08355 -18.4393 -1.69774 1.84789 13.0075 -9.16629 -4.665465 -2.07703 7.17197 18.5396 -14.4444 -36.2458 -0.418285 8.33759 8.85422 0.477499 27.5351 0.235365 -6.45717 6.30952 -2.83047 3.42619 17.2107 13.0354 -24.4756 25.6318 2.1742 1.19993 -17.5546 -11.1318 -12.2682 -27.1104 -18.2548 -18.5286 -32.4285 16.9802 22.9803 -1.73993 12.7583 19.6988 3.21305 8.75094 12.6174 -12.5683 -9.84643 1.24235 -4.03225 4.58688 18.0341 20.6937 24.9929 -6.5701 5.59293 0.241163 -7.81328 -11.2406 21.5773 -3.75902 4.73103 -17.7116 -4.92184 -5.28977 20.6735 5.61003 8.14435 15.0381 -10.73 -11.3703 -8.02404 10.8536 -12.0815 28.3338 -11.8585 -0.0914972 -12.0163 0.748555 32.151 -5.13511 -18.0516 21.0266 32.7556 16.8514 -9.75877 -7.5482 -15.6064 39.6666 -15.8863 -28.6931 -1.88573 22.5153 -15.0467 12.4434 4.34993 -16.8679 22.394 18.4251 -9.02969 -4.81063 -18.3903 -6.83969 5.92218 55.8388 -7.8214 2.85324 -16.1276 -14.715 -3.16086 -20.8482 18.2141 8.27674 -11.4099 9.41911 -2.17292 7.32381 12.4457 -7.07541 33.9375 -14.3902 0.254761 17.9005 -9.51899 -16.5905 4.95731 0.304402 -0.662191 -0.106264 -5.37962 15.1452 -20.2127 -3.76884 12.6818 5.30424 1.61906 13.8144 12.7337 -15.3347 3.18345 15.5328 30.2399 0.473587 9.86482 3.92108 5.5554 -18.2368 -9.74803 20.1044 36.6266 -7.23576 31.4589 3.36399 17.7438 12.1298 -3.09688 13.2611 8.73868 0.885394 9.99994 -13.8738 16.9595 -36.0434 29.041 -30.1603 -9.55242 20.1661 2.74123 26.7591 8.65885 13.5513 -8.26007 28.6684 5.11966 20.9137 15.4962 -2.38289 0.389594 -11.5663 -12.0905 2.55495 -0.314832 -31.731 -4.93387 -12.4115 -2.40828 -10.0385 -9.52561 -0.220209 -35.8318 -10.4227 -12.8345 0.335892 -15.1092 33.4263 20.0426 15.0713 34.7472 -2.76779 17.8366 10.023 4.89905 -44.3373 0.0712902 -7.91095 0.285954 -10.9515 -11.6255 -5.44023 -45.4941 -7.81848 -24.4501 27.4209 0.401745 -9.88867 -14.2455 36.3242 -9.31822 -20.2608 23.1701 10.0503 -19.0084 6.14502 4.54476 10.4031 -32.2314 -23.5176 -9.01901 -39.6491 -16.7078 -15.6397 -11.6687 -1.66821 -25.7201 17.5384 -4.41169 6.57283 2.4214 -4.1687 -11.3549 9.31705 13.2029 -37.8729 2.80404 22.8178 23.4269 3.3361 -24.6188 24.9809 -16.2216 14.1827 27.8323 24.5325 -15.1723 -23.2755 12.7145 17.5887 8.82369 2.44361 10.9249 -2.51346 -2.32477 41.7874 10.5272 -2.21486 9.50138 -13.9269 -13.4242 -7.73846 -3.91735 4.5898 -12.672 5.83496 15.6416 9.77354 14.1742 26.2367 27.2859 31.3638 18.6866 14.3487 19.5171 -1.61833 -5.81629 31.062 1.17375 3.83685 19.1327 34.5195 33.1581 8.99196 3.81463 23.6549 5.35917 -1.88525 -12.406 -10.1417 5.13406 6.55373 -5.80822 8.68184 9.70497 5.02555 0.316902 -6.56801 -5.13468 22.9918 25.0369 4.54219 -5.62292 19.9888 -4.71913 4.58936 46.4068 37.8066 -11.1782 -1.15378 13.3968 4.36585 4.1297 -12.7946 11.7507 -19.8122 32.4629 -2.59114 -6.31795 8.33038 -16.4143 -16.5981 7.62693 14.6333 10.4731 -29.2719 23.5928 17.2164 16.3761 -13.1975 -14.208 -13.9703 -18.357 -38.0257 24.9827 -32.6188 -26.3489 -10.7562 2.83334 -13.7024 -6.77982 6.4726 26.7452 23.5802 20.9127 3.02682 13.4594 -21.5258 8.56251 14.6795 -2.14417 -30.2089 23.4269 22.6461 -12.6976 -19.6587 10.3256 10.6761 19.9293 5.61217 17.1526 -11.9846 -22.7854 23.5149 -24.8741 -43.8453 5.24991 6.09462 3.16123 -6.77767 -26.9423 22.0753 3.72351 -4.10047 4.33612 23.1165 27.5618 2.7435 17.0122 -13.341 12.6783 -11.234 -13.0255 26.2334 18.916 -2.81667 26.3618 -15.9161 11.5338 -41.8322 -11.2279 13.0417 13.1633 0.516125 -12.2029 16.4454 -18.5146 30.0735 3.20725 7.0416 -29.9539 24.8153 -8.78432 -26.271 -36.4485 8.46516 7.16648 18.9908 -22.9684 -11.5178 -0.988921 -12.0715 18.2503 8.35249 -10.003 1.75999 -5.27354 21.9961 8.87351 4.64339 -9.2424 0.233649 -17.9439 -27.2941 -18.1985 7.12516 -9.91647 0.193243 23.6014 -3.90936 6.75624 -0.4789 23.423 -14.3166 -10.6814 -21.772 0.806362 -19.1234 6.10566 -16.4075 11.1579 -14.2439 17.9405 -10.1583 25.5953 1.48827 17.7645 -11.141 14.411 33.4319 58.7903 -18.8291 5.53337 3.2631 -14.4131 18.1878 -16.6616 4.03327 -11.5084 -11.4919 -20.7784 27.9544 41.6727 -20.7966 23.2739 8.86689 25.253 14.9206 -9.54515 -8.78219 -20.1024 -4.3149 16.6427 3.44293 -3.85003 28.3425 -12.0997 17.6061 12.9904 10.3893 -9.60686 -14.7864 -8.06868 29.2016 -23.7332 3.03421 17.0483 -8.57027 4.91544 -5.18864 -16.6881 -8.48359 -25.0209 -29.2247 5.60497 6.13874 2.46211 8.77694 -17.221 21.5154 -7.6544 -11.0462 9.16653 -35.5896 -16.934 9.79939 -6.12884 15.7339 -24.434078 9.50645 6.26241 3.58086 11.9733 12.4493 -16.0034 10.6356 8.24457 -7.30967 15.9979 -1.23252 24.5534 12.4043 -3.28838 7.71586 -25.6254 -10.9501 2.08294 -7.25913 2.72737 21.2037 -0.469626 -7.89155 -42.8004 -9.08681 -3.59653 -14.7169 12.8884 -19.5416 -54.7917 -1.29417 -1.46239 23.3711 -33.9539 -23.9573 -20.6752 -4.39364 20.5622 -12.2432 -20.3743 -29.2445 -8.13508 -19.1042 -18.8588 -10.869 -33.2664 15.9783 27.7899 26.6422 -13.4925 35.8099 -7.32128 -20.6935 17.0188 29.1709 -17.3857 9.30985 -24.021 0.192206 -18.5632 26.4276 -3.85597 -3.67857 -10.3752 2.74941 6.68081 -24.2398 5.49962 -1.45885 -14.9278 -12.7814 -12.5587 -12.8704 5.9599 -15.1007 0.452234 -21.3141 11.296 -6.44502 0.471634 -13.2093 8.15541 -19.4853 1.80658 11.6294 2.63203 -2.45778 -10.9386 -22.2732 26.1407 -18.6006 -27.0816 -5.91198 16.53 -21.9839 -12.8162 22.5748 8.37971 15.0913 -13.5796 6.47676 24.8527 -7.94727 -20.3964 17.0827 5.46629 36.2264 -2.8713 10.1406 6.18665 8.0708 12.5522 18.1163 -41.8255 -11.5973 -17.5293 -11.9209 -22.3721 -19.5602 -16.1144 -14.8729 7.00614 29.5509 0.418237 27.1955 -23.9073 -8.39796 -3.21543 -10.8532 9.23081 -5.2316 0.889619 14.0155 1.10056 17.6656 -15.1031 17.2627 19.4424 -37.2988 26.688 -16.0654 3.07531 -34.4786 3.03005 12.6062 -8.40358 -8.60403 -22.0889 -12.0531 -12.8551 -6.54065 21.3119 -4.15748 6.57216 25.6555 -8.11391 4.88186 30.4433 19.2651 0.864768 -23.8545 5.1984 -8.10047 12.5793 -28.8703 12.8894 -22.168 4.98001 -2.30934 14.8168 -13.4694 -22.4787 -0.108709 -2.49947 4.2854 -6.21058 19.6295 -20.6802 -28.2135 10.2382 5.89892 -13.8082 -3.43438 38.4353 7.58367 -21.2929 -6.89614 -35.8443 -0.343875 29.0551 11.565 -3.25975 12.6278 -55.8792 -14.0313 18.0401 9.17453 11.1661 -31.2879 -13.6154 -2.23395 2.39961 4.29201 20.9043 -14.7972 -5.11314 -4.89249 21.5795 -2.0752 22.1235 8.25 4.44073 -4.0329 33.6571 -3.8966 19.2264 5.43724 19.1596 31.6623 30.9366 11.3982 -2.71578 -14.5616 -13.3999 11.0187 -12.2869 -15.164 -9.30418 -9.12888 0.75527 -17.1623 -1.47575 24.2603 2.87283 -7.06742 -17.0262 32.4409 -11.4801 -10.8881 -23.9726 33.6129 -15.3475 -12.1712 30.378 1.56811 -7.70391 16.7906 4.53255 13.8607 -16.4543 -14.5313 4.80263 -4.6349 26.3635 26.2025 -32.4881 -4.87831 -18.4355 18.7328 24.8498 -37.6786 20.3558 -14.8913 27.6806 -6.67793 0.794148 -8.2157 -19.2475 -4.45423 15.5706 17.8044 -8.36072 28.1786 -10.5604 -16.0555 4.78907 23.4895 16.7506 -14.2828 8.07514 -11.3098 -22.6391 29.0418 11.2144 -31.8113 -14.6089 -28.4646 25.4188 22.1187 21.1377 -17.7349 -12.3266 -2.99552 -21.4615 12.8095 -12.9895 -19.5283 -5.40184 50.5487 12.1314 17.8415 15.0759 17.0503 5.79071 -7.50802 -15.1186 -13.6059 3.28849 3.89313 33.5275 2.35286 8.45424 -14.8654 -0.0220959 -28.7366 22.5028 -14.1221 -4.6456 15.5066 37.1302 -15.4399 3.77002 2.4228 -4.78207 7.76629 17.757 -0.406201 0.552633 2.60946 -7.40904 -0.700108 -40.1211 -17.9821 -30.0437 15.1016 30.7352 -29.2066 9.26138 -0.652548 6.35987 10.3194 1.01279 4.54273 7.13608 31.7836 -25.3592 27.4081 11.8732 -22.188 19.1026 8.54861 -1.664 14.3775 2.68019 16.5618 -3.59234 24.8348 4.3263 -36.5113 21.2136 -21.9963 22.9556 -29.5092 -2.357 -13.8523 -26.9964 0.584122 35.5995 14.702 -25.2779 5.3505 23.3681 -12.3206 -42.5318 10.4996 -35.5302 2.59084 -1.53044 -4.89334 17.4073 24.7497 11.3666 -2.52913 7.61016 10.8727 38.9528 20.4109 15.0434 -10.1913 2.45223 20.9075 -3.22245 -1.69206 27.7462 10.9534 -4.06274 17.6753 0.885704 12.4955 6.38923 5.20358 27.2971 41.3261 2.54866 -17.7378 -30.9692 12.8201 -14.3214 16.8947 28.4588 10.3789 0.0591492 -13.1809 -21.2491 3.4647 -25.6156 -25.2775 -10.4484 -3.91779 7.79822 3.666 -35.7965 30.6228 -44.0977 -1.45982 -31.1014 21.8846 -5.844 -18.5834 -9.85827 -41.7928 11.9786 -7.33048 4.88181 -3.43334 -0.985626 3.73102 -20.2913 -9.53021 10.8605 -6.59811 -10.5211 5.61315 3.66247 -10.4667 19.7348 0.0877775 -11.0217 -8.01379 -2.68238 -1.93891 -11.7778 -11.2451 -12.4699 19.7939 -5.87224 9.098 -9.77767 20.8627 -19.4313 -0.42952 -6.8083 11.4765 0.123414 -15.1638 -10.7431 10.7459 8.7532 19.123 19.3915 20.7927 20.9814 -15.7987 -5.72582 27.5744 12.9233 -0.231149 22.6718 -0.721578 -17.4191 -9.91344 6.96433 5.20152 22.7432 -1.19718 -7.74431 13.9488 -10.1417 -6.24482 -12.6029 21.8407 -37.6803 -10.2984 -11.6754 0.419568 7.45116 -7.17777 28.0735 -12.092 32.6288 -9.14865 -16.1668 -6.49257 -4.10962 -23.2469 -7.764443 -10.6003 1.41929 -10.2159 -4.20527 -30.6528 31.261 3.83319 -0.919708 -1.25956 6.65561 0.910481 -3.92369 22.9943 -25.623 3.6582 -2.01855 21.1453 -4.57161 40.7604 21.7112 -2.46388 9.46537 25.122 14.855 -41.5273 -25.6255 34.7064 -1.32249 22.7051 30.3124 19.8903 -8.45015 8.60879 11.6109 41.2134 -16.7973 24.9835 -10.0461 -14.6009 0.128785 -5.71508 22.1397 9.55206 22.5687 -8.79066 -10.1519 -38.6702 13.408 11.4774 4.78463 13.0592 -8.61068 -6.29633 6.54287 -10.4048 -0.994356 -6.75808 4.6064 -0.15192 13.4285 6.85355 27.8392 17.8221 -29.1046 19.0856 -17.176 31.0582 -1.12002 -20.7564 -11.5237 -11.658 -13.5503 19.8181 16.2411 -3.421 11.1772 25.2534 21.303 -27.3315 -11.018 21.9165 16.1598 -3.70397 -24.7215 30.1682 -26.0647 27.4877 -2.20044 -14.6203 8.8104 -1.18423 -14.5252 12.7971 28.9462 46.1365 1.74766 -14.9017 -6.73042 -10.2975 -1.32073 7.56829 5.52171 -24.4117 8.25721 -16.3022 -5.11316 -2.78408 21.2272 -1.84875 18.6499 -3.05393 -8.1117 7.91314 12.1958 -8.46009 21.1719 24.5569 -4.22798 31.4147 -21.6106 -25.5643 -24.6518 -6.4767 22.0793 5.75176 12.9778 -8.21217 -45.7758 5.28715 -17.9717 16.9077 0.331003 7.76727 4.65225 -14.5579 3.63732 -23.3406 -29.1254 -9.93554 33.9178 -6.69021 -1.32786 6.80862 -6.81314 -8.7048 -17.5872 -4.76376 30.733 -17.137 -18.9425 21.3672 -0.197015 8.3305 5.45732 -28.743 16.3748 7.31058 20.156 -4.88326 -9.67572 0.663776 5.0527 -16.2002 -4.56289 -31.9732 12.3113 7.5833 -15.444 1.81091 -28.1176 9.10105 -3.68066 28.5116 -8.96903 -3.71935 -2.1933 -3.73556 -2.79714 15.2022 -6.49452 21.4693 -20.3321 2.70968 -5.0615 17.3594 1.25088 -9.31815 9.37095 -8.55819 -18.4205 53.8338 23.9185 8.6199 -20.8244 8.8887 7.4813 0.913232 -10.19 11.0657 6.85354 -7.36614 24.4605 -2.32546 9.3834 1.9093 2.26142 6.76077 -5.44372 -4.60097 9.83753 -23.3673 18.9066 -12.8851 -31.6458 -7.81395 -3.42546 -1.80896 17.7161 19.836 -0.0444993 0.489696 19.2192 -28.9846 24.7465 2.91872 -7.89587 -5.9447 19.8141 -20.6453 -4.65524 -11.6837 2.24311 -23.0134 26.0295 10.5121 -18.0705 -5.96636 -6.2298 3.01693 -27.8818 11.6498 4.45619 18.0997 -5.77356 -17.0681 -7.2501 -6.08887 1.36307 -32.1261 6.71395 8.13038 -9.11018 11.1689 -0.0814775 15.1334 36.4326 -22.2982 14.4195 -21.4454 7.66533 2.66927 -6.02399 -28.862 4.31068 -20.8942 -23.1087 -4.28901 -35.3401 7.79064 -6.15711 -22.8017 -20.9481 36.3454 6.07983 7.54351 -25.3639 -7.58359 17.3541 9.37777 7.8286 11.8316 -5.01669 4.35481 12.8094 10.5736 -10.5962 14.0137 -5.53008 9.48436 -30.4259 29.0236 0.14234 -17.458 -16.3561 22.7146 0.522537 -10.4026 0.220587 -7.25028 12.1465 -5.53948 17.6404 26.8308 9.78869 -12.8152 8.60169 6.28614 -36.8263 -0.558488 -50.4587 17.45 12.3725 81.8563 34.1372 -15.3292 28.2253 16.1727 -1.72991 -31.1319 8.23004 39.1558 -2.09582 9.46379 -7.77807 -6.96897 23.1683 5.59331 -5.78186 13.4459 -7.93122 8.47939 -3.16409 -8.30146 5.19364 8.80831 14.6347 -23.7516 6.78964 13.0208 20.7612 -27.744 -22.4294 44.369 -40.7298 -1.88529 2.65895 -43.3824 5.51902 7.80761 -26.013 -3.71501 30.9585 7.97614 -7.38749 -4.74099 4.76156 6.57783 14.2366 -2.29304 8.60995 -7.99311 -4.64211 9.12382 5.05271 5.53417 31.4126 11.4032 -16.2258 3.98834 -21.7119 5.81792 4.18439 -0.51368 -7.42955 7.7531 -9.32322 29.1617 29.9157 11.1108 20.9574 -10.3053 -3.09573 -17.7779 13.7743 -22.4122 21.782 -12.8324 -21.5148 -10.0086 -6.58539 12.3589 -47.2143 -16.984 -6.11212 -5.71667 -11.0048 -7.62603 8.08271 22.2659 -22.736 -16.7718 19.616 -15.881 -21.8875 10.1295 4.53903 -23.4099 -11.383 7.91211 8.14046 -7.5667 24.6725 -13.5672 16.2423 -27.9859 35.6728 -3.99256 22.366 -10.6808 14.0021 -15.5419 22.1436 -33.7752 1.71465 6.58247 -55.6651 20.9368 6.73568 -19.0017 -14.1397 -37.5854 -4.9617 1.17447 16.1648 4.74777 -2.91019 -16.4409 -13.6454 -8.74867 -33.0105 9.66464 -1.55138 24.2533 38.6762 -3.01821 8.09651 2.37203 9.52221 -2.37513 12.197 -0.779069 -24.2083 -20.4602 -9.26377 -38.6365 2.22993 -12.8118 18.2519 15.4306 10.2238 26.5625 -13.7157 -3.74871 -31.0992 -14.5983 4.20484 29.896 -0.470409 7.52695 -0.225771 -16.5258 -58.426 26.0893 0.826371 23.6046 22.8527 38.6902 29.4419 9.37962 34.074 -28.7996 31.9828 19.7574 -5.79125 13.174 -5.61387 -2.79819 5.04771 27.6943 26.0591 -0.506855 29.2822 -3.4069 -34.2413 21.5446 -17.4591 -20.1361 -9.12027 -0.868181 -4.27363 2.15569 -14.578 -11.6242 -11.9765 -6.76883 11.617672 -11.0995 -13.0346 1.2714 -15.8813 -1.50286 -14.0627 27.8806 -12.699 13.1806 -16.522 -2.33015 3.15971 -1.46032 4.75521 -8.67219 -0.945157 2.22339 -38.3935 33.0001 -12.4263 -18.5556 -10.4902 20.8873 -17.7945 -20.5994 19.849 -32.0596 -11.1977 0.447467 -0.141484 5.51224 34.1155 19.9344 -1.3527 -1.1782 40.8574 -9.44076 13.6185 9.17266 0.610724 19.1256 3.70977 1.71557 -16.0091 -14.4408 7.81945 15.7049 5.4196 -13.9031 -23.2267 -11.94 25.8835 -5.52739 -24.757 7.17185 19.082 -36.9784 -30.0671 -36.2387 -21.7075 37.5561 -15.5156 5.72877 13.3771 -30.1366 -8.58699 1.80834 41.2489 -12.2228 -18.5182 -27.0308 39.2423 -11.403 12.8792 22.3733 -23.2978 -28.1864 72.5781 -7.19742 26.1994 -11.0347 20.2324 2.43177 19.7237 -25.473 -2.95231 -12.2028 -0.729581 -12.3081 -22.0991 4.86593 1.14701 -21.0619 3.17648 31.0503 7.40592 -10.7728 -3.35484 -20.9279 -2.23694 -4.26459 -6.22645 11.5372 13.4011 -8.0188 22.8457 9.07987 -14.0184 2.2342 7.24075 -9.01687 -10.6817 0.0553557 5.30315 -14.857 -0.996062 4.87863 -13.8925 4.21626 5.41844 -21.5224 -4.45588 16.8758 5.49364 -8.78262 1.08621 35.0239 -11.434 7.94148 9.60488 23.8337 -4.24696 -8.60786 20.6155 -4.48622 -5.83374 9.03135 -4.66908 3.64312 23.3949 -22.8816 -14.0993 -9.02109 -20.4204 13.9658 21.1862 17.6031 -13.4935 -23.825 15.4791 20.2547 29.0438 -20.1761 8.52815 19.7911 50.3332 -3.61925 -16.76 25.5693 24.0967 -4.70894 5.42687 -2.31703 -14.564 -2.91496 -6.00207 35.9144 9.49943 10.8793 -6.05304 -37.7483 -16.62 -19.848 -27.4781 21.8997 6.65645 2.67128 -9.04892 19.5858 -10.1062 -11.5607 2.094 -25.8882 2.53951 -12.4492 -27.6058 -6.01477 -16.4573 23.7955 -7.46134 12.9834 -17.8951 -10.0593 1.12314 26.5892 1.90966 14.5232 7.79558 12.128 -11.7749 -13.9678 4.17115 9.46996 5.25529 -5.6162 16.9448 -10.7733 13.0971 5.52373 13.5515 -4.75022 29.6978 9.07249 -1.24028 0.372265 -14.8268 4.85202 -5.43707 2.20832 -14.1206 4.20081 -2.23975 -0.0646371 -14.4166 5.92956 -6.41907 8.89529 -16.8541 4.79031 7.75182 1.91846 10.0551 -7.62602 -22.6446 -29.7695 -22.7901 10.2445 -3.12228 -9.1838 6.3282 -16.7508 -12.193 19.1264 -10.6721 -1.15944 -21.8395 5.98187 3.09098 16.2972 -17.6772 -4.41534 -19.0313 -22.2838 -34.447 -10.526 12.3942 -9.3336 39.5611 49.3198 -26.0089 -21.6536 -16.5116 11.4276 25.5657 13.1574 0.732934 -14.1532 -19.69 -4.46443 -12.0863 -17.0945 22.6492 -0.0520047 2.41683 24.1194 -14.9316 9.89539 0.854583 16.2704 -30.6901 -2.17077 -9.15641 11.6144 -32.6868 1.83147 -1.55175 -18.9809 19.2708 8.94478 19.6953 -3.04874 -3.83228 -20.9708 -21.5038 9.16935 4.2154 13.0186 -8.59498 -7.99463 -3.50444 25.4409 23.5165 4.10474 -32.7676 -4.90628 -2.04577 -16.4924 -3.92023 1.7575 -22.7282 -19.0621 1.72455 -25.2316 -2.83608 6.16737 -7.70641 17.412 4.84341 -11.6343 -14.1749 8.92404 4.49628 17.2627 -31.7293 -7.95374 44.1523 -21.9674 26.3368 5.96167 -19.6473 -13.2338 -7.41905 -23.4931 17.0232 21.3936 28.1338 23.5417 -3.13291 -31.049 -27.6072 35.3251 5.72343 12.0629 -6.89773 7.81096 -15.7978 23.4973 16.1591 -11.3016 29.0157 -16.315 2.54994 4.14393 4.35126 8.09424 -4.22547 -0.0167844 -6.30586 -16.7163 -0.866967 -34.6319 -33.5696 8.56776 -21.7429 -1.33183 37.6483 22.1309 2.27222 21.5128 7.48003 -25.524 -1.0784 28.8704 -5.6104 -7.9021 -2.91275 9.02407 -9.24852 -31.7788 24.04 3.30986 1.11546 -18.4788 -45.1981 -4.4845 9.52075 -26.3382 -4.97806 -23.2012 42.2486 -11.4403 8.68513 -0.00183093 10.3688 4.22175 38.094 33.2279 -13.52 -21.9503 43.4527 -5.39152 15.9881 -3.50987 -18.5549 2.0412 -22.6729 7.86962 4.19764 -2.14759 -6.52198 -10.652 -2.06306 -51.768 -34.8301 -3.19926 -13.1758 -4.67018 2.13812 -11.4362 -14.7609 -4.16987 18.8054 -22.1232 13.9511 29.9809 -1.22996 6.9125 19.5247 -7.13937 6.48518 -6.74074 4.34187 1.80663 4.46822 -8.22919 12.6291 -14.1408 -1.5288 20.5826 23.8274 3.11465 34.9245 -17.7561 46.7322 -14.1596 9.08298 -13.1863 -2.2762 11.2479 18.2179 -26.2356 14.5204 -4.21563 -19.7638 -0.373425 0.759985 -33.1789 -15.8858 -29.7991 -33.1329 -0.37654 18.4982 -19.7563 -5.50328 5.45506 6.86702 -12.5254 -14.0002 16.7243 33.6288 -8.19239 -3.75542 13.0068 9.50664 -7.33763 -1.82752 5.86901 2.62701 -2.76662 -4.50936 10.3093 3.64184 18.607 -10.1637 -3.25004 29.2897 20.571 -28.1799 31.4063 14.7585 8.02832 -4.68612 12.946 -12.7641 -10.1382 8.34047 9.28068 -2.99186 1.1346 1.97222 12.4036 -35.5209 -2.49697 -7.4077 -16.904 34.595974 -13.2762 30.8909 -18.5657 -32.5447 12.1066 2.98655 -3.07437 8.17335 -13.1927 -8.9653 -17.816 24.581 13.8496 -11.2873 3.98847 -3.07241 22.7021 10.9303 -38.3726 5.28733 15.3447 -2.82852 4.38539 -17.4114 -1.34965 5.82824 32.0499 -3.41537 -2.00617 6.89017 4.32936 11.1235 4.93124 40.3897 21.0303 3.0961 -6.14898 -20.0532 12.8859 -12.553 20.461 12.8381 4.92387 -3.39323 22.978 -2.11029 6.20118 4.73024 2.9089 -11.347 21.8529 5.11563 2.30109 -32.8346 -16.7592 -2.81673 2.30756 11.7276 -11.8177 -18.6256 -2.01788 22.0342 -10.9753 -9.6345 -47.8462 19.0431 -9.48069 -19.0538 19.266 22.988 37.3532 36.9751 18.0348 12.8419 -28.8249 15.7395 7.84436 14.6893 9.05215 -27.8584 -0.28804 -9.69786 -18.8308 -6.94198 12.7159 -0.627029 11.7037 -13.7611 4.7579 4.70418 -1.29709 0.159849 -15.4555 -4.21431 8.87677 -18.8381 13.6476 8.10816 -16.8532 -1.71452 15.5208 9.5933 -37.1366 0.140079 -7.62902 -0.481453 -13.4715 -29.7803 -1.2838 -4.69143 -31.0779 -4.97756 4.54799 -25.4355 -19.4902 39.3328 14.9474 -6.28163 -29.0067 -12.9202 3.03401 -53.3348 8.87821 -7.88122 -0.864108 -3.20475 18.9545 21.3071 -30.9723 13.7107 -8.47316 4.26569 -13.8387 14.1275 -28.6678 -27.7946 -25.3141 -5.78613 -8.06012 -5.82648 8.23108 28.8359 3.56779 -16.9041 13.227 17.009 -1.82128 6.02338 7.72624 10.9999 -20.2862 20.9051 14.5407 6.40274 5.36089 -11.6869 27.5789 -23.4222 -28.3004 52.4637 -9.69836 50.8564 -4.34669 -8.09032 11.1084 -6.175 4.05016 -27.6938 -33.4246 5.15122 -2.253 -2.40858 -28.5978 -20.7771 14.121 -0.029481 17.9358 0.0717136 13.8522 11.0979 -15.8346 -11.1064 -36.1603 10.7845 -24.9455 19.5671 32.1708 -18.3268 -13.9225 1.52752 -11.0634 16.1751 3.83727 -2.58314 34.8879 -11.8778 4.65902 -11.1974 31.6754 29.455 -19.9919 -16.5753 15.6578 10.3456 13.6242 11.3039 -2.90989 3.12465 -12.7641 3.07376 14.585 20.3923 -8.25483 -20.0499 -3.27763 -30.331 18.7384 36.6941 26.7037 3.00693 -2.78877 0.91452 -0.143255 3.859 -7.61358 -33.8492 3.97424 -16.322 -32.5183 16.0449 -7.75323 -1.46641 -4.67722 17.0106 14.7584 -11.8214 4.65761 10.7826 14.3546 5.91185 40.0662 16.2001 8.80331 19.6217 0.324168 -42.4084 -8.91213 18.3848 -35.8852 -24.8056 19.7337 -3.00137 -30.0718 26.8828 25.0314 12.808 -2.92728 -19.3138 -24.9729 -24.7723 4.62612 -10.5869 9.17807 12.3064 17.2409 -13.25 15.5061 -19.2865 -21.3581 -13.7585 19.1731 -38.4379 17.7339 -25.4842 30.3162 -33.6259 8.1377 24.1235 -6.96511 21.6247 12.0944 1.3541 -18.5906 -11.7993 5.55969 6.44666 16.4006 22.1876 -4.60524 -10.4761 47.543 -38.6993 -12.4904 25.6488 13.259 17.4062 -1.14944 28.3678 21.7406 1.44676 -13.9065 -8.86348 -7.82513 21.1828 15.9291 -12.0319 -5.70409 -9.88415 27.7923 2.71524 14.0391 5.96338 -8.0459 8.3296 5.25247 9.05265 -0.193676 -24.4976 -14.7123 13.0412 7.22789 -5.9585 4.38051 -1.70324 9.9314 -17.6427 -13.3489 -5.65446 5.62511 -21.5412 -13.334 3.74286 -12.0976 3.79759 31.3731 3.74895 -11.2905 27.3679 -2.69821 4.18445 12.2708 -6.58278 -29.0477 -22.1515 5.35069 4.15583 -19.8408 -4.143 28.7439 26.8212 4.38741 4.28358 -11.1818 -23.5068 9.78565 20.4915 -7.9422 -5.96674 2.89144 7.50969 -0.59804 8.49707 -1.12718 10.8517 -16.6687 -16.5691 -15.8601 24.1167 14.517 -23.5976 3.26091 7.79302 -21.0681 -14.8456 8.00067 21.6072 32.3165 -0.258501 -13.5956 2.80014 -23.176 -5.95941 -10.2335 -5.2916 -1.20743 4.00622 3.37182 -47.9658 -11.5627 -9.96451 -7.10361 33.1621 -3.59758 14.8279 -29.6823 -14.1091 10.0229 -1.88152 -14.7604 -24.9862 12.1607 -22.3581 9.4749 -11.9702 3.51201 -22.2712 10.7832 11.4337 15.2513 -15.1273 -26.3659 -8.06354 0.877483 11.6851 2.87076 -23.0179 8.15113 4.58303 -31.8672 -7.04324 -0.00934069 12.6008 -15.0501 17.4321 19.2205 8.67363 6.33856 -16.1429 -16.0127 -15.1855 24.8039 -18.9515 -1.17588 -5.47142 38.625 -4.13917 10.1158 -20.1866 14.2755 -0.596705 12.9408 32.2078 28.8723 13.2005 6.10413 -0.855923 -27.4821 7.64825 -13.7372 17.105 -7.5656 -32.8443 -17.9841 16.8424 -15.2809 -23.6648 -9.18057 -7.87132 -12.3592 17.6214 1.61864 -10.6455 38.3357 28.7016 -23.9289 -12.63 10.7639 0.123967 -24.772 36.9609 14.8301 -0.53719 -23.4644 -10.723 0.512099 28.3988 -29.9215 -15.3127 -19.0968 -28.8787 12.882 -2.68143 36.0202 14.4128 0.182072 12.7472 9.2407 9.75754 14.5459 0.167236 -13.6875 -0.0755623 -28.3222 56.44 2.71865 4.32021 23.8417 -24.6355 17.3198 -20.4674 -26.294 5.58988 -3.83007 -12.5648 -2.42964 -3.962983 22.3314 19.215 -9.24205 -24.541 -2.40131 -6.30452 14.1304 -6.14191 7.99854 -21.6288 -31.4675 1.17771 -5.07596 3.45696 24.1152 -11.3641 -14.1857 -42.6101 -18.6929 1.65301 -9.79168 -17.8605 -5.55845 50.5761 3.09653 -7.32236 24.7873 -2.99558 3.39738 -4.97934 5.94903 -30.8574 -22.5274 21.204 14.4682 -0.521502 -20.4561 25.5371 -7.49492 -27.7785 -11.1331 -17.4354 -24.5073 -22.1293 -0.437218 23.0732 53.6224 10.2551 -25.0217 4.51522 -1.97814 -18.5504 10.4411 -3.73686 -3.43895 -18.062 14.2741 -13.9815 -5.92394 -2.61983 -9.01381 13.7931 -18.05 -4.61696 -17.5371 -24.1985 19.9079 5.63707 -0.937816 10.6871 8.88259 16.7898 -27.5103 16.3912 17.8573 -4.55836 4.31734 10.1128 -8.46859 12.623 -15.9823 45.6673 -2.29072 -18.8374 6.41817 -29.3316 9.26005 25.2747 -7.59593 -16.1007 -6.44452 -6.23597 -3.21054 23.1985 -9.76974 -23.755 7.19719 16.3166 34.1592 -28.296 -44.1549 35.0642 16.5123 -13.1843 0.11145 5.12845 36.795 -12.6281 -24.2741 -8.03847 -13.3113 -21.7918 20.517 -6.91269 6.63448 0.997284 8.52522 33.2153 13.9764 3.27171 2.41804 -13.4705 35.5891 16.0841 -9.96776 24.5594 21.8202 -8.3575 6.94736 -0.0732487 -21.3332 -3.67432 -31.0369 -11.5428 -0.983552 -21.5742 2.34419 3.92584 -4.14881 16.0291 5.7016 13.8833 24.3128 16.3627 51.4327 -21.099 -4.56246 6.03328 4.51686 -32.3769 -7.48138 5.49492 6.61708 -1.99726 18.9036 11.1376 11.3134 45.0764 -19.8753 22.3579 12.3631 5.69476 21.2682 7.01732 -1.13761 12.5381 -17.6047 -1.37474 9.17954 15.8135 -7.04844 -7.35319 5.53367 29.0145 -6.00708 -2.69692 -28.899 -32.8962 29.1335 -9.77203 -12.4746 -2.4916 15.0777 24.3887 -15.3201 -9.72143 4.60874 -9.4001 8.60993 -0.180302 18.9235 -15.9519 -16.5349 -15.4518 16.1569 -11.8278 -40.6423 -9.15574 -8.97732 -28.7109 3.98444 7.68859 -1.61309 15.341 3.88268 10.3613 3.69794 -5.87225 -24.7661 -16.4373 -0.888271 10.4115 -1.9425 -3.65844 20.2116 5.26286 -36.3374 11.1962 -3.80743 35.0223 19.2725 9.74156 18.3727 -6.75003 33.6535 3.29996 -8.08575 -16.9396 -2.35053 -15.2051 1.64744 -2.82736 -10.4997 -9.67174 -7.16799 9.09676 20.7895 -33.1894 19.7733 -39.1916 18.9185 -7.97376 -30.8665 -21.7096 -22.0026 21.4832 -1.14207 -23.6887 -14.0078 -9.52898 7.51084 9.82688 -17.9744 9.66326 17.0012 25.3732 9.69524 0.627885 15.4929 -4.17378 -11.6986 -8.32068 13.3942 -20.0982 31.8461 26.3861 -0.670118 15.7759 9.66479 5.12839 -7.06718 2.19289 4.60811 -31.8907 -12.6532 12.4477 -17.4015 8.15687 24.3285 0.597235 11.4738 -0.306161 8.79544 -14.6865 36.9727 -9.71782 35.7165 18.7002 -16.2588 7.09348 -11.7844 23.4874 33.2622 -31.3319 15.7602 35.9817 -17.4938 -1.61327 -4.69831 -3.88353 3.29746 -26.0559 4.27173 0.00171218 -1.85742 11.314 4.25977 22.3364 -9.50461 7.47283 18.3103 20.0652 -20.7166 0.323129 12.6558 -27.34 13.5843 10.1722 -12.2048 -11.6111 -2.68386 13.1281 -10.2118 -16.0647 -16.155 -13.1954 -17.3793 -29.2117 10.3548 22.733 10.5474 -38.2694 9.85395 15.7712 7.25638 2.83309 4.7289 -4.99637 22.7635 30.2887 13.6937 20.408 -19.1385 9.52538 3.97692 -8.29633 -23.9254 5.91693 6.71431 17.783 -7.10293 -5.52269 -10.6856 -2.96444 -13.7121 -6.05757 12.7519 29.0037 8.22609 12.577 -4.37379 -10.3021 -20.7687 3.1074 12.8664 -21.006 29.732 14.1546 36.958 24.4284 -23.8792 7.50889 5.57414 7.81414 -11.5747 -39.3304 -2.51741 11.0454 24.4119 -23.9955 -17.412 -6.56313 7.05045 21.8732 16.0081 19.0041 -5.8338 -2.85195 -11.9537 32.0543 -28.8029 -27.5285 1.94086 3.43809 9.90516 -14.3927 -0.749169 17.8764 -0.0867939 12.3177 -5.21951 14.7054 1.97509 -11.9189 -11.1055 12.4244 31.8082 -1.93329 3.10447 -6.5621 -12.6006 30.7258 -15.1933 -10.6709 -35.3421 -13.6423 -0.953762 25.0901 0.249151 4.07586 31.178 -15.3743 50.538 16.479 18.2896 -26.0253 9.48756 13.4683 -2.70443 8.55141 2.39583 12.5412 -8.46138 24.8317 -13.6623 -19.0396 -18.2122 -43.1569 -11.8061 9.15453 3.52025 5.84594 25.1495 -3.24662 -13.6563 25.5394 14.5064 -5.40616 3.45196 -22.7777 -8.26093 -1.88561 10.9608 -6.73946 23.6162 1.47489 -24.9644 -0.787069 33.2728 -8.19971 -1.33615 21.0309 -7.85478 -17.0779 1.94141 3.6751 17.6011 7.97698 -12.2402 -2.44973 -0.847433 10.2483 -7.21707 -2.89164 -13.8611 9.6378 -0.44753 -15.9921 -0.256417 8.11451 -10.3791 15.2129 6.2168 -20.4648 3.59075 -19.6246 2.18482 1.21385 9.92391 0.927893 10.933 4.5945 12.3947 -2.80093 0.505578 2.43355 0.0695201 15.9826 -9.47318 -14.163 -32.3083 2.89706 4.61451 2.53841 10.3256 -9.885162 27.2325 -28.1959 -13.8435 12.5654 -20.0954 -32.6725 13.3263 0.741527 1.62939 -16.5194 -11.3618 -25.7369 -17.634 0.322276 -1.93189 16.7701 -9.48552 -1.28978 28.8996 -11.1831 -16.8069 -1.07864 5.3881 34.3737 -35.7431 -21.8786 -32.1592 11.1155 2.89199 2.09167 -31.055 12.9249 1.65874 -5.44547 -12.7435 26.9069 2.89347 1.52117 27.7173 15.3681 -17.6964 9.97087 27.0498 29.0906 -7.33903 14.3042 -20.0393 -25.7338 0.438063 -0.114196 13.9645 -36.4779 20.3025 19.1081 4.72927 21.3428 -11.6939 27.2903 -4.15906 -13.6909 2.67226 3.84668 -23.1736 -25.4697 -6.97257 22.0613 -8.66941 14.6036 -17.0105 -17.1514 -0.689356 8.52456 -1.05038 5.89673 -12.8616 8.89646 17.9447 9.53632 -8.53135 -21.183 -4.50012 8.73519 -3.24319 -19.175 -23.7003 6.58858 10.3037 21.2619 4.56373 10.6685 -17.3049 16.4603 -8.98312 -4.38118 -4.47952 7.0972 27.325 -36.6277 -3.77428 -8.8945 2.84945 -1.65124 -11.9903 -0.483473 8.63436 -10.9701 0.603654 -2.39803 -18.5404 19.2732 21.8307 23.7032 -1.12961 32.7436 -24.1893 -3.89007 6.03039 5.83458 17.6962 0.373305 -28.7076 22.4652 -19.2117 -18.5818 -22.6365 12.1021 21.9565 -11.1637 -29.0947 30.4172 -16.8316 -10.262 5.50431 19.9298 17.0865 -30.4717 20.8176 -3.9892 20.5148 -11.0035 0.838653 -2.35931 -10.3373 8.07093 0.0958921 -3.72791 13.0445 4.63826 8.70871 -11.8064 -6.1346 -7.19865 -28.8661 -0.23921 -10.1228 6.91679 3.52167 20.8572 -19.5635 9.83903 0.505932 11.9919 10.7626 11.6967 16.3563 2.3744 -6.81559 33.6199 13.3226 0.359813 -4.68753 -5.25065 -9.92591 -0.355909 4.9614 -3.05209 1.09665 -3.43918 -2.2599 3.54552 -2.07068 7.88878 -4.84963 -11.4636 3.10385 34.5137 -14.9095 0.558606 -8.32143 2.32704 20.6426 38.0678 -0.768202 -20.2278 2.97879 -1.94361 -24.8135 13.3426 0.329414 20.7203 -1.64843 -3.52989 14.8201 -7.60118 -10.4576 13.1597 -0.911105 -2.76473 -21.8314 7.72125 4.5644 -0.156073 -10.3409 26.0167 5.25645 5.45299 -9.41217 -4.45161 -15.0615 21.8238 -3.60442 -6.1742 19.6258 9.35813 10.5684 -27.6929 -8.82906 -8.23572 14.1535 -16.6323 -6.08094 13.637 12.4842 -12.3892 26.2291 -18.633 9.99275 12.9413 -13.2155 11.7116 -18.016 -17.2603 7.55479 -33.584 4.24353 12.5448 9.27045 29.2936 -4.64497 4.57789 25.304 6.0661 -27.3896 9.54771 11.8141 1.43028 -33.6282 -2.9742 4.06426 -10.3575 27.7839 3.86199 12.7251 9.05442 -5.3303 23.927 -21.8901 4.94302 10.549 6.6158 4.16785 -4.97557 49.5894 1.48082 -21.8751 -15.9751 22.3974 -9.67729 -20.3475 -16.3234 -0.458262 36.1819 19.4377 -15.4851 -18.3675 2.55152 -2.98684 1.86834 -17.1217 0.222721 5.75725 8.39277 28.9848 11.1065 -11.1086 1.52996 20.2369 12.4318 -11.5933 -19.7075 -17.2909 18.6874 -13.2716 -4.29591 -21.6007 -13.3217 7.06149 -26.6933 15.2137 17.0723 -1.76207 12.1014 3.6643 7.8136 -32.0236 -9.72326 7.15061 -37.2175 -3.59703 -15.8611 -33.3046 9.07682 1.72783 -3.41568 -14.9666 -7.73912 -0.052306 5.49626 -23.1137 31.0234 -7.5598 -7.54002 -7.65062 12.5344 -2.66629 38.1515 8.21712 -38.0537 4.52913 -19.228 2.16206 13.3906 12.2372 -8.06525 8.61276 -22.1945 -13.0733 -9.67219 -28.777 -8.94388 12.5338 19.5817 -17.1935 11.6336 14.8265 8.66835 19.5892 23.3607 24.7861 13.2609 -17.3011 12.4681 0.902677 38.3619 7.71788 -3.59373 10.2246 -11.3607 9.21062 -12.2254 10.0637 18.8056 31.0829 -5.25235 -1.76611 -7.57585 -4.35023 -14.6341 7.66992 29.5269 -1.70794 -22.9394 3.33683 -38.5963 -5.42985 -3.1807 -10.7235 -21.0349 -11.3199 -28.6876 5.68016 1.00394 12.1225 -1.58867 21.8653 -31.2138 9.43719 -32.5671 17.0165 -2.67788 -14.0754 -44.4788 34.5806 -2.3307 -9.80554 13.4943 -5.81328 2.6882 -27.5841 -3.42692 8.96114 20.6008 -8.83718 25.3654 -9.8855 -1.29656 -0.281446 -3.56297 8.67983 1.67693 -7.28763 21.9054 18.2779 12.7876 -16.0146 1.37083 -7.22972 4.40802 14.5071 -22.3795 -9.30081 -23.7738 -2.71634 -12.573 -29.6351 -20.5043 -33.9074 10.846 5.43437 13.7244 -1.07181 -1.61724 6.93521 10.1517 33.0265 -8.59634 3.54655 -5.56236 -35.6408 -26.8436 -11.9867 10.8748 10.4675 5.79345 -0.398944 6.54054 7.49243 18.7408 -17.563 -4.23823 2.30299 9.84394 7.64312 -4.74838 6.57998 -21.398 -14.9172 4.30071 -12.2578 -13.0972 28.6838 6.39864 -8.42676 20.6281 13.0966 16.663 -26.5595 5.49876 23.6859 5.45049 -1.02164 -19.4665 -10.374 24.5067 37.0989 18.5128 -9.95232 12.0723 -15.7826 -13.2123 3.06357 -4.73141 48.5729 21.8555 37.5866 -5.82372 -4.51467 -38.967 -8.22724 1.96674 -11.5136 14.637 2.02007 9.4583 21.1179 -13.841469 22.3286 18.4889 -5.65437 0.83413 -0.0375952 6.45022 -25.5679 -5.01266 5.24461 0.396192 -3.86529 10.4723 29.3906 7.06668 18.1143 -9.34319 8.21681 -28.7806 3.43894 -11.716 -8.35628 -3.3494 14.0484 -2.41438 -5.15439 0.254644 14.0434 5.89409 -9.09465 -4.47555 -41.3034 -13.8789 -19.1134 -10.1452 2.04924 -4.51985 23.1765 -15.9723 -34.0439 17.8208 -0.0315582 -11.759 -14.5158 -5.04245 -5.22457 11.0788 -0.491902 -11.6328 -3.16203 13.7816 -18.5974 -3.36681 -7.68901 -21.7994 6.68691 -22.007 8.09058 6.79953 -13.4948 -20.6043 -35.829 5.09012 7.83319 -18.5927 26.4046 -3.1287 -18.7577 -15.6238 9.51137 8.64974 -32.8417 7.20725 -5.72644 21.6167 -8.57387 -21.875 6.72659 5.54173 15.104 -1.1893 -6.74844 0.995391 -10.6617 -2.72108 23.4517 42.2288 -39.8054 -27.1298 4.6694 5.11399 6.34058 -7.2617 -1.96765 18.5278 2.4087 1.20157 -24.1147 -14.487 14.984 -14.6621 16.5187 -23.3483 4.02118 18.1973 22.0121 1.967 -7.38395 19.0131 -30.8607 17.7637 -8.02228 29.7593 -38.8529 -7.22097 0.493911 25.4781 10.306 -3.99072 -24.2501 -6.29458 -6.87997 2.58437 0.392474 4.39736 16.0697 -23.9209 -19.3085 -20.2891 -8.28499 7.63804 24.7095 -24.9476 -14.8757 12.2506 30.903 -13.2844 -17.5938 18.6188 -33.9183 -26.475 -20.7095 2.9261 -18.4186 -2.1499 9.59951 8.92569 -7.50768 19.3539 15.4928 22.6973 -3.10648 -15.143 17.3603 -1.53093 31.8779 23.7129 -2.75661 1.86902 -0.677207 6.01709 -14.3516 4.97282 -15.7689 -4.90964 -12.3623 5.53275 -17.4638 7.56242 24.061 20.7707 -30.7674 -21.5506 3.82494 -9.90954 29.7427 -29.3929 -22.9512 17.1001 -12.6644 -4.08949 19.0006 29.3144 -22.4549 -16.4338 -17.3271 13.9043 4.38832 10.9109 -8.10975 19.8895 -0.685991 -13.9268 -15.1805 1.12272 -2.26234 -0.111576 5.73321 -9.53819 -29.9697 -5.58959 0.947848 1.49321 -48.1542 27.4472 -29.238 -7.81512 16.663 10.4232 -0.684036 -27.1541 -6.60426 15.0279 -9.80249 -9.23448 22.0049 -14.0576 -6.2782 -6.09729 -20.108 -4.91158 -0.279486 -5.98932 4.05602 -13.2859 1.73261 -38.4336 -0.211545 -17.2378 -39.5341 -13.1216 4.87173 1.81299 -1.58196 -8.26399 -29.9212 31.0477 -0.494772 20.0206 -13.0823 -1.43443 11.5957 13.5808 3.42259 9.45732 19.8253 1.82616 14.9399 30.9768 6.54738 -12.6537 -5.26451 -33.7869 -14.1822 1.97907 5.31431 -10.3555 -9.7309 -32.3383 -16.6791 -6.09614 -15.7346 0.4955 -27.0881 7.19101 -12.8004 16.3236 -19.5384 18.6613 4.82217 4.27576 -12.5377 5.17814 2.4557 -1.40715 -25.4646 -9.17343 7.99659 27.1476 33.3978 -9.47344 22.5612 -0.998678 -12.3662 29.1379 -3.3585 1.41228 -16.774 33.4458 -10.3114 -13.3631 -14.3545 24.3793 -5.06572 -7.09799 2.39345 6.84849 -12.6072 21.9538 -6.10347 8.57332 32.8627 23.5122 -4.37752 3.27982 31.8413 1.0532 0.242992 37.6418 -23.7941 3.25547 6.7991 21.3324 6.55111 7.49791 7.67747 -34.4228 -17.9719 21.8086 -17.6901 -4.42921 2.61984 -12.4046 -37.5501 18.1257 15.6518 -6.4372 -12.0843 9.95733 -21.5291 23.1977 -8.33204 -28.0585 -12.8521 -5.84009 27.1012 6.76419 3.07193 -11.9974 0.411321 5.27654 25.3206 -27.4494 26.9399 23.0056 2.67978 15.3508 0.33795 26.1351 17.1872 -9.46306 23.4538 -1.64556 -30.9274 5.51403 -14.205 -2.03869 -7.02848 -6.18604 30.4673 2.56642 35.2872 4.50515 -10.5725 28.8051 -13.4245 2.52822 1.97431 -15.6019 -3.15921 -1.64299 31.2931 11.9855 29.5791 5.31327 -28.0107 6.03356 -17.5155 -41.058 35.4567 -11.723 -11.2976 2.84091 3.92017 -6.99918 -15.5727 -10.7491 -13.8831 11.576 -1.17845 -9.12717 33.4049 -20.3973 12.0635 14.197 -6.79105 8.06507 -24.5816 -1.20126 -7.30655 25.8284 31.2209 -21.0911 13.5091 12.8952 -23.4049 -2.31154 20.5 13.7795 12.8841 28.5384 -22.7501 24.3553 -9.46367 1.84282 -6.64986 -0.407248 13.4409 35.538 -5.7716 -10.4654 -3.49492 -14.1755 -17.5382 0.866424 -5.59722 -5.5247 -12.5851 -18.4896 -24.6751 -6.97164 10.0892 -2.42946 27.6517 0.327893 -1.93871 8.01221 27.3667 -48.2914 -8.61678 10.479 20.1611 -11.7324 0.312934 23.5862 6.02173 -13.4645 -12.2407 -26.9156 -13.7556 0.972744 7.31468 35.279 -13.2976 -34.3637 -6.25209 -0.969026 -10.7186 3.41191 -23.1746 -24.1987 5.3184 31.1544 -0.641444 1.02004 44.9552 17.1533 -31.679 -11.7888 16.254 13.2732 -8.05987 11.2447 -2.021 -3.85333 11.6124 16.0694 -2.13091 -8.2091 -26.464 3.30912 -9.65478 12.0398 10.9397 -12.8787 -14.5329 7.14714 9.74551 -2.35347 1.04971 2.95456 -19.4015 4.47096 23.7931 10.9776 14.0842 -1.55614 -14.6761 -18.1997 2.04194 -8.75313 -2.99674 8.15789 -12.1575 -3.93512 -26.6233 -18.516838 -35.5118 2.77498 -35.8367 8.35468 -14.5537 -15.0309 -11.3744 -2.90836 13.0357 -23.7462 -13.7716 -2.93064 23.314 -8.86258 9.43199 4.92727 38.2632 13.9273 -35.4794 -11.8168 6.21436 -31.0134 -15.6716 30.5651 -8.65529 17.7454 -25.2746 0.012945 7.1345 -10.1975 -41.233 15.7675 -11.3355 -2.44844 20.3659 2.84518 4.62935 -16.3503 5.34342 -23.6416 -2.08131 26.7463 19.7888 21.9922 23.6854 10.8052 25.53 5.02689 19.7232 19.4546 10.654 -13.6684 8.07824 26.6692 -1.08426 11.611 -9.27171 -0.78945 -20.0841 34.3688 -11.7637 22.1933 19.9416 26.9027 22.2307 -2.88015 -8.69162 -14.2423 8.59865 -2.19416 14.1282 -0.054263 -27.7291 13.5302 -17.675 26.3776 16.4678 -35.1795 -4.18237 6.82881 21.2594 7.2122 0.710895 -9.14737 8.37629 -13.6209 25.4004 2.98257 9.06803 -21.979 28.4408 -19.3805 5.94648 7.84985 8.05683 -11.0212 27.6538 -12.9246 5.20408 5.46422 33.2446 -23.2353 -28.0124 19.8326 17.1582 -3.57128 -36.6052 26.5673 33.6462 20.2399 6.14728 -2.22106 11.5282 8.23615 6.59072 -28.9479 30.1874 1.8905 -30.5202 2.59493 -30.3897 19.4295 21.5379 -1.95191 3.43272 10.2596 1.65709 21.3851 -20.2242 37.8941 -4.3642 20.2074 32.833 -1.26323 9.30411 -2.12927 20.0154 -3.87018 17.9269 2.77206 1.57665 -13.0187 -12.2571 15.2016 -6.44196 24.4331 -28.4354 26.1198 -21.0396 -18.1572 10.2237 6.24285 1.98346 11.5632 -18.1744 7.80551 -29.7585 -8.21478 -29.3495 23.3754 19.8165 6.91696 3.56585 -5.89251 -7.99986 8.80289 9.83446 -4.20947 -35.3496 -29.8029 -27.7821 -2.91568 -5.00528 19.8503 7.20878 26.2945 16.758 0.587295 -3.71764 -20.8948 -1.47313 -6.24097 -7.9273 17.5909 16.1827 -8.57509 27.2962 0.913419 -17.704 -4.33686 2.33041 18.0899 -10.6333 -3.63176 -10.6744 -8.83822 -34.236 -17.0841 -13.2899 13.2013 21.2579 -0.927763 15.9568 7.46672 -12.9913 24.518 12.5163 8.13145 20.9042 8.36109 -15.2359 32.9468 -14.9142 -5.97081 18.8513 10.1821 -5.41716 -1.10691 -8.68739 -1.72215 -0.107969 18.0068 -8.64618 -19.4639 10.3989 -10.6538 -27.3721 7.24021 -10.4861 -10.0888 32.4384 -42.4241 -3.60821 36.0728 -19.8105 -14.2443 -6.89895 -12.4666 19.0186 -32.3405 24.1549 8.28541 -5.59111 -9.55456 -10.7837 9.92412 11.7499 -14.5698 -4.06538 32.7232 -19.3808 -5.32652 13.6975 7.80383 17.7632 -4.39613 23.2502 -20.1807 2.55813 -29.9158 -2.98606 -4.50881 0.897799 8.27479 4.9907 -38.6158 -34.6532 -22.3324 25.1323 -3.6743 -12.5635 17.706 -10.9637 19.771 23.9893 -9.7091 -2.13062 -2.41408 27.3376 -11.3668 31.362 16.5382 -14.669 -33.2496 -15.2408 12.9141 -57.0312 -3.9494 -25.3599 -13.3641 25.5752 -14.6815 10.4023 28.2385 3.3516 28.524 22.3684 24.0794 9.23642 -23.2074 -10.6668 -28.8106 15.8789 -5.035 -1.54161 -12.8995 3.64989 -12.9623 10.3744 -29.968 17.5629 8.95334 -3.64006 -5.15866 0.940275 5.03774 -7.49931 -17.9229 45.7646 -1.48486 -10.3371 -4.48055 -24.4892 -9.56352 -13.8047 19.6086 44.4277 -8.57448 30.2096 -9.90875 -10.9679 18.5931 22.3136 -4.6949 -22.1872 -5.99036 -0.301036 -28.5663 -11.0845 15.1201 -17.5704 5.15842 7.74017 -16.5672 -21.1925 5.01552 -23.6904 -32.0661 -23.2859 0.904935 4.30555 19.5047 -32.216 23.0655 13.5816 0.808003 13.2837 -6.06781 -25.8688 -4.03583 24.576 20.2401 11.2899 14.4056 21.0545 -11.2841 -25.9054 -6.70834 38.4158 22.8082 -23.3157 16.8422 18.1157 -6.26727 6.56575 -21.0076 4.95155 -34.6899 -6.31362 7.71771 -12.426 -4.1159 -9.8673 3.40685 10.8508 42.7436 -15.6324 -14.323 -11.0714 4.41834 39.8476 -33.0095 -0.0975339 -5.78734 -16.0631 -16.553 28.9186 -21.6479 6.95029 -10.871 28.6345 12.1279 1.22794 12.389 1.88056 9.39799 -19.8889 18.4213 -4.58492 -13.146 0.682151 34.5403 -24.3758 -5.62261 22.1635 -17.5192 11.0758 4.90042 -14.1704 2.16541 30.7746 -8.85678 10.3322 -24.7635 5.00407 -27.4236 -1.72234 0.806479 5.63469 -17.9883 1.9768 -18.2746 38.7637 -8.82131 16.1934 -26.1838 4.55562 -15.3254 -2.18084 20.3882 -12.8003 37.6524 4.28933 -13.5748 -20.2148 -23.3789 10.6795 -11.1341 -44.9479 6.7618 -24.6981 25.2681 -19.171 -10.9327 -18.2853 -2.69241 23.064 14.775 46.9931 -6.55489 -6.68612 -3.63116 -9.8497 -26.8494 31.5817 -23.3798 14.604 -16.9398 9.34288 24.9549 -21.4945 15.4313 7.67765 -21.4241 -9.12826 27.2783 23.356 19.7306 -12.6519 -7.43082 21.7526 -3.58043 3.49919 -0.14478 -28.512 28.0199 -8.49311 -6.32026 -18.3555 -16.8833 42.1331 4.20264 -5.56054 2.97586 -2.17749 -26.6458 0.245126 -2.01197 8.85659 -28.0743 27.8169 -9.4959 -9.62928 13.97 -15.4035 -10.978464 -9.8239 -3.12883 12.0016 -10.3114 5.20511 -6.52047 -1.48521 -17.1512 24.5018 -33.3308 -14.4844 -33.2955 8.58803 -21.291 18.6866 -7.202 -2.87339 11.7953 -22.1304 -3.7467 6.71892 22.1606 -5.71453 23.6916 22.722 -39.9036 -12.0699 6.47175 6.98031 -11.7034 0.084967 -23.2971 -0.686482 10.8578 -16.2266 -18.6384 -15.3347 39.3559 -12.9415 7.89513 -22.2316 -1.66452 -3.95136 24.709 13.213 -27.3739 -15.5051 33.8819 20.7809 22.8099 4.83859 -0.495438 13.9401 9.26462 -0.39363 -8.98867 1.35154 19.1315 2.01154 -25.1268 -12.7192 2.57961 -35.3631 -3.9635 18.7788 -9.23502 -6.91084 34.4843 -10.4844 -10.168 -22.5236 14.2787 12.1383 -2.65402 14.6043 10.4824 -4.98483 1.5341 -20.2408 -8.69131 3.27212 -14.2908 2.95242 16.9028 -16.0394 -9.75781 8.48884 0.109931 -0.73562 -1.54185 4.76235 10.6029 25.5889 2.85897 -6.86862 -4.23962 24.4356 -12.007 32.7487 -12.3305 0.921232 -37.5794 14.2359 5.5983 3.81958 -19.9319 19.0699 5.35807 11.0018 -18.5871 -22.4579 12.8942 -21.847 -23.1645 8.19605 -2.50197 18.6328 -5.45921 15.587 -17.9813 12.3599 1.38994 -22.741 13.4275 -16.4015 -4.95017 -9.18778 -12.8705 -4.47498 -14.1809 -8.08423 -25.594 -12.5832 -11.4888 4.18 -11.6742 -7.60344 6.75308 11.711 -0.457407 -0.443732 -23.8837 31.2805 -24.6736 -11.6445 10.3999 -7.07199 3.21477 7.18082 5.4835 -16.0682 10.6505 -16.0922 -22.8945 -11.0446 -6.00891 -49.6193 -1.05259 15.3061 -7.72869 -1.33646 9.39531 -23.8565 5.05502 28.9183 -6.64154 2.52688 -20.1944 -11.1711 -4.48408 -14.8317 -27.8823 4.43251 -12.6258 0.781216 -25.8242 6.18215 -3.50768 11.8811 -5.1456 -9.79406 8.27046 -13.0735 -19.2156 6.55849 26.6667 33.678 5.81628 26.3849 -25.7823 14.6132 -1.81195 11.8444 -10.2545 -34.651 -5.14664 -7.29019 -19.9016 -9.13092 12.2622 -6.54658 -7.64611 -9.54497 -12.9632 18.7638 6.79251 14.2353 -4.12025 29.31 11.077 42.1656 -1.91131 11.6842 21.9722 18.3579 18.086 -17.6664 -15.0002 9.62646 -8.70914 17.423 20.4046 17.1051 -3.2407 24.4346 -2.22773 7.83142 3.91259 -22.54 -8.25231 -8.82663 -7.2111 31.981 -32.8635 2.96169 -40.8654 3.05417 -10.1512 2.20271 -0.244938 -9.20659 17.9901 13.2604 3.47191 -17.0355 13.5368 8.37465 -14.9165 -25.3691 -11.0817 1.38145 -50.3142 4.68973 16.9198 -20.4692 14.7354 -6.83005 24.2536 34.2589 -8.77883 -6.79561 -18.815 -16.2151 11.3612 17.4935 11.6122 -37.5475 -19.8841 -8.81063 -12.1005 9.62005 9.99116 -8.93746 -9.0505 29.0295 -15.5764 12.7748 21.79 11.5088 39.1918 24.2235 1.10263 -14.106 5.14756 14.7579 3.06088 -4.98276 -14.2557 -3.82726 3.83636 -20.3256 -17.3571 -16.6453 1.1785 -18.5815 -3.17771 0.450632 9.39435 -8.93154 32.5604 28.4273 -31.8298 -4.20185 1.65135 -14.0813 -8.45895 -2.29883 3.24802 21.2141 15.4285 20.6661 -31.3127 11.2574 2.10889 46.4918 -19.3105 -0.429522 -20.0102 3.06137 0.292305 8.92918 -40.9485 45.5062 42.9161 8.7018 -3.64293 -12.8303 -1.10325 -13.3128 -10.0162 -0.677995 -4.07568 1.39427 7.77026 -11.5746 -13.3209 -3.45653 -26.7715 15.8882 3.11936 19.7582 9.02524 23.1274 20.7385 -32.7478 18.3731 -9.12686 8.20856 -17.5551 -3.24595 -14.4629 -26.2454 -19.6916 12.299 1.54332 25.647 -6.59579 -18.7668 -9.49595 28.18 -8.58211 0.748555 -21.8968 22.5408 -1.89849 17.6779 -10.4376 7.89087 -0.51186 13.3557 10.5695 -17.9161 11.256 5.0286 14.5473 -2.62715 -20.8889 -19.8012 31.1214 -19.5288 -21.9213 -1.73309 -13.3064 0.384896 6.55111 -16.1449 -6.04016 -48.6762 13.0061 -1.80388 7.26559 0.142826 -14.777 -5.06619 20.6788 19.6135 9.92964 -1.2559 17.6468 4.97281 -13.3176 -24.8702 11.1089 -4.93074 -38.0649 3.76378 -27.0465 -30.5006 17.1054 27.7745 1.68332 -30.8768 -9.46147 -20.6796 5.15617 -10.6874 1.27384 -12.1296 -4.69718 -28.6843 -11.584 7.50201 -12.3282 1.13303 14.0669 39.6608 -1.31302 25.2236 7.63409 7.70252 7.48704 26.4949 23.4307 -42.3575 5.23472 -6.12427 -26.6036 29.4266 -5.24314 -13.0934 0.879117 -8.85043 -22.6118 -33.3182 -12.727 -7.41474 19.9225 16.5373 41.4685 -5.62597 6.49166 7.8562 -6.0774 -18.7113 -17.6844 6.37178 7.27958 -2.07929 -17.8601 0.328135 13.3492 7.15659 14.2717 19.8938 6.41066 3.85937 -26.9424 11.1769 -21.3835 -11.9089 4.73336 -23.7485 -0.542867 12.2646 3.44042 44.5429 -26.9042 26.5998 -31.6369 14.94 23.4978 23.264 26.8223 0.0564564 7.19231 -8.43053 6.16358 -22.0461 -24.4302 20.5894 5.43315 20.7596 4.58034 -26.4164 -12.4387 21.4866 -0.325449 2.61775 13.0635 6.5215 3.94411 -0.294073 -3.96215 3.06833 -8.76235 -7.615620 -8.58712 -29.0304 -23.7958 3.77898 -15.7632 -3.72802 5.10569 20.3174 -8.03687 5.90405 -10.7415 -9.7739 8.56074 52.8592 19.0316 -1.59239 3.32542 -6.77981 -5.78992 -28.6604 -12.7066 -1.53638 22.6559 -25.371 -5.89483 -23.6635 13.1044 -7.90595 32.2069 27.7677 -8.00909 -19.1946 31.2612 -6.88987 -1.83092 2.41986 11.6593 -2.83903 3.408 -14.8149 -4.0337 18.2619 -1.46293 -16.9818 11.2248 36.9244 17.1166 -14.0028 -9.04135 -12.7057 -5.50585 0.65658 -16.2203 8.89065 4.15308 -37.5144 1.42088 -8.0788 -16.8027 12.9554 23.1372 -12.3696 -13.134 25.4761 -2.68954 -7.01663 -10.0687 -25.3141 -2.86844 -0.889922 -13.1057 17.3976 -16.7553 28.868 2.81607 -10.413 -15.7561 2.87435 -19.3391 -18.1474 -28.1513 3.43682 -8.93648 13.6359 1.70659 35.7081 -9.65227 -19.3482 14.6161 -8.55043 -13.2969 -0.142827 -26.8866 -21.1838 0.384784 -1.64007 -5.73584 -32.5216 -36.1889 -15.3781 -6.47316 -59.5031 1.43535 24.3511 2.60256 -17.6688 -10.7426 -12.5601 -5.90881 -5.69299 23.8795 -1.65533 35.8863 -27.0214 24.9286 -31.7428 -5.86524 -1.26908 2.79225 -8.53736 9.67595 15.9742 15.4673 -15.7454 4.79202 16.3647 -27.5555 -3.22966 -6.80216 0.367957 -20.4953 26.1444 6.09875 -15.4219 4.26807 -38.6762 11.2043 2.14472 14.4021 -2.0376 -6.39246 -8.30641 2.34999 3.71868 -26.6689 -9.8734 38.4703 -7.62389 -3.49656 -3.35069 10.418 41.1373 -19.0432 -14.5851 -1.28458 -18.533 23.2026 14.1781 12.3191 13.8893 -8.43451 12.2945 -31.9207 33.0428 -9.53655 -14.5223 -27.9902 -12.5313 -9.40058 -7.33541 14.1577 10.4174 24.0107 -13.6194 9.03836 -21.905 -3.1727 9.96227 -18.5591 23.7227 -17.382 7.02995 9.52595 -8.24245 -0.804579 -21.4249 1.05296 -15.3037 3.74462 25.0459 -11.3458 20.772 -32.808 26.7767 9.98227 2.98642 -25.3728 -3.80236 14.6534 -10.1913 26.7096 -12.8681 -12.184 -20.0639 -1.10715 -17.4105 -15.7249 13.4675 -10.614 -3.56119 -1.02292 19.8993 22.6722 36.3125 13.7937 -34.7077 1.49657 31.1303 12.4515 13.0118 22.2078 -1.37829 -8.52894 -17.6501 16.2829 -13.7937 -2.97043 5.51555 -25.0407 34.6219 -8.4383 -16.7504 -2.17688 17.6613 -7.95868 17.5352 -17.778 35.4194 5.77386 -16.2949 -7.60002 -3.6107 5.58379 2.38551 23.223 27.8122 -33.7224 -14.4179 -4.65371 -2.37374 -3.7376 7.36276 14.7405 -2.55623 24.1742 17.4358 27.4111 -6.14624 4.41773 20.0491 22.2126 -4.50417 -20.5215 28.565 -11.3794 -12.7677 -5.13114 20.0963 2.34174 16.8381 12.6197 -5.44219 -6.36652 17.5206 -0.856485 -9.46354 29.2087 31.7188 -10.5934 26.3382 -25.3981 -10.5099 7.20994 0.574174 9.87718 32.9215 -14.4743 -25.293 11.5332 13.863 24.7154 -2.12421 -26.4919 2.45008 -1.481 12.4065 0.142948 -16.2861 -6.28594 -9.61894 -6.03034 7.69488 15.2688 -30.3595 3.22482 -21.5889 8.91422 -4.41602 7.93963 29.0982 0.98245 7.1464 -8.50399 -4.97555 -0.603528 49.3436 0.518452 -0.662861 5.68047 14.7267 5.97241 5.25084 -2.13563 -11.8327 -29.6535 25.9909 -5.82513 -0.699971 -28.1876 17.8444 -6.6373 13.026 -17.8025 15.711 11.558 -3.54821 -34.3125 22.5207 3.52452 8.63039 37.1039 13.8914 -3.81451 5.47502 -9.36027 13.399 14.2987 -15.7597 -24.0505 33.8512 8.15889 -0.0777577 8.43378 -14.0875 -8.81168 19.9638 36.6017 1.49125 9.31299 -14.3519 3.4246 19.2283 -28.0222 -9.46006 -5.50493 -8.52095 -5.30161 -27.6417 -28.0864 14.1766 8.98416 18.6543 -11.2393 -15.0867 21.5688 2.66145 -42.9881 -15.3332 10.7662 -4.2815 -30.177 -17.5047 7.85833 -21.3983 0.991668 18.6168 -12.6219 10.1802 -15.4799 -4.79146 2.17377 7.72662 -14.8512 16.3598 -34.8996 -32.6893 16.7037 26.4788 -12.7261 -13.3912 1.17014 4.58761 8.67306 2.51174 -20.6525 5.85704 -16.9408 -10.081 17.9767 5.75354 41.0239 -5.90167 -1.82788 8.18378 13.05 -7.04751 -3.89893 -8.99637 10.5058 -12.3898 -37.2714 8.26894 4.37143 15.6872 13.5335 -21.4031 -20.3573 -8.40015 3.04025 13.0506 11.2454 4.32276 -10.9112 7.83239 -2.65018 14.9318 17.6805 -34.7183 11.9641 -11.6624 5.26218 2.45618 22.6697 7.57891 -2.60383 8.69629 15.3839 15.0283 -25.4136 9.59569 -19.9869 -41.0794 14.2282 -13.3275 0.901214 -24.4461 9.49868 -37.8181 -12.109 9.54091 -13.9006 28.4177 -12.0541 8.49368 5.69304 16.8692 -16.8561 26.5191 8.93808 -17.365 4.95961 14.8815 0.979647 -6.55141 -1.31676 -21.7688 30.2825 -15.3068 9.87976 18.7624 5.65391 21.7854 6.72365 14.6538 -5.61188 -50.7 20.1278 13.2321 -11.6604 8.22461 -20.4913 9.14518 16.847 -23.3232 28.0882 19.9923 -0.63369 11.5283 -28.4351 -18.2492 46.6881 22.2288 8.10071 -7.61266 -8.38705 14.283838 17.4163 18.0088 17.9802 -12.2911 -29.0639 9.96174 -3.12339 -10.1608 14.8266 -0.773389 -35.0408 -26.0952 -12.2096 18.495 21.7295 -5.28868 -6.46486 6.29811 32.6282 -1.19754 -8.24598 11.5626 -3.12375 12.5148 -6.5068 -11.0132 -1.13895 -10.7481 28.8157 7.5712 26.0199 -30.614 22.5918 46.7302 2.02186 -5.84746 10.3278 22.3101 20.2073 -23.0967 -10.1072 18.9315 -25.9337 -22.8857 1.00693 -1.0029 7.70996 -15.4965 -17.6161 -15.24 -20.841 0.637112 -29.5943 -12.1714 -22.6393 -0.588955 -32.8142 -23.5488 25.7755 1.77312 -8.09265 13.0223 -24.5709 8.0551 -30.6925 -11.9068 26.3155 -20.6922 -16.8012 -8.6368 15.9762 16.9969 -9.131 -10.0666 -3.79149 16.433 -9.73084 -27.741 16.7043 -10.6591 -40.1607 -1.83069 20.5335 -19.0963 28.8791 -12.7197 2.33576 -1.3267 -27.7258 18.2523 -19.8883 -9.27005 -22.4447 -10.8006 1.45762 -3.53472 0.0449965 7.67431 15.1358 25.3373 -1.92535 6.5569 -21.1201 -48.992 -3.92743 6.27559 4.25844 10.2341 -28.5591 -12.3097 21.5103 -28.1658 -0.930386 -7.96508 11.2174 1.19907 -16.6201 -3.70946 1.69201 7.63098 3.7677 -1.63403 10.9381 23.9419 -4.68716 14.4488 -7.91778 -10.3345 0.651751 -7.07986 15.144 -2.72982 -33.1506 -14.8038 -11.9985 44.7143 -24.8026 -12.1249 -6.53457 1.77557 -28.234 2.56075 -4.70536 9.47462 26.6115 9.74296 2.05457 7.99738 19.4977 11.1055 15.6912 2.49098 2.04352 0.649566 -2.31581 30.0944 16.1106 12.98 -36.3358 33.5834 -29.6481 5.15422 1.36564 -12.9834 -21.2025 26.4663 -13.2109 -1.24913 25.3163 -47.4769 1.45653 23.1819 -28.1411 2.02374 25.6076 -17.3834 8.37287 28.5532 4.26465 18.6432 -17.8109 11.8437 10.975 24.3364 2.86135 -19.1686 26.166 -37.246 -49.7526 0.88229 -5.0635 17.0153 -4.25007 3.5739 -0.790552 31.3642 -13.433 -10.5792 3.07224 20.642 6.86745 3.89196 2.22506 -4.54341 3.71465 -20.8936 6.36743 -15.4952 7.64935 1.60069 -14.5641 -4.64505 -6.21015 2.50001 10.5585 -26.8812 11.3534 -5.48338 16.5691 -5.63512 21.4101 -33.8804 33.0085 21.6356 4.81862 -16.7469 -29.5471 3.96711 -15.8217 20.996 23.0533 -1.22355 3.67552 45.5167 16.1498 -1.51939 6.69437 6.71079 -10.131 29.2504 -8.90305 -14.1011 17.5408 -20.7668 12.0136 -3.05606 -20.1706 -34.3274 -25.9752 19.1849 1.45097 -33.7617 4.64395 -1.4677 21.3618 -32.0044 2.90885 25.1418 37.255 5.36442 3.03127 17.9983 -2.69369 -31.5755 14.9336 4.81467 -22.0231 21.0047 17.5418 7.61082 -7.21354 1.83581 -3.2404 -11.6685 28.9211 -9.75018 15.939 -5.07584 -17.4475 -0.296027 0.759242 4.18934 -28.2447 4.56692 4.38215 -12.1685 27.8548 5.52495 22.7471 -35.9412 8.14113 -7.038 -4.10351 -2.89071 -39.2148 -4.26625 3.20793 -2.91806 0.833463 -9.34575 2.37159 -9.54219 8.16345 4.12854 4.04803 -28.3402 10.2917 -18.7499 -1.97048 -7.94366 34.8719 -0.206669 -21.1881 4.75937 -33.2118 -5.58403 -15.5723 -6.39021 8.72043 -27.4846 4.43086 4.70766 2.01996 -40.9556 -3.07725 -11.1128 -5.18052 -22.2846 20.4478 17.483 -19.785 19.9372 -33.3257 -2.22041 25.4235 -17.1372 -12.251 2.52145 -23.2534 -36.0431 -1.87811 -4.16094 7.29459 -28.6058 0.816504 20.0021 -3.76189 -10.2746 -18.0418 -0.672443 -13.4304 8.14758 7.44206 -0.342847 32.1713 0.774491 -6.36805 19.7678 3.10806 24.271 -8.03278 19.0612 14 -5.7733 1.32242 -24.0219 24.3583 29.6536 18.0297 -10.5768 -14.2431 -21.0337 9.4221 -18.3597 -7.28404 4.84378 -1.22184 -33.106 10.167 5.31052 -12.4719 -1.67584 4.38487 6.46857 -7.37571 -4.64057 -5.75115 -31.8197 26.9216 -3.94818 17.7285 6.1634 -19.5358 -3.26884 2.43191 -8.22176 26.5506 -6.67178 -6.85903 12.986 14.4234 -13.2467 13.1618 25.7516 -29.4817 -19.2948 4.39931 -0.660306 20.0793 -7.70842 -2.98917 -5.13804 3.06869 13.8172 9.52325 -9.59752 14.2089 -27.8661 -1.71508 4.17786 1.06308 15.9273 -6.86709 -6.96311 -11.9908 -28.7131 34.1391 3.72173 -10.025 3.98377 -1.68145 4.22377 7.84576 -17.2279 17.1807 -1.34745 9.36874 -9.84436 -4.01611 -11.0293 13.4783 -7.07566 21.5809 -5.05429 13.8788 18.8907 9.71876 15.7522 -38.2099 6.18231 4.68294 2.54543 -0.295482 -8.55074 24.1506 7.41295 -1.9566 11.396 -13.882 10.0561 -19.4094 -12.0332 16.8104 13.602 -19.4164 21.6176 22.405 14.9009 15.3093 -5.01432 -2.51668 -9.31206 7.10368 19.3949 -2.93624 -13.0009 -15.3593 -13.4899 3.07919 -30.8131 -1.64873 3.57493 -21.7758 -30.0559 3.87059 -29.4466 -22.0189 -13.3196 -2.61422 29.599 -6.25547 -4.33937 -5.23795 -2.8171 -0.0875853 6.23427 10.3023 -10.7039 -10.1982 6.58554 7.04794 -7.935 17.2912 4.32625 -19.5369 -24.222702 9.01969 -6.6573 5.40654 15.5159 -5.91053 14.2651 -23.7632 -3.73895 -17.9355 -10.0906 17.9567 -12.9544 -5.79644 15.113 2.23413 18.3124 -19.2342 -5.71166 32.2317 -2.59462 -30.7047 -17.8905 -25.9628 -10.3039 18.7176 -23.3179 -7.32738 2.13862 -19.8349 10.589 -1.56012 -10.355 -22.6119 -6.83516 13.6066 -47.3809 -6.39191 -14.5961 41.176 -13.935 9.73493 -15.1504 -12.2676 28.6083 0.769007 19.8515 14.1577 -16.17 -10.6921 -1.43102 -19.8888 -9.71147 -10.9936 12.0888 0.20485 8.5779 -5.13328 17.0375 -22.36 11.8293 29.2528 17.0572 11.2924 0.0101306 -11.5218 10.5285 18.0427 6.41254 -15.1332 33.9075 -1.73241 -27.3171 -0.863004 8.04925 -9.64855 14.7976 -21.9947 0.914092 -11.9055 -21.6831 -4.13074 -11.9976 36.8984 23.3577 -14.5345 5.90819 4.59053 -4.42221 10.3425 4.36976 30.7891 5.62821 12.0637 2.18707 8.64797 23.3816 6.97849 -9.62346 0.893885 21.3571 3.47605 15.947 -10.0141 1.69225 -1.44518 -18.3353 -1.66851 -18.9524 -19.3875 7.19522 8.37111 5.8175 7.3242 6.96934 -13.5465 4.0121 3.46909 -5.81934 30.3568 -17.7947 -4.38422 20.2799 -5.67448 47.9085 2.48823 -24.6902 -20.4829 -2.26119 15.95 -3.476 -12.2857 -22.2092 -4.5829 14.5759 -9.81524 2.53688 -9.35898 10.7353 19.5734 12.6677 -6.32942 -1.53716 10.679 -11.7532 4.91958 8.71901 30.0229 21.5316 -5.81193 2.39547 -15.958 -0.153265 -6.47511 -8.76436 9.83735 12.9122 8.79317 4.63485 24.2816 4.93673 4.82498 -42.3399 -10.5665 15.9308 23.0507 -24.285 28.0897 -13.4597 8.42793 23.1675 9.34648 0.838038 -39.3701 -36.6394 -1.91302 31.3979 -19.7196 -6.61629 12.2183 23.0624 7.16776 -3.08659 -24.4378 -20.2383 -24.7112 -17.4137 12.2833 -15.2403 17.6139 -40.7631 -9.30534 -15.2942 -14.5787 7.35392 -15.6469 -2.1377 19.1061 2.16907 10.2967 -3.09744 -4.68087 11.7434 18.299 38.6177 -6.68172 35.411 -2.96079 18.9358 19.4081 11.9659 -10.9676 -20.3639 -35.6714 -13.031 -3.79662 -26.9111 -9.49669 12.5555 -16.0014 -2.54872 17.9701 -28.9221 37.8927 22.6501 13.9218 14.0425 0.154365 -26.4484 -9.3043 9.60885 6.78457 10.697 17.0968 -7.8772 -3.54589 -21.0649 -2.06067 -17.0003 -26.6431 20.4051 -17.3272 12.3403 19.8333 6.15271 -32.0332 -1.31969 -1.37272 8.83841 21.1329 -25.7672 16.6943 14.8533 -20.7526 -1.01413 -25.6217 14.2478 -39.1107 25.0421 1.89031 -1.16078 -14.6992 24.5862 8.9039 14.8709 13.9141 18.8464 -0.791278 30.6053 -10.9339 19.4024 -11.7662 61.2226 6.82784 -2.73952 -0.64075 15.3873 8.75545 -20.9696 -13.1257 -32.1087 31.5207 -24.4028 -6.54743 6.70955 11.2152 10.668 14.0375 20.8553 15.2615 10.5412 -4.01318 -8.5644 4.78329 12.5249 21.3818 -19.7546 8.30183 3.31352 15.3373 -3.69499 1.65507 -9.24222 -11.7615 -11.3245 -5.00815 8.35737 19.7295 -12.0099 -6.2624 -24.1164 16.3571 15.0163 -27.6161 -0.506975 -19.2656 -9.35758 -31.9934 10.7039 -41.8769 -6.29994 6.34626 15.6085 2.2515 6.92855 5.37156 21.7256 2.31574 21.5246 7.16681 7.81487 34.9852 10.5937 -2.9692 -33.9136 29.3165 -2.06286 12.6693 -23.8712 -7.56808 -5.5078 -41.6655 -6.02552 -2.138 -1.15898 -5.18105 -16.3602 -11.6222 -1.85369 -23.8603 24.5502 13.2724 -16.1125 11.8334 -13.8175 17.862 22.7871 25.6781 -36.6392 -40.8187 17.2765 -22.213 -4.49202 1.67381 -4.09527 22.8972 7.28391 -7.21592 -7.95416 19.7311 -30.0403 -43.6641 -20.7099 -23.6556 -7.08048 1.55346 41.882 -37.7099 20.6382 9.58929 -37.4105 -5.49211 -17.4621 9.48478 -7.60155 -14.2179 35.081 -0.630082 44.3478 -7.31792 -10.5151 -37.1684 -2.04974 3.8195 16.4281 18.3051 8.54512 -4.66995 1.11411 33.3403 -0.0790402 4.42677 2.09814 -32.3184 20.665 -8.06536 -16.7975 -31.0321 6.52241 -11.3587 27.9565 10.9555 -2.77834 -15.6305 -8.12745 20.148 -19.9147 -7.36965 7.99166 8.70668 10.8208 1.74596 39.0212 13.4928 -0.127993 39.2959 -12.5194 1.14536 -31.3039 -1.21683 37.2261 -30.9521 14.3533 -0.618427 3.67223 4.08594 -7.23843 5.65423 -9.81286 1.02255 7.02225 16.0918 -20.0577 -7.56621 -36.8415 -10.6337 -1.36101 -9.98444 -16.3211 -36.8113 9.48051 -0.82528 -2.70015 -11.3986 -8.23518 32.7631 3.23606 -7.38359 16.4558 9.84619 4.41908 -13.9204 8.13294 21.3599 -45.9919 11.5936 8.68599 24.5388 -34.3888 -11.5768 -3.8888 10.003 -4.48091 13.2319 13.8182 -2.63772 17.3982 29.517 -22.213 17.2238 -12.2163 2.64644 4.98855 -2.54921 12.7476 9.35671 16.3955 3.61784 -1.88104 -13.4343 -17.9948 -2.57119 23.6426 -21.575 -6.76822 -14.9126 -16.5683 8.43489 6.01826 -14.5964 -6.88466 9.53778 10.087 3.57067 10.0234 -4.97152 23.133236 6.45063 28.8094 9.205 -14.848 29.2746 28.8795 2.56215 30.8318 -18.4074 20.0009 0.495491 -25.5395 6.40888 -11.5339 16.2988 21.6714 22.2933 -13.8262 -10.6042 12.7913 30.4307 3.03764 3.65776 -12.5815 26.429 3.04934 -3.33482 -1.89972 -7.23479 24.421 -3.17155 -3.50316 -8.21846 -7.86492 -14.8034 11.4422 -2.95005 51.3195 42.8741 22.2006 11.0274 -20.2242 -11.1241 12.3876 -21.1403 14.1031 21.3448 23.8576 26.2082 9.69982 10.9461 -0.0469398 -11.0452 9.11808 3.38505 -22.4809 4.72304 -44.9376 -8.1435 15.0145 20.0024 2.47133 18.3472 -17.8794 2.81831 29.9997 -17.3668 -23.7696 -19.1906 1.33073 -14.1094 39.1576 0.557328 12.6623 3.73242 -24.5272 16.076 -43.2748 11.6082 -16.1509 -45.6796 -20.2246 11.4012 6.73616 -4.39248 7.84162 6.11542 -4.18005 -21.2182 -1.31492 -16.4699 -9.43377 17.0637 -6.18916 3.67516 11.2724 4.39332 12.8957 3.02976 -6.01935 -29.8166 -22.9774 -7.69762 38.6467 18.3635 -14.8809 -3.32834 31.895 10.5278 11.9117 11.3705 -12.1944 -10.8425 -24.1664 -4.53963 20.0361 -7.29429 5.24814 -9.27781 -5.2993 10.472 -0.684712 -7.51788 -16.632 13.1179 9.95234 -0.71511 -12.4565 -19.2857 -4.80776 -23.7265 10.0211 -35.8201 -21.6254 -4.83242 20.482 -2.00348 -22.5089 15.6798 -21.2993 -39.9342 3.1033 -14.7151 -9.23831 4.61458 15.183 14.2057 -8.38301 11.9472 -18.7446 16.4568 -18.5881 37.0345 38.2322 -14.1166 14.9095 14.7016 28.2787 -15.9849 -2.58894 21.3716 -34.8632 -3.36742 -5.44199 9.1806 -0.761981 9.92607 9.35204 10.3884 29.9894 1.11185 17.8154 -2.07715 11.6278 10.3865 36.6265 -12.038 23.0047 -12.9144 -37.8739 -33.6051 -16.3431 16.9407 24.0852 -12.9195 16.584 -4.72024 -16.4521 3.72687 0.0511509 -0.913785 -7.78227 3.32199 -21.1507 -1.25669 8.67068 2.94118 -18.6563 -5.61425 -15.1743 -8.16037 18.7022 19.7043 -17.9605 8.69187 16.6824 6.07703 -23.8171 -6.15118 0.35639 13.9313 -32.9182 24.5002 -5.88177 6.17407 -12.2811 -7.39392 5.39865 -7.4069 -7.47429 -10.5175 -7.59509 -3.91069 12.1893 -5.09946 18.3249 19.6216 -11.6836 -15.407 0.295911 4.7361 -6.65859 -7.96899 -8.40662 4.56264 41.0495 -21.6502 -20.6596 20.1353 7.09177 20.2981 8.17152 -21.0607 -7.12131 16.0779 -15.8192 -15.4696 -1.80475 -21.023 9.57659 20.1186 3.95441 -15.3686 -13.647 -29.0065 4.42152 -6.18231 -2.56934 20.6576 12.3285 -9.35545 23.5764 -18.4639 -7.78448 2.01715 -3.49698 -26.8286 27.3923 10.2503 -1.44968 8.72042 -8.11378 0.704246 1.25638 6.69325 2.78243 -11.677 -4.73525 -17.2407 -9.73517 -17.0657 -16.1033 20.5276 0.817044 11.2132 6.78176 10.1408 -1.11771 -2.84011 3.91564 11.6148 10.4099 12.9773 -39.4681 -18.2744 -10.3624 16.2257 -28.8552 -2.61098 32.4925 -14.8851 19.1353 36.3608 -16.0238 -8.15413 -25.7051 -29.8611 -9.06423 -20.1938 8.65896 13.9856 -2.44343 0.593885 -4.99216 -9.13785 -1.01999 -17.3618 16.4475 -7.75048 0.420549 -10.6154 -8.60206 4.63343 13.1428 0.847567 -31.5969 -11.3871 10.6746 12.458 1.10697 -0.548536 -5.34904 -10.9515 -16.2086 1.96015 33.6461 -8.13533 9.84531 12.6081 12.3627 12.4729 45.532 -30.2945 -15.4286 7.44701 17.4378 -3.44914 -44.822 -8.30378 -4.01269 -9.58828 10.7606 34.3291 13.3739 -23.7728 27.9841 0.886928 12.2886 -2.11425 -12.7365 37.8967 11.855 -16.0376 1.04392 5.52348 27.097 -21.2006 -5.9458 2.28486 -15.6625 17.8025 14.9496 11.6383 -7.07968 5.79674 18.6914 14.359 -18.4143 13.3842 -0.972153 2.55177 19.9166 6.09564 -5.50396 7.19992 -12.7885 29.2897 -6.73806 1.10316 3.16642 -6.39393 -7.77605 3.09256 -33.2753 -4.09101 -0.281199 -14.6095 -8.50715 -1.46177 -18.7656 4.00421 -11.9176 -32.2045 -0.52883 -20.001 -4.24995 2.50673 8.164 5.57067 25.7325 21.5331 -10.9891 8.73945 -1.38316 29.1455 -12.9013 -17.4152 -17.8431 1.08084 6.18573 -19.1212 23.8937 -29.7901 -18.7562 -10.0243 6.9344 -25.354 -14.3987 26.8784 -6.69009 5.20139 16.0971 -2.70497 9.26103 -16.9563 19.569 7.62663 -7.19207 -23.5425 -5.87885 -3.29831 46.0263 33.5452 6.49475 -6.8251 0.348458 7.77435 -23.0848 -3.55674 7.33183 19.2421 24.8355 -31.0333 -0.800984 -27.4905 2.88759 7.85107 25.5667 17.9124 0.494335 1.58397 -1.25841 -4.80417 20.4269 -2.19543 11.9301 -27.629 1.75891 -6.03821 6.76223 -7.34946 20.5658 -15.2607 -7.50946 6.33948 5.71429 6.14496 -10.7525 -7.42198 -8.82942 26.1124 31.7308 -0.211119 -17.8344 -26.4976 37.6884 -14.3099 12.6007 -34.6072 23.5908 -4.1874 23.0685 -15.5161 -14.1365 -16.6967 -7.12063 8.55684 20.0247 -35.0173 -14.5625 11.8267 10.1542 -7.54083 12.3738 -5.94682 -10.602584 23.2147 -10.2198 13.3133 17.3278 -9.47326 7.95887 -9.70318 -11.7791 -16.8927 -11.9896 17.9952 -10.1642 -0.686667 0.692379 -7.33959 25.8458 22.8294 14.8751 -8.0716 18.6221 -19.3226 -3.00778 -6.05299 -8.65162 36.4559 0.873314 3.41441 -20.5997 31.634 3.29935 -3.61937 -8.57477 -8.16101 8.68178 -0.283091 -1.52866 -7.04062 -29.7516 -8.91414 13.5523 -8.03302 11.0724 13.3206 10.0049 17.3182 6.35714 -6.92045 11.0399 -8.17792 -19.6628 -2.35493 14.8427 -3.14995 -20.8254 -14.2506 21.5895 32.7385 -2.79153 12.2921 -7.20359 6.29517 -18.033 6.84091 17.3226 4.26057 -18.7195 -12.2301 -9.55854 -0.404 5.89299 -10.0611 -3.66064 -8.49353 -13.0646 -10.2618 -3.58317 0.012697 -4.34071 15.4536 -4.23243 22.0262 -7.24266 -13.2664 24.221 31.7257 2.70792 -6.88882 -7.7011 -9.84142 -7.53814 -4.59199 -31.4977 -13.0566 -28.1147 31.9247 -31.7552 -21.104 -6.68386 9.2625 30.873 -3.47098 13.6092 7.68816 -8.91812 -24.7633 -3.94592 -3.11941 57.1823 6.08633 -4.46223 1.96248 -31.5094 19.0474 -15.6911 -14.3315 -31.6694 -0.419515 19.7564 18.5533 2.91616 -24.5783 -6.46992 17.0796 10.5681 4.45534 -4.56995 -0.504108 27.6024 10.5472 -2.60287 -10.647 -14.7268 -5.77447 20.9951 2.54683 -3.8521 1.05026 7.7608 -16.2463 10.2738 -1.40392 -12.1903 18.1605 -18.4528 -15.1317 -13.9574 -11.6986 26.6228 39.0777 -0.65053 3.97375 4.74384 -2.39534 0.175783 15.0016 2.90463 -25.9228 15.8539 -11.2017 -13.3358 26.3824 13.0136 -7.41661 -16.9651 13.527 16.5221 0.0983877 25.7839 -10.7869 -1.74059 -13.2599 -26.4484 -21.0159 5.16569 12.9721 -12.8458 9.85362 -10.117 35.8586 -7.58264 31.2435 -14.6045 -43.3552 -5.03391 10.1575 -0.952063 -15.7593 -6.69398 29.4346 11.2836 24.4497 -21.4136 1.94617 16.5272 4.86587 -8.58644 -20.346 -30.465 -48.6986 18.1082 -1.63756 28.6328 1.59803 0.745569 -14.9403 -16.8309 18.7072 -30.6041 -11.2721 -41.3726 0.938196 -19.087 -0.521861 0.682921 -18.7839 12.6416 0.906281 -22.3403 13.2469 -44.5614 -21.4763 -17.2772 -33.5657 0.391866 3.1602 -14.8256 -2.5121 -0.452587 -3.80169 -25.7411 2.49525 -0.883144 27.5148 -17.1653 1.4561 25.4569 -28.9913 -27.7361 -2.9617 2.24134 6.60646 -16.0453 -2.48451 31.1874 19.5718 -5.13108 7.70825 16.7013 2.05774 8.41078 -16.1654 -19.1511 11.7216 -7.95044 -17.8728 24.9843 12.3227 7.06729 11.1119 6.44544 -30.872 17.7925 1.38603 14.6793 -7.94403 19.7001 -9.17758 23.1663 -8.60786 7.76348 3.02555 1.52574 -25.0322 6.41267 4.94571 -5.81736 15.6728 28.489 -8.48194 -40.0479 2.18318 26.5676 29.2014 36.9489 -12.2238 -7.98217 26.2657 11.1383 8.10161 5.19571 25.7788 -19.0071 -19.2168 -9.89995 15.0608 8.54184 7.75555 4.93191 35.5804 1.22635 -0.850793 -12.1438 23.0932 22.9629 -8.32631 7.42643 23.952 -17.2764 20.314 14.9498 -2.57942 17.0818 0.239872 20.2704 11.9127 9.02994 21.8127 -19.7466 10.9633 -28.4955 -2.45686 25.4193 10.8961 -24.0465 -12.1139 4.03485 7.97717 28.3249 -13.2507 -26.8898 2.98277 14.8706 -30.4111 19.6135 17.0464 40.1441 2.95663 -4.70596 6.6317 21.5119 22.4002 8.53645 23.5622 4.64132 -0.449174 -19.4607 -6.08435 24.2619 9.32847 -6.73715 -0.285905 6.61427 -1.93024 -15.527 11.2584 9.96235 33.5269 -22.687 15.9719 11.5219 -22.4443 1.69592 11.667 -8.7986 -7.60156 2.96714 -9.93859 24.5301 31.4271 17.1935 4.46529 -10.8837 -42.7912 16.4097 33.4643 1.06674 -36.1782 -24.7297 42.5308 -14.3151 -13.8033 -13.5808 1.38481 -11.1363 3.47533 19.9789 19.0249 15.5277 -2.82754 24.5393 -13.7466 13.5015 13.0603 3.01608 3.63433 31.1985 -4.36018 -11.2612 12.6973 -20.5388 18.0633 -0.829311 4.29952 19.9888 -19.5978 -7.39854 -9.97778 22.6669 -4.87198 -4.76913 -15.5531 -27.7828 -19.3304 -6.02069 36.2168 10.5322 -8.06874 -5.58666 -34.2662 -18.9652 -17.3335 19.1774 13.4095 -2.48604 18.5318 -31.724 2.27119 -6.28565 17.7499 0.619169 26.8772 2.15289 -7.77355 20.1538 -19.6381 0.449543 2.00366 -5.97804 -4.48659 -2.37966 -10.0773 14.0656 -4.25863 -25.3493 21.3687 21.07 7.8225 -30.2333 23.9871 -4.85592 24.3021 -9.25187 -15.7725 -0.423286 11.3974 -17.3249 1.60673 -20.44 2.33148 -22.5176 -14.4627 -22.8304 19.9074 -0.309392 15.6512 3.9411 28.2539 -21.3008 2.42206 -33.5444 -2.41773 25.9884 3.03214 -19.7119 -2.14796 7.65324 -12.708 15.6932 13.1977 -1.39957 -1.44164 24.4082 15.0128 0.801966 -19.5517 0.959011 9.55318 7.98292 -3.70079 11.8244 11.949 21.1046 -9.80779 3.83447 2.46803 21.0424 -13.5561 3.20818 -21.0517 -5.19186 4.43776 6.56269 7.25285 7.70238 -4.34229 -8.944885 1.60125 15.7646 -10.183 -35.2743 -7.29435 -1.06925 -13.0567 7.31547 5.52935 -16.7946 -13.7033 13.4221 22.5874 2.30359 -24.9979 -15.1038 -5.37095 5.05961 -14.7257 14.9268 -9.39003 -0.955498 -28.9103 -20.4956 -9.20105 -5.27219 -0.796596 -2.12561 38.9225 10.5684 -24.6232 3.35985 -4.81814 23.4037 14.6921 3.92468 -15.9115 -9.46733 32.815 15.8567 -9.10697 -12.1518 7.11478 15.9363 -23.4179 22.3873 34.4783 11.4837 -8.74655 -28.2975 -7.27891 27.6384 9.76322 -31.5903 22.4459 -8.74539 19.5298 -19.7201 -15.7483 -1.19791 6.36066 26.272 -3.85577 -6.3819 -9.83429 6.86068 28.0391 5.91559 4.46266 -16.9387 38.2166 4.89151 21.5166 -5.51372 -19.3812 -15.6518 21.0028 32.8509 13.8683 -30.8321 -27.9201 -22.7351 14.8435 -5.96625 20.7327 -12.2685 -8.2541 21.7597 10.242 1.16599 -22.5132 24.6298 -9.28184 -11.6313 12.2855 0.093818 -2.50539 -31.6973 0.357429 30.2009 -11.6809 -7.96094 -10.4342 0.157719 -18.8159 -19.2416 -23.0971 -8.61959 -5.32218 20.1898 10.6843 22.4074 28.7416 -14.1498 20.3268 -12.9473 53.6949 -0.530777 -11.4019 5.19211 -8.59169 42.9538 -8.81004 -20.485 -11.4849 -9.70855 -25.501 -12.3235 23.4893 -10.2253 20.5231 -12.8432 -14.4748 -17.1296 21.6669 20.2687 9.06504 -25.8281 6.43715 -5.37082 7.82342 -7.22599 -21.1819 -17.4716 -11.7592 7.43816 26.2361 -19.4874 -11.7976 3.96314 -9.01285 16.6028 -9.11722 -2.90867 12.0154 28.4956 -20.3492 -2.65114 -8.13075 -37.8625 -8.15839 7.19193 -10.2193 -5.95747 17.3219 -1.1688 -0.316237 18.7115 15.6909 16.1194 18.0622 10.5672 26.0203 10.8493 10.5351 21.741 16.966 1.88165 -11.9973 -6.89762 -0.810878 19.4279 3.27073 3.91619 3.89239 -23.0936 6.99246 -8.52394 -32.6024 -39.2788 -20.1574 -3.87831 -28.3771 28.345 -0.237741 -9.02078 -1.67754 -8.92831 1.16513 17.8474 2.97903 17.8545 10.9954 -13.4617 4.22809 30.5375 36.4738 -32.8787 16.6683 -3.08988 -12.558 -13.6115 10.9536 17.9509 10.1805 27.9355 15.0321 1.59624 17.5298 -4.75533 2.40302 -22.5298 32.2483 17.1442 -2.71962 -3.0991 -9.54289 4.9744 16.5219 -27.3822 -13.9691 0.913845 10.2167 -25.4853 -13.1713 14.7667 10.7838 7.82837 -20.354 -15.3689 46.4833 2.12915 -11.2595 34.8116 15.179 1.49626 -1.1721 -13.6713 4.28229 30.234 -0.59529 27.4582 -5.31102 -21.4752 5.28928 -18.4022 16.6286 -3.59661 0.246587 21.9032 -16.7169 0.372811 10.5798 -21.9763 2.06537 11.1149 13.5325 -9.65148 3.39799 20.5975 17.4473 3.10038 -9.08798 -2.98099 0.458025 -20.3171 2.91463 3.90393 -1.30669 -18.3495 -5.00973 9.76409 16.7728 28.6515 -2.34857 4.69643 11.5393 14.7552 -21.1373 34.2697 -22.1233 8.51973 19.3528 19.1125 -34.5234 2.16431 6.56612 4.53413 23.4489 7.25578 35.1548 -27.4134 13.6375 -11.7676 -16.1566 -11.0665 -28.4684 9.20016 -11.409 16.8875 5.63615 -10.6755 -2.11639 -4.98514 -35.8359 -19.7683 -13.9352 6.66219 -18.046 -25.244 -7.44578 -4.21137 -13.5268 -1.55016 0.838825 15.4882 31.7764 21.1994 -10.8712 7.53795 -2.70608 2.33443 12.5129 -14.5805 -1.64359 0.61025 16.5322 -14.8989 5.27458 -31.5785 2.01191 4.03523 3.89234 -4.34712 1.06492 -17.3195 26.4873 34.4893 -3.92254 -31.0198 -20.1413 -1.37662 -12.3553 -25.8703 27.533 4.20068 -18.7612 4.02416 -21.1106 -0.136845 4.54317 -25.2393 -41.8395 -8.69418 1.30894 20.5883 18.1236 -20.3126 -16.3943 2.62881 19.3713 -16.7065 16.358 -31.1902 -13.9334 -10.192 4.00433 1.33829 1.01688 -11.4247 -20.7904 32.0912 2.95895 -17.7535 -20.5424 14.3376 -7.0682 19.1471 23.4185 11.1241 -15.3804 -2.23041 -9.02816 -3.28739 -24.4807 12.7669 -15.2497 -8.53798 -14.177 -2.20049 11.0782 -1.50646 -26.1181 22.6295 26.1808 4.55397 -4.85501 -0.162053 21.5573 11.4343 15.4139 18.5289 2.36022 14.2937 5.32609 6.39648 -9.31751 25.3257 -3.08383 49.5425 5.61711 1.06376 -4.86532 -4.59413 -8.04741 -0.217534 -8.78822 34.1922 11.4277 17.2908 22.7234 -1.85223 10.3263 27.5516 -0.753688 -23.8828 1.40898 24.4792 -21.517 8.67171 -26.0542 33.2918 11.7042 -4.74135 3.80054 37.7753 -22.5847 -19.2846 -14.6077 3.88373 2.11268 10.5153 -6.54982 -36.007 -29.019 40.1372 -13.5986 10.2272 -10.5465 29.9237 7.29385 7.18845 4.46101 4.81741 -5.89391 -23.471 -29.7269 -1.6751 13.3465 7.67413 -34.184 -9.89556 -17.2273 -22.8938 -5.70439 22.5481 -8.82204 -15.4104 34.0562 -8.27728 -8.97187 -13.3172 9.51977 22.068 -40.091 -22.0564 -12.9189 -3.80718 -9.39805 16.1836 -3.16099 5.18364 -8.31189 -13.8462 -20.949 0.76034 6.55563 22.0351 6.15382 34.6938 -17.3292 -16.8981 11.2545 -3.18491 1.01505 13.273626 1.96869 -16.944 27.5174 4.67435 -9.55288 28.8128 -11.5855 40.2657 -25.4904 19.0787 9.36564 8.81229 -19.2743 6.69278 14.2211 19.6633 -29.6641 20.0721 -10.6796 19.0572 -7.1124 21.8119 -20.8268 10.5466 10.4448 -22.4663 3.43884 -24.3978 -16.7217 -29.6493 -24.9808 -1.21297 -24.1238 -1.68324 -20.788 -16.1686 -9.83285 0.251357 -14.2601 13.0444 -1.16653 -30.7016 -6.44619 26.3757 -28.4086 9.62249 20.2939 18.5521 5.28898 13.5598 0.273038 -17.3579 -9.27062 -9.32581 -5.15188 16.4183 -26.9176 16.0428 37.0792 -14.1107 16.7478 27.1399 4.51473 0.423176 -0.447898 -23.2592 10.039 -0.250633 27.169 11.1843 -7.4221 1.31522 22.6174 -12.6397 27.5938 6.28377 -12.2779 15.8422 -32.7663 -29.3925 11.4122 -10.509 18.0098 -4.46956 -10.2802 12.9323 -14.1667 1.87804 -51.6192 -9.71935 -1.61028 12.5533 -55.1076 -9.52328 10.5985 3.55968 12.8981 -14.3887 3.14262 35.9839 -4.22346 35.6302 1.86901 21.2446 2.35432 14.7622 -6.02771 16.0668 -22.4616 -12.9091 12.8324 -8.52937 18.8009 26.589 -4.63893 -19.7844 19.3726 5.03922 -12.2376 23.0354 -14.9724 -8.80917 -4.44467 -5.94592 15.3292 0.539087 -0.250863 7.77397 -1.80675 -12.9128 13.0469 -14.038 -25.3061 -17.5204 13.9363 4.87197 10.9231 25.8846 -5.43894 -30.8788 13.8375 31.9829 12.2496 20.6489 3.92186 14.4515 -15.4597 27.0698 -30.4251 6.32637 7.64165 17.8652 -1.91846 16.5896 -19.8724 -23.2652 -15.9682 14.379 -0.183173 8.51282 -21.9022 -19.7971 -2.35188 6.99948 -9.00113 -24.4954 14.4713 -19.8837 7.57164 -16.0213 0.599504 22.7309 11.7876 -24.0011 -25.9773 -4.47249 -16.3838 -14.4526 15.133 -23.6661 8.59663 19.0013 -18.1504 -37.7792 18.9807 -26.8392 5.03506 -1.19175 -12.6349 -4.08252 28.0258 -6.90188 -4.35969 30.8678 -13.7812 -15.7264 -9.85726 -8.65108 8.545 -1.2291 9.92245 -8.82639 -3.29679 2.03955 6.93583 21.5093 -7.93291 23.3714 -20.8958 19.2272 -5.90454 8.13379 19.0722 0.141544 40.1511 -6.1617 -4.46528 -17.52 -9.41807 -15.6401 -1.93866 -2.04438 36.9773 12.7306 -21.7767 19.8675 -30.5922 18.8465 17.9564 1.52928 14.6013 -19.502 -12.024 14.4736 -7.13694 -1.9234 -32.7972 -0.255377 -16.3309 7.31005 -12.0192 -22.2919 1.76525 30.4622 54.0206 -8.292 9.66957 2.31677 5.93134 24.98 36.4478 11.3591 -32.7749 -17.8329 -15.3543 4.48018 -10.3687 18.8564 9.23791 -18.3551 -27.3658 0.44008 40.4597 20.8466 -21.8941 -18.2472 8.4471 -6.25641 -13.1124 18.8234 -0.505014 10.3576 -11.7907 -9.90804 1.85192 23.1862 2.82577 -7.4699 -3.08525 7.13707 -17.2677 13.9789 -12.3159 5.64061 -31.6551 43.1078 20.3859 3.29838 10.0174 -7.62713 19.1035 17.4822 30.7617 -4.65138 1.31461 -14.7713 25.0636 15.7682 -9.80749 -0.18147 6.65712 23.7276 21.5791 -12.6001 0.133979 12.3455 15.4416 -17.9468 21.2598 22.3133 23.7703 13.6544 26.875 -8.33437 -11.2805 -11.0806 15.2773 16.1939 -7.08182 16.007 -0.0891143 -6.17341 -12.2216 17.0373 -30.7166 4.39895 23.7337 -9.06266 5.96838 -5.85455 32.2211 -5.04942 -0.440682 24.3218 -6.66457 7.1984 20.475 9.31852 -11.0089 8.68508 29.4553 19.6373 -14.5102 -10.903 -20.3313 -8.89279 -0.638203 -11.2151 -21.7462 17.7297 -7.65331 3.30235 -1.78082 1.49932 -42.5892 -35.1332 21.5335 -5.38847 -4.33748 15.1409 -25.6798 -26.6152 -7.98121 -14.3345 -32.9877 -10.658 -16.4477 -7.61321 -1.68083 -17.27 8.33871 -19.4264 -8.07001 -18.0407 18.7104 18.5699 -5.19944 28.2447 4.78561 -7.29985 -34.1154 14.8898 6.14486 -14.2389 8.21978 -19.4484 15.5244 -10.5921 -28.7923 7.87616 -7.57695 14.8773 -10.0016 4.87192 -1.54332 10.3669 2.81734 32.4037 -23.6068 -34.5231 -8.8614 -4.81905 18.6924 7.09347 25.5771 -10.3897 -20.5681 -2.94778 -7.66625 5.89123 -2.45509 20.0062 -28.8467 -24.2782 -16.8367 3.83025 13.5704 3.01689 -6.9841 -25.0343 -25.6118 -19.0342 14.7048 17.0694 3.24741 -7.14676 -36.229 -0.670738 13.1406 17.992 9.39914 30.8552 62.7801 -33.8623 -15.3639 -14.5152 -0.34602 5.79797 17.0432 -16.6011 34.7036 -14.2616 -8.42933 -14.0875 25.4182 1.15421 -16.3712 -0.167542 -7.70019 -12.1953 20.1562 25.7242 -2.47542 -16.4794 14.5807 -1.49613 12.6908 -19.5427 -30.4185 -19.2966 38.5301 5.46745 -2.52285 -19.2194 -4.54768 -2.04719 6.13397 -11.1288 5.80584 12.6022 20.2951 -3.66143 -7.27964 -5.64806 -7.83526 3.5125 8.41188 26.9855 15.1427 -8.03436 4.81527 -21.3 -9.40795 -16.2632 -18.5555 -5.93883 29.4944 1.85162 -28.6725 -16.3103 48.8821 10.5197 9.9047 1.07114 -25.0818 -18.6102 7.75305 -2.15747 28.5173 -31.7553 -5.95489 14.978 -40.6785 -9.52086 -2.42598 38.360214 -3.99372 -14.233 -17.7577 13.8897 4.68013 -11.6962 -6.10357 8.36127 7.34996 -29.0601 17.351 -18.0207 2.2635 15.6534 -5.46281 -2.57301 -23.9713 6.67452 -13.4388 -4.08812 11.387 32.6967 -13.3507 13.9083 6.49659 -13.5212 -33.238 28.7573 9.63238 28.2959 -7.17684 12.5153 9.14871 7.51922 -10.6059 31.4171 20.5898 0.796165 0.694657 16.322 6.82295 -10.8576 22.8209 -32.4557 -12.917 -1.67633 22.0622 9.42235 -17.2275 2.94656 4.17212 -16.0217 13.9197 20.582 7.48581 -24.8845 10.158 -25.6833 14.7214 -11.3557 22.1063 6.14398 0.404742 11.5707 -4.9783 -16.5245 8.72677 23.9913 6.59833 11.2649 -17.2548 -9.00907 -11.2137 16.023 15.8053 -18.097 -14.4764 8.15918 4.02806 8.30341 4.22779 12.9879 -5.21744 -25.866 -15.0714 24.8069 9.97729 3.31877 -13.0407 2.38123 -6.93943 30.2251 -3.00057 12.2559 26.6323 10.4019 -9.57109 -13.7676 15.4712 2.91128 -18.1942 23.4088 53.9538 -24.347 0.386614 5.14072 22.6327 9.06754 -7.47093 25.3231 -31.0648 21.5733 6.88138 18.324 -17.1866 -29.8843 16.2051 -2.99136 -13.7824 7.23258 19.7381 9.16239 -0.700404 -22.0514 9.94729 14.7337 -13.8126 15.9531 -20.4531 -29.7524 7.23625 -21.6455 18.6894 -21.2028 28.5968 44.4713 -1.85404 -26.0716 36.0032 -26.0635 -15.5808 -24.1444 1.65771 1.60827 6.60365 2.35578 -38.9409 30.5372 -1.09104 -17.3008 28.6759 22.4586 10.7035 1.03477 -2.67587 -22.8475 -2.0481 -14.4445 -13.8614 -11.964 -14.067 -20.1356 12.0068 9.37226 1.09861 22.8854 7.32999 8.47195 13.9641 -4.30536 -9.0057 0.275639 22.8877 -8.31983 -8.55629 11.6637 -37.3673 -1.63921 -15.3064 -25.1211 -12.421 7.26329 -1.80554 -2.53604 -24.5629 24.2403 -10.604 -1.95924 21.4 -37.423 5.91632 17.3463 0.513564 19.2972 -19.8606 -6.11481 -27.7422 -15.0093 5.18442 -4.43 -12.8915 -4.37947 -2.93868 -19.2698 13.0032 0.584972 -0.0818547 -10.1345 -24.4118 -12.5105 15.2608 -18.4882 48.1314 -18.0389 -36.0123 11.6016 -13.0925 -15.0986 20.1632 -8.30836 0.0438853 -4.46913 9.33555 -10.5577 5.59259 -5.37102 2.37031 -25.3062 2.77187 -13.6868 -34.4334 -15.4512 -9.76952 32.766 22.0293 14.8189 11.2102 26.2372 21.0787 7.22085 -8.54018 22.77 2.68014 -4.33216 19.8489 5.92956 7.65416 5.08707 17.441 11.0117 20.6321 -13.9345 -4.98214 32.0194 24.5823 -1.22832 -5.1525 3.82904 7.80371 5.47655 -27.3892 39.9307 6.25824 -4.93429 9.35416 4.06025 -3.90301 38.9362 -18.6737 -39.8208 1.29973 3.60149 19.6156 -12.9011 5.25047 15.4629 -14.603 -11.8224 -32.8449 7.01974 10.7506 40.4449 0.196538 25.9907 2.82846 -16.4806 4.21608 6.64526 -18.666 8.73422 -22.0746 38.7793 17.1305 -19.2184 3.40996 7.65783 -4.12622 0.312874 -36.1538 -19.6552 6.55195 15.8285 -18.6688 -4.23566 -13.208 -10.7422 1.63916 35.8809 12.8172 13.5923 24.8422 21.3714 17.9222 -7.06113 -9.38059 -6.82901 31.3592 17.3883 9.17509 13.2546 -20.5203 1.05985 -13.4048 -5.97221 25.0523 -20.3024 -0.444956 7.7317 4.56124 -17.7935 -19.7718 9.19528 -8.54963 8.47462 -27.7049 19.3376 27.1103 19.8964 24.8975 -5.21512 -2.48354 8.93405 7.42534 16.9877 9.41384 -17.8808 -37.9583 10.1934 13.8641 -9.14604 -1.22842 -14.3351 3.09097 20.3936 -13.9556 -28.4773 -9.52366 13.3751 7.59765 -0.42724 -8.43465 0.297981 8.57093 -5.49822 21.97 -8.71341 7.69659 20.821 -29.9449 23.5409 8.4402 -17.0866 -17.7127 -11.1612 -0.00225468 9.59234 -0.938629 3.48063 8.97873 -27.4915 8.97483 -16.976 6.69076 -20.1843 -12.6574 10.1984 -19.119 -11.5624 26.884 -27.6159 -11.1809 2.33923 22.41 -30.9785 -21.427 8.16188 -20.5746 -10.6933 11.402 -18.4063 4.50179 -7.40872 12.0679 31.879 -22.7099 -8.18378 -11.9708 -20.2212 2.07654 18.395 56.3193 -11.5476 -23.3015 6.87503 -1.00583 12.5257 2.79098 23.814 20.0926 -9.17576 -6.87996 -24.8231 2.87496 18.0668 13.9902 -35.3171 -1.68322 -1.0605 10.5149 -0.548778 -2.33814 -24.0885 8.68489 -12.6745 -22.0516 18.168 -3.93366 22.255 27.3665 31.0252 -34.9602 -39.9 37.3265 15.227 -19.5794 -2.73739 2.11909 -4.51698 -2.63637 -17.5457 9.03164 -10.3947 13.4137 22.0762 13.7941 -8.33844 10.5789 -10.5336 6.24952 14.4809 -6.69356 -13.487 17.1037 -15.0992 8.22218 -14.1055 10.6296 -0.8589 1.52622 -37.5902 -13.78 9.66945 9.91783 -0.276129 -20.3603 -29.0856 2.89468 -13.0866 10.8771 1.25169 -7.63664 -10.7897 13.4341 6.58363 -8.63809 -4.72457 23.9815 -3.08737 1.82531 3.43009 13.2004 15.303 3.24511 15.1588 0.723841 -41.4387 -7.89526 20.3268 15.0326 -14.9607 13.9597 -3.57561 -10.8138 2.93832 20.0397 -27.799973 17.2777 -13.5279 -17.7484 -47.5656 -7.54717 43.278 -5.52867 -6.95839 23.4093 -1.57152 -0.0561583 4.85433 12.2186 -3.52519 -27.2508 8.50337 -5.62878 6.80251 -36.8505 -20.0719 7.89715 25.7771 10.7011 20.5207 34.4517 -7.02671 11.0275 4.30469 13.2336 -1.0723 -3.88421 -9.42761 -9.37319 33.7316 -9.99716 -31.6918 26.412 11.8689 9.74004 -21.2098 -4.56185 26.6968 29.509 -25.2437 -12.3392 9.88555 -14.2481 -1.50524 -4.66047 -4.75472 5.21434 -26.7593 12.3733 4.29401 -2.25074 -15.7482 34.5585 4.92941 17.7691 1.9353 3.70288 30.6103 0.234324 13.415 4.45301 -2.60561 -24.9753 44.8876 -7.31474 -17.7811 19.5979 -6.83071 -25.6172 -22.1931 15.7817 10.8074 -8.16175 -32.4501 -9.39787 -2.91001 -31.9438 15.7762 -20.9913 9.39004 2.27504 2.7452 -3.63359 9.17679 17.3979 -18.2307 -17.403 1.08146 -7.68597 39.8307 -12.1461 23.4018 17.8957 5.04567 -0.421152 -1.60399 17.5889 24.3966 24.8484 -19.2331 -6.52589 -6.93742 -14.1377 12.7044 -23.346 -23.2438 -15.5521 -10.1567 12.8525 2.4112 -10.5228 8.53768 -23.8992 -39.3696 23.0459 -13.186 -2.60927 -8.76657 -2.6988 -8.62666 -4.84286 7.31121 13.8086 29.0306 -13.5333 19.1413 -6.70742 -3.05613 17.8078 21.3378 19.6716 4.04895 14.322 -1.36254 16.2288 -5.97698 10.3921 -6.33858 -2.18615 22.1898 -25.5746 -1.95226 -9.06051 0.730491 20.7275 -1.66956 21.6509 6.57204 -8.66365 1.93218 1.04281 28.328 -27.2983 4.65047 10.3086 -31.332 -17.9405 -16.9906 -22.8248 -23.491 -25.598 -15.1423 -8.38003 -32.6484 16.9085 9.58196 26.731 16.2086 17.707 17.3022 8.59676 49.436 -0.144718 -9.54851 -38.9108 -2.11615 -2.59932 -6.90328 -18.5767 -16.2754 32.4039 15.3527 -19.6403 11.3259 29.7931 -39.6843 -33.0612 -5.43395 -1.0615 -35.1421 5.60912 8.94772 -7.18833 -4.34895 -10.3785 -5.10884 5.59209 -14.1813 42.593 26.5858 -2.37394 -30.4183 0.0667091 6.76388 20.5926 -3.73217 -17.005 -18.2118 11.7468 -14.943 -19.0192 -46.5797 -5.86291 11.8576 -24.8336 7.62994 27.645 41.6612 -33.3396 0.838162 27.7426 23.771 20.3495 -30.0139 -11.1549 3.28092 -8.01916 -11.2458 25.1065 -17.851 0.414737 -19.6505 -20.4441 9.29162 4.87265 7.23015 28.4653 7.01504 -14.8967 16.115 -8.23432 -10.7857 4.31495 10.6924 -3.54154 -19.3166 20.7529 12.3764 -26.1521 8.90006 11.8096 -0.516246 11.4848 -10.3 -17.4706 45.2349 10.6896 -5.81396 4.37855 4.90701 -43.4423 16.2503 2.17555 -1.42022 -30.7216 20.0876 -6.96201 15.7703 -32.3264 -4.91501 17.2321 -1.59954 17.8279 5.44787 2.78835 0.435983 5.66412 3.94415 -4.22368 -25.4261 -31.6244 27.1342 -7.90863 12.3711 -0.444232 17.4782 8.65553 -3.83606 -5.0925 -0.314704 -20.1339 1.18668 -6.56624 30.6692 5.22434 -1.781 0.948456 -17.4993 5.96167 -12.8118 -19.2011 -42.255 -37.4248 -9.93547 -31.3176 -7.49162 15.1461 -18.5708 2.42475 4.62673 4.27857 1.11099 -2.42866 8.33185 -9.40428 -24.7571 3.72136 -3.18986 8.60866 -21.8653 6.43536 3.96594 16.8733 17.3067 15.5909 -15.1713 -17.716 18.0931 3.09428 25.948 -17.59 14.1722 -3.21072 -40.8556 -28.298 -7.59947 -14.5404 -17.9735 13.5023 22.3242 -26.2142 4.59097 1.67272 10.746 -15.8538 11.3449 25.7803 -34.2758 -9.88079 -17.7211 19.6466 20.3775 16.5836 10.0955 1.20169 10.8583 -20.7392 33.0322 5.45933 2.8984 18.6228 24.7066 -13.4641 -2.72554 16.975 -13.703 0.560025 -35.4278 29.6536 -3.49774 13.3498 -18.3551 19.1695 8.57674 0.746862 -9.88319 -14.8021 -26.1114 -18.5224 3.30754 -10.7342 17.3406 16.4018 7.99158 17.0392 -25.9884 12.0324 -16.6983 -4.94363 -7.54674 2.22242 3.21085 -37.1857 11.9372 -4.13782 -1.06919 -34.9451 -26.9022 18.4646 -16.3746 15.1364 21.3165 -16.449 13.7987 22.3713 30.1968 -2.33638 5.73202 14.194 28.5667 16.9035 21.3651 -9.94995 -15.6759 -5.12125 7.96136 29.8642 6.53492 -8.08051 9.97975 15.9569 -10.8581 29.4277 -4.52364 -8.67618 -14.3258 -24.7193 -6.55276 -0.890347 -27.6838 -27.8897 12.4747 -23.8401 -5.28099 22.3524 -26.9447 5.55883 5.93518 -10.0408 5.98023 8.97489 10.8445 -11.3631 -14.8635 7.73765 2.43697 12.4622 -8.86312 35.494 1.35106 -3.21336 8.10497 7.32133 8.02344 -8.70455 -15.9815 -13.8185 -5.16971 -14.9304 -10.9953 -20.4119 -18.4069 3.57036 1.91193 9.3505 17.8394 -14.6343 11.5699 -0.718639 -30.8427 -5.44803 7.11747 -16.2407 -6.92801 14.6437 59.7482 11.9662 1.75812 -12.0933 -3.74853 0.741289 21.0272 5.94446 -7.23649 0.883513 -11.1036 -10.57 5.03665 1.79277 13.1858 2.8757 -10.3344 3.32017 -18.5506 20.2842 18.6055 11.7013 2.68067 3.58634 -6.63375 -3.53886 -11.712303 -10.2765 -22.7161 -10.8584 4.47036 6.25311 0.190618 4.75136 11.2481 33.3466 3.90821 -19.2094 1.00303 -5.93226 -31.0776 -17.2485 56.4389 -5.19236 -11.3955 -21.0619 3.40116 -12.2808 -0.640034 7.50706 -2.72121 -26.9273 -4.90567 -29.4093 -9.87982 7.37791 28.3493 -25.6093 -6.12476 -0.85787 16.4894 -5.91192 11.1356 -19.8217 25.3373 16.4832 -3.26584 -19.7156 -27.4147 -14.7932 11.5956 -18.7895 19.4219 -42.5893 -5.80695 -6.22371 26.6684 30.7727 -46.9919 11.999 5.89421 -0.276191 17.3491 -15.8674 -2.20081 -4.23262 21.9139 18.4825 -9.71105 -11.2572 -23.5314 15.8444 -5.38243 7.94274 8.03961 -9.49499 -22.0706 -2.07538 20.9236 -12.3931 -13.3613 33.926 3.99297 -7.19461 -1.02932 -8.28212 -1.40916 -13.9371 3.05289 -3.1735 20.4216 11.4857 4.95168 -10.075 52.804 11.0313 -12.9905 -2.64527 22.6844 -9.98758 32.8452 -22.4366 20.7478 -9.75892 21.4318 0.421091 5.02909 -21.3097 32.5923 -5.78161 17.3964 11.5682 -7.70013 9.25529 -17.7374 13.6496 -1.83935 -3.09385 -23.0699 -7.23215 15.4536 -4.99595 22.9205 11.329 6.09288 10.4393 17.6604 4.71377 8.89394 -36.1519 3.93751 12.466 45.5383 19.2735 -23.5582 14.123 -11.434 -6.3816 -13.1742 9.57177 29.8173 32.8767 -3.39056 -4.19915 57.6697 19.8853 17.345 -12.0759 1.45743 30.5859 -2.61367 0.367871 -8.55153 39.5882 18.6659 -23.9505 16.7453 -8.03589 -1.18698 25.5002 -16.5082 4.12938 12.0526 -2.29626 -22.229 -3.33341 -7.82984 -11.3487 13.5311 -15.9993 11.0278 -26.6422 -28.0257 15.7893 -22.1052 15.3116 10.7286 -9.12309 -8.94699 -32.8149 41.1983 12.7366 25.0096 4.71065 2.4825 17.2303 0.689111 -6.45277 0.220096 -0.419081 -25.9682 11.08 -5.27519 -10.5588 -7.72192 -3.03099 -15.1805 -13.085 7.41612 26.3669 -10.2865 32.4133 -23.8948 -4.3656 11.3123 15.2212 3.45756 4.48158 35.3302 -12.3346 6.08021 -11.6398 -0.405959 -6.28017 -18.2811 -2.97501 -2.11951 16.9631 30.9052 -6.90745 -10.3018 14.7389 1.95825 -25.4733 -1.61907 11.4105 -7.25437 -9.12173 19.8377 -22.4341 10.5443 -10.8216 -27.6261 0.0693416 -2.59585 -54.6419 5.94635 -42.1899 32.3798 -2.93301 -10.7936 18.0635 9.99024 31.7532 -27.2631 8.26948 22.3229 19.9095 6.83882 8.19319 -29.9065 -2.66707 -7.76215 21.2676 0.113722 -11.7147 -7.87091 -5.96594 6.45986 15.4236 9.849 -15.4605 0.789884 -13.6216 10.6482 14.5654 1.14775 -9.12802 -6.12488 0.577534 4.61452 -3.79748 -16.0382 32.258 -8.77596 9.04136 -1.40782 -14.5102 -17.5106 -0.660123 -7.57048 16.6971 19.9168 12.2914 10.7743 -16.6341 18.8891 -7.82521 -0.489382 3.68804 1.29331 13.9683 13.7556 34.1336 10.2691 -13.3722 9.5479 1.86822 -13.5682 -4.12336 -19.0317 -41.0949 -7.00388 -1.60655 -8.92758 6.80819 -16.9027 -12.7231 20.9947 -13.1295 -13.227 -11.3333 1.60618 2.6329 -25.0938 1.36656 24.1113 1.61559 -18.4472 -26.6127 -2.05829 3.12131 -11.9975 5.25529 6.3337 17.0127 21.9633 -24.0352 -10.0442 -23.681 41.2304 17.4645 28.9717 -1.43657 -14.7706 3.52067 -4.10297 2.65383 -24.2002 -19.1069 23.663 -9.73627 18.5968 -27.3832 -2.81408 -21.4701 6.47304 -6.6714 -23.0688 0.965355 -3.75018 -25.5066 10.7155 11.4567 -21.7866 27.4017 -3.76477 14.2294 -28.2637 -0.196721 -3.36528 10.6407 2.38594 8.08863 -2.49934 19.6879 -28.1066 -7.15763 17.6636 -26.897 18.3986 3.69213 10.18 17.9079 4.25819 13.2903 25.8743 5.29655 14.8986 -23.6748 -20.2052 10.7449 -48.0031 -18.5615 0.998019 24.1952 -1.56609 25.8972 33.9875 15.2019 -7.66894 44.9314 -37.7809 -6.0805 -6.37862 -26.4114 14.0559 -29.2069 4.4499 -13.0103 7.47392 3.84729 12.8319 -5.14798 0.013786 32.409 -1.06394 32.1624 18.2368 -9.79312 -24.6556 -18.1178 -6.86667 -15.3473 -3.30795 -16.4597 15.8331 -20.7942 -11.9652 23.6081 -32.0122 31.7262 15.3555 11.5101 25.2248 -0.373178 9.536 -16.8263 10.004 8.77377 1.22326 27.9714 -3.68957 -15.0581 -4.08399 4.92539 -11.4981 18.7493 2.67788 2.08289 14.7258 -15.0793 -4.15467 10.8934 33.2553 12.7687 27.0995 31.4952 24.1371 -3.25663 19.2755 -7.22495 -15.4827 -2.0279 3.29569 21.0786 -9.96997 5.60516 -14.4017 9.4287 -19.4086 4.8901 21.4244 1.16476 -24.9732 18.8275 17.3417 -0.157966 2.85984 12.289 -7.59313 33.279 23.6656 9.46745 -20.6923 -36.3695 30.3405 13.5429 0.862698 17.3703 -3.3018 -28.5708 -2.72299 49.019 5.72632 -1.51147 -6.48475 0.550002 8.90102 0.0711164 20.1602 -23.6868 4.93911 -27.2196 -2.86886 -2.66897 2.35303 -7.68651 -2.32765 -5.09305 12.1759 6.76077 -12.0737 -10.6514 -14.7504 18.2523 -0.479993 -8.25611 -3.5515 -10.1961 6.5019 4.60959 6.012963 24.2652 10.049 -6.67726 7.63854 0.194345 -29.7473 2.21362 -4.03022 -8.38149 -13.5647 23.1625 -11.9585 0.464071 -20.6995 30.6016 12.8934 28.5902 26.3524 -5.20421 -38.5905 8.27423 -0.0901522 -6.72854 7.55718 -33.946 -14.8649 -17.7436 -8.48878 12.7572 -26.5893 10.0358 -4.85055 -1.37986 16.4649 10.0614 -3.84198 50.3865 2.62117 -30.2684 37.2509 5.21506 -13.4734 -57.3158 -11.2323 4.32787 11.7657 16.4795 -14.8734 13.213 23.6942 9.56566 -14.592 -10.6898 -10.0931 -34.6064 -33.47 14.0319 -20.3074 9.56304 -20.6615 -28.0279 1.85699 -10.1615 -4.00568 8.24561 4.27919 4.96914 -6.93897 4.73269 6.6036 0.143066 0.624954 -5.797 -6.5956 -9.03159 13.8651 -20.8641 7.23058 1.85003 -2.59138 8.1228 22.8896 -7.35728 40.8797 4.73104 -7.65777 -24.5551 31.9988 1.71076 -10.3989 13.4382 9.61022 5.40977 12.9856 -2.40871 -26.9835 25.2684 6.12206 13.1655 21.997 -18.7179 17.0663 -18.1416 3.85827 6.30103 12.913 -18.5291 31.952 2.03052 29.2765 -17.0306 9.96708 -18.3689 -25.9988 -1.16886 -3.58727 -8.23462 -1.48546 -7.4757 -12.3454 0.998865 6.14368 -0.972198 -8.11494 -2.61061 -7.1868 6.23694 0.387646 -5.81724 -16.5094 -20.8587 0.492572 10.4554 -18.2571 -33.3322 -29.4185 -18.4004 37.7778 23.0291 25.5236 34.5258 -9.64046 11.4701 34.9072 -7.57768 -2.02526 -19.689 -13.5287 4.02564 10.6019 -0.893519 31.0766 6.1764 23.4787 -15.1453 -32.4053 -3.38194 -11.7679 -3.90667 -17.8562 3.86595 -35.2318 -21.2367 27.9522 19.0483 11.2502 -6.26496 10.312 0.571003 -16.409 -20.1503 -7.05045 14.5071 15.8094 18.3579 14.2104 21.56 32.622 -9.36557 1.39952 15.4936 7.65142 -2.95818 7.70837 -0.100413 6.64009 -5.18242 2.04979 -11.829 -28.9841 38.8579 -13.7955 -8.43244 -2.79421 -12.7299 29.6501 12.2307 3.07273 9.59641 6.42825 2.05426 4.829 9.52117 14.4765 4.24372 -10.1653 22.0156 -26.2735 -25.5224 -25.3683 24.7318 11.4047 18.5269 -4.41299 1.55717 -1.12553 -10.8044 -22.462 0.187023 -1.56963 1.50218 -4.19563 41.5973 22.363 -31.0937 -27.0683 35.2835 14.7356 -4.45155 7.57268 10.1662 -1.80492 -14.7333 -5.16495 -21.0001 -35.7773 26.3736 5.51726 12.1989 -16.8093 8.991 7.57512 8.90487 -27.4229 -0.140569 5.21208 11.2522 1.77447 -2.52541 16.9587 13.6124 -16.2069 6.43507 -9.88348 -29.2451 -21.7158 -24.1117 0.950289 4.78799 -11.7636 14.9245 -18.01 12.7317 16.7481 15.8034 -0.168642 -23.3742 -19.8146 35.913 -11.1928 -17.9623 -13.796 9.28383 -6.11396 4.83322 24.8848 -1.39836 2.19757 4.10389 19.4832 -9.48947 30.5594 17.1149 17.0744 17.176 12.3469 20.1542 -14.4916 -3.11638 9.1362 3.15427 -18.9442 8.6526 -35.5679 -28.0441 3.09634 -10.3699 -19.0836 -31.8968 4.23543 -13.7533 -3.45627 -33.9573 -31.7549 3.91894 -9.11722 9.57201 8.16144 24.2334 -6.90444 7.4606 -25.0566 -23.5361 24.8733 22.0924 -12.9223 -21.7024 -2.23737 -3.01425 1.45695 20.6421 10.2437 21.1219 -18.0309 17.4025 15.8922 17.8782 -5.87377 -6.90853 -15.9396 -1.47684 -9.88514 29.1471 -5.57238 -3.90485 36.6737 -4.1684 8.75747 -12.4532 -13.8772 14.6157 29.3306 -25.9509 -17.017 -12.1367 11.3091 -38.6867 -1.51395 -29.2439 2.508 -46.179 -2.58132 -9.7132 3.90075 -3.19425 -0.371338 -5.77532 28.2275 -0.0914979 24.6 -13.0952 20.1123 -7.66008 1.44536 22.748 21.0406 -18.549 8.71273 14.3343 2.57613 2.5652 -15.641 13.982 -8.79648 1.97161 6.29914 13.6148 -5.84753 0.933986 7.86194 25.8784 -0.396427 8.60458 2.56197 -8.681 -23.3887 -20.3007 -19.4427 4.53608 0.17719 -25.1622 7.15158 6.16327 -5.21054 -6.60781 3.72142 -0.436907 -4.16236 18.7424 -26.5314 23.1132 -17.727 3.80205 -19.6676 -15.0632 -18.1158 16.7004 41.4658 -5.00388 -11.4368 36.4726 5.63188 -4.63697 -31.0631 6.65463 3.92774 7.61052 1.75201 -3.33036 7.16086 -15.8661 13.3564 24.831 -3.70849 -17.6682 2.69241 16.888 12.3135 8.48714 -4.84799 15.9743 -4.07593 -23.7716 -39.3307 -16.187 -0.616048 0.468948 -6.57154 -10.9114 -7.07254 -0.336002 -11.425 2.82181 4.10621 -14.7089 -10.716 -29.3353 -27.5666 3.41049 -32.4257 9.95549 -8.28798 3.18918 -33.753 -8.57911 -19.593 -14.743 -2.70962 3.41264 -17.5333 -15.2194 -15.8093 -19.4696 28.932 -7.88061 5.45519 2.5268 -49.2769 -36.0676 -15.2409 3.35996 -8.98814 3.65006 -20.9031 6.25966 19.4687 8.11341 -27.7155 44.7078 12.875 -26.6567 -10.7868 11.1748 -17.6359 22.2469 0.215901 29.5256 -0.240666 3.15468 -23.069 -9.0745 -4.69833 -19.9121 -8.96744 15.1687 9.21891 9.59608 1.19211 -30.7522 29.4456 -24.9337 21.6762 13.117 13.9142 25.3578 14.670691 4.43335 19.7744 4.65591 -15.543 -19.7783 9.9123 -11.5899 4.66409 5.31723 -14.8569 18.2306 -8.50263 11.4289 24.4832 4.61781 -27.1636 12.7637 17.8139 8.41841 10.6354 4.01764 11.3932 -2.15595 5.3245 6.65425 12.5092 -24.0271 -15.1487 -8.66603 -10.2905 13.5689 39.6839 26.3635 2.95792 -3.87792 3.19572 -3.96705 -11.9086 -4.01807 -33.1956 20.7487 3.95153 6.43202 7.20566 34.7988 16.5868 6.61441 5.10367 29.6365 -19.1298 -25.8377 -5.1727 0.585768 -36.0696 20.427 -19.8335 -25.2019 0.753258 27.1391 -26.1621 10.3635 40.3472 -6.56483 -0.060061 -5.55376 10.8262 -29.9114 -23.2315 10.3303 13.8278 13.8098 1.39555 7.21307 6.56264 30.5249 -16.6724 4.66769 -16.041 -3.51334 0.703826 -6.3744 -6.78041 12.0904 12.3183 -14.2436 5.19065 -6.72078 20.9083 7.11075 16.8953 -14.5794 -4.93918 7.92737 21.6453 6.49195 7.09336 22.4596 29.0633 8.50777 18.3214 16.6877 -12.5844 36.0167 -4.94509 -36.1783 -1.36985 10.554 -11.2752 21.4514 14.3615 19.9535 7.48217 -39.8054 -18.5184 3.33482 -13.3152 -30.2159 13.3986 0.714495 -0.385508 -1.60669 -0.480049 4.05304 17.8185 17.1301 -6.6935 -11.3601 -5.5728 17.5457 -10.7768 -6.29329 -2.13118 6.04651 13.0211 11.1011 11.2944 -6.92672 21.682 6.94143 -30.8649 22.9407 17.4268 7.10441 2.16273 30.1806 12.1498 3.41252 -13.6139 -1.69737 -13.3409 11.4176 -24.7724 16.8276 3.09623 -3.35581 30.2857 -21.557 32.9057 -7.83612 -31.8989 4.22791 6.74227 -3.61309 -23.6936 -17.2751 -1.31571 -24.0641 4.48506 22.8291 3.11515 -7.51757 -6.82907 -9.70735 -3.33354 -7.5883 -1.65997 -22.2147 -0.404923 24.2161 34.7548 32.3181 2.95584 -7.54985 1.56102 5.96217 7.95727 -10.8229 11.5111 13.7229 -2.11585 37.7175 17.1512 -5.59466 -15.075 47.63 -14.5949 -9.57841 -3.67602 