1 0 0 0 0 0 0 0 0 0 0 0 0 0 0 0 0 0 0 0 0 0 0 0 0 0 0 0 0 0 0 0 0 0 0 0 0 0 0 0 0 0 0 0 0 0 0 0 0 0 0 0 0 0 0 0 0 0 0 0 0 0 0 0 0 0 0 0 0 0 0 0 0 0 0 0 0 0 0 0 0 0 0 0 0 0 0 0 0 0 0 0 0 0 0 0 0 0 0 -5.96417 -1.34428 -3.93243 2.71126 -1.93616 2.39705 -0.496414 4.0296 2.42781 -1.23594 -1.21476 -1.23948 1.32566 -1.66497 -1.34123 -4.76864 -1.9165 0.214728 -3.43028 -1.17405 3.38719 1.83026 -2.2226 -0.856349 -1.69182 0.359264 1.56999 -0.147282 1.24162 0.416883 -1.29356 -1.13456 1.88189 0.62392 -3.78979 0.457656 1.3654 3.68279 -0.361034 0.957854 3.69994 0.587725 2.95651 3.63372 1.60851 -0.407239 -1.86981 0.396313 1.914 -5.4395 2.58187 1.95221 1.58501 3.32133 2.61275 0.0237434 -0.427076 0.662069 2.93222 -2.73385 -2.43666 -1.42296 0.411878 -1.49583 -1.23637 2.39814 -3.80853 -1.08628 1.85815 1.43339 2.26221 0.775353 1.25047 -1.2598 2.64858 -1.57921 -1.2805 0.654805 1.32188 -2.99783 1.61681 2.70382 2.96072 0.704428 0.724509 -1.47392 -3.31034 0.0295419 -1.09421 -1.57476 0.921293 1.77599 1.6671 0.18067 -2.57997 3.33634 2.76052 -3.25889 0.724082 -1.05631 -2.05048 1.42753 -4.96243 1.4865 2.06482 -0.734336 -1.27049 -2.48268 2.47255 -0.919767 -1.44499 1.08518 4.08368 -1.03092 -2.26942 -3.99066 -0.974456 -2.21473 -2.01361 0.228706 0.10419 1.25535 -0.282296 1.83966 3.17875 1.34965 0.364635 -1.53978 -2.42378 -0.45912 3.14426 -4.46321 -2.32838 2.56838 0.255989 -0.778527 2.75314 1.33311 -3.30711 1.44407 -1.69451 -0.445692 2.77609 -1.1937 1.83099 -1.1934 1.54149 -1.0806 2.33302 0.564898 -2.89505 1.81341 0.591266 -0.116703 2.12738 0.0405898 -2.65102 3.33116 0.504715 -0.899991 0.540483 -0.189764 3.41411 1.80779 -1.31828 0.884304 0.831874 -3.76489 -2.44923 -0.763756 -3.34361 2.84634 -0.717673 -4.11377 -0.444166 0.451857 3.00034 0.791711 1.6671 2.6108 -1.88366 -2.54439 -4.72677 -1.89911 1.41484 2.16639 -2.41932 -2.91336 -0.945708 -3.5031 -0.276315 -1.39579 2.6072 1.68657 2.12055 -3.00497 -1.73809 -2.47133 0.305307 -1.09256 -1.68175 -1.60601 1.36369 2.49464 4.09125 -2.98941 1.09116 4.43312 3.35875 0.624958 -1.9928 0.385205 -2.52968 6.17335 0.343455 2.53395 -0.752403 1.08542 0.133427 -2.18915 2.79543 -3.65539 0.530595 0.446303 -1.64501 0.432569 -1.52477 -1.53667 5.32005 0.779626 -1.1583 -0.25721 2.54097 1.35087 2.1825 3.2844 1.04587 0.98703 2.20307 -0.714194 -3.70287 -0.869289 -0.913602 3.66973 -2.88522 -0.44142 0.793237 0.679586 0.387707 -1.25315 0.466506 -2.82876 2.69832 -2.50398 0.0590228 2.22504 1.98852 -1.56401 -1.68413 1.70183 0.387341 0.0407727 3.23087 -2.62825 1.32914 1.77514 1.10611 2.23627 -1.91546 -0.999908 -1.6621 1.67132 2.83291 4.26008 -3.94653 -1.98431 -4.60543 -2.42262 -0.274728 4.23048 -1.24229 -1.61748 -2.11475 0.251045 -1.48619 -2.30183 -1.93194 -0.336009 1.33647 -2.79049 4.10376 2.3249 3.62175 1.84014 -1.11234 2.54878 -2.58211 -1.53899 2.75271 -1.50426 0.771142 1.35954 -0.432935 2.37574 1.60704 -0.912564 -1.31639 3.10062 -1.72076 -2.67928 0.867031 1.00369 1.90564 -1.65136 -1.67956 2.25788 1.61815 -0.17658 0.941313 -1.38835 3.85339 -2.60891 0.925626 0.0717185 -3.19498 -0.168767 -4.14789 -1.84619 1.16813 -0.672323 2.36549 -0.666768 -3.70653 -0.500382 -1.4135 0.31019 2.88638 -0.186407 -2.62423 -1.2747 -0.636616 1.00406 4.57112 0.941679 -0.995819 -1.87359 0.327769 2.52504 -0.987762 3.8684 1.68767 3.04221 -1.38206 -1.257 -1.50603 -1.19395 1.34513 0.792199 -3.21018 -0.808313 -1.43522 1.41856 -0.187445 -1.85583 1.46574 -0.0200812 4.71804 2.51106 -1.43767 3.7636 1.15458 2.81704 -4.133 -0.0314951 -2.18543 -1.88812 -3.14878 2.32276 -2.91195 -1.48997 -0.67806 -3.04477 -2.05945 -0.946562 -1.66527 -1.84655 -0.85464 -3.48186 -1.72655 2.62654 2.99039 0.792505 1.21818 -1.09708 -2.4131 0.449355 -1.27421 4.48549 -0.0926542 -1.86114 -1.8482 3.38743 -0.330943 -2.57222 -1.36534 2.67995 -3.79937 -3.29319 -0.129887 -3.33134 -3.59343 -2.20356 2.79836 -4.66884 -2.04077 -1.13053 -2.66781 1.63463 -0.15833 -0.678304 4.24775 2.3625 0.368603 -1.78893 0.363781 -2.92538 -3.19266 -4.10596 0.137394 5.82519 -1.2739 2.48042 0.796411 -3.73998 3.19413 -1.26621 0.136113 2.72878 -4.04358 -0.956145 2.10791 4.0213 0.714438 -3.9079 -2.68264 -3.63158 -5.37291 -1.16099 -2.43507 2.32441 2.17029 -4.54439 1.55004 2.15332 1.46513 2.82717 0.862026 2.35298 -4.78365 2.24903 -0.611042 1.93402 -1.62938 0.94644 1.26231 3.08255 -1.37126 -0.962798 2.46626 -5.1691 -0.0651265 -2.43477 3.23795 2.3611 -0.933073 3.23014 0.380078 -1.4362 -2.54653 -4.56447 -1.38792 0.48561 4.34248 -0.715048 4.08795 -0.722556 -0.555498 0.145756 -2.80178 4.2815 1.18265 3.40971 -0.205634 1.87146 -5.33805 1.07327 -0.0587177 1.67943 -0.502457 4.76479 -2.65578 -1.17228 -2.38716 -1.16153 -1.442 2.79525 1.14481 -0.831691 -2.88784 -0.460463 0.571856 1.25779 5.67766 -0.4944 1.19535 -0.70156 -4.60738 2.13807 2.09717 -0.203558 -0.517228 1.52898 1.69884 -2.60402 2.29139 1.82208 -1.95325 -1.47838 2.85043 -2.99911 -2.05005 -1.5324 2.11573 -4.3155 -2.90646 -2.44429 0.990814 -2.44539 -0.746117 1.98975 -1.73504 0.0426038 0.740745 1.02939 -0.40968 -2.10248 4.19098 4.11066 0.622639 2.26392 -2.16236 1.53465 1.45116 1.88977 0.38319 2.35438 -0.55617 -0.904691 -0.404004 -2.9219 1.6306 1.12271 2.76064 0.82345 -0.250496 -0.507706 1.10422 0.534684 -0.915738 1.99646 -1.67553 1.9024 0.214484 3.94525 -0.655782 -4.40132 -3.19517 -2.70138 1.41612 4.46052 -1.44078 0.307749 -4.29371 3.23991 0.46321 -1.71746 1.47929 -1.44554 1.44029 -1.87384 -2.99405 -1.34611 -0.451064 -0.755699 -4.67165 2.6335 0.840968 -0.533219 -5.00278 2.71749 3.01163 -1.39854 -0.0870389 1.23942 0.961455 2.24396 -1.60887 -0.0601824 -2.60018 6.47237 -0.417188 3.21226 1.6101 -1.95196 1.36863 0.917142 -0.495499 -1.24857 -4.14509 4.39265 0.0941801 -1.52629 0.598224 3.28495 -2.50337 -0.308725 -2.32191 -1.17563 1.60955 -0.0509659 2.75063 1.17161 0.569903 -3.02353 4.19935 2.45851 0.13184 1.06149 -1.48503 -0.849147 3.07981 -0.694601 -1.97198 -0.644734 -2.19263 0.388256 -0.886319 -1.30375 -4.81442 0.465712 3.00345 4.38881 -1.15604 0.823023 3.31864 1.13211 1.99091 -0.0863064 2.4593 -3.55193 1.89978 2.40455 2.96677 1.08927 3.18253 1.85302 1.98926 -1.85717 -3.02347 -2.35548 0.974944 -1.54411 3.17338 -1.189 2.71364 -1.99597 2.80844 -0.643452 3.85723 -1.16807 -0.258125 1.7185 3.04288 1.18864 -3.24711 2.98325 4.73904 2.48213 1.1727 2.48714 0.945891 0.681723 1.18186 -0.575945 -3.12735 3.78832 1.89734 -4.91293 0.713828 -0.999298 -1.62816 4.36543 3.65453 -4.79672 -1.36491 -0.873074 0.226081 2.39772 -2.1048 4.10681 1.13907 -2.2956 -0.966582 1.92932 -5.28385 -2.43745 0.509659 -0.111087 1.05515 -0.254341 0.808985 1.11118 -0.96231 -1.17374 -1.44987 0.724021 0.321482 -1.28953 -2.61312 -0.339427 0.428541 -4.1355 -3.18155 -1.27891 1.06253 0.866848 0.0437024 -0.48439 -2.22205 -0.0999176 -0.024964 -1.08377 1.12418 3.81872 0.545854 1.64196 -2.60775 -1.59398 -1.57219 -0.40022 1.08853 1.45878 -3.70898 -1.38871 -0.741112 0.309153 0.724632 1.14444 -0.209601 3.42369 -0.0504166 3.67974 1.81384 1.69304 2.44301 5.33378 4.33308 -0.955046 -2.3965 -1.63512 1.20591 2.00122 -0.419813 -2.811 -1.39738 1.80395 1.38926 -3.47465 -4.93661 -1.26011 4.44594 1.30045 -1.71441 -1.71715 -3.3643 -1.06217 -3.24094 4.68203 2.04999 -1.34837 4.38221 -0.380139 1.50761 -3.62419 0.175665 1.56871 0.995575 1.94989 -2.77572 -0.538347 -2.85641 -0.812525 -1.02811 0.314585 -3.13211 -4.54659 -1.01047 -1.5844 -1.7011 -2.62661 0.348399 -2.29072 4.12714 3.30076 -3.28281 1.00406 2.485 5.16617 -0.687582 1.62108 0.495621 2.33662 -0.175665 1.11698 1.60924 2.10578 -0.555559 0.699606 -0.147648 1.44224 -1.87951 1.96521 4.11823 2.62105 -1.83715 -1.4199 1.62047 1.36283 0.325144 -1.46654 1.63573 4.10547 2.49025 0.585101 2.65981 -0.965545 1.08042 2.5334 2.10474 -0.50441 -0.681173 -1.07138 1.65661 4.41481 0.469436 -2.14313 1.42729 -3.64959 -1.82397 0.419019 0.0145267 -0.192267 2.03082 -1.47056 1.60619 -1.57183 -3.50969 0.661519 -0.75515 -2.30525 -0.726157 1.16245 1.3845 -2.23536 -0.643208 0.762413 2.85806 1.06186 0.695639 -2.09302 -4.61336 1.25236 1.80218 -3.46879 -1.24741 0.226814 3.29472 1.90741 1.75945 -2.28321 1.55107 0.184576 2.10822 0.168218 -3.41209 -0.747093 2.31172 1.49675 -1.70824 -3.45164 2.77383 4.35365 -4.87393 -2.56783 3.15586 -7.47942 -0.558428 -0.237922 -0.840235 1.06742 -4.49043 2.2862 1.8479 2.88614 2.41212 2.48103 0.628315 -1.76104 -0.097171 -0.539506 1.02853 3.93622 -2.6249 -0.420362 -1.61602 -3.22922 4.0517 -1.64092 2.5638 -4.16059 -1.47105 -1.64513 -1.13627 -1.63298 -2.20264 2.59804 0.184942 1.66741 -4.13752 1.22947 -0.37141 5.86065 -1.90631 0.956816 4.62966 -2.02808 1.42302 -1.04587 1.75341 4.04211 4.52181 -1.16642 -0.717246 -0.135319 0.0789819 2.3119 -1.28196 4.98807 3.30534 -1.80322 0.316904 -3.40629 0.788415 0.320261 3.7976 -2.11164 -0.172918 2.03937 1.33238 3.62346 2.36317 -3.06516 -0.0469375 -2.62447 -2.35609 1.33012 -1.50151 1.21055 1.73437 0.252754 -3.77746 -1.64843 2.00354 -3.53069 0.194647 -0.515885 0.718223 -1.78558 4.61153 -2.68386 -0.142399 -2.76015 3.14975 -1.97723 -0.717551 -1.19138 -2.51796 4.19636 -3.6198 -2.73873 3.08322 -4.06738 3.3115 -1.22581 -0.553117 -3.32749 -2.01801 -3.05771 -0.153752 0.426649 0.870205 2.80355 1.75604 1.00858 -4.17432 -3.0651 -2.93802 -0.0993072 -3.0267 -2.75436 3.19016 3.37815 -2.15729 2.08673 2.26655 1.51372 2.84817 2.30976 1.45 1.69384 -2.75265 -2.10645 -2.45216 -0.735557 3.70031 2.76791 -0.952116 -4.06415 1.55388 3.45476 0.689535 0.570696 -5.0195 -0.841823 1.69768 0.978851 2.09137 4.92306 -3.19199 3.34617 -0.849513 -2.51198 -0.795373 -0.0798974 -3.98102 -0.539201 0.49617 1.57952 0.946867 1.43724 0.85818 -2.09064 4.84317 -0.308481 -1.53813 3.41264 5.14817 -0.938933 -2.67983 2.47499 -0.56917 0.652974 -1.33055 1.7177 -1.16044 -0.006592 -4.98257 0.353038 -0.472671 -0.749352 -0.019715 1.17649 0.179998 3.14988 -2.96854 0.814966 1.77075 0.211066 -1.70672 -0.142277 -0.334056 0.930754 2.48897 -4.50368 2.20771 -3.46562 -2.81442 -0.704306 -0.102054 -0.0751976 2.45204 2.72475 3.30924 -1.5515 3.05338 -0.931974 -2.15339 2.11121 0.310861 -3.65288 3.48674 -1.13962 0.751732 -0.126469 3.61748 -3.43602 0.671651 -2.94082 1.10623 1.31108 -0.263497 3.11148 -0.28309 1.65459 0.749351 0.233039 -2.99405 2.42775 0.704367 2.9584 -1.18192 -4.24604 0.257027 -1.75573 1.51036 -1.12265 -3.26786 -1.05338 0.026185 0.438002 -0.203253 5.30216 -2.05347 -1.18082 -5.07987 3.04373 -0.356273 0.188543 -0.249275 -1.22471 0.659505 -0.140873 -1.46971 -2.77224 -1.56291 -3.40269 1.67193 1.02261 1.52831 -0.4991 -0.371837 -2.43123 -2.59828 -0.930387 0.173345 -2.28144 2.98068 2.10077 0.222968 4.80441 0.0273445 -1.97412 -0.679769 -1.31675 1.50987 -1.6798 -4.09162 1.4182 1.0643 0.606708 -2.47981 1.21018 3.6895 -0.920743 -1.99646 3.22019 -2.21192 0.874294 0.913663 -2.10663 -1.31083 0.00885038 0.192755 3.42143 -0.233039 -5.48332 -2.73544 0.956877 1.29099 0.404736 -0.333018 1.21543 -0.874844 -1.94873 0.350841 -0.917814 1.40367 2.68026 0.76455 0.853542 -0.690146 2.52614 0.855617 -1.2642 2.07959 0.320017 1.11032 1.22532 -3.64293 3.72405 -2.24317 -4.00122 -3.97082 -1.66845 -1.74157 1.93518 0.656941 -3.13358 -1.78088 2.89413 2.63802 2.20057 0.831263 -0.119388 1.21848 1.81634 -0.016541 0.214118 -0.518998 -4.65792 -3.83905 -1.66869 0.436171 0.779809 2.25819 -1.15073 -1.66131 -0.945158 0.429945 -3.49333 -2.64394 -1.489 -0.891079 -0.38258 -0.286752 2.97415 -2.68978 -2.34639 -0.560076 3.01419 -0.649129 -0.410596 1.84301 -1.97595 3.10715 -0.374889 2.832 0.747398 -5.06223 -3.08029 0.219184 3.87298 2.39607 -0.0419324 5.12424 2.326 -0.146611 0.172918 -0.39906 0.882656 0.166021 5.45201 4.62166 0.724265 1.50194 -1.84796 -1.46892 -1.434 0.458998 2.24647 0.108707 -4.02026 0.597919 -1.77209 2.35218 2.53713 3.51128 -3.60106 1.11496 -1.6035 1.5587 -0.834498 -1.27927 -0.0352184 -4.60775 -1.03507 -1.32139 -1.75231 -0.607135 0.453566 1.62493 1.52696 0.148259 -0.426405 -1.3845 -2.02179 1.09293 -3.86871 3.89837 1.86254 -1.56005 -1.49339 1.28214 -3.09067 1.52379 -0.881375 -1.7633 0.524857 0.684896 1.27769 1.84173 0.440504 3.81561 4.04181 -3.28678 -0.564592 2.69778 1.70879 -0.96878 -4.24726 -1.74761 0.563189 -1.20591 -1.16373 1.8302 -0.490738 -1.57482 -1.98767 -0.335643 1.20865 -0.145573 1.74322 -0.387036 2.35401 -1.7973 3.07346 -2.68307 -2.30366 -3.80718 -1.10105 2.89517 0.461074 -0.587908 -3.31919 -2.69668 -0.235542 2.54933 0.227363 1.48521 -4.32966 0.737083 2.17444 -0.567095 0.498917 -1.8822 0.784448 2.29151 -0.978484 3.76238 -3.30931 4.62349 6.1623 1.06467 -0.787072 1.96405 2.83193 -1.26109 1.86724 -1.2089 -1.47911 -2.45778 0.6957 -1.96667 3.27439 -3.15 5.04459 -0.758324 1.67461 -0.793725 0.407727 2.55238 -2.54323 -1.02298 0.97055 1.56029 -2.61708 3.22971 1.46995 4.23609 0.998443 -1.03629 -3.99762 -2.99789 0.895169 -3.18094 1.40184 -2.89712 -1.89074 1.38389 0.811243 2.38466 -0.723655 -5.76916 -2.92422 -2.3838 2.16797 -2.19465 1.58306 0.475478 2.23756 2.287 2.16901 2.32203 -1.20096 3.55663 -0.275949 2.88552 -0.537614 0.388134 3.11625 -2.00732 -0.547563 -5.00864 0.0620136 1.4583 -1.56407 -0.967315 -2.43532 4.26575 3.4807 -2.74435 1.55101 -3.83935 2.77291 -3.16971 1.32585 2.78536 0.717002 2.55232 -1.52666 -0.525956 -0.955474 0.0185552 -0.171575 4.84249 0.554033 -5.09354 2.14301 -4.71541 2.10932 0.477371 2.07233 -0.484146 -0.47853 -0.567705 -2.89157 0.273629 0.938017 -3.75451 -2.91861 -3.68804 -0.635579 -1.90234 1.85748 1.80816 