1 0 0 0 0 0 0 0 0 0 0 0 0 0 0 0 0 0 0 0 0 0 0 0 0 0 0 0 0 0 0 0 0 0 0 0 0 0 0 0 0 0 0 0 0 0 0 0 0 0 0 0 0 0 0 0 0 0 0 0 0 0 0 0 0 0 0 0 0 0 0 0 0 0 0 0 0 0 0 0 0 0 0 0 0 0 0 0 0 0 0 0 0 0 0 0 0 0 0 0 0 0 0 0 0 0 0 0 0 0 0 0 0 0 0 0 0 0 0 0 0 0 0 0 0 0 0 0 0 0 0 0 0 0 0 0 0 0 0 0 0 0 0 0 0 0 0 0 0 0 0 0 0 0 0 0 0 0 0 0 0 0 0 0 0 0 0 0 0 0 0 0 0 0 0 0 0 0 0 0 0 0 0 0 -3.49667 1.00163 0.315211 -3.67405 1.81257 2.17547 -0.0173498 -1.71244 -4.55252 -0.526063 3.18407 3.26498 0.154897 0.293634 -0.671422 0.736335 1.87223 -1.80333 0.0997192 -0.957411 0.914347 1.73331 1.86686 -1.48334 2.45251 -1.62498 -1.24441 -1.34566 -0.116962 1.78669 -0.285271 0.287316 -2.822 -1.85387 3.42394 2.23355 -3.18694 1.73941 1.38778 -2.61081 -0.635807 -2.45609 4.06062 2.73487 0.367641 -0.978283 0.341212 -2.7815 0.539278 0.839549 -3.71305 1.99364 -1.05705 1.73612 1.38839 -0.0293439 1.20589 -2.74537 0.245323 -2.84119 2.36984 -2.44071 -0.00523432 1.76252 -0.522034 -2.94673 -2.67207 1.50214 -1.51434 -2.97941 -0.55588 -1.87154 0.592532 -0.994459 1.78367 -0.399411 1.58606 1.15344 -3.11705 -0.108448 0.29577 -0.772714 -3.80198 -0.10332 -1.25357 2.5224 -2.76237 -2.59143 -1.89411 2.39511 -2.15038 -0.369472 -1.97651 2.62625 -2.99233 0.193228 -1.55124 1.33666 -1.06154 -1.85054 -1.47198 -2.32492 1.93394 0.90965 -1.33004 -3.00465 -0.306177 -0.409391 3.37503 0.743141 -1.45896 2.74553 1.9221 -1.23003 2.35327 -2.05888 0.506928 -1.70533 -0.444243 -3.84291 -3.07497 1.22927 3.0183 -1.53043 -4.60654 2.08837 -2.80036 -1.00883 -2.39508 2.20251 2.3854 -1.4635 -2.39315 -0.547548 -1.64209 -0.0197298 0.603488 3.24361 -1.64945 2.77708 3.26867 -0.0609608 0.620609 -2.38625 -1.33367 -0.528596 1.49121 -0.340266 -2.62461 -2.6499 -0.797218 -0.61475 1.90447 3.78474 -2.57999 0.419706 2.99891 0.14101 1.7357 3.41202 0.929732 -2.54862 2.01653 2.36837 1.35781 -0.803964 -2.06484 -3.56833 1.86836 1.0739 -2.46829 0.575472 2.76945 -0.016892 0.146108 3.17449 -1.75319 -2.07113 -0.430082 2.92921 2.47208 -2.92122 1.75761 -2.89333 1.75337 3.6821 -1.05767 2.56891 3.32571 -1.92713 0.498718 2.55503 -0.125293 -0.522278 -1.60077 2.69324 -2.61515 1.84339 -1.3955 -2.80012 1.40851 0.404294 -2.76585 1.7454 -0.65125 3.21117 -2.14004 -1.05177 0.849349 -2.6663 -1.23427 0.97026 0.885418 -0.0348979 -0.481994 0.178792 -2.34967 1.13607 -0.308679 0.348079 -0.169789 2.26675 1.09154 1.36349 0.360774 1.26965 1.31955 -2.09642 3.26123 -0.574557 -1.9774 -1.93654 0.636967 1.74644 -0.326411 2.39031 -0.552949 3.05229 -1.77552 3.3005 -0.871074 -0.529359 1.47406 -1.65347 -0.327326 -1.41351 2.50012 -0.697974 1.24288 2.955 -0.00776704 -1.46747 -2.06295 2.19866 3.83525 -2.376 -2.22271 -0.591159 -3.21819 2.73594 2.52865 2.06682 2.56519 2.64555 -1.56503 -1.79493 1.28448 -0.0431685 -0.526703 -2.97014 -0.580416 1.43982 -0.790476 -2.28152 1.30892 -2.03319 1.86018 1.6149 2.4393 2.02156 -0.353206 0.540803 -1.61152 1.24148 -1.96049 -3.56131 -0.231101 -2.03249 -0.0175026 -2.92924 -1.99013 1.26941 0.697394 -0.0140236 -2.67346 1.41211 1.15334 -3.52041 -1.28075 -0.763863 -1.19515 1.76114 0.344539 3.41861 -2.31652 1.04952 2.10311 1.08226 -1.55735 -3.18435 -3.21111 -2.27453 0.446745 0.889541 1.64264 1.93739 -1.50061 -2.34906 -0.348018 -2.13195 -2.69672 -0.975053 3.44567 -3.07207 -1.75312 -2.50458 -1.87971 0.673742 0.611088 0.862502 2.8505 0.362453 1.78867 -1.04375 2.61746 3.13302 -0.38757 4.03007 -2.09206 -2.71177 1.38391 0.0478073 1.7223 -1.35387 -0.303552 -1.40926 -1.26424 -2.57374 2.64793 0.593082 -3.0386 -0.355922 -0.46466 -3.36599 -0.250237 -1.52109 -2.37472 1.0013 0.478332 1.58487 0.0956298 -1.75968 -1.23174 3.81437 -2.26095 -0.579715 -1.42535 1.32348 -1.47415 2.81971 0.99382 2.52441 -2.38409 -0.735638 0.129963 0.85936 2.91801 -1.17229 -3.13201 3.85887 0.784432 -2.88423 -3.10695 -1.54273 -4.05736 -3.14464 -1.19793 -0.966627 -0.750832 -2.99739 -0.348903 1.14281 3.36404 1.09349 1.78211 3.4137 0.940901 1.05089 -0.727913 0.573122 -1.57691 2.17245 0.849895 0.0733513 0.0404218 1.51202 0.622837 3.28509 1.10201 -2.62241 0.458129 -2.27133 -0.823008 1.16472 3.36212 0.313257 1.259 0.239036 -2.29889 -3.95415 1.50399 -2.90639 -3.39157 -0.810922 1.6413 -2.50448 2.42007 -0.673986 -1.35357 -1.15972 -1.51654 -1.69001 1.77137 0.435637 2.1837 -0.438078 2.52686 -1.0692 1.52924 -2.31396 -2.29153 -3.38854 -2.85686 -2.12639 3.06325 2.77863 -1.99846 -3.93885 -2.31426 -0.070635 -0.236198 0.315577 -1.25591 -4.03865 0.0384682 -0.590546 -0.378231 -2.88564 -4.5712 2.06121 -1.92304 0.874035 -1.29812 -4.19506 -0.493011 -0.449736 0.921825 -1.03941 0.9138 -3.24517 -1.10311 -0.329798 0.666082 -0.506439 2.77994 1.475 -1.35159 0.0897699 -2.83576 -0.605258 1.89408 -0.335352 1.52613 2.98451 0.29226 2.38693 1.34811 1.3327 3.46832 2.21178 -3.22573 2.47259 -1.577 -2.6684 1.1389 1.17354 3.03508 0.0514393 -2.79075 0.58356 -0.991103 -2.68739 0.492401 -0.311823 0.371823 0.582278 -2.55743 2.05779 1.10738 -0.675512 3.92112 0.850167 -0.97728 -1.22363 -1.25741 0.538454 -2.55935 0.244621 -0.337123 1.33157 -1.18792 0.642643 1.6406 1.7566 1.84354 -2.51371 2.72528 0.373806 -3.77085 3.0678 4.41082 -2.91139 -2.41214 -1.97469 -3.19949 1.03471 2.69156 -0.970077 -2.57449 1.49102 -3.41668 -4.19686 0.0614187 2.80863 0.680547 2.19045 -1.61325 1.80781 -2.55063 1.50348 3.82789 -1.37753 1.75395 -2.14407 2.43094 0.45471 -2.53439 -2.29519 0.109607 -1.7916 2.43228 2.32156 0.108264 -3.52219 -0.603672 0.408414 0.0252536 -1.15197 0.960219 3.58243 -0.758949 1.98753 0.188589 3.93965 2.09441 1.49381 -2.05605 -2.57456 3.65094 -1.03441 -1.45205 -1.7746 -2.5943 -1.73374 -0.137288 -2.10542 -1.23336 1.4509 0.38638 -0.55182 -2.33981 -1.67597 0.455199 1.12905 3.10393 1.09645 2.14714 2.07097 2.08925 -1.88963 -0.0188452 -1.42126 0.620002 -3.89689 1.00377 0.240868 0.246971 1.97447 -1.64115 0.595309 -0.0544302 0.529664 -1.06581 -2.43341 -1.32135 2.16652 1.17635 -0.604923 -0.511078 -1.02617 1.67072 -2.72935 1.46384 0.210166 -1.42206 -1.59997 2.41763 0.633488 -2.47711 3.71598 2.63403 -1.35217 3.02666 -0.0469528 -0.487182 2.73872 2.07832 -0.691168 0.46527 -1.83793 1.93968 1.40637 -2.09963 -0.639409 3.77521 -1.22292 -1.35256 -1.92888 -3.79868 1.58735 -1.34316 -1.40466 1.3526 1.8205 -1.67436 -1.79911 2.54983 -0.361568 -0.711677 2.12224 -3.82509 -1.86033 -0.980911 -1.86985 -0.162465 -0.768013 -2.91224 -0.862407 0.430509 1.83845 2.4143 -1.18761 1.16936 1.15886 3.36416 -2.33643 0.205679 2.19982 4.03169 -0.428221 2.9134 -1.70457 -1.45153 -1.76884 2.43475 0.839488 -3.23025 -1.52667 -0.412107 -1.05834 1.17431 -2.06084 0.722937 -1.76686 1.32403 1.07048 -1.37631 1.53632 0.732734 0.887829 -0.952281 2.61838 0.477081 1.5249 -0.000197932 0.747719 -2.5965 3.98726 2.33065 -0.727851 0.268975 0.103564 -1.24413 -1.06282 -0.339412 1.14119 -0.111683 1.16351 -2.9605 4.04927 -1.62162 4.00069 -0.24865 -1.19512 -2.24446 -1.02001 -2.65403 0.826212 -0.936537 1.58096 -1.94648 1.92057 -1.11455 0.531159 0.756386 -0.257347 2.85206 -0.339504 1.30486 3.22369 0.222891 2.52542 3.51724 2.94581 -2.35791 -2.47574 -0.291192 1.92802 -0.346186 0.721835 -3.90379 -3.20708 -1.92326 -1.89985 2.9153 1.78373 -2.16985 1.45819 1.6016 -0.401974 -1.69593 -0.325953 -1.12463 -0.488952 2.86869 -1.44653 -1.92686 0.752388 0.61481 2.97933 -1.42758 -0.390896 -2.07616 -2.41592 1.6514 -1.77894 3.95393 -3.33853 -0.372463 2.53913 3.64029 -0.46231 0.620548 1.41372 0.306544 -3.88078 -1.22027 0.283166 1.47317 -0.160451 -0.674352 1.43091 -2.03831 0.71781 -0.758217 3.27825 -1.10991 0.754952 -0.0330974 1.68491 -2.35303 1.37946 -0.0702385 0.723304 -0.555452 1.16683 -1.73371 0.896099 2.54107 -2.45178 1.56992 -1.73484 0.724983 -1.27187 -1.98878 0.463835 4.1603 1.53025 -0.322078 2.0555 0.178792 -0.610874 -0.52768 -2.78697 -0.879225 -0.792001 -1.58478 -2.81577 1.81236 -1.70051 -0.303369 -0.485809 -2.22506 0.130176 -1.681 -0.510071 1.76399 1.08586 -0.324671 3.7811 -3.27727 -0.0229957 -0.0925474 1.74101 0.754769 -1.4961 -1.61343 3.33981 -1.80098 -0.600742 -3.83906 -1.80424 1.41128 2.46655 -0.285882 2.67689 1.33514 -1.76588 -0.122913 -0.463561 -1.53421 -2.55518 -0.760506 -2.94126 -0.705208 1.09478 0.901078 -3.82389 -3.17015 2.2471 1.91029 0.529908 0.287378 -1.66593 -1.76893 0.94435 1.54444 2.16936 -0.416745 0.281121 -0.546724 -1.61383 1.99932 2.14351 1.60254 0.524262 0.442351 1.39792 -2.37372 -2.52005 1.32717 1.98421 -2.34982 -1.45761 3.29134 3.98067 -3.02959 0.729839 2.05538 0.393368 -0.44058 -0.349697 -0.278375 -3.35944 2.4909 -1.39996 -0.650177 0.197409 -1.12185 -2.87764 -2.84364 1.37192 1.42145 1.74455 0.181967 -2.31882 1.15414 4.10897 -3.23308 -2.20397 -1.51388 -1.77784 0.684236 0.521698 3.13417 -1.96315 -0.733096 1.78486 1.03548 -1.91402 -0.619419 -2.90394 1.83817 0.389157 -3.42065 0.454741 1.0591 3.3489 0.291955 -2.83397 3.50891 -2.1444 -2.61963 2.53952 -0.928786 -0.678045 -2.08349 -3.06404 0.435667 -0.138905 0.517304 -1.86512 -1.12639 -1.6684 1.08578 2.48645 -1.34591 1.46744 -2.70005 -3.1791 -0.808452 -4.19262 -3.3063 2.58325 -1.48032 -2.34927 4.6716 0.157552 0.185599 2.74799 -0.695746 -1.1401 0.157338 -0.0459149 0.248283 0.555178 -0.161183 -3.44058 2.62988 1.37835 3.78587 2.51499 -2.75962 2.52148 1.2177 -1.72675 -3.11239 -2.44004 2.91645 2.4664 -2.75709 -0.717508 -4.39071 -1.86775 -0.969317 -1.50354 -1.57242 -0.28402 -1.09514 -0.221855 0.533754 -0.441252 3.85243 2.63208 1.51437 -0.902386 -2.52853 -2.96624 -0.370754 1.49228 -3.03344 -1.178 2.512 1.89814 0.203024 1.90672 -0.584749 1.10506 2.66535 -0.232536 -2.40469 -0.239799 1.66669 -1.79429 2.92839 -1.10756 2.64625 2.82276 1.35352 -1.04002 -2.09474 -0.81077 0.234794 0.136922 0.620274 3.17965 -0.76133 2.05943 1.48053 2.43453 -1.18374 1.74864 -4.20864 0.425473 1.89027 -0.0675522 3.39001 -2.91486 1.83244 -2.52066 -2.78797 0.47766 1.33435 -1.83113 -1.1393 -0.528138 -0.743263 2.51324 4.01365 0.891339 -2.94221 1.85105 -1.98271 -0.892586 2.88939 2.43127 -2.48846 0.543092 -0.0422831 -0.294092 2.42474 -0.940537 -1.75746 -2.44898 1.18688 -2.30999 2.16548 -0.366817 -1.49463 -0.304498 -2.69615 3.64188 2.54077 3.40338 2.74533 -2.39386 -1.16597 -1.19539 3.17137 -2.9861 -0.17513 1.37601 1.26999 -0.0487841 1.30431 0.092914 2.56629 -3.01558 -1.35229 -0.892621 -2.73176 -1.00167 3.17162 1.05495 0.219321 -0.284235 1.45453 -3.53857 -2.44897 1.10955 0.971694 -1.78013 0.133229 -0.567842 -0.117786 -3.39932 1.40912 0.079882 4.31393 -2.22738 -3.28237 -2.99226 0.991103 -1.706 -2.3125 1.91691 1.54791 0.549959 -2.19661 -1.06715 1.36953 2.60062 -0.26461 -0.00883455 -2.69206 -0.589083 -1.47342 1.65281 1.11421 1.92912 -2.77015 -1.43576 -3.06981 -2.01604 0.092364 2.28372 1.6865 -0.529786 -1.12459 3.69129 1.74598 3.78776 -0.58948 -0.2987 -2.35818 -1.99361 -3.02239 2.4978 0.248985 -1.27392 2.60749 -0.993271 1.23617 -1.90538 0.893169 -2.16777 -0.860606 0.961165 2.4133 -0.634279 3.90547 -2.37473 -0.647099 0.294214 3.24138 0.157826 3.42255 -0.776498 2.62235 -2.24453 -0.337336 -1.36492 -2.70463 -3.89509 -2.7674 -1.10475 -0.874523 0.218284 -0.224143 0.536958 0.627232 -2.28692 -1.54632 1.53027 0.0254982 1.00572 2.2441 -1.23628 -0.309748 -2.61685 -0.403561 1.45187 -2.2142 -2.57269 0.0399031 1.68961 -1.51632 -0.245567 -3.16671 1.87269 0.577181 -0.455687 0.25753 2.20058 1.84562 1.82444 -1.36391 -1.01616 -0.990863 1.97813 3.68629 2.97209 1.62071 -1.55384 0.286248 2.42108 2.735 -0.907239 2.25948 -1.87879 -1.29709 3.19833 1.26284 0.102374 -2.06829 -2.44473 1.3793 -1.76551 2.95503 -0.368709 1.50357 -1.55466 -0.342707 1.26815 2.11614 0.770028 1.99892 -0.111041 -0.458281 2.95534 1.07893 -0.322016 1.28164 -0.166127 -2.11394 1.70456 -0.482055 1.19045 -0.42053 -1.54052 -3.62049 0.334284 0.639683 2.7714 0.0673391 1.10244 1.7389 -1.42633 1.42877 -0.492828 2.67145 -2.51086 2.07983 2.75038 -0.812388 -2.29806 1.66282 -1.18026 -1.92366 0.0852837 1.3385 -2.60908 0.338954 -1.9459 4.10424 -2.75254 2.79969 0.110736 -0.969527 -0.0562914 3.99391 2.55271 0.0136569 -1.07414 -0.319635 2.31133 -0.866375 -0.169729 2.82075 -1.60981 0.214408 -1.82127 -2.63197 -1.12716 0.678533 -1.81067 1.71168 -1.03523 0.290948 2.92015 -0.882484 -0.955791 -0.114918 -0.533265 2.01332 1.18651 -2.33606 0.431028 -1.54447 0.131489 1.17412 1.38012 0.630864 -1.83689 -0.460936 -0.486663 -3.27572 -4.12987 -0.945662 -2.74131 2.01018 -1.74323 -2.26925 -1.98503 3.4992 1.1707 -0.115772 -0.241478 0.992202 1.51901 0.362758 -0.265343 -3.11867 -2.76021 -1.49216 1.95182 -0.456511 -1.5014 3.44065 -1.30294 3.66739 0.0771051 -1.23223 -0.207968 -0.637516 0.425443 0.302484 1.80695 1.3898 0.34463 1.89098 1.95369 2.359 -2.23119 0.942003 -0.125202 0.23687 -1.3851 -0.249504 -0.952679 -1.98995 0.171346 2.20891 2.02101 -2.1549 -1.00938 -0.997024 2.20925 0.590823 -2.2423 0.881909 -1.54864 3.96675 -1.89863 1.09963 -1.93407 0.279229 -0.182119 1.61875 -4.38891 0.0130161 1.47476 -0.826884 -1.9249 3.13738 -2.13463 -1.21984 0.711218 -2.5271 -0.718509 1.79939 0.239097 -2.03447 -0.928116 1.12908 1.63044 1.20452 2.45844 -0.365536 2.19567 3.03484 -1.92497 1.40466 0.19396 -3.39572 -1.7975 1.92603 -0.317621 -0.309442 -1.83772 2.77213 0.824686 -0.350184 -0.15624 -1.10024 0.376858 2.83406 0.8296 -0.85377 -2.42934 -2.18297 -0.91002 3.02211 1.11101 4.27716 -1.28567 2.39129 -1.49189 1.87452 1.6485 -1.86439 2.46198 -0.0262611 0.905439 0.394162 -0.481933 -2.45019 -0.778237 1.47235 -1.28491 1.12438 1.62482 -0.984847 -0.56119 3.07415 1.87977 1.53842 -2.79402 0.15685 0.287988 -1.08962 -2.40646 1.59852 -1.19601 -2.12191 0.034013 -1.41776 -1.06337 3.23297 2.69288 -4.51153 1.41037 -0.291498 0.151967 0.724829 1.04735 3.20516 -1.88893 -1.50864 1.84465 2.43286 -2.16817 0.32754 2.71482 -1.43085 -2.46033 -3.22136 -2.14669 0.0254677 -2.49613 3.03273 2.21139 -3.08895 3.01439 -0.135426 2.03047 1.29598 3.97249 -1.26275 0.920114 1.85967 0.317164 -2.60077 -0.562654 -1.97651 2.00402 0.824107 -0.357142 2.16018 -0.246208 1.83619 1.60017 0.969898 0.293939 -0.734321 0.285211 -0.375363 0.306483 -0.0246129 0.880291 2.76606 1.80559 -2.39361 -3.08659 3.95607 -1.83942 1.38177 -1.77958 1.67295 1.48487 -1.18279 0.189627 -2.5542 1.60749 1.67747 -2.73411 -1.77992 2.34998 -1.97414 4.17873 -2.44909 2.32147 3.70985 -0.139149 -1.28426 -0.0430772 -1.87712 -1.46655 2.34033 -2.98741 -1.40518 0.918653 -2.36666 -1.7606 1.24221 2.05273 2.82081 -3.54611 0.635258 -2.33148 -2.12493 3.72309 0.115558 -2.38589 -3.86485 -3.11654 3.11278 1.27734 -2.09341 -0.885174 -3.69626 -1.5159 -1.36184 2.78214 -2.04353 -1.15645 0.770241 -0.730445 -1.69718 1.00029 -3.15627 -1.97508 -2.71424 1.77109 -2.02944 1.5282 0.522767 0.630562 -0.749643 0.40997 1.82887 0.513397 -1.76319 -2.56684 -1.85554 2.40674 1.03966 -1.4404 0.213919 -3.30499 -2.84031 1.81877 -3.1502 1.7331 0.65125 0.19805 0.139729 3.60861 -2.2973 1.27492 -2.5733 -1.43008 3.23192 2.80414 0.416532 -0.915906 3.58874 1.9879 2.24984 2.99251 2.95872 -3.36245 -0.115101 -1.26299 1.56195 2.95497 1.63605 2.12337 -0.760106 3.14317 -0.791757 -0.411954 1.52533 1.57401 -2.92488 0.442747 -0.212027 -1.2745 -1.45849 2.05977 -3.44918 -1.3912 -3.66462 1.47113 -2.43084 0.904523 1.07353 3.34744 0.767586 -0.471862 -3.55679 1.82746 -0.372036 -0.160146 -2.55505 1.16543 -1.87751 -2.77876 -1.46076 2.66425 2.78571 3.23522 1.04176 -1.13228 -1.98244 1.08778 -0.390835 -0.525941 1.21517 3.6143 2.16268 -1.05501 -3.17864 1.50195 -1.91178 2.27547 1.89033 1.97453 3.0624 1.89482 -0.743664 -0.347072 0.342341 1.16912 2.90932 -0.186727 1.86937 1.46799 -1.34063 -1.24029 2.02366 -1.7267 0.694986 -1.46903 0.37933 0.289728 -1.88029 -1.3395 2.30053 -1.96782 0.0682241 -2.79246 0.722355 2.85603 -0.510254 0.778178 3.96324 1.89872 -1.80262 -0.244133 -1.09325 1.90394 -0.727576 1.45957 -0.595217 0.393369 -2.57743 -0.551577 -1.7634 3.15868 -1.61753 2.69093 0.476043 -3.46185 1.95513 -0.180593 -0.39581 -3.5466 -2.21636 0.186484 -0.784127 1.66572 0.451476 -0.0571768 -2.34091 -1.77208 -2.00025 -3.14473 1.45721 0.60065 1.4621 3.08449 1.85035 -1.60422 -0.497955 -1.36065 -1.69303 -2.77897 2.75657 1.7291 0.344447 1.59402 -2.02983 -2.27093 1.50293 0.390622 -4.47824 1.98299 0.81901 -1.19768 -2.56986 1.15382 -4.35891 0.266564 0.437681 -2.64914 -0.870315 2.3399 0.26458 -0.255303 4.28572 -1.01552 1.62449 1.8896 0.854259 1.23565 -1.89991 1.47708 -4.05544 -3.28348 -2.53174 -1.26672 1.70941 -4.02462 0.569826 0.183309 -1.07106 2.10543 -3.68036 0.997909 0.844768 1.62283 -1.05147 -0.355983 -1.91832 2.07104 -0.930982 2.05699 1.01024 -2.68568 -0.334681 -1.94853 -0.617039 0.997208 1.59366 0.194388 -1.40097 0.131856 -2.30947 -1.14879 0.431334 -0.712196 2.08413 -2.36712 0.566255 2.34768 0.797158 -2.04482 -1.20165 -0.698738 -1.75785 -3.06569 -2.77928 2.04577 0.696871 -2.66718 1.2604 2.65909 -0.644352 0.778843 -3.10543 1.11846 -1.94734 1.97511 -2.09774 -1.07042 0.247246 0.116169 0.483917 -2.36282 0.366176 2.23468 0.0998111 1.68626 1.09902 -1.30704 -0.130909 2.59876 -1.26305 -2.45919 -0.626774 0.941083 0.151142 -0.0437787 -3.79378 -1.9549 2.50214 -1.51035 2.11931 -2.04594 -0.723029 0.329432 2.09655 -0.437865 -1.25405 0.307764 -1.78455 -0.583987 -1.56848 0.865217 1.6268 2.14815 -3.31249 -1.30688 1.50174 0.00730884 -1.02373 -3.72715 2.29055 -3.53915 -1.05736 0.0298628 -1.86534 0.331263 2.87752 -0.678871 0.778482 -0.560457 1.65998 -0.0226602 0.819315 -2.7765 2.78114 1.61432 -3.35254 0.299432 1.5325 -0.563966 0.912946 1.43506 -0.0379502 2.7461 0.864387 2.90416 3.68543 2.88676 -0.592594 2.6905 1.14864 -0.174703 2.22167 1.5105 0.436704 -0.894754 0.783059 4.12218 2.22048 -0.619907 0.632878 1.89082 -2.06539 -0.747261 0.740274 0.0786006 -1.21563 0.633546 -1.70108 1.82844 1.66913 -0.659642 0.804269 0.308557 -2.37768 0.157033 2.75202 -0.0107884 -2.14211 2.06911 -0.194235 1.51856 -1.9832 2.89723 -2.22707 -0.833357 -0.290155 -2.95571 -3.76343 -3.69297 -1.05116 -2.42169 2.18472 0.904218 -3.44049 1.36642 -1.51975 -4.52612 0.172628 0.480529 -1.48029 2.49061 2.8812 0.594668 0.917218 -1.29782 0.165608 -3.41024 2.56385 0.330806 -0.826757 -1.91237 0.904553 1.6182 2.95122 1.12856 -1.22701 -1.30697 -0.278069 1.71802 -2.36694 -3.77577 2.79951 -0.545045 -2.43277 2.82933 -0.763344 -1.03734 0.85701 2.70832 -0.199851 0.34228 -1.50161 -0.529175 -1.63727 2.3666 1.49874 2.62568 3.31271 1.63062 0.292871 -0.299798 1.06728 0.383511 1.13033 0.46002 0.290093 -0.746254 -0.230491 0.197165 1.90129 -0.409055 1.32879 2.55502 1.47815 -1.35785 3.63336 -1.14073 1.13643 2.27942 0.905836 -0.576449 1.48959 0.500122 0.141895 1.79853 2.77683 2.41757 -1.98552 1.43231 -1.24602 -2.04188 -0.349177 -1.28774 0.445036 -3.00847 2.12847 3.85813 -1.65927 0.10033 2.02898 0.629307 -2.85496 -1.27877 -1.10179 -1.67606 4.65965 2.86631 -3.04677 -0.969313 0.898358 -1.85151 -1.11854 -3.39373 2.03325 -3.67139 0.0760063 -1.65363 1.25463 0.102588 0.14861 2.81876 2.14855 1.3464 0.0679189 -2.17409 -0.319483 0.540651 0.762702 1.9705 -2.62049 1.59042 -2.46381 -0.215354 -0.180288 -2.23876 -1.86464 -0.0993832 -2.01332 -1.05248 1.81733 3.2249 -0.369717 -1.00457 -0.742439 1.58636 3.19109 1.2966 -1.35501 -0.168752 -1.60333 3.37142 -3.19552 0.826151 -1.87605 -3.33832 -2.30639 -2.65632 3.61597 1.25301 -0.883923 2.29885 -2.34875 -0.260887 2.99528 -0.698584 -1.2408 -0.0434428 1.0529 -0.00260912 0.0719478 2.79975 1.23394 3.16521 -2.09057 3.83985 1.72618 2.03697 0.692541 2.96596 -4.08788 -0.186941 -2.72779 -0.234062 -1.89631 1.83873 0.276879 -4.13497 4.39568 -0.588382 0.562929 0.94484 1.48999 -2.31151 0.369747 -0.344508 -1.17122 -1.33831 2.26775 -1.85301 -1.11864 1.67072 -2.50412 2.43021 -3.06972 -0.5795 0.781592 1.29409 -2.80207 -3.0244 1.23568 -1.00731 -1.34014 2.69611 -1.58099 -0.577029 -1.61313 -1.41495 -1.82795 1.0107 0.760598 2.01986 2.30127 1.02599 1.40463 -1.671 3.7169 -1.45721 2.17806 -2.80842 1.11715 -0.234214 -2.92857 -1.67948 1.80849 -4.05959 -2.64741 3.40256 -0.239067 2.56565 0.802714 -1.2365 -2.51276 -1.8733 -2.61176 -2.27224 0.843758 -0.927228 -0.786661 0.137074 -1.65616 -0.753029 0.0937988 1.00184 0.0797602 -1.49985 1.59922 -0.24694 -2.15594 1.69731 2.90318 -0.939074 1.54828 0.840159 0.291467 -0.308923 1.52762 1.52582 -0.334193 -0.633519 -2.16948 -2.54547 0.888805 0.105427 0.0825983 0.211814 -1.68302 -2.99986 3.0215 3.03942 0.361202 -1.08965 0.294824 2.81599 -0.58005 0.0354168 2.61606 -0.0348978 3.03115 -2.16256 1.87132 -0.490752 1.58289 -1.71723 1.27108 -1.00914 0.428922 0.86967 1.14064 -1.52539 0.752999 0.412228 -0.557527 -3.64472 0.0233622 0.0500048 1.62617 -1.81541 1.3847 2.44854 0.896588 0.240349 0.827341 -0.335169 -2.50385 -2.94718 -2.51865 0.641637 2.09627 0.611423 1.87739 2.80271 2.88709 0.463164 -1.48516 -4.28554 0.463927 1.43252 -2.41006 -1.71213 1.10314 1.16979 1.21679 -2.51725 0.517456 2.25597 -0.00755336 0.98943 2.69102 2.07655 -0.752054 -0.148549 3.88172 0.187155 1.82722 0.503204 0.388272 0.387692 -0.259667 1.1856 2.17565 -0.775826 1.53284 1.21286 0.948652 0.13686 -2.28454 0.0569631 -0.225791 -2.02666 -2.90034 1.72089 1.83974 2.08773 0.378231 -0.635136 -0.55533 2.73832 2.8006 1.65961 -2.18151 -0.987781 -1.71756 -0.167989 0.85847 2.98512 1.79518 -2.12722 -2.61991 0.343501 1.37673 0.87614 -2.02229 2.18245 -1.38837 1.97578 0.0822019 1.20174 2.9203 1.85496 -0.682348 0.0157632 -0.498322 -0.712531 -0.256401 1.79795 2.27679 -0.310755 0.0823546 -0.0222628 1.6709 2.14101 -0.480469 1.21016 2.58301 -2.14312 0.177236 0.333216 -2.61588 1.56467 -2.15062 2.53696 3.28988 -2.23471 -0.90492 0.458038 -1.05339 -1.65659 2.28289 2.42346 -3.41775 2.49689 1.67911 0.555269 3.55847 1.45059 0.177236 2.96471 -3.3287 0.930037 1.75745 2.74403 2.04583 0.856456 3.27313 -4.01738 -1.03756 1.23617 -1.34298 0.524171 -1.5336 -3.28704 -1.85768 -1.32125 3.09777 -1.25036 -0.410703 3.61774 -2.41086 -1.08867 2.51395 -2.33929 2.87495 -1.78538 -1.08815 -1.8184 0.251244 -2.98396 -0.529023 3.34545 3.03947 -1.59449 0.265587 -0.600619 2.58622 0.573886 1.52716 1.73576 -1.04689 4.12435 -0.414182 -2.55579 2.13217 -0.20394 0.574465 2.5737 1.13692 -0.430784 0.99016 -2.17919 -2.1902 0.618506 0.707895 3.8671 2.68884 0.0844602 2.53851 -1.92189 0.779856 3.13475 -1.07537 -2.20852 2.57645 2.27782 0.871137 1.90119 1.17171 -0.596103 1.6987 2.96925 -2.19455 0.518433 -2.27978 -1.42599 1.69092 -2.3642 -0.570681 -1.88026 2.46316 0.80781 1.29641 1.82139 1.09737 0.747845 1.76603 1.08834 1.63462 -1.97413 2.54962 1.02224 -2.43713 1.29986 -2.19348 0.247978 0.19747 -1.44803 0.307489 0.799815 1.90074 0.801889 -0.826731 2.27651 0.489379 -1.73957 3.28585 -1.01262 -0.329554 1.39831 0.959913 -0.691263 0.85017 -0.107257 1.97572 -4.0334 0.159505 -2.07366 -0.442137 -2.53449 -1.95924 0.802561 -2.59509 -2.61588 0.238273 0.349422 0.353663 -0.246331 1.53619 3.07783 -1.22396 2.23953 1.09029 1.56598 -1.69529 4.34472 3.69273 -2.96425 0.975936 2.35193 -1.18215 -1.40719 -3.61256 4.22689 -0.208854 0.0951109 -1.03612 -2.80214 2.92292 -2.87596 0.922317 0.232658 -3.04478 2.02144 3.03344 1.12893 -0.338313 -4.53552 -0.228263 -0.5589 -0.0551619 0.548342 0.948047 0.958632 -1.72385 -0.161458 3.41653 -0.0450906 0.822424 2.37341 3.95421 -2.07103 2.09871 0.0727103 0.902448 2.05309 -1.50257 -2.46969 -2.33333 1.05016 1.53278 -1.34433 1.66657 -1.28256 -1.85566 -0.866616 2.8318 0.814895 -3.09169 0.170888 1.23562 -2.46328 -1.50568 0.500122 -1.0374 -1.71165 -2.78675 0.105854 -1.2001 -0.0178988 2.00435 -0.353877 -0.148427 -0.425902 -1.30282 1.03511 2.66336 -2.93962 1.90013 1.15679 1.95747 -2.34835 -1.6471 0.178854 1.56695 -0.658361 -1.90693 2.43359 0.665959 0.593814 2.27211 1.33706 -0.111713 -4.63956 -2.02556 -2.68567 0.427671 0.154896 -2.12502 1.19774 -0.284082 1.39465 2.08318 -2.92973 -3.23117 -0.26394 -1.9836 0.0204631 -0.201773 -1.38363 3.64774 -0.223014 -2.82124 3.72526 0.966657 -1.30484 -1.63193 -2.37952 0.00514273 1.0598 -3.12905 -0.788003 0.265099 1.17556 -2.15817 -0.673803 -3.10607 -1.78529 -3.57959 1.07695 2.45346 1.2876 1.39352 0.254693 0.622013 -1.29351 -3.72501 -3.54242 -3.32146 -2.08638 -0.596561 1.18148 -1.89174 -2.96256 0.142018 -0.413266 1.17492 -1.44961 1.78407 -0.836645 2.80341 1.99443 -1.74983 2.00869 -1.38129 -0.757026 2.17745 -1.05852 2.4802 -1.72999 3.48688 -0.832072 0.359126 0.892953 2.03056 3.71851 1.90261 -1.54126 1.40805 -0.624698 2.52389 0.942823 3.54413 0.3099 1.36887 1.42791 2.12734 -1.85374 -0.00181622 -0.566256 0.496704 -2.32721 -0.870799 3.06353 -0.924177 -0.0826594 -2.71729 -2.5607 -0.0557724 0.807748 -1.32128 -2.60834 0.640507 0.134633 2.22243 -2.12535 0.793954 -0.964649 -1.07414 0.0748161 -0.326014 -0.280694 -3.38883 3.67993 0.254113 -1.35009 -0.765572 -1.71794 1.88297 -3.09261 0.675661 2.37795 1.15737 -1.05428 -0.657448 -1.06328 1.08895 2.4653 -2.57404 1.00874 -1.83943 1.61991 0.154958 1.33541 -4.63502 0.277429 -1.10915 -2.56217 -2.18071 -0.45056 1.41146 -2.85399 1.04884 0.313623 0.219687 -0.959215 -1.46393 -2.05632 1.2293 -3.22237 2.62698 -1.03212 1.66468 -1.2405 -1.61426 -2.12764 -0.477874 0.127369 1.499 -0.227043 0.435972 -0.461578 0.813701 1.16677 0.291894 -2.29955 -0.387509 -2.50964 -0.567781 1.13112 0.210715 2.69754 1.79725 0.107929 -2.02385 -1.42404 -3.15462 -3.71518 0.361965 -1.97322 -3.40351 0.935926 2.04554 2.01842 1.64231 1.29967 1.771 0.437101 0.466033 0.992874 -1.01552 -1.44494 -2.08123 -1.03981 0.859416 -0.669042 -1.8079 1.93047 0.803442 2.26205 -1.86784 -1.15359 0.0413984 -1.98957 2.24057 -4.76063 2.36929 -0.482238 1.20422 3.0158 -0.328822 -3.17123 -0.702338 -0.378445 -2.70674 3.34424 -1.4968 -1.93837 -1.13018 -3.28268 -1.3099 3.73392 0.692999 -3.87983 2.69966 2.54908 1.22228 -0.911237 0.676916 0.311578 -3.17306 0.673894 -1.50482 0.819955 -2.6475 -1.88642 -1.38327 -0.336299 -3.39065 1.74446 -2.76993 -0.820078 1.37329 1.37276 -1.98689 -2.45669 -3.0055 1.82353 -1.63819 -0.545594 3.20886 -1.11467 1.42975 3.39523 0.23989 -1.62961 1.82185 0.923872 -3.20461 -4.48974 1.2853 -2.02517 -0.958449 -0.598453 1.24517 0.631993 1.15535 -2.27514 -0.479308 1.34683 -0.452879 0.454558 1.07659 3.06868 -0.654332 -0.22457 2.14214 1.25408 -2.75822 2.92936 -1.44919 2.22899 1.28261 -2.79423 3.63886 -3.13503 3.71067 1.80152 -0.452147 -1.95262 -0.558992 -1.24044 -2.72343 0.894482 2.27404 -3.28585 2.3237 3.20556 -1.57129 2.65714 -1.73453 -3.9008 0.501312 -3.55887 -1.88478 -0.684083 2.43481 -0.752266 -2.19762 0.14983 0.595981 1.72724 0.621616 -2.5192 3.55506 -1.96166 1.98985 1.87605 2.65796 0.503052 -2.6409 -1.77414 0.990219 0.0937685 -0.372067 1.88871 -2.1801 3.47513 2.89191 2.80833 1.12059 0.815623 0.88313 -0.424863 -2.74003 -1.90935 -1.06337 -2.0995 -0.54413 2.09435 0.831035 -1.5296 -1.91279 -3.12257 0.344691 0.649511 -0.541962 -2.16448 -1.1259 1.00383 1.10457 0.158284 -2.04438 -2.89048 0.241813 1.86442 0.0350202 1.61939 -3.55634 2.14098 -1.67072 0.0511645 2.14791 1.20083 0.124073 0.27224 1.07979 2.38348 -1.64982 0.144215 3.19292 0.712897 -1.21707 3.30001 -2.78544 0.633885 3.70884 1.51792 -1.60672 2.14449 -1.59823 -0.331965 2.5412 1.04433 -0.744026 1.69245 -2.0353 -0.483428 -1.08711 -3.40817 -1.62116 -1.23803 -1.76552 1.88902 3.39599 -0.0943785 -2.54175 -2.46817 -1.31424 -2.10677 1.38425 -1.28716 -2.60169 -2.40427 -0.0673696 2.56558 -1.05483 -0.156697 -0.0782644 -1.78763 2.73045 -2.39507 -0.598056 1.13231 -2.07249 -1.96803 0.397396 3.31194 0.895916 0.588961 1.39517 -0.844187 2.32678 0.982864 -2.57559 -2.37967 -1.28094 1.11794 -0.926372 0.539858 -3.7277 -1.21218 -2.71507 -1.38394 -2.20601 -0.671571 -3.72709 1.03865 1.71568 -2.05257 -0.589849 -2.79625 2.80796 -2.04866 -1.57816 0.503513 -1.30767 1.58646 2.7367 0.649389 -4.25912 1.71437 2.33413 0.504456 -0.541688 -0.958449 1.93535 -2.11232 0.940445 2.11828 -1.12276 1.32485 -2.49805 0.828777 2.51841 -0.793161 -2.93028 0.590548 -1.48437 -2.66599 2.43084 -1.01894 2.81941 -1.69382 -2.06666 0.0117043 -3.27202 1.73291 -0.267388 -1.23485 0.848003 1.73029 -2.82538 -1.38117 -0.69947 0.674108 0.413114 -0.230308 0.0213177 -1.32275 -1.14858 0.281488 2.49485 -1.24025 -0.493194 0.371151 -1.23125 2.18254 -0.115344 0.154927 -0.909129 0.91087 0.464507 -0.427244 2.0133 -1.32248 -0.617405 -0.292505 3.30557 0.614871 -2.58588 -0.779092 0.525605 1.92338 1.84022 1.12261 1.58441 -0.453917 0.298761 -2.40698 -0.843974 1.31841 -0.787087 1.07619 1.27078 -2.43911 -0.11333 -0.636023 -2.06099 2.58368 1.86656 2.88905 -0.851787 -0.928755 0.659245 -3.05511 -2.92564 0.819711 -1.59897 2.05418 0.85838 1.78809 0.572176 0.199088 -1.21822 -1.05894 1.34985 -1.86054 3.19439 3.84413 0.692725 0.53064 -1.96842 -2.51504 -2.24618 3.06459 3.26858 -1.71089 -0.289026 0.350123 1.1513 -1.20528 2.61167 1.75315 -1.44492 -3.03838 2.32641 -0.0862602 -2.69541 0.577883 -1.79835 -0.839305 0.808878 0.734718 -1.49032 -1.46039 -1.15243 0.840068 1.28405 -3.32302 1.85756 0.136708 -2.35955 1.19576 -0.440946 -0.805582 1.17263 -2.09749 -3.73036 -1.65192 1.51734 0.46585 1.74616 1.54428 2.68507 -2.19821 -1.10143 -1.42804 -1.75444 -2.11068 -1.77588 1.14123 2.96742 2.23025 1.29864 1.7805 -0.00087008 0.675878 0.17336 3.02064 -1.80745 -2.16354 3.02007 -2.16445 2.65635 -2.20501 -2.13225 -1.19213 1.13543 1.34005 1.77549 -1.01448 -2.68769 1.44156 -0.717689 2.90415 -3.37924 -1.81666 2.48379 1.73591 1.66626 -1.12499 1.572 -0.957076 -2.15108 -0.440794 0.187643 3.09527 -2.71864 0.634495 -0.572542 3.22609 -0.406186 -2.187 0.846752 -1.80372 1.72345 0.128834 -1.69343 2.02971 -2.72193 -0.779581 -0.994919 0.293329 -1.42837 1.60114 1.53864 2.28982 3.92171 1.13967 -1.66483 1.131 -2.69468 -1.53177 -2.69455 2.15984 -2.03377 0.537995 -0.945114 -2.30786 -0.93382 -0.963123 1.49753 0.544649 -0.0251322 -2.10457 -1.77912 3.3185 -1.7063 -0.408079 1.4422 0.908978 -0.795023 2.48129 2.89695 2.20647 -0.760933 -2.13771 0.511414 1.46127 1.05925 -0.993701 -1.80461 3.27847 -0.650487 3.86051 -1.39807 0.711981 0.408261 -2.34933 0.197897 -3.57151 2.53202 3.09743 2.4896 -1.59262 1.79136 -0.533815 1.74525 2.14513 -1.71195 -1.82811 2.06035 0.837809 3.48889 -0.846996 0.107593 -0.495849 -0.272362 -3.26351 -0.583438 -1.4784 1.47321 0.21276 -0.473449 1.54325 2.45383 -3.16372 0.85603 1.26397 -3.76814 -0.52469 -0.367061 3.00594 1.32592 2.62437 -2.27151 1.5896 -2.53238 1.00178 -1.25939 3.46295 -1.90443 1.45089 1.16628 -2.44772 -1.32852 -1.63922 0.0130772 -3.19091 -2.08147 -3.67085 0.688147 0.917917 -1.42715 0.282373 -2.49152 -1.86582 1.74176 -2.22542 -1.31815 -2.27672 1.4639 2.68363 -3.90492 0.968032 1.56415 2.01991 -1.24154 1.21014 1.39755 0.0720997 -3.75367 -2.09743 -0.425473 2.60425 -1.01726 0.132283 4.26361 -2.67685 2.70808 -1.41193 -3.83754 0.339076 -1.02065 1.44097 1.73603 -0.168081 0.0407274 -0.896192 -1.19414 -1.35226 -3.0877 -0.65775 -1.90175 1.04051 3.03868 -1.29638 -2.1689 3.27981 1.34157 -2.26833 2.94292 -2.65907 -0.978043 -2.06157 -0.948256 1.40109 -0.0474719 1.00132 2.74412 -3.64792 -1.99455 1.15133 3.27895 1.05904 -2.83815 1.22503 2.30871 2.57218 -3.25897 -0.651921 -0.292322 1.02193 -1.40109 -2.28405 2.09947 2.4057 -0.364437 0.445128 3.1809 -0.00630206 -1.54107 -1.03945 -2.56574 3.56644 0.54416 1.8889 0.323084 2.20476 2.73607 -0.0731069 -1.43881 0.85404 2.43762 2.65262 1.55479 2.37539 -1.67331 -2.25137 2.60645 -2.69242 -1.05373 1.60733 -1.02297 -0.943343 0.011765 -1.2163 -1.60089 -0.268334 1.77787 2.26839 3.13502 1.34509 3.31082 1.04705 -0.82838 2.59903 1.00883 0.915537 -2.34732 -1.02828 -0.786996 0.0200052 1.13167 3.32851 -3.74524 -0.910049 -1.25286 -3.23165 3.78288 -2.16613 3.91298 0.936354 -0.28811 0.465178 -2.38727 -1.4938 1.63999 -1.17168 1.89916 -2.93502 2.075 2.09291 1.68464 0.110981 -1.68446 -0.515198 2.42316 2.38424 -0.669011 -1.97611 0.774056 2.25314 -1.51822 2.73542 0.840834 -2.63153 2.42688 2.30496 -2.91868 0.312372 2.05821 1.64634 -0.519074 -0.549563 -2.18829 -3.65115 0.0825679 -3.28246 -0.808725 -2.52341 -3.53128 2.54657 -2.14388 0.682165 3.2896 -0.337886 4.11113 -1.88838 2.42578 1.96104 -0.855785 1.06355 -0.111378 1.19256 -4.14025 -4.12847 1.04323 -2.33791 -0.358364 0.982772 0.251732 -3.32556 -0.100086 3.69553 -2.46798 3.9355 -2.26101 -1.46985 3.3225 1.63233 -0.407712 -1.30086 -1.05308 -0.590029 -3.83106 -0.356655 -3.1219 -0.0368514 -1.44711 -2.89107 -1.61481 -0.538302 -0.199088 -1.27257 0.667394 2.52835 1.8828 0.571414 2.06163 -1.01003 2.30663 -1.34735 0.420743 1.11668 -4.72669 2.83498 -2.74378 0.570864 -1.29494 -2.87623 2.73753 2.78495 0.988326 1.80992 1.14101 3.98351 1.77988 2.42761 0.847881 0.572665 -0.283441 3.00209 1.4765 0.112537 2.37195 -0.447356 0.249809 -0.407651 -0.694922 2.3204 -2.81242 1.22689 -0.452788 2.68732 2.22009 0.493865 -3.63682 1.26116 -1.18746 1.62995 0.640843 1.08834 -2.79865 -2.69596 1.74323 1.46701 1.82704 1.68836 2.17391 0.329158 -0.935652 1.64233 1.89561 2.65961 1.84254 -2.76615 -2.35321 0.91966 -1.75647 -2.69019 1.10058 0.948409 -2.31802 2.34127 3.20806 -0.696874 0.750008 -1.74494 -2.42795 1.51547 1.32885 -1.52072 1.195 -2.77378 -1.94303 -2.0876 0.439603 -2.32809 -0.250267 -0.959883 1.55484 1.48684 1.86275 0.918439 -0.397549 -1.70597 -0.404721 3.23949 0.134693 -0.947189 -3.27395 0.200644 1.46106 -1.37063 0.774087 0.395321 -0.14803 0.560641 -2.42026 0.443236 -0.477935 -1.51801 -1.0988 1.58017 -2.26439 -2.81599 1.11534 -1.0739 -2.12081 3.77067 3.62293 2.64817 -1.1549 3.88282 1.0461 0.740121 3.56839 2.46221 -0.183981 -0.363582 1.06255 -1.97963 -0.757027 1.37735 0.79765 -2.11983 -0.338374 -1.45481 0.761513 0.363765 2.74733 -1.30551 -1.9464 -2.61088 2.59507 -0.513306 -1.65043 -1.54828 1.65671 0.254876 1.08248 -0.548097 1.12893 -1.78523 0.686403 2.34274 0.886731 -0.958938 -2.25704 -0.935922 -1.4461 -0.97322 -0.623691 -1.26595 1.80833 -0.45349 0.739631 -3.43746 0.511567 1.04067 -2.06295 -1.53967 2.75907 -1.76066 1.22637 -1.19091 -0.555849 1.84709 -2.15792 1.36288 1.42938 -1.59757 -2.71201 -2.25131 -1.08107 -2.46283 1.43872 -3.46395 -0.87431 -3.65168 0.295404 -0.656652 -1.17257 -1.89482 -2.25893 -2.05067 0.905439 -1.99073 -1.86439 -0.119099 -0.540986 -2.77503 1.09832 -3.55814 3.59025 3.90187 -3.6821 -2.34265 1.4512 3.40331 2.73756 -0.905071 -2.34878 -0.533662 1.95408 0.0380718 -0.387143 1.50562 -2.81913 -3.02306 -0.0274209 -2.21725 1.61295 -2.11187 2.6236 -1.33944 1.54016 1.26592 -3.51388 -2.34042 2.05293 -0.616368 -2.39123 3.53614 2.68351 -0.256005 0.685186 0.0994445 0.825388 0.193899 -1.41223 0.990982 0.278405 -1.33071 1.0088 3.13781 -2.24349 -1.95997 -0.20101 2.10424 0.710456 3.02245 1.10622 -2.94106 0.301813 2.62961 -1.10185 -1.42459 -2.12419 1.12685 0.971541 -1.0143 -1.2228 0.96342 2.03356 1.50406 0.849193 -0.354671 3.95662 -1.15645 0.464446 0.0212867 -0.205832 -0.460417 4.42681 1.95094 -2.34341 0.701269 -1.40896 -3.18099 1.03505 -0.58945 -1.45606 -2.12706 2.67338 -4.51514 -1.81315 1.84257 1.57596 -2.17366 -1.43051 -3.18138 -0.749581 0.0691701 -1.18685 0.856304 1.77509 1.75425 -1.52832 -1.73136 1.78602 2.73991 0.169088 -0.912762 -1.02095 1.07238 -1.13723 0.648289 3.21883 -2.96413 -0.428281 -0.216941 -1.15282 -0.403501 2.91646 -2.4267 0.290215 -0.0366379 1.31191 -0.853775 -1.45007 -2.51712 -1.83979 -3.52771 2.68138 2.58564 0.88417 0.641941 1.84391 1.00505 -2.85496 3.58096 1.02391 0.986801 2.09273 0.681925 2.02037 -0.293786 4.98595 -0.685828 0.787515 -2.3862 0.0312052 -0.316217 -0.270074 1.92774 -3.2185 -0.987559 1.0414 0.990005 -0.0605645 -3.49673 2.68232 -3.29082 -2.09261 0.0621205 -2.90928 -0.195822 -1.06774 1.24411 -1.78092 1.06853 2.18283 1.39221 -3.01085 -1.62259 -0.393277 1.44052 -0.236015 -3.34811 -2.0862 2.345 0.924448 1.50152 3.52106 1.61676 1.14727 0.762704 0.812266 -3.07812 2.48065 -1.3461 0.550508 0.220145 -0.196188 -1.23715 -0.212027 3.40621 -1.22512 0.588199 2.11867 -0.0701773 2.84907 3.85106 1.61659 0.35641 1.46997 1.29815 -3.69792 -1.6594 1.0259 0.213889 2.48327 -1.01985 -0.340816 -2.64164 -1.18886 0.0208595 -0.468566 -0.445158 -0.600528 1.87803 -2.37057 0.638983 -1.15487 1.9467 2.71445 4.99541 -2.50235 0.16628 1.49792 2.39422 -1.17733 -1.68942 0.650182 3.35207 -1.80257 1.97172 1.72275 -1.27081 0.988204 -0.295343 -1.41061 -1.20989 1.2496 -1.69609 2.49112 0.438658 -0.108844 -0.320704 3.28338 1.85069 1.65394 -2.69972 -1.02031 1.22203 -2.25817 -2.32293 1.18173 2.85115 -2.54834 1.84809 -2.50717 -2.7273 -2.35714 -0.658971 1.50803 -0.335047 0.394742 1.57953 1.47287 2.24468 1.69285 3.19839 -0.79252 -1.127 -0.512971 0.243584 0.387112 -0.41052 -3.03173 3.71885 0.773202 -0.709784 -2.59629 2.45221 -1.50931 1.27398 3.37866 -0.25103 0.943373 1.86961 0.783517 0.800821 4.46186 0.868546 2.39627 0.319696 -1.72324 -3.02263 2.39679 -1.63526 -2.0859 0.0119173 -1.33709 -2.16893 -0.398373 3.04778 2.18877 3.5705 -2.21612 -0.748115 -2.53058 -0.390194 0.339442 -2.39197 2.1971 0.440977 3.59103 -1.74051 -2.88905 -2.15648 -2.29501 -2.31713 0.345424 1.21779 1.5752 -0.581057 2.11891 2.88924 0.779762 1.57032 3.11046 0.356929 3.70994 2.79283 -2.63602 -0.0436567 -0.538178 -0.005966 0.0660575 -0.100818 1.58643 1.46102 2.0396 1.16668 0.289606 1.63214 0.300073 1.21724 -1.82261 2.2369 -0.485443 0.986097 2.14104 2.01802 -2.29174 2.13588 -2.52734 1.75629 1.0652 0.0351422 -4.19171 -4.182 -2.83854 4.4288 -2.00874 2.94233 -1.51928 -3.72914 2.44712 1.48516 1.54947 0.689093 -0.831645 0.845404 -0.457091 1.54685 0.899609 -2.71644 -1.30212 2.57615 0.616428 1.85835 0.382381 -1.45462 1.89494 -2.30575 1.16204 1.43555 -0.73783 -0.694341 -1.29131 2.08766 -0.87651 -1.81034 0.894543 -0.703347 -1.64103 2.40948 -3.08446 0.815745 0.185171 -1.61246 -2.21172 2.24233 -2.62775 3.62745 -4.93809 -0.747441 0.414304 -2.42194 -1.90578 2.15578 1.74262 -1.63068 -3.27282 -1.76575 -1.4212 -0.374203 -1.28481 0.841289 -2.47928 1.08693 1.74161 0.720404 -1.54602 1.24715 -1.62748 -0.479034 2.88185 -2.26305 1.79091 -2.02473 -1.72767 -2.33755 0.650273 -1.29497 0.509613 1.62329 0.898755 -3.87105 2.04751 -1.37515 -3.08794 0.438261 -0.140736 -0.390011 1.78068 -2.89098 -2.22683 -1.1798 2.09523 0.921282 -3.70591 -0.28753 2.07451 -4.0498 2.49808 -3.35369 1.37793 -1.4942 1.09804 0.0614185 -1.55313 1.4779 2.27411 -0.635655 1.72224 0.0675836 2.36004 -0.757177 -1.42703 2.36548 -0.018479 -3.37341 -0.707618 -0.250206 1.73869 -0.986555 2.99196 1.56998 -0.972057 0.378872 0.747845 1.08718 2.09658 -0.610447 1.83751 0.139149 2.92226 -1.86286 2.41095 0.499054 -2.98653 -1.88709 -1.55676 1.39545 -1.27621 -2.35897 0.309198 -0.836772 1.17263 2.48999 2.8241 3.49524 1.3674 2.88014 3.0956 2.26016 -1.37829 -1.39343 2.03029 -3.63944 -2.13882 0.496703 3.8383 0.594546 -0.0888542 -1.08141 -0.621525 2.99129 -2.63779 0.563234 3.69113 -2.40796 -0.895706 -1.78446 1.55793 -1.85624 3.12486 -0.265282 -2.56405 -2.3302 0.66483 -0.0379803 2.60971 -0.605841 4.32534 0.775704 0.900158 1.98237 -1.7815 3.01072 1.78278 -1.43103 -0.239768 2.46262 -2.75064 -3.45715 -1.81013 1.69385 2.26504 0.555086 -1.57779 -2.13829 -1.84309 -3.27969 0.314142 -2.71292 -1.21267 0.482451 -3.05193 -2.01909 -0.154988 -1.89158 -0.977219 1.84996 2.10601 -0.716587 -1.0569 2.79738 -1.99614 2.7739 -1.29287 0.439909 -0.644136 -0.373714 3.18078 -2.34103 0.584383 0.875679 -2.14642 -1.29678 1.28277 0.223319 -2.32461 1.06359 -0.534547 -2.33727 1.05596 -1.16128 2.34784 -1.48529 2.63432 -0.190725 -3.00175 0.844219 -2.0982 -3.06139 -2.29153 2.72724 0.27929 -1.47714 -0.576632 -0.664708 -1.26497 -1.29717 1.07433 -2.69227 1.547 -1.43765 2.16363 3.37921 0.291498 -1.47131 0.436186 -3.26806 -0.336879 -1.70658 3.99218 -1.95787 4.21147 0.976088 -0.326991 1.68762 0.59183 -2.25731 1.07601 -0.914411 1.42563 0.607181 0.0313886 2.63336 1.35901 1.62445 -0.106616 -0.788278 2.41812 2.20171 -0.517883 2.73236 2.25264 -1.25723 -0.973133 -2.31576 -0.63831 3.34586 -2.05095 -0.839244 -0.103809 1.77036 -0.168569 0.325312 0.130634 -3.60245 0.416226 2.79194 1.19866 -3.60166 -1.02282 1.88572 0.186483 -3.17259 -0.0926691 -0.746711 -1.82237 -2.13326 -1.13213 2.7916 -0.659093 -0.0681016 -1.65864 1.36227 -1.34039 -3.13598 0.933088 1.26537 2.39114 0.923693 3.26351 -2.06664 -0.146199 0.805826 -1.20324 0.822059 3.63285 -3.60352 0.449492 2.9619 -1.19906 1.48721 1.32018 1.13985 -0.754096 1.16625 3.38793 -0.81724 2.69874 1.10961 -1.48038 0.306635 -0.443083 -2.5166 -1.36645 1.00459 -2.90123 1.68366 -2.64063 0.440489 0.175496 -0.37463 2.04009 -1.18291 1.98381 -0.193655 -1.57983 -0.312952 -2.99419 0.859111 -1.13686 1.67615 -3.28566 1.81309 0.441282 2.58878 0.133961 -2.21713 1.74296 -0.639046 -3.14565 2.30526 0.739722 1.83308 -2.41143 -1.96046 0.558565 1.80891 2.86982 2.05299 -3.49832 1.37167 -1.02074 3.40796 1.15862 2.92311 -1.29696 -2.72849 -0.0478985 -2.08269 -2.99361 -2.73445 1.9666 2.75654 -0.777474 1.27462 -0.603758 3.81602 2.84926 -1.5687 2.46209 -3.92924 2.54611 -2.4993 2.13857 -0.709536 2.42697 0.377529 -2.46502 -1.73066 -1.75926 1.91716 3.27521 0.064226 -0.464446 -1.17855 3.71763 4.70612 0.397092 3.79499 -0.637639 -1.64475 2.85985 -1.30999 1.28787 -1.63102 2.57822 -2.13665 2.95906 1.24874 1.85945 -2.54132 0.252587 0.939067 0.643498 -0.163564 1.04466 -2.55762 0.531343 -3.13231 -0.79963 0.223503 -3.55124 -1.68537 -0.687139 -4.63248 1.04625 2.01085 1.03386 -1.03548 4.42029 2.06377 -2.66114 -3.31439 1.25985 -3.20012 1.57392 -2.97725 2.00282 -0.334438 2.6226 0.15865 0.100635 -0.193381 -2.95882 2.93623 0.985488 -1.45373 1.50592 0.89607 -3.16976 2.47522 3.4111 -0.147023 2.69999 2.37863 1.9676 -0.0248571 -1.81822 -1.28665 -1.35656 -3.1589 1.09526 -2.14101 1.28896 1.43769 1.36969 -2.14305 2.79023 1.57147 1.68647 -0.139912 1.5983 0.660649 -3.02208 -2.9904 0.973159 2.37618 -2.62107 2.9583 -2.71149 -2.8979 -0.278741 -0.241844 1.2416 0.682653 1.16854 -3.6652 1.30996 -0.576449 1.08193 -3.73878 0.301386 -0.178274 -1.2861 -0.944528 0.338069 -1.01598 1.82093 1.71637 -0.878857 1.21193 -2.21203 2.72074 2.81721 1.71326 -3.63483 -3.8035 -1.58756 2.91731 0.600558 0.493713 -2.12224 0.3558 -1.92976 0.868539 3.98604 -2.41864 -0.00221269 0.503693 -0.870189 3.09356 -0.645359 -3.41977 -0.0195467 0.736304 1.53711 -1.37835 -0.669347 1.54169 -1.28649 -1.17315 -3.0305 1.48487 -0.564455 -0.386136 -0.0721609 2.11904 -1.39496 0.0898616 1.94197 -1.43908 -0.605197 0.668554 -0.522797 0.794748 -0.788431 -1.44751 -1.84343 -0.237907 1.29996 -1.70108 -3.0642 3.20931 -2.92324 -0.810587 0.873058 -2.24187 -0.206565 -0.380124 -0.169668 -0.829661 -3.38297 -1.76856 3.95769 -2.72522 0.725167 1.00048 0.298578 -1.47583 0.508606 1.00544 -0.637059 -1.34719 -3.52448 -1.9084 0.00965938 -0.59827 0.94911 -1.85075 -0.515504 0.781075 -1.84425 -0.771858 2.95555 1.83921 0.794173 -1.79844 1.39016 2.405 0.681554 1.20605 -0.881449 -0.225456 -0.430906 -3.43362 -0.0743888 -1.18978 3.72217 -1.56513 2.01604 -0.580996 -3.64413 -0.146565 -2.3041 -2.11788 -1.47513 0.46585 1.11672 2.00248 1.555 0.592593 -0.0799126 -3.46182 0.614719 -2.10753 -2.86565 2.89488 1.52103 1.32391 -1.83891 2.53754 -2.63239 -1.37023 0.196493 0.101886 1.07631 0.0622427 3.93327 -3.33706 -2.53986 2.56559 1.88545 1.13695 -2.10414 1.13765 -1.82026 0.281762 0.194358 -3.41235 3.15813 1.26678 -0.230155 -2.5907 0.631596 1.27795 2.69557 2.98735 1.1379 -1.8683 -1.25936 -2.1434 -2.96538 3.36087 -2.0124 1.23492 -0.216544 1.74372 -2.88612 -0.457396 2.2582 4.74885 -2.05763 2.13414 2.43112 1.8556 -0.654241 -0.044938 -3.7276 2.22853 3.10351 0.347773 -0.787546 -1.29232 -1.19624 2.7205 3.00676 -2.41271 -2.61554 2.30124 -2.65119 -3.8505 -2.59497 -0.305933 -3.92225 2.42334 -1.35449 -1.54169 2.31762 1.13576 1.12636 1.42559 0.397336 0.327204 -2.86002 0.976364 -2.10433 -0.403898 -2.60804 -1.00291 -1.34991 -2.5575 -1.15911 -0.269951 -0.921918 2.68296 -0.664891 -2.75962 -0.348506 1.39826 4.63828 1.71668 -0.129689 -2.60849 0.934553 -1.67557 -2.42356 -0.382534 -2.58572 -2.16848 0.956067 -1.4433 -2.97398 -0.277887 -0.933637 0.0017241 -2.00673 0.0217745 0.241234 3.22347 0.18978 -1.45124 0.208273 -1.01155 -1.03587 0.812696 0.270867 0.393002 1.51129 1.27773 -2.60901 -1.01445 4.38089 2.21029 -0.477295 1.14419 -0.781254 2.82957 2.03538 0.179525 -2.66406 -3.02125 -2.42569 -0.870281 1.19484 0.0379807 2.19979 0.719031 0.411099 -2.70661 -3.85212 3.44662 0.362575 -2.51157 1.0609 1.27386 1.99925 1.76695 -1.97414 -2.11724 -0.0521404 -3.26589 1.26897 1.96825 -3.49448 1.85194 0.84608 -1.46173 1.61591 1.88468 -1.82252 -1.31109 0.420805 -0.380978 -0.23275 -0.179006 -0.517121 2.57181 4.95055 3.77025 0.27105 1.90874 -1.985 -2.18236 -0.996993 -0.711036 -2.45926 1.05074 1.44116 -1.14162 0.29754 -0.959456 -0.270196 -0.893992 -1.45242 1.30874 -0.125355 0.805429 3.0989 0.548159 -4.04738 0.759285 0.945569 2.06963 0.648107 -3.43603 1.84794 -3.55902 0.209495 -2.88365 -0.30987 -0.210684 1.41955 0.0776849 1.96071 -1.26665 0.672643 3.01607 -0.800546 2.41455 -3.24679 -0.553896 -1.24239 2.59888 -2.58966 1.48273 -2.29165 3.31387 -1.68113 -3.67152 -2.74153 1.99199 -2.47528 -2.6836 0.499909 0.588687 1.96599 -2.2798 -2.15191 1.6439 -2.83762 -2.94185 -1.99046 2.75529 -3.32805 -0.89497 -0.179068 1.43329 0.401181 2.32986 -0.193045 -0.195822 -0.631716 -0.016892 1.79817 0.133168 -1.9879 -2.4527 0.451232 -0.366634 0.638096 -2.22769 -2.97911 1.53162 1.09691 -1.98729 -0.779517 -1.14278 1.29092 -3.91309 1.51874 0.927256 0.598239 1.37777 2.71799 -3.01045 -2.18786 2.38925 2.15175 -2.9987 -2.31265 -0.516083 1.35275 -1.99724 2.68732 -0.98418 2.52887 0.0634017 3.02589 2.57745 3.69486 0.261406 2.60007 2.58213 -2.19896 1.67255 -2.09816 -3.10115 -2.29455 0.83021 1.50858 2.75837 -1.67066 -0.367427 3.24227 -1.35138 1.84342 1.15837 -3.40728 -1.57837 1.22704 -2.63508 -2.50119 2.32583 -1.95595 -2.86265 3.07991 -2.81541 -1.22121 2.65314 -1.58893 -1.5564 -0.423521 1.53565 -2.05791 -2.7035 -1.26763 -1.23592 -2.35827 2.61918 -1.22765 0.806192 0.473266 1.92103 -1.53201 -1.05446 -3.7115 -2.96138 2.63288 -0.729403 1.73548 1.78867 1.03996 -1.70453 0.272149 -2.70368 0.307886 -1.32214 -3.11535 -2.77616 0.0955077 1.00902 3.5968 3.61051 3.45254 2.13741 -1.62985 -2.45175 -0.332698 -3.00048 -3.51303 3.41174 0.456725 -3.5726 1.00792 -2.14372 -3.15825 1.89504 -2.59995 0.309473 0.551699 -2.3197 0.930067 1.16906 0.301996 -1.59235 -1.08812 -0.569125 1.78925 0.438963 3.40946 -0.0385296 -1.25472 -1.91755 0.479644 0.136219 0.897748 0.0916018 0.558565 -0.936597 -0.823374 -0.584109 1.07735 1.10796 2.01344 -0.31991 -2.09585 -1.06117 2.07647 -2.6464 -3.29171 2.81623 0.284296 1.08398 -0.164419 -1.66349 -2.55658 2.16072 2.79227 0.357905 2.35195 3.57837 1.93001 -2.68137 -1.28682 -1.33206 0.426023 0.673406 -0.29397 1.76734 -3.84929 1.66245 1.5503 -2.10656 -1.47937 -0.866224 -5.08455 1.89415 0.922646 1.63727 2.51639 -1.96202 -2.18636 3.50766 -1.26605 -2.47747 -0.920027 3.15801 1.61405 2.8567 1.75547 0.299829 2.07915 -2.40256 -1.30883 -1.68885 -2.29659 1.40408 -3.72999 -2.53271 0.889874 3.87743 -3.24124 3.25881 -3.20339 -0.843211 1.39407 2.50827 1.8557 2.7428 -0.207389 -2.48639 1.22491 -0.49115 -0.214713 -2.07341 -0.977859 0.380612 -1.74061 -0.406247 -0.319086 -0.35815 -0.887253 -1.92714 1.27224 0.342371 0.907025 -1.95198 2.13829 1.77299 -1.68406 2.35821 2.68043 -0.522126 1.9637 0.859904 -2.35668 0.774178 -0.257195 0.844587 -0.255791 2.24367 2.21218 1.22415 -3.01625 -0.830454 2.16088 -2.79035 -1.51028 -0.613835 1.93925 -1.30172 1.23135 -3.49359 0.644292 -2.91335 -1.54867 -1.99803 1.75947 1.73215 -2.84099 0.100299 -0.664557 -3.22127 -2.47272 -3.03099 -0.685522 -2.43241 0.536225 2.15709 -1.91838 0.349544 0.711218 1.75758 -1.15225 0.518434 1.29413 0.268487 3.94731 2.08724 -3.3041 1.6116 3.65327 1.62031 -1.42984 1.28406 2.599 0.345241 0.355495 0.109211 -2.6005 1.66004 2.62628 -0.444181 -1.43023 0.756446 2.09966 -0.90498 4.32992 -0.423216 1.64023 -0.438932 -1.60615 0.823375 -0.895307 0.989639 2.33523 -2.76005 -2.62488 -1.10311 -1.38074 1.88307 2.41897 -0.527497 1.90419 -1.39871 -1.27767 -0.347865 0.694159 -0.554354 0.942727 1.54068 -1.05251 0.222129 1.11833 -0.846661 1.72853 -0.0879085 -1.71534 -3.05699 2.49689 -3.82399 -3.16161 -0.914167 -1.86879 2.66089 0.492065 2.98832 -0.721564 1.3262 1.1653 -2.01006 -1.87856 -0.485381 -3.34487 -0.271692 -1.83662 0.977092 1.43017 2.132 -3.88395 3.57965 0.389157 2.5173 3.49207 -1.09731 1.93312 -3.25055 -1.01003 -1.53986 -1.81123 -0.0550406 -1.72901 1.7483 0.733925 3.67469 0.214133 1.84965 2.65928 2.14599 0.250572 -3.19198 -2.6789 -0.672887 -2.13323 0.493682 0.62067 -2.51782 -4.12865 -1.82292 -1.8444 2.08861 2.52002 -1.46869 -2.90958 1.60272 -1.91008 -2.72061 2.08678 1.04582 0.00178543 -2.79084 3.13698 -0.124256 1.07741 -1.23049 0.647039 2.11385 3.03243 2.97173 -2.38949 0.198782 0.793561 1.81025 0.218803 0.531098 -0.263512 2.92568 2.74965 0.181814 -0.563112 0.724768 2.079 -0.269463 0.0293744 1.68012 2.6605 -0.294855 -3.23226 -2.97582 -2.68562 -2.41351 0.879374 -1.43887 -2.32772 -1.14605 0.308832 0.810129 0.617805 0.0344093 2.44385 0.202506 -1.43041 1.2264 -1.58237 1.55136 -2.04723 4.06831 2.08089 -3.49112 1.69501 1.6171 0.237449 0.236626 1.09929 1.11089 -0.762825 -3.00237 -0.0684073 1.07634 -1.47958 -0.0978881 -1.92982 1.76014 2.20809 -1.48816 -1.44192 0.342616 -0.672369 0.53354 -2.5954 -1.0895 0.775491 -1.68882 -0.0214701 -0.347468 -1.39785 2.34344 -0.664098 2.24892 -1.28066 -2.46307 1.32877 -0.0767392 -0.380429 2.42358 1.83476 -0.875068 1.20421 -2.94917 -1.04408 -2.68845 -1.68857 1.77253 -0.47354 -0.201224 -0.959273 2.65107 1.77509 -0.852031 -3.53556 0.697546 0.485321 -1.93959 2.82292 -0.338862 2.49832 1.24446 -0.204825 3.59278 -2.09941 1.22713 1.93953 1.89582 1.74134 0.578128 -0.101367 -1.91017 1.62183 -2.4866 -0.539307 -0.000778219 -0.996445 -0.649693 -2.92701 -1.41211 -1.4252 2.7787 2.90013 0.161886 2.52332 -1.57966 -0.980972 3.15365 -2.94477 3.64622 2.85096 2.20916 1.00838 2.11333 -2.58668 -3.20147 0.897626 4.00093 0.498016 -3.93461 0.242241 -0.596194 -0.641605 3.13427 -3.48395 -1.14003 -0.994578 0.59656 -1.43674 1.47555 0.706702 2.39559 -0.175039 1.61911 -1.22338 -0.178243 3.22143 2.65357 1.25972 1.84636 0.0297407 -2.3272 -4.40813 0.505188 -3.39285 0.713691 -0.157826 1.55523 -1.70414 -3.58872 1.62046 0.120472 4.35949 0.566195 4.25167 -1.45224 1.29174 -1.40823 1.30618 4.19042 0.343074 -1.68647 4.08202 1.33536 1.60614 4.08373 1.13052 1.00121 -2.49344 2.68516 -1.57678 1.81507 -1.95799 -2.0099 0.248589 0.694036 -2.38809 0.844554 -3.56424 1.54932 3.78419 0.144337 1.00041 -0.271874 -2.16039 0.574832 -1.20046 0.41705 3.44162 -1.01958 -1.70127 1.72141 -1.73075 -3.16485 0.0374314 -3.35867 -2.03417 2.77982 -2.11007 -2.3352 1.23565 -0.303674 -0.284265 -0.808117 -4.55542 1.29119 1.49109 -0.486297 0.558687 -4.35205 1.51761 0.562135 -0.230827 -0.271294 -0.198935 -1.84989 -0.351344 -1.71726 1.19274 -4.07903 4.17709 1.14086 0.388516 2.72498 0.487426 -3.64552 1.38086 -2.35821 0.670141 -2.84206 -2.54773 -0.628605 -1.51675 -0.78724 -3.68839 4.20385 1.30856 0.112842 1.45898 4.2959 -2.79841 2.61033 1.37914 0.46823 1.37695 1.53711 2.65409 -2.7585 0.970565 0.887311 0.589694 -3.66721 0.428983 -2.96861 0.449248 4.32964 3.36133 -0.470397 2.88783 1.75834 0.204642 -1.48697 -0.316706 0.272576 -0.456938 -1.89701 0.354335 -0.829874 -2.57679 -0.164358 -0.239555 1.96611 2.51465 -1.4389 -0.719428 -1.7638 1.45163 -2.21392 -1.34048 -1.54865 -0.791238 -1.07119 -1.88157 -2.98033 -3.15383 -0.545015 -2.17699 3.25765 -0.526307 -0.637883 -2.69633 1.50607 2.77305 0.983692 -1.08196 -0.885629 -1.07277 -0.420164 0.955733 -1.49505 2.29772 -1.31603 -0.52765 2.0435 0.689429 -2.32605 -3.54853 -2.07158 -0.443602 0.536134 0.386562 1.82255 -0.0152137 -1.70765 2.87537 -1.55777 2.7971 1.05773 4.32205 0.825297 -0.373867 -0.802591 -1.65827 2.49423 0.297571 2.55163 2.95977 2.2365 -0.632298 -1.80049 1.19665 -0.28396 -1.8411 -2.27383 1.14024 -0.358638 1.13698 -3.5336 -1.91011 -2.29934 0.973647 1.69129 -0.126545 1.99128 1.1394 -1.79426 -3.07473 -0.845256 0.367886 1.32968 2.22534 -3.05763 0.838939 1.72465 -0.315363 -0.574373 -1.58008 2.04339 -2.91957 -1.42822 -0.18627 -4.13781 1.12685 -1.59546 0.953139 -0.126149 -3.22131 -0.533692 -0.51294 1.79942 -0.637609 -2.19704 -0.296197 -2.00096 0.626102 0.187796 2.73188 1.24133 2.3027 0.80546 -0.635837 -0.395718 1.28222 2.11296 -3.64914 -1.02312 -0.0166173 2.09725 0.500244 0.127857 -0.978409 -2.35202 0.434599 -0.187918 -1.23544 2.26568 -3.65497 -1.11754 2.87092 2.81913 1.58832 -1.1223 2.40481 2.5787 2.46649 -2.94865 -0.379696 0.236412 0.0399331 1.31475 -0.990158 0.136403 2.31023 -1.94068 -0.289972 0.434172 3.62033 2.33108 0.857646 2.39898 2.61746 0.319117 2.9926 -0.414274 -1.38281 -1.36373 3.09682 2.088 0.718236 -2.64838 -1.63138 -0.406125 2.50745 2.25006 0.320825 -0.535066 0.699896 2.28341 -2.70008 1.55444 -1.43897 -0.314692 2.01848 2.98332 -2.55145 0.716105 -0.80485 -2.4031 -1.67707 3.5073 -2.10372 -2.68497 1.56867 -0.025834 -3.32837 2.09969 0.968032 -2.73344 -0.920758 0.754219 3.17522 0.724708 2.69254 1.27865 -2.46978 0.808848 -0.815988 2.99324 -3.4393 -3.02598 1.57809 3.15355 2.01042 -0.0433214 -1.73139 1.2756 -1.25872 -2.56067 1.8928 -0.113574 0.354945 2.56995 2.65677 1.92384 2.87089 1.29379 0.206473 0.497894 1.31191 0.978072 -1.36337 3.24068 -3.46366 -2.71207 0.732093 0.955209 0.161794 -3.21029 -2.96447 -1.21249 -0.0745722 -1.75367 0.836192 2.63895 2.32242 -1.92448 -2.33081 0.0362713 -0.131275 2.93822 1.42645 -0.818588 -2.17046 -3.07339 -2.33523 -0.603763 -0.241265 2.32287 3.21297 -1.31737 -2.30737 4.38971 -1.33776 0.617344 -1.6579 1.17263 1.84543 -2.70094 -1.87474 -1.22699 0.88655 -1.43313 1.38781 -1.93327 -1.07546 0.209433 -2.35003 -3.66715 -0.902082 0.382412 -1.77018 2.76463 0.88853 -3.04604 -2.92021 3.32989 -1.58426 -1.00206 2.18636 -0.0502791 -4.22473 -0.8502 -0.627228 -2.53616 0.0182344 -0.951796 -1.14934 1.35257 -1.14062 -0.420408 0.36288 1.68228 -0.284143 2.14373 3.26132 -0.754374 -0.83784 -0.341823 -3.6348 1.36312 -3.59891 0.52472 2.94307 4.31533 -0.159261 0.270806 -1.34274 0.874427 2.3731 2.08849 -0.173818 -1.09352 0.447905 1.98912 -2.1668 -0.492828 -1.46484 2.79069 3.03978 3.64622 -2.9305 3.65998 0.0353862 -4.21566 2.47152 0.423582 0.5777 1.43686 0.337275 -1.62869 -2.94148 -2.85557 1.39437 -0.232231 4.84437 2.82978 2.31296 -2.20873 -1.66773 2.9998 1.96882 -1.87977 -3.93049 0.769145 3.25237 1.88359 2.77436 -0.830213 -3.98714 1.19613 -0.39523 -3.28487 3.24102 3.9966 -0.477569 -1.30905 -0.9297 -2.59384 -1.91184 4.13851 0.706183 -2.67112 1.53955 0.999285 -0.138844 -2.4906 -1.51062 1.39214 -0.19628 1.7693 0.0937071 -2.51144 -1.3955 1.63996 2.02702 -2.04256 2.67948 1.11052 1.11449 1.44552 -1.78059 -1.29034 -2.03904 -1.93473 -0.394223 1.64036 0.422483 0.356624 -0.601993 -0.81446 -0.738136 1.69187 -0.00590493 2.10552 2.83589 1.59293 -0.445708 -1.758 -1.84742 1.92986 -2.71924 0.0522321 1.14934 0.467986 2.65003 -2.71199 -0.473266 -2.26543 -2.31088 0.540956 -4.00905 -3.32812 1.89219 0.870037 -0.758156 1.04582 -0.133412 -0.764779 1.55279 -1.92014 2.3084 -3.05153 -0.712653 2.28231 -0.604739 -0.131764 4.19454 -3.06515 3.19543 -2.44913 0.826731 -1.78605 1.18035 -2.91887 1.92567 2.40829 0.443602 2.7988 0.116748 2.20809 -3.28995 3.6391 0.760687 0.530518 0.736641 -2.69019 0.299769 -2.15025 2.19381 1.01949 0.949049 0.502961 2.6247 -1.0237 -1.92885 -1.06124 1.57275 -2.6211 2.08117 1.37887 0.474426 -0.884197 -0.776559 -0.140431 -2.5925 0.891338 0.0680109 3.12346 -1.70706 -2.00029 0.0634024 3.32867 -1.36065 4.46347 -2.00218 -0.953536 -0.572665 -0.244651 -0.294489 -3.48575 -0.773237 1.82503 0.86592 -1.38778 0.138539 1.64344 1.23932 0.534364 1.65775 -1.00731 -0.820258 -2.37845 3.0504 -3.29055 -4.22701 3.3257 3.33609 -1.88908 0.440275 1.77171 -1.52585 -0.187185 -1.64829 0.890942 -2.1573 -1.33383 2.49661 0.588776 3.60803 -2.97322 0.749 -1.08015 0.0739312 1.07692 -1.22319 -3.26262 2.61072 -0.581424 0.136189 3.7856 -1.74916 -2.34164 -2.60599 2.70398 0.551027 0.199546 2.62528 -2.08574 -2.19164 1.96269 0.125477 -0.145436 1.23205 -1.74681 2.68558 -1.46661 -0.844706 1.49313 0.269219 -0.130207 2.89027 -2.96208 1.43878 -2.20928 1.31197 1.79505 -1.62601 -0.447874 0.770212 1.86409 1.82511 -1.74766 0.421262 -1.08101 -2.15471 -0.989698 -1.42755 -3.45395 0.64716 2.7721 -1.86418 -1.73744 1.42489 0.217765 3.7801 -1.5698 -2.51245 3.73832 -1.11974 1.78401 1.54675 -1.05382 1.85515 -2.20372 0.502167 1.69547 -3.01372 -2.40808 2.56843 -0.926346 -1.68506 1.63593 0.0880615 -1.66086 -0.293634 1.9109 -3.12572 -0.730873 -1.31945 -0.196036 -2.5741 -2.11126 -0.90132 1.42078 -0.141224 -0.949569 -2.69928 0.546541 -2.10107 2.83143 0.789895 0.971999 0.779581 1.21798 -1.94792 2.4032 -0.614871 1.04528 -0.388059 0.674535 1.48923 -0.337031 0.911967 3.48373 -1.57443 -1.70636 -1.88695 -2.63599 0.0404832 -0.44763 -4.59149 1.12114 0.266839 2.09817 -2.05485 -1.55927 1.16644 -3.11473 0.945479 -2.10112 -1.21993 -0.0173497 -3.87489 2.08421 1.63605 0.429044 -0.000442854 2.05361 2.2528 -2.90409 -0.828349 1.84364 0.485198 0.0251318 -1.80345 1.25081 -1.94279 2.20751 -1.88328 -3.39712 4.12173 -3.72459 2.25973 2.7396 2.19433 2.07783 1.39337 3.92 0.305079 -1.4006 1.83384 -3.1223 -1.29042 1.20519 0.59592 -2.25878 -0.996388 -0.333094 -0.815623 3.03651 -1.01195 1.94719 -0.882732 2.49322 2.12355 2.20876 -1.22692 2.87483 -0.0785396 0.0157933 0.661534 0.544862 0.114826 3.19866 -2.29513 -0.00505079 -0.0492111 0.348781 -1.37072 0.0493335 1.45193 0.412961 0.0541855 -2.03279 -2.01491 2.3565 -2.61984 0.158284 -0.0112157 1.3633 1.06276 -2.26592 1.19402 -1.45816 -1.63053 0.611453 -1.81013 -0.394192 1.21447 2.38674 0.675177 2.49768 -2.84019 2.70145 1.23556 1.42465 1.18493 -0.683355 1.99859 0.276269 -2.6922 -1.38577 0.00163232 -0.10982 -1.33572 0.745094 -1.37679 2.13717 -2.87443 -0.856731 0.916242 -0.707007 3.05888 -1.37677 -0.808995 -3.33328 0.31811 1.7801 -0.310847 -0.0473798 1.06255 1.91096 0.693823 0.27575 0.493988 -0.822184 -1.08196 -1.59958 -0.892041 1.22817 1.51749 -1.93122 -2.44699 -0.0070647 1.56861 2.93916 -2.3096 -2.11718 -3.64136 -1.90803 0.948256 1.09846 3.32971 -3.42486 1.56623 -2.72633 1.01918 -1.04717 -2.17935 0.17452 2.84449 4.32916 1.82774 2.66626 2.07219 -1.18313 -1.9864 1.6731 -3.18453 -2.08287 -0.147542 -2.65403 1.40689 3.77934 -1.0424 -1.84184 0.985397 -2.18862 1.12704 -0.853618 0.645661 -1.39037 1.43243 1.01964 -1.00835 -2.32745 0.946791 2.34945 -0.563173 1.87412 -2.79542 -0.435698 4.09811 3.15881 2.98925 -3.0352 1.62335 1.43142 -1.46179 2.48014 -1.20019 -1.89097 2.76445 -1.61878 1.28484 -1.6966 -1.41778 2.67585 1.30346 -0.89729 -1.06209 2.39429 -1.34338 0.92204 -1.3681 2.49631 -1.11669 -0.608738 -2.46866 -1.39209 0.921735 0.748848 1.2654 -3.68775 0.11098 -3.79133 -1.0049 2.21304 0.879437 -0.727027 -3.64447 -2.51502 0.961374 -3.54554 -1.84098 -0.861644 2.48791 2.38168 -1.04265 1.70594 3.79352 1.75202 -1.94444 2.57974 -1.71723 0.105029 -1.93144 2.71217 3.20477 0.881603 -0.38052 2.90049 1.66944 -2.26113 -1.73286 -2.62467 -3.23763 1.59055 -1.73786 -4.09029 -0.909158 4.34003 2.22228 -1.83195 0.609744 1.77576 3.32055 -1.48489 1.07167 0.597476 -2.91823 1.00221 -3.05623 3.04231 2.38088 1.74931 0.134633 1.07851 -3.26611 2.44381 0.374264 -1.36267 0.479766 1.17205 3.59504 -0.150136 0.943341 0.304071 2.15145 -3.24145 1.17577 3.64951 0.227592 -0.52646 -0.636628 1.60367 1.27273 -0.761879 0.50113 -0.496063 -1.19005 1.37832 -0.577212 -0.0882745 1.46286 -0.399838 1.78394 4.04332 -1.45938 -3.39428 1.08724 3.0624 0.0298015 1.49628 1.34887 1.46182 -1.66825 1.93107 0.495849 -1.7573 3.59473 -3.48828 -3.90977 -0.881174 -1.02256 1.35904 2.47354 1.45908 3.6973 -1.64869 -2.07744 1.19015 -2.80403 1.99568 -3.0832 0.376187 -0.723304 -2.60358 1.1032 -2.3045 -2.45145 -0.70594 1.05715 -0.467467 -1.97286 1.63962 -0.567262 3.90214 2.23251 0.675573 -0.404782 0.929212 -0.372036 -2.00798 2.32885 1.0989 -0.252342 1.52542 -0.284997 -2.00408 -1.15124 -0.0312657 1.77519 -2.2467 0.441221 -1.43567 1.96904 -2.06987 -0.469146 -2.25478 -1.85392 1.03475 -0.0750299 2.59448 -0.959272 -3.58771 -0.558321 -0.407346 1.90618 0.71894 1.3677 2.62054 -1.61918 -3.30471 1.0063 0.686041 -1.81734 -1.53531 -2.33624 1.34564 2.71979 0.0695366 1.91203 -0.712897 -0.782541 2.46667 0.476379 -0.956923 -0.54709 1.70249 -4.41101 2.30419 0.688909 -0.518128 0.154714 -1.19872 1.90413 -1.14577 -2.43329 1.22441 -0.08797 1.23299 2.52737 -0.853893 -0.538883 -3.53339 -1.29714 2.42321 1.91277 2.18468 2.57047 3.03643 0.587894 -0.871383 -1.71046 1.84769 -2.6225 -1.30291 2.95033 -1.76567 -2.2889 -0.584628 3.03469 0.0753045 0.476165 0.552553 0.441496 -0.946821 -4.01815 -0.396023 2.91511 -2.25289 -2.43744 0.857647 0.219962 -2.52292 0.91276 -1.23729 -2.09017 -2.62308 0.748207 -1.67923 -0.969161 -2.34243 0.888744 3.21633 -1.39617 0.534577 1.35147 -3.09468 0.23101 -2.21554 1.55508 1.38507 -3.33169 0.403927 -2.77842 -0.144215 -3.29193 1.33261 0.0777768 1.00115 -0.782296 2.71766 -0.0612356 1.10045 -3.32712 -0.318324 -2.71878 -2.30392 2.03823 1.06517 -2.11299 2.0294 -3.67332 1.11379 2.65998 -4.03148 -0.305139 2.57615 -1.79521 -1.354 -0.594699 0.183554 -2.73567 -0.478301 -2.48911 0.97911 1.60807 0.094623 1.59638 -1.53518 4.46371 2.97892 -2.57566 -2.96422 2.09013 -0.436888 0.832351 -2.32882 -2.41872 0.974132 -1.28258 0.348384 -1.504 0.560243 1.45932 -0.847851 -0.591677 -0.383938 -0.377895 0.544374 -3.02888 -0.433042 1.27856 -1.23494 3.58847 1.32861 -0.198538 -5.16579 -2.71415 -2.93462 -0.534334 -0.879894 3.88062 0.0644705 -0.295679 3.94575 3.03487 -1.05959 1.363 -1.79847 -2.70402 -3.10317 0.795907 -3.56824 2.7107 2.2565 2.14775 -1.6352 -2.89121 1.9828 0.663702 -3.64481 2.65357 -1.58972 2.37491 -0.293329 -0.255822 -4.09697 -1.00279 -2.65439 0.875744 1.65912 -2.60508 0.811533 0.538423 -1.62125 1.44451 1.03496 0.760109 0.0212561 -1.35195 1.8722 0.377163 -3.64127 -0.659124 3.86417 2.63517 1.55558 1.83015 2.18703 1.20605 1.48602 2.31664 0.26812 -0.77702 -3.98833 -2.063 -1.97047 1.41827 1.93685 2.77549 -0.766091 2.96549 2.85924 -2.8177 0.896435 0.115681 -1.36352 -1.74891 2.23486 2.22164 -0.311883 2.79057 1.12621 1.24541 2.84809 1.63834 1.53721 3.34229 0.988538 -2.3363 -2.10265 3.61273 -0.862559 2.2962 2.88618 -3.37994 -3.69938 -3.07314 -3.4013 -1.23439 -0.285577 2.03075 0.563387 3.11327 -0.256371 -2.65631 2.57571 -1.24084 -2.85429 -0.0504013 0.820414 -0.656163 -3.08263 0.610752 1.25027 1.79035 1.4462 2.19252 -0.312799 -2.12593 3.18035 4.52432 -0.380795 -2.29027 2.54264 -1.46328 -0.843306 -3.24666 -0.699683 4.02513 -0.876932 -1.58996 0.114521 -1.1227 1.74198 -2.15575 0.484527 -0.88551 0.893933 3.0855 2.80888 -2.41678 -0.589206 0.0202186 3.77946 -0.351222 2.37524 1.36984 2.8289 -0.272729 0.89436 0.24102 0.848975 -2.99409 0.318659 3.3485 1.89992 1.19149 -1.62998 0.500885 3.12774 -0.369778 -0.845261 -2.55612 2.60971 2.6482 0.521118 -2.34579 -0.653264 -0.551699 2.73966 1.17877 3.12145 -2.58549 -1.0313 -0.887036 -0.56265 0.163136 0.475249 0.811137 -0.734688 -0.815592 1.08199 1.42233 2.80726 0.422452 1.8061 -1.15257 0.00267077 0.632298 -1.83863 -2.29101 -1.00664 1.86091 -2.90971 -0.571169 0.265893 1.89464 -0.00355565 -1.9936 -1.3102 1.01772 -2.15505 0.592776 -0.826853 -0.0751213 2.80037 -1.54743 1.14928 -0.868665 1.36867 -1.59045 2.61872 -2.27501 0.517395 -1.63409 -3.03941 0.80543 -1.26406 -1.00557 1.23699 -0.550447 2.50858 -1.8072 2.2019 -0.446959 0.169515 0.394559 -1.25707 -1.61328 0.607242 1.33328 2.96638 -0.785745 1.78608 2.34957 -1.35262 -0.185904 -0.444212 -2.16118 1.26647 -0.750862 0.717261 -3.07039 1.3457 3.72883 0.811807 -1.01137 -2.69068 2.90578 0.605686 0.0463118 -1.41711 -0.547334 -3.26674 -2.26378 -1.84886 0.262657 -0.523957 2.83998 -0.705054 -2.88624 -0.863595 -0.964428 1.72312 1.148 2.98234 1.94032 -3.17876 -2.9992 1.22915 -0.959914 -1.76643 -2.06859 -1.97356 -2.39551 0.496826 -3.20626 1.92008 -0.824137 -1.05324 2.19271 0.756718 -2.27163 -0.385037 2.67008 2.50201 0.0919067 -1.66629 -3.73642 0.937971 3.73264 -2.23111 1.28368 0.710639 1.48383 0.600467 0.647893 -1.30276 2.3247 -2.43414 2.62272 1.15792 1.79326 -0.40994 -2.6882 0.645848 -0.863717 0.716559 0.737465 0.140522 0.782139 0.0601362 -1.14544 -1.62537 1.23458 -1.49955 -1.65214 -4.17623 0.981489 0.334651 -1.45102 -0.67423 -0.491485 -1.39367 1.32266 -1.19958 3.01638 -1.66754 1.26135 -1.96211 0.93083 -1.65466 -2.96437 -1.97651 2.80412 -3.03212 -1.7573 -0.231621 1.69544 -0.757362 -0.404355 0.115558 -3.37021 -3.06996 1.79866 1.48862 -0.772256 2.00124 -2.04793 2.05217 -2.90522 2.83387 0.830516 -0.745214 1.07305 -2.15819 -1.12398 1.21994 -1.05983 -1.25298 -1.74531 -0.04442 1.65635 1.21826 3.81492 0.851268 -2.25274 -1.90599 -1.70512 0.431181 -0.0788142 -1.09301 1.62289 -2.16857 1.51166 0.932113 1.65027 -1.02904 -2.16042 1.47207 -2.83296 -1.1161 -0.908824 2.60425 2.53836 2.18398 -0.200308 -1.89586 2.80811 4.12731 -2.46813 0.765938 -3.38696 -1.7555 -3.13286 -0.163229 0.753914 4.01003 1.26626 4.78822 -0.241752 0.514557 1.92214 1.13545 1.29257 0.618046 1.18721 -0.465881 0.7541 -0.461394 1.6706 -2.13796 -3.10433 -0.640049 0.598026 -2.48746 -4.17815 -1.58465 -0.468688 -1.38427 -0.79902 -2.97627 -0.96376 1.40433 -2.9593 -1.45657 1.39786 0.446745 3.86549 -1.78806 0.972763 3.96388 2.64142 2.7432 -0.725258 0.94673 0.296747 3.14873 0.386166 0.298547 0.173452 2.75205 -0.210715 -1.28592 -0.739723 -2.13527 -0.788128 3.52014 3.54902 1.09557 -3.4212 1.19286 -0.643254 -2.24474 1.66697 -1.22875 -3.0403 1.33459 0.551877 0.887524 -2.61997 1.51404 -2.55224 -2.37112 0.671486 -0.314966 -2.97515 -0.04561 0.546601 1.44092 1.80646 -0.118519 3.69022 1.01467 -0.265648 -1.83543 -3.39935 -0.873424 1.4982 2.68101 -3.69392 -1.78584 -2.27725 1.24514 -2.20452 -1.48904 -1.39404 1.07002 -2.48828 3.94371 0.101672 0.592807 -1.25139 0.316126 -3.75911 -0.1151 1.29467 -2.24829 -0.312952 -2.63514 1.17153 -4.14452 2.11497 4.03292 0.804938 2.57492 -0.488464 -2.05633 -1.52347 -2.78254 -0.00972016 0.143269 1.39899 1.60563 -2.78874 0.776433 2.25643 2.82371 2.00508 -1.40313 1.55695 -2.45996 1.28789 2.58957 -1.36087 -0.637699 -1.12957 -1.07341 -0.324183 2.19933 1.24428 -2.02104 -0.479797 1.09789 -3.05339 -0.404447 -1.26257 -2.47616 -0.403256 0.375698 3.66636 1.5535 2.19143 1.1491 0.851726 -1.05327 -0.237571 -1.61591 1.69684 1.57016 2.9836 2.74247 -1.32617 -2.86207 -1.17959 0.49823 -3.06068 0.740333 -0.176717 -0.957106 -1.30181 2.12682 2.14837 -1.8094 -0.840617 -1.78388 0.906445 -0.492706 -2.57422 0.797128 -1.06621 2.37786 0.16628 0.893602 -1.42743 0.0340436 0.40701 3.75901 0.56235 0.259515 -0.706305 1.97078 0.630314 3.99074 1.16042 -1.40609 0.877819 1.53408 -2.24459 2.88112 1.55554 1.61649 -2.03545 -0.522462 -2.68012 -0.0117343 -1.12508 -2.39731 -1.43292 -0.201011 -0.473053 0.173666 -1.06438 1.46179 -0.807899 2.34154 -2.4256 -2.77244 -2.47315 0.407346 3.26601 1.18725 0.442045 -2.41024 -0.997388 -1.0804 0.0326703 0.609317 1.1072 2.50515 -2.58789 -1.43988 -1.50848 -0.876659 1.79563 0.038224 2.14879 1.95351 0.672094 1.99364 1.47018 -0.404416 1.41671 1.27645 -0.516053 -0.267114 2.17834 1.34399 -3.39468 1.25301 0.391507 2.10054 -1.00307 -0.453765 0.755989 -2.66498 0.126636 1.20077 -1.97413 0.728522 -1.37561 -0.186575 0.453673 -0.103717 -1.9753 -1.86613 2.23114 -1.56043 -0.507416 -2.73835 3.77363 -1.53101 -2.8737 2.11519 -0.810404 0.571658 -0.0710323 0.889931 -1.22216 -0.308069 0.0435041 0.727058 -0.100025 -2.10894 -1.65208 0.308649 0.068255 -1.54142 -3.00273 1.59965 0.594091 1.33999 -1.98568 1.45505 -1.35818 2.35226 -0.483093 0.311945 -1.97051 1.15603 -2.32132 1.68253 -0.378078 -1.548 -0.985088 -3.32971 0.658543 -0.630101 2.08965 -1.77415 -2.13753 -2.48038 -2.76478 -3.63932 -3.32965 -1.32473 0.380459 -1.95918 -1.56971 -1.44428 -2.42187 -2.02494 2.90971 0.675909 1.33037 3.01931 0.958297 2.73423 -1.7006 2.41476 -2.33142 1.50559 1.50266 1.57877 1.87785 3.71055 -2.41635 0.667024 1.35598 -4.17504 3.25417 -2.37304 -1.47686 -0.69422 4.49581 -0.0417951 0.0394451 -0.806924 2.62412 -1.09722 -0.887589 0.565584 0.801708 3.28048 -0.135945 1.81239 -0.905258 2.68991 -1.3973 0.192251 1.67121 -1.70621 -1.65601 2.65021 -2.77165 -0.0928826 -0.579013 1.35492 1.24963 -2.39507 -1.46759 -0.0648973 -1.82127 -1.4266 -0.931229 -2.12782 0.10863 1.41791 2.0627 -1.97179 0.0779901 0.647862 -1.39639 -3.22909 0.568972 0.561922 0.0671864 -2.33129 1.29855 0.243522 1.99416 -1.77933 1.90098 -1.10564 3.97078 -2.40484 -2.41046 2.21838 1.34976 0.840678 -1.60181 -3.92243 -0.842814 -2.45871 -1.91111 1.13955 2.02778 3.38471 -2.67329 -1.26867 1.51386 0.608126 -2.79066 -2.37634 -0.388028 -0.200857 0.749733 0.959941 -0.151815 0.00868284 1.40137 -1.94889 -0.230278 0.656834 0.225578 -1.74512 0.182089 -2.80992 -1.21202 -1.34359 -1.0186 -1.03404 2.38348 1.77229 -0.0812555 -2.67072 -0.321314 -2.0074 2.14648 -0.647587 0.371853 0.984787 0.886181 1.20415 -3.04516 0.771432 -2.93669 0.619876 -1.81739 -0.291161 -1.74531 -1.56049 -2.66858 0.0777458 0.785684 0.682379 -3.14916 0.508331 -0.669317 -0.871715 1.49439 -1.04012 0.851726 0.873333 -2.47162 -2.53019 -1.77607 1.8281 0.111225 -2.60553 -0.60916 -0.370907 0.433713 1.35711 -1.60905 0.931287 0.719337 -1.37414 -0.896405 -2.45221 -1.32492 -0.863477 4.05278 -0.58826 2.48651 -3.11898 -1.88303 -1.17791 1.95164 2.88066 1.48739 -3.05364 0.847756 -0.539857 1.71528 -2.95134 -2.87504 3.04552 2.19885 0.410336 1.01769 3.20031 -1.0548 -2.58835 0.671484 1.12203 1.95937 3.7482 -1.62351 -0.684149 -0.903485 0.240868 2.00349 3.66452 0.727637 0.220481 0.732246 -1.38616 0.0575121 1.94517 1.67078 -2.30792 1.44189 -1.97502 1.45678 1.08297 1.54562 1.32223 0.433806 2.46722 3.6875 -0.707435 2.49878 1.85874 3.21252 -1.75919 -2.78743 0.646153 2.23983 2.45721 1.26904 -1.43649 0.624759 0.700537 2.91233 -0.192007 -1.51672 -1.99617 1.40319 2.02138 0.119586 2.26409 1.12081 1.35669 -0.297174 -0.411344 1.39807 -1.65287 -1.46527 -3.13304 1.68385 -0.202689 4.25323 0.535127 -2.87681 0.412717 -0.185537 -2.99891 2.15398 -0.609836 -3.39956 -1.29531 -2.79203 -1.31469 0.48996 -3.72764 -1.88462 -2.82365 1.24221 -1.25594 -1.697 -0.55649 0.03444 -0.664738 -2.61798 -1.61844 0.497589 1.70554 0.217277 2.36645 0.0937378 -2.7992 -1.92711 -1.80793 0.177938 -0.957869 0.929121 0.498809 2.59204 0.921004 -2.43957 1.90877 -1.87175 -2.01918 0.47351 -0.409024 0.712443 -2.35409 -1.70496 1.47253 -1.35434 3.26733 0.704169 -0.186484 -2.24822 -0.941084 0.504547 1.36834 0.772103 3.28708 -0.0710929 -3.15294 -1.14815 3.18465 -0.231803 1.9012 -0.537324 3.56143 -2.57724 1.34713 2.60425 -2.42797 2.466 -0.150106 1.62846 -1.3808 1.81452 2.78434 -2.46899 2.8538 0.102344 1.49299 0.053972 0.243004 -1.65296 0.658666 2.44077 1.679 -0.493713 -1.98815 2.19139 -0.910995 -2.98399 2.0898 -2.34222 3.02318 -0.0949279 -2.73188 0.826766 2.68439 2.58011 -1.21822 -0.870831 -0.129779 -1.12676 1.9557 0.625069 2.79744 -0.551698 0.362728 0.403836 3.27251 1.15725 1.12819 -2.45407 -0.815412 -1.55817 3.09981 -1.5116 -1.21709 -1.62543 3.10136 -2.86158 -3.28915 0.430632 1.989 0.578737 -1.73502 1.58774 -0.269921 2.70859 0.846291 -2.15541 4.22045 -3.33636 -0.924696 1.75382 1.06166 -0.638981 -3.46365 2.06129 -0.982925 0.00691256 0.623021 0.0483566 1.36205 0.919019 -1.55063 0.666905 -2.14891 -1.49875 1.30233 0.0650503 -0.481261 -2.28368 3.59614 1.59327 -0.967609 -0.0995057 -2.19747 0.889111 -2.18206 1.26473 0.326502 0.129322 1.67426 -2.0765 -0.209647 -1.95228 3.09746 1.79819 -0.298456 -0.191519 2.03264 2.23577 -1.03087 -1.667 -1.72733 -0.310205 0.23812 1.16952 -2.77863 -0.695838 3.51239 -1.49789 -1.75914 1.74561 1.03084 -3.60672 -3.69797 1.12771 -2.12816 0.851054 3.15697 -0.628697 3.24767 -0.18392 -1.25109 0.842876 -1.03774 -1.33608 -2.91417 2.61692 2.00148 2.31375 -0.712165 -0.795633 1.71912 1.53742 0.0318456 3.09337 0.595676 3.5655 -1.8874 -2.05949 3.03172 0.579409 0.337733 -2.2341 -2.85393 0.189321 -3.52649 -2.01658 -1.94722 -3.51609 2.46497 -0.377407 -0.423856 -0.24514 0.643102 -1.4253 1.88218 1.48023 2.14461 2.21621 -2.01171 -0.330684 0.255363 -0.754375 -2.37564 3.15639 -0.0954773 -1.91682 2.41052 1.93943 1.02068 0.673378 -1.17718 3.15895 1.97301 0.0361186 -0.0836665 2.80772 2.81608 2.41039 -0.731178 -0.232597 0.554689 -1.66818 -2.87752 -0.735053 -1.85023 0.490936 2.1844 0.343105 -1.51651 -0.28573 -1.94115 2.43688 3.00118 -0.089007 -0.219443 1.65348 -3.74991 2.33239 4.41461 -2.15512 4.03514 -1.01665 -3.80723 -0.928785 2.40448 1.53363 -0.840495 -1.45575 1.19253 1.56906 1.78763 -0.351161 -1.66822 1.53107 -2.45941 3.13436 1.65534 2.18231 -1.15322 -1.9325 3.40756 -3.05266 2.45276 3.64628 2.18511 -1.02959 -1.37319 0.461058 -2.47864 -1.76799 0.183706 1.30447 -2.16103 1.57083 1.79133 0.116139 0.983047 1.95411 -3.46249 0.163411 2.06004 -0.160726 1.21993 0.0454575 1.79657 2.9712 4.32867 3.61926 2.1397 2.45789 -0.807872 -2.56253 -3.68543 0.471434 2.25362 -0.204032 1.06099 1.41351 -2.05373 1.98055 -3.73484 -1.10781 1.13793 -2.19145 -2.29016 -0.646031 1.61237 -1.93818 -1.84598 0.7125 -1.44403 -0.101672 -2.53149 -0.180593 1.52057 1.84257 -2.95802 2.12132 0.827495 2.44513 0.177236 1.34582 -1.11422 -1.79438 -0.303156 0.560303 -2.61063 -0.145925 3.47601 -0.552553 1.86549 -1.41867 2.12184 0.141896 -1.45953 1.31732 0.518677 2.47095 -1.0067 1.64557 2.45663 -3.05767 -0.43585 1.45105 2.06297 -1.67353 1.9883 -2.10564 2.25558 0.170034 -1.7771 -1.19377 0.935526 2.09309 -1.06273 1.0938 -0.859997 2.20696 1.63104 3.25659 -1.1285 -1.50092 -2.14522 -2.39764 -3.17482 1.52868 0.498657 -0.741002 0.729469 4.27746 2.61622 -2.42727 0.522828 -2.50379 -3.24477 -2.0081 -0.918958 1.39645 -0.734749 -1.97594 -0.281854 1.0241 2.54419 2.36542 2.17617 -1.83503 -0.300042 3.79151 1.32327 2.12312 1.59345 0.908338 0.282525 -0.786569 2.72873 -0.648839 1.20324 -2.68116 -1.03679 0.530945 -0.598972 1.34863 2.50558 2.51856 -0.921036 -0.0551011 0.166341 1.16054 1.35457 -2.71619 1.33801 3.02333 -3.1954 1.30923 -2.3366 -0.746041 -2.74601 1.24633 -2.1292 -2.04179 -1.97994 -2.26107 0.735512 -0.816722 -0.662511 0.454893 -2.35522 2.10338 -0.822277 -0.502228 1.72926 0.498932 1.18511 -0.521973 1.03047 -0.874337 -2.05446 2.57815 -2.32247 3.06529 -2.69104 -1.53769 -1.46441 -2.34759 -0.0164037 -0.629978 1.29782 0.0724969 -0.881573 2.23958 1.4906 -0.778665 1.09743 -1.79579 0.359828 0.924146 1.25902 -1.69425 -1.89479 2.10445 -0.235893 0.768929 -2.5655 2.99791 -2.67215 3.67811 -3.09645 4.00651 -0.963915 1.40451 -1.98625 -1.71754 -4.03615 -0.376156 -2.46777 -1.35922 0.817122 0.269738 0.00724771 0.890118 -0.688055 0.266838 1.94392 -2.82261 -2.48434 -0.613803 3.61252 -1.55814 -1.1371 -1.93205 -1.04484 -4.43283 -0.928785 -2.44479 0.561617 -1.66904 0.66889 -2.81977 -0.818491 -1.25829 0.358059 -0.848706 -1.25701 -1.14171 -0.067766 -1.32088 -0.654851 3.68665 -2.03881 -1.20962 -0.804053 1.24447 -2.02889 1.66879 -0.0412152 -0.60831 -1.67073 0.871986 -0.516786 0.516877 -0.440519 -0.738441 -0.61634 -1.32512 -1.69761 -2.00227 1.4364 -0.729224 3.64145 -0.565737 -0.735908 -3.11904 -2.98693 0.264672 -1.72349 2.30712 1.4205 -0.241692 -0.664495 -1.54374 -1.83433 -0.567477 -0.888256 2.1425 1.82618 -1.99535 0.607547 -1.60194 -0.313135 0.966811 -0.193594 0.397672 -2.64771 -1.37441 -4.07607 -1.42187 1.75385 0.956919 -0.771367 1.05821 -0.727515 3.10921 -1.10454 2.94267 -1.80387 -3.09063 0.870891 1.61173 -1.77057 -2.79081 2.20766 -0.414396 -1.72571 2.41589 -1.15389 1.05898 -1.79893 2.05272 0.305963 1.69929 -0.169881 2.69477 2.25918 1.8017 1.83873 1.11806 3.45303 0.396909 -2.18407 1.01137 -0.0484783 -2.59739 0.183065 1.09187 -1.83696 -0.586612 1.196 0.96895 -0.375271 3.22427 -0.246514 1.59946 0.0107269 1.67872 0.223869 -0.321864 -0.66541 2.93855 3.0136 1.8093 3.8134 0.766488 1.09462 -0.201255 -0.637577 0.915357 -3.79038 1.91493 3.19069 -3.78022 0.973163 2.45865 -0.537476 3.483 -2.41253 -1.51108 -2.50156 -3.25054 2.39517 0.045793 0.481597 0.0653864 -1.01955 -1.28546 1.13674 -2.69175 1.04555 -4.1231 -1.6442 3.19396 -1.22518 0.490509 1.2329 2.04005 -0.0900453 0.740913 -0.51825 -3.60635 1.25063 2.41183 2.70157 0.104358 -0.196799 2.31536 0.46234 -1.05388 -1.70545 1.62516 -0.323146 3.37561 0.269982 1.46073 2.22805 1.52433 -1.50781 -0.440824 2.32199 1.01668 -2.13585 3.38784 0.532777 2.70631 1.5907 -4.46978 1.01204 -3.07106 -2.20064 0.701117 -2.17464 -1.63953 -1.66044 3.22274 -0.106738 -0.92357 1.97762 -3.68381 -1.5043 1.90806 -0.293847 2.04448 -1.18319 -0.315516 0.390683 -0.746498 -2.50531 0.459654 -2.53579 -0.642917 1.64597 3.31396 -1.10189 1.30505 -1.66797 -1.1736 1.15947 -1.41796 2.94105 -0.189108 -0.620304 -1.42138 -1.55377 -2.59183 2.44965 -2.81968 2.01805 -1.86885 -0.738166 -0.0844295 0.951094 -0.0462204 -3.18197 0.509034 -1.6189 3.0385 3.4209 1.18286 2.75635 -2.80235 1.66596 0.55002 2.53253 -0.320643 -1.54011 2.44208 -1.93589 0.373501 -2.22564 -2.48282 2.15502 -1.96763 -3.63853 0.991683 2.24059 -0.401639 1.14622 -3.66371 -0.329035 -1.76802 -2.48513 -0.714181 1.06069 -1.86369 -0.779855 3.00017 -0.823618 -2.23171 -1.882 -3.27395 2.33068 -3.46539 1.46029 -0.200979 -3.25109 -2.43887 -2.04488 0.330806 1.88276 2.63498 -1.67828 -2.57328 -2.86839 0.90831 -1.45052 -0.723243 -3.05214 2.46081 -1.41025 -2.03929 1.79142 1.31137 -0.309931 -1.68192 -1.09963 -0.0215613 0.0953555 -0.282251 1.35266 3.17409 0.333918 1.07924 0.379513 1.73466 -0.196097 -1.01628 -1.59354 1.37597 1.88417 -3.7783 -2.21417 0.36758 1.28161 -0.380245 0.693269 -1.27722 1.84196 -2.51089 3.15254 -2.00597 1.53393 -0.457091 -1.33795 1.27047 -1.16665 2.62302 -1.61017 -0.52942 -2.77913 -1.91932 2.40371 2.52322 1.01308 -1.84311 2.90901 -2.4693 0.247764 -1.79746 -0.0403303 -2.49097 0.839977 0.084979 -2.38482 0.796762 1.72819 -0.375545 2.00563 -1.27139 0.230216 0.403196 -1.71876 -3.33416 -0.674199 1.79033 -1.09007 -1.02101 2.08587 -2.47122 -0.707404 0.0727712 -0.0322427 -1.27374 -1.8328 3.05339 1.19475 3.59302 -2.23232 2.12523 -1.06435 -3.22753 2.20733 -0.68482 -0.490234 -1.39188 0.0556807 2.61674 0.329096 2.18761 3.5784 -1.85307 -4.19945 -0.48822 0.606026 0.41287 -2.09334 -0.37051 2.50553 -0.724341 0.681128 -1.91648 0.215628 2.71354 -1.69938 -0.489135 -3.17529 -4.02986 0.0111245 1.73957 0.649449 -0.811716 0.605869 -3.77049 -0.708319 0.116931 -0.325098 1.1986 -0.363491 -2.01015 3.34594 -0.72535 1.26433 4.16845 1.7324 3.02644 -2.75855 0.639592 -1.18841 -1.79441 -3.23754 -0.0320599 0.94734 2.0536 3.61017 2.78984 0.777658 1.50922 1.90135 -2.55194 0.689032 1.66764 1.09084 1.85957 -1.40975 0.3287 3.69888 1.20617 0.210044 -0.0182043 -1.26946 1.54828 0.63364 0.0702993 0.260948 -0.0483876 2.29876 0.877819 -0.853587 -0.779947 1.16924 3.88316 0.339534 1.83192 3.30608 -1.07625 0.770429 0.167531 -1.44901 2.01506 1.26565 -0.369289 -3.45202 -1.83311 -2.52781 -0.252678 -2.18596 -1.95738 2.25848 -0.156727 -3.91651 -3.1978 -2.44559 3.39208 -1.35858 0.9771 -1.89118 0.624119 -0.133534 -0.28518 2.12331 0.496826 -0.29815 -2.75584 -4.7623 1.61225 1.27255 -1.1021 0.835246 -1.81822 2.36645 -2.45914 1.1307 -1.36996 2.00219 -2.25384 1.01857 -2.07182 -2.203 2.56399 -2.85564 -0.742286 0.357875 -2.77649 3.16838 2.09005 2.41198 1.6172 0.692572 3.28268 0.896498 -0.0943781 0.818308 -3.71916 -1.27419 0.0910211 -1.19689 -1.97746 1.45611 2.89915 -1.21324 1.63596 1.56372 2.81788 2.05269 -0.473418 1.559 -3.3674 3.79777 0.948133 -1.34814 -1.69663 -2.12634 -2.35268 -3.81123 1.52731 2.47638 -0.319544 -0.418302 -0.168966 -0.759743 1.99217 0.943038 -1.4632 -2.2785 0.85255 -1.84928 -1.55692 -1.27535 -2.25442 0.559389 2.56824 -3.54938 -2.19808 -0.924089 3.79622 -1.06829 2.37024 -3.18029 0.772404 0.720954 0.821391 0.0852232 -3.10945 0.308038 -1.82088 1.82636 -3.28585 3.22622 1.67002 -2.61924 -2.32186 1.32424 -2.21322 1.65433 -2.58625 0.166769 -2.03954 -0.519623 -2.46008 -2.96495 -0.567629 -2.62077 -1.73454 0.496948 -0.578893 2.4306 -0.355953 2.01201 2.17906 0.479736 1.83033 1.54487 -0.969042 -3.60206 1.17418 -0.348384 2.98826 0.613773 -0.49591 0.00947626 0.0336462 -1.36642 1.43661 0.860088 -1.33084 0.772438 -0.939222 0.331385 0.822397 -0.187826 3.83961 -2.88859 -2.29742 0.806133 0.0697199 1.43878 2.70295 -1.25179 3.74949 -2.1194 -0.0596792 3.3276 1.1895 -2.13195 -1.47107 3.48447 -0.779122 0.453154 1.17904 -1.0114 -0.665194 2.26171 -3.78452 2.75745 2.60288 2.10726 -0.389371 1.13295 -3.27954 -1.76337 0.124318 -0.162435 2.01771 -2.32608 -1.85524 1.82407 0.778939 0.633183 -1.67429 -1.25652 -0.281824 -2.53052 -3.39041 -1.75428 -1.0472 4.13436 -1.26393 1.83241 2.31704 2.60517 -1.17531 -2.51862 0.363704 1.26156 -2.87138 2.76396 -1.10732 -1.33087 2.55151 1.66565 0.354885 1.74772 1.02131 1.84111 -3.02983 -3.2131 1.31662 1.51077 -2.09121 -0.718299 2.43704 -0.27517 0.375484 -1.94649 2.11175 2.21081 -1.0591 0.629765 -1.45861 0.523652 0.967025 -0.656408 -2.03322 -1.2825 0.466186 3.13204 3.15481 -1.74201 0.240837 -0.507325 -1.5994 1.39322 1.64426 -0.426909 -0.862834 4.70173 1.81095 -0.141743 -3.25592 3.03801 0.695135 0.428495 0.652653 -3.40576 0.76484 -0.748054 0.339747 0.292627 -3.30636 4.48563 1.30367 -0.766274 -1.10598 -2.75174 -3.38418 -1.58515 0.236931 1.83976 -3.8563 -0.560793 1.79973 -1.13125 -0.964369 2.4328 -2.01247 3.26541 0.56479 0.891274 0.872475 1.63984 -1.07802 0.6713 2.09136 3.96215 -0.942728 -2.15243 -0.851297 4.02699 -0.844066 -1.34481 0.469665 2.67588 0.849163 -1.76789 0.0407274 1.24304 -2.24892 -0.613987 0.989209 -0.805337 -0.585086 -1.90034 0.94157 -1.56836 -0.696722 -2.00505 2.50333 2.2207 -2.13528 1.47659 1.7067 -1.77311 -0.685919 0.769601 0.769936 -3.38547 1.20474 -0.425413 -1.99137 -1.31509 -0.608982 0.55588 1.24639 -2.98131 -1.52619 -0.618229 -0.432524 -1.40533 -1.67942 -3.46304 0.754865 -3.14855 -0.243675 1.62644 2.25689 -1.8401 -1.98188 0.38464 2.02742 -1.32083 1.06767 -1.88292 0.0836665 0.0587635 -0.647313 1.78568 1.12266 -3.03779 0.116809 -0.541628 1.04405 0.876476 -2.15556 -0.653844 -2.28057 3.17626 2.94212 0.139393 -2.1458 3.91502 -0.759133 1.86775 1.28472 2.30737 -1.57571 0.999344 0.55475 0.375606 1.96489 -0.000564982 1.11577 0.724433 -0.328029 -1.93315 1.99236 0.918348 1.43884 -1.73358 -0.740699 0.424558 1.28451 -2.22366 0.174093 -1.40499 -0.715155 2.47125 -3.69606 2.65381 0.486969 -0.444457 -3.50091 3.15825 2.39804 -2.52899 -0.951949 2.90434 -2.85585 -0.207785 -0.136464 -0.255821 2.89576 -2.6684 -0.957591 3.28439 -2.35452 3.17336 -0.359615 2.93238 0.942579 -2.14791 -0.990925 1.26489 1.66767 1.39917 0.536012 2.17861 2.44903 2.46951 1.13356 1.80097 -1.18947 1.27478 -0.680242 -1.37692 0.645512 -1.46505 1.23339 0.827309 2.11019 1.17333 -1.56998 -3.72483 1.53204 -3.03334 0.800333 -1.87049 -2.57572 0.877119 0.454711 3.57148 1.20233 -0.723212 -1.08074 -2.40973 -1.30535 -2.20883 -2.51416 0.30813 0.0427407 -0.02617 0.0603808 1.81068 -2.9167 -1.46548 -1.64847 2.95234 2.80689 1.34021 0.747566 2.10548 -0.0148777 -1.09627 -0.280206 -0.67777 1.56433 -1.41555 -0.898846 1.87541 -0.0864742 0.213553 0.0803092 0.649635 2.52576 2.36856 2.25643 0.352107 3.263 2.01143 -0.40109 1.00932 0.740821 -0.289636 -1.34463 1.71992 2.94508 0.167257 0.849315 -2.86872 -1.32647 -0.738655 -2.78385 2.61191 1.90062 1.33889 1.41705 -2.41788 0.651524 -0.0424364 -0.62476 2.98061 -0.513032 -1.1888 -3.61902 2.32471 1.18868 1.04881 3.00536 -1.65549 -0.261895 -2.28891 -1.33133 -2.3494 -0.813762 2.49961 -0.791539 0.409055 1.50323 -1.40206 -0.713538 0.490418 -1.99363 0.767128 -1.01601 -1.93742 2.45703 -0.57242 2.42514 3.09596 1.42086 -1.04656 -2.22796 0.747627 2.98693 -3.1076 1.44006 2.09877 -2.56412 1.33307 -3.12981 0.206351 -2.04478 1.13701 -3.29235 1.94502 -2.00878 0.254875 -0.271874 -3.39725 -2.66489 -1.15368 -1.64493 2.70329 2.53445 -0.580386 0.114216 0.018357 1.72327 3.71265 3.86546 2.24746 -1.53082 0.532594 -1.84098 -0.677435 2.72505 2.27368 0.558687 -0.183065 1.48141 2.33044 3.27364 1.41971 -1.78238 -3.87224 -3.05284 1.94874 -3.2633 -0.0160376 -3.05837 3.86924 2.48669 2.52518 2.96638 -0.213339 0.95546 -1.12502 0.388577 3.88325 -0.762765 -0.669591 0.078783 -0.234397 0.361599 3.74955 0.123279 -2.30447 1.48093 2.36441 0.257134 -1.3316 1.50751 -2.75639 -2.64341 -0.689703 -2.70261 0.117633 0.836985 1.06181 0.972061 -1.21197 -0.704781 -1.38016 1.47195 1.84141 0.24926 1.10234 -0.0635246 -2.11718 -1.69206 2.90473 -0.994462 2.01149 1.62467 3.7223 1.63217 -2.24789 -2.03007 3.70072 -2.49643 0.168478 2.27435 -1.81327 -0.335048 1.36978 1.97984 0.0477768 2.43588 1.13329 -1.95433 1.02834 -2.78422 0.862408 -0.0463121 1.11089 0.274041 0.595461 -3.44742 0.354701 1.11315 -0.713203 -0.908094 -1.82567 0.503754 0.0793024 1.28091 -0.467101 2.78333 -1.21728 -1.27682 -1.98543 1.51068 2.28366 0.5683 2.24795 -3.92601 -1.90144 1.72169 -0.354091 1.34218 -2.20461 -0.539007 -0.0643181 -2.04537 -2.50436 1.80022 2.44116 0.344996 2.18166 2.44375 0.592349 -0.910749 1.02437 -0.321375 -1.3724 2.67581 1.45196 4.04442 -0.0425883 -2.71366 -1.82313 3.12615 -1.8407 0.688211 -0.0995972 3.31536 3.07289 2.82322 -0.0853759 1.87996 2.96186 3.19549 2.31885 1.18914 -2.7845 -0.35522 -3.92967 2.43759 0.553926 -1.3945 -2.41229 -2.29183 2.20785 0.438383 1.12593 0.724952 0.0436259 0.934221 -1.35915 -2.86952 -1.90107 0.581942 -2.63614 3.64051 -0.500519 0.691475 -1.196 -1.08907 -0.774755 -1.0302 -3.60453 -0.529207 -3.30385 0.642308 1.5119 0.554903 1.64301 2.7107 -0.936872 -2.81376 0.236106 -1.55509 -3.60401 1.35083 -0.0628529 0.701575 1.71674 -1.39328 3.04528 2.16115 1.75117 2.97416 1.40454 1.07884 -0.13274 2.44632 -2.7563 1.64414 -1.62668 0.968947 -2.38631 -0.459898 -0.786722 1.2296 1.39376 1.7992 0.77665 2.10207 1.33691 -2.45465 -0.956256 -1.9135 -2.88178 -1.27868 2.78199 -2.40533 -1.14006 -1.61017 2.01521 -2.58149 2.09865 0.706549 -0.518066 0.227897 -1.33511 2.15453 3.30371 0.4429 2.44497 2.13851 -0.419553 -1.67804 0.489594 3.529 2.13292 0.610111 -3.55695 1.25045 -2.8911 0.592837 -1.24004 -0.488922 3.67621 1.89668 -2.32515 2.76179 -2.48535 -0.117694 -1.59992 -1.01753 -2.66679 1.97356 3.51453 -1.61042 0.12569 -2.23632 1.01482 -1.84434 -0.616216 -0.751625 -2.00096 0.236228 1.9919 1.02181 -1.55176 -1.10052 1.01378 1.78495 2.07644 -1.95018 -2.90147 1.00874 -0.281549 -2.06132 -0.282068 -1.90587 2.22405 1.36178 -0.0428941 2.87452 -0.675237 -2.07299 -1.92262 -0.196585 2.44659 -1.50177 1.56925 -1.32775 -0.0680716 -3.60294 1.91252 -1.80058 -0.353847 -1.53287 -3.23293 -0.661352 0.429166 -0.415036 1.80872 -1.35458 -1.63074 -0.280786 -0.071367 -3.45047 1.36273 3.12807 -2.97987 0.87495 -2.07265 0.785714 0.0661489 2.45083 1.74513 -2.35934 2.74735 -1.84055 1.89289 -1.21099 -0.707465 0.262657 0.239006 1.16342 0.787362 1.35131 -0.0300146 -3.16997 -0.339991 -1.23858 3.71528 0.485687 0.564089 0.801679 4.24206 -0.750007 -0.623875 -3.36587 0.186361 -1.65335 0.52823 -1.84626 -1.20922 -1.23318 -0.607731 3.70966 1.11589 -4.49139 -0.0640429 -1.98937 1.69477 3.48727 -1.63056 2.06319 1.1014 2.70682 -0.999221 -0.521913 2.39792 -0.207388 -2.98198 1.998 -3.06722 -2.52804 -0.579409 2.58274 -0.542817 0.101764 2.81217 -1.1003 -1.97279 -1.16766 0.280938 -1.43576 1.66373 -1.49285 -2.92027 0.967942 -0.76429 1.88557 -2.66883 0.0455488 0.537843 1.28704 0.4682 -2.17953 1.02864 -0.751473 -1.36184 0.0729849 3.20135 -3.70936 -2.2177 -3.02537 4.05309 -2.61753 1.6124 1.03581 -0.377194 -1.79722 0.201407 0.202933 -0.933424 2.79075 0.410703 2.45895 -2.76124 -2.32287 3.86726 1.76207 0.247062 -2.90611 0.713935 -2.3291 1.951 2.35119 -0.150136 -1.49967 2.87416 -0.0207067 -1.12078 3.34734 0.495178 2.73005 1.48792 -1.16292 3.38946 3.02443 -1.533 -1.07271 -1.81092 -0.0496081 3.10192 -0.381924 0.829845 2.39606 2.14373 0.908399 -0.946514 1.4165 1.08547 0.846204 -0.364284 -0.574251 -3.0414 0.0128333 1.307 2.31128 -2.63032 1.28689 3.83491 0.0579394 0.996876 -1.76823 1.23818 1.98366 -1.73694 0.948988 1.60044 1.17382 -1.59351 2.74287 2.45141 -3.78956 2.66602 -4.56079 -0.81431 1.792 0.800363 -0.297388 0.487914 2.33285 0.660741 -1.80607 1.23189 2.14171 -0.965927 1.91545 2.82231 3.26766 -0.523102 2.58353 1.45139 1.6117 -0.641728 3.37554 -1.76735 -0.605472 0.830512 1.89329 1.68741 1.57572 2.94609 0.685888 -1.45242 -0.68195 3.63928 3.17916 2.34686 -1.90968 -3.2059 0.350185 0.766792 1.50342 0.111866 -0.00251789 -1.79127 -3.52964 3.00249 2.942 -1.4425 0.789438 0.213858 -0.988479 2.60862 -0.262597 -1.57599 1.14629 -1.87486 -0.226219 2.50644 -2.52887 -1.00404 -3.05638 0.694708 -3.32113 1.46011 -0.923749 0.361568 0.568209 -0.13036 2.37234 -0.367245 -2.9217 2.95803 2.47412 1.55243 -3.33267 -1.91603 -2.38937 1.01967 1.37448 2.41641 -1.08562 0.217338 0.411985 0.534398 2.50019 -1.2513 2.63101 2.4057 -1.59836 -0.799509 2.70334 4.21563 -3.04006 -0.644719 -1.63641 -2.98528 1.75736 -2.23378 -2.44296 3.6543 0.686987 0.917828 0.833265 2.97353 -1.74137 -3.31137 0.833933 -4.28173 -0.271325 2.33554 -2.78632 -0.853099 2.14955 1.71757 2.84409 1.80113 -0.0661189 -0.0197302 2.6349 -2.59244 -1.97352 -0.583254 -1.1715 -1.62137 4.27608 -2.27535 -2.90019 2.88167 0.102252 -0.619877 1.3143 0.944407 -1.94724 1.34405 0.279748 0.569002 1.34085 1.82163 1.34487 0.317042 2.96019 -0.70658 -2.82078 1.34069 -1.53058 -0.461851 3.58561 2.32455 2.0414 -0.13921 -2.31796 1.3088 -1.13375 -3.7479 2.30447 1.8625 0.511566 -2.30691 -2.03325 2.57364 1.32107 -2.67555 0.227134 1.32815 1.45716 0.700293 1.80103 0.343653 -0.327784 2.84504 1.26763 0.428312 1.4093 -3.66901 0.709358 2.43274 -1.68119 -0.902875 1.13378 -0.636204 -1.20629 1.22604 4.01577 -1.86979 -0.392819 -2.6019 2.80802 1.38708 1.25515 2.24508 -0.238456 -0.551912 -0.908249 0.313654 1.90193 2.73661 -2.14474 1.86921 -1.50021 2.74082 3.67387 -3.7529 -1.11211 -3.05538 3.14904 1.97896 0.960738 -0.297754 -0.389523 2.40616 0.203879 0.522644 -2.86863 -0.994825 1.5972 -0.262932 -0.596075 1.13982 -1.76612 2.01692 0.0640736 -1.5423 3.00112 -3.29418 -1.43807 -0.34402 1.1635 1.44479 -0.827643 -2.17299 1.19689 3.04714 2.23461 0.110126 2.71067 -1.89765 -1.77888 -2.13814 -1.19063 0.272209 -0.274408 -2.93022 -1.26959 -3.25243 -0.0365461 2.22176 -0.892896 -0.161855 -1.1194 1.35531 -0.303369 0.159566 0.464537 -0.496796 0.919996 0.391964 2.34747 -0.746345 -0.944232 1.07189 -3.69886 -2.35598 1.43207 -1.60684 -3.28729 0.109058 1.45907 0.480926 0.636234 2.69898 1.84969 0.108967 -1.48514 -2.71222 0.866522 1.32995 0.167317 -4.0077 -2.05547 2.9857 1.12996 0.517548 -2.47137 -3.43285 -2.04851 -0.353053 -1.52774 -0.605411 -0.467132 3.60249 -1.15895 -1.41953 1.10426 0.483825 -1.53632 2.7537 1.93556 -1.48663 0.0752432 1.00408 1.37351 -1.69849 2.39477 1.02297 1.29751 -2.14773 -1.01616 1.90391 -1.41043 0.528168 -0.772256 0.575808 0.712623 -3.30789 3.28176 3.33535 0.988569 0.247765 -2.66944 2.44595 -1.32839 -1.20812 0.000595116 0.276879 -1.58805 1.60401 -2.73042 0.946364 0.198355 -1.81401 0.720191 1.93916 2.38101 1.57635 0.476745 -2.33211 1.86085 -3.84993 -0.326991 -2.55231 1.04524 1.13317 -2.20724 -0.150899 3.65916 -2.46045 -0.274041 2.90272 1.00804 -1.24123 -0.113484 2.12178 -2.21379 -3.49457 -3.76585 -0.188741 3.02419 -0.644048 3.5456 0.633213 2.26565 -3.41592 -3.22671 2.89717 -1.42483 0.522797 -3.15389 0.542114 1.46182 1.16152 -0.256493 -0.716498 -0.681615 1.20565 -1.80446 -1.11141 -1.53192 -0.686652 -4.14974 0.052385 -1.58893 1.72663 3.24978 -0.158101 0.367611 2.02052 1.46096 -0.822519 -3.29107 2.18462 -1.29388 3.32009 -0.629337 -2.24224 -2.16656 -0.167165 -0.158163 -0.765696 -2.02727 -3.01338 -0.174337 -0.54007 -0.776864 3.07716 2.16191 -2.76224 3.71024 1.62256 -2.89314 -1.13952 -2.13729 -3.08854 2.56763 -2.20876 -0.750801 0.869915 1.3753 -1.79273 -0.182058 1.71333 -1.79643 0.628971 2.88527 0.355983 3.21514 1.35156 -0.282677 2.04515 -3.96482 0.89848 -1.95516 0.187277 1.14675 -1.78623 0.358944 -3.16204 2.29672 -1.18508 3.32937 -1.17855 3.01228 -3.37738 1.18966 -1.05003 -2.18404 0.687449 1.43277 0.312769 0.237663 4.53092 -1.33871 -3.90013 -1.7862 4.3215 -1.06502 0.934248 -3.03032 -0.396573 0.460967 0.176138 -0.0216836 0.796151 0.96913 3.17296 -0.912519 -1.8159 1.61646 -0.0806456 2.41341 2.61697 0.764931 -2.89942 -1.91133 -1.36539 -1.52374 -1.01756 -3.53625 1.24282 0.0666371 1.12151 1.85218 -0.95061 1.56632 1.36285 0.414304 -1.01155 0.426481 2.09181 -3.72589 0.345118 0.319208 4.212 -0.537294 -0.698096 2.37137 -2.18404 -2.22036 -1.27368 1.67973 2.01839 -1.8292 -0.583376 -0.55295 -3.08119 0.710425 1.52503 -2.41348 0.166646 -3.21273 0.378841 1.13603 -1.90913 0.584872 1.41498 3.32651 1.87071 -0.551942 1.45023 0.649418 3.70896 -0.763924 2.00233 -3.23525 -2.51764 1.24892 -1.11553 1.59614 1.83356 -1.17617 -2.21066 1.45239 0.175619 1.19649 3.0811 0.525513 2.57883 -1.28039 0.516175 -2.39648 3.00429 -0.968793 -3.88917 1.34454 0.85902 -2.73005 -0.126362 -0.0457019 -1.66406 -3.07274 -2.38 3.61246 2.51034 -1.56721 -2.40619 1.49075 0.661107 0.066332 -2.89393 -2.29348 -1.21456 3.28872 -2.08422 1.05574 1.77574 1.08712 -2.42917 -1.13249 1.22622 1.42785 0.424253 0.828532 -1.65928 1.40936 -3.45166 1.11516 -2.09163 -2.78858 0.264641 -0.319056 -1.18471 4.43301 0.506043 -1.95738 0.0638295 0.910047 0.733436 1.40747 -3.23467 -3.38718 0.622715 2.48504 3.07628 2.71235 -0.757607 2.8307 -1.45303 -2.59247 -1.05919 2.0602 -0.148701 0.61478 -1.34063 1.78178 -2.63446 -1.89634 -1.10591 -0.411252 -3.4353 1.18157 -0.978377 0.956402 -3.29114 -1.48563 -0.79072 0.38638 -0.218436 -2.8184 -2.37258 -0.355587 3.15633 0.555483 -1.81608 -2.56839 -3.04686 -1.89873 3.49945 2.33636 -2.43869 0.692266 -0.661229 0.408749 -0.71186 -0.470458 0.224967 0.202384 -0.388607 2.26562 2.44455 -1.37417 0.998123 -0.579257 2.1718 -0.550753 1.76053 0.690283 -0.0750908 2.80851 -1.08083 -1.76874 2.07637 -0.449675 0.538667 -1.47089 1.63361 1.76643 1.5084 -2.06908 3.0103 0.350765 -2.76554 2.44354 3.00685 0.93733 0.213706 -0.110492 -1.28164 -0.952192 -1.04516 -1.98521 -3.40988 -1.19485 -1.77873 -1.36087 0.335597 3.04723 2.058 1.4472 -0.0583357 0.191946 0.575808 2.51078 2.47485 -0.307703 0.961072 -0.861248 0.908826 -1.57303 -1.32342 2.14537 1.69312 -1.12889 -0.673773 3.13271 1.28048 1.38895 -2.85047 -0.119038 -0.668981 1.49527 -0.383053 0.440275 1.81514 0.424192 3.09212 1.01518 0.728004 -0.143758 0.0323649 4.24133 -3.3579 2.13986 0.694676 1.94072 -2.1896 -0.143849 1.81598 0.956863 -1.95967 -1.92897 1.23739 -0.842815 -0.940562 -1.88744 -3.06038 1.20006 -0.410642 1.22549 0.460662 1.15911 -2.15222 -1.06077 2.1614 -3.40103 1.69712 -2.50055 -0.689062 -0.803969 4.15716 1.20144 1.45898 0.496826 2.50277 -2.02755 -2.93751 -1.08967 -1.33468 -0.953474 1.83949 0.525391 -1.84681 2.07393 -1.18685 0.84843 1.21435 0.509797 -1.47824 0.0547043 1.4566 1.62699 -3.64459 -1.15255 1.64731 -1.00584 1.49622 -0.482665 -0.0919372 -2.23404 1.42294 -0.702399 4.02513 0.626284 0.456755 -0.392667 0.0934019 0.73014 0.310205 4.27813 -0.785043 -0.513245 2.11116 -1.64527 0.466155 -1.46997 1.8708 -2.43097 1.857 -0.284386 -3.13659 4.07432 0.499054 -1.50739 1.88694 -0.461394 -0.29815 0.492798 2.87327 0.190085 0.213095 -1.32235 2.81611 2.90477 -1.67228 1.89363 -3.51166 -0.0650505 1.07814 1.17101 2.912 4.37066 2.22854 1.61918 -1.94527 -1.07579 -0.709205 2.25301 0.720374 -2.86186 1.27972 2.60208 -3.90108 -2.39496 1.42782 1.44079 -2.04902 3.29415 -1.4223 -3.5137 -1.11235 -2.41921 3.47171 1.40725 -0.277093 0.0705436 1.65485 1.98426 2.36022 -1.18975 0.214133 0.772801 3.18587 0.983718 -2.93105 -2.89573 -1.56241 -2.3182 -0.966354 -0.225639 -1.48419 3.84416 0.369381 -0.740674 0.707007 -1.03774 0.0466784 -2.19231 -0.712286 -1.35647 1.43472 -2.75443 0.479064 0.621982 2.63618 -1.15441 0.21923 0.317713 -2.81049 -0.901713 -1.77794 0.533174 1.35315 1.73124 -1.70643 0.381802 1.69346 2.82209 -0.629159 0.0444199 0.194174 1.345 0.255364 -2.55723 1.60615 0.997356 -0.490692 1.43009 1.25454 -2.35117 0.480834 2.58609 -1.9735 -1.74091 0.930372 2.21481 0.753696 1.60349 4.22482 0.636937 -1.29092 -2.34576 3.56866 -2.62863 2.44012 1.96123 -1.7588 -2.70203 -2.34786 -1.1292 -1.69095 -1.60285 -0.633824 -1.06548 -2.21974 -1.84007 -2.93651 -3.65646 0.671667 -1.73905 -0.957351 2.73866 1.95781 -2.41104 0.700689 -1.76518 2.86805 -2.77128 2.96455 -0.990799 -2.49722 0.488158 -1.41577 -1.70997 -0.763226 -1.4374 -2.48654 1.09624 -2.12215 -2.06588 2.08958 1.56778 -1.94884 -0.905438 -1.76337 0.231132 0.775887 -1.31054 2.41016 2.0453 1.70355 0.676306 -0.502716 3.56982 0.989883 0.588718 -1.60172 -1.90074 0.262627 0.5029 2.50265 -2.88939 0.660588 1.79948 -2.22027 -2.1386 -0.591738 2.31243 -0.293573 -2.5113 0.89671 0.961073 -0.256554 3.4486 2.73957 0.459685 -1.41317 0.641671 1.77118 -0.80549 2.90672 4.06801 0.458525 2.86653 -0.202597 1.35379 -3.30813 0.990161 0.654272 0.997787 1.42843 1.84438 -3.30444 -1.32574 1.14919 -0.0316023 -1.14629 2.44375 0.608127 1.79511 -1.75529 3.20979 -3.16551 -2.48193 0.94606 1.26806 0.859811 -0.215904 1.29128 1.29198 -2.86109 0.306421 2.40872 0.595492 -2.86705 2.99028 1.21673 -0.978621 2.02309 -3.33306 0.597171 2.29431 -1.97679 -1.97071 -1.0342 1.18508 3.26308 -1.13906 -2.04149 -3.6698 1.70535 2.15438 -2.55109 0.0488144 -1.92818 3.21325 -3.37768 0.999527 -0.75776 1.32858 4.31863 -3.97368 -0.903943 0.125599 3.3652 -0.968337 4.2687 0.175374 1.12178 -0.778419 -2.21453 -1.03786 2.94957 0.571322 -1.95097 2.80304 -3.17181 -0.153432 -0.859356 -4.18868 -2.16033 2.03377 -0.0873901 -1.49807 -2.26745 2.51474 2.83344 -1.87654 -1.70783 -0.164815 0.0601676 -1.67807 -0.269127 -0.591525 -2.29763 0.221122 -3.18157 -2.00224 0.749001 -3.48175 1.97334 -0.677592 1.62553 1.68659 1.02743 -0.36935 1.85117 -3.12182 -2.10808 -3.41815 -3.23561 2.62391 1.83723 2.28545 -2.21401 1.91905 2.60349 -0.165395 2.18688 -0.205283 -1.93175 1.18587 2.83119 -1.03755 2.68433 -2.28021 1.86238 3.63098 0.405698 -0.66535 1.80317 1.08425 0.325862 -2.58951 2.03309 0.120533 -1.25933 0.492584 -1.8816 -1.0619 0.860237 2.03231 -2.04002 1.57001 -2.11589 -2.96529 4.22616 0.454894 -1.33761 -2.04537 -2.9558 1.24096 3.65739 -1.31875 -3.58426 -2.58332 2.42862 -0.0385912 -1.67655 0.861278 -0.643224 -0.898514 2.0027 0.907178 -1.17238 -1.70872 3.34192 -0.987624 -3.40689 1.39608 1.88444 -1.36657 0.529145 -3.44256 2.39712 -1.60892 0.507568 0.451201 2.47656 -1.8722 2.60502 -0.460264 -2.83857 -1.05449 -2.63996 0.169698 3.01964 -0.179403 -0.692842 1.85277 -1.3225 -0.112109 -1.5046 -1.42358 -0.736671 -2.01043 -1.77949 -1.51107 -0.270501 -2.41995 -3.31781 -0.201407 3.52563 0.584078 0.789281 3.23671 1.58939 -0.703254 1.82859 -1.07848 0.125141 -1.07506 1.21978 0.973129 0.137531 -4.13973 1.07085 2.71839 -4.80958 -2.72221 -2.24273 0.831769 0.359767 -2.84532 -0.76035 1.25646 -0.154958 2.30309 -3.65983 -2.75382 -1.78285 -0.490082 1.69923 -0.622715 0.762215 -1.62115 1.62485 -2.13249 1.89363 -0.0345618 -2.4386 1.05226 0.102924 -2.19778 -2.61084 1.35742 1.41571 3.4064 1.27761 1.6132 -0.178396 0.86201 -1.68967 -0.944227 -1.35101 1.57455 1.60108 -1.14321 -1.64957 0.787636 3.11641 0.524994 -1.33013 -0.0432905 -2.07152 3.02696 -1.34124 -0.425046 -0.886242 -0.0338603 0.51114 -0.455504 1.01488 1.66843 0.685492 0.684088 2.09005 -0.486694 -1.71735 -0.527619 2.06206 -1.64161 3.14833 2.61423 -0.409452 1.40039 -0.331721 -2.47098 -1.81563 1.3121 1.72712 2.35256 3.57184 0.00560026 2.79664 3.54434 -0.750618 -3.13851 -3.37685 0.698556 -2.57257 -1.23208 -2.51358 -1.35052 -1.90931 0.813639 -2.50858 -3.53622 2.392 -2.01921 1.86933 -3.58313 1.09972 0.678197 -3.24954 -1.45474 3.31692 0.460051 -0.615971 0.868664 1.18926 0.775217 0.265618 -0.124866 -2.17629 -0.912885 -0.850749 -1.63505 -1.86628 -2.78589 1.40692 -1.75547 0.831675 -2.77363 -2.29216 3.3659 -0.715186 1.75019 -1.51657 2.00368 1.4589 -0.981675 0.1498 1.06682 -2.34014 0.514008 0.552278 -3.36551 4.30117 0.548128 2.60685 -1.08779 -1.59234 1.61813 0.60062 0.201987 -1.91731 1.88789 3.1245 -0.0194861 3.64826 0.636146 -2.89436 -2.32351 0.685125 2.01442 -3.09233 1.24633 -0.313044 -0.0406049 2.9684 0.134144 0.548586 0.60355 1.94236 -1.28228 -3.39425 1.02706 -1.17959 -0.170186 3.44964 0.696509 -1.00954 -3.55231 1.22677 0.431181 0.710148 1.14846 -2.34692 2.24392 -3.03774 1.42047 0.452392 1.89766 -0.841319 0.426847 -0.559053 1.52322 -0.337977 -0.686529 -0.0196385 -0.858745 -0.404447 -3.3453 0.0120088 -0.567995 -0.0913574 -1.86592 -2.60602 -1.4032 1.1664 -0.952011 -0.238273 -1.34417 -1.96745 -1.26816 3.62653 -2.976 -2.08388 2.49823 2.93364 1.71107 0.746196 4.1841 -1.20019 1.98777 -2.65135 3.8969 2.64561 0.863079 -1.60984 1.05821 3.44238 1.21459 -2.64053 -0.665655 -1.7056 1.91886 -1.44543 -2.45092 -0.924604 -0.178121 -0.455199 -0.825357 3.33166 -1.10433 1.07528 2.48981 -0.819618 -0.575473 -0.115222 -0.995835 -2.58469 1.56341 -0.596042 1.23834 -1.46169 -1.88576 2.80272 -1.54401 -3.06044 2.86262 1.3558 1.44028 -2.05681 -0.683508 -1.40249 0.909497 3.93501 -2.80271 -2.77064 1.66455 -2.70625 3.51926 1.25441 0.063677 2.34601 2.60437 2.30337 -1.08434 1.05705 0.879589 0.62537 -0.612552 2.68488 -1.20626 -0.29342 1.02001 -0.891248 2.7039 -1.00917 -0.556794 1.05718 -0.930553 -2.33388 2.88823 -2.05202 -1.19646 1.99147 0.0861387 -1.43457 -2.87989 -2.87385 -0.348964 -2.71263 -3.27532 -0.0628832 -3.4617 0.0861076 1.68873 -0.254112 2.67243 2.01735 -3.14547 0.491058 1.33861 -1.57926 -0.885906 -2.73075 -1.56626 1.54623 -0.598422 -2.27264 3.16595 0.82603 -0.249779 3.27215 -2.70106 3.51532 2.25051 0.56592 0.538972 1.91298 1.25811 0.282006 2.14837 -1.11172 -2.30694 -1.42047 0.390316 -0.0734429 1.77448 -2.72416 -4.10875 -0.583407 -1.96584 0.179098 0.516205 -3.60306 -2.04564 -1.4494 2.85383 3.47934 -0.928477 1.17061 0.900002 0.167806 -4.11055 3.96807 -2.96135 -2.70365 -1.5491 -2.31005 2.91115 -0.202902 2.90095 1.57706 2.26406 3.52158 -1.10225 1.51142 2.38033 4.33612 1.2062 -2.39001 0.173086 1.204 -0.678808 0.730018 0.548311 -0.519776 0.464446 -2.14702 -1.87785 3.13024 1.79636 -3.17831 4.89052 -1.90214 -1.80808 1.3927 0.942335 3.53815 2.41772 0.0764644 0.814585 2.13194 -0.942918 3.73616 -1.42465 -1.79325 -0.969436 -2.59403 3.23736 2.87672 2.04723 4.30849 -1.41335 1.92198 0.83787 -0.471435 -1.96888 -1.36917 1.51156 2.32321 0.550569 -0.684698 0.877634 1.52676 0.350673 -1.2745 3.07958 4.02809 -0.687109 0.0793024 -0.618651 -3.21844 0.830333 -1.07546 1.45422 0.326899 -2.87193 -2.44327 -1.99718 1.28109 0.659215 -1.7957 1.0793 4.77521 0.669866 -2.29294 0.924238 -0.69712 -1.47019 