1.180050 -1.05429 1.55437 3.77764 0.103641 -1.29069 -1.57598 1.83544 -1.51671 0.246834 -3.22568 -1.08145 1.76037 4.04651 2.85043 -0.834437 2.90091 -2.93204 -1.80041 2.64907 1.53557 -1.13022 0.794275 1.51463 1.04593 -4.14801 1.79815 1.1738 2.48579 -3.00717 -4.13898 2.92544 -3.78747 -1.54851 -1.19108 -1.61547 2.10724 -3.58715 -1.39244 -1.91174 -0.748863 1.55083 3.47667 2.65786 1.94403 2.48177 1.02487 0.888943 -1.07291 1.58727 -3.71477 3.14969 -3.30235 -3.42235 2.52364 -1.54564 1.78082 1.17362 0.693442 -2.40529 -3.16245 2.27845 1.41832 -1.29972 1.48704 1.02005 -0.6321 -2.39827 4.70931 -2.96793 -2.08826 -0.622211 3.71441 -0.64449 -0.0815454 1.45116 0.143742 -0.670736 -3.42058 -1.37968 0.484207 0.850124 -3.86816 0.391125 -0.432691 -0.625507 4.35365 -3.00943 4.03046 1.03659 -3.29313 -3.56493 0.611591 1.25913 4.00751 -0.972503 4.15882 0.232063 -0.511734 -0.340831 -1.7788 -3.36784 1.14048 -1.70751 1.10569 -1.03903 -2.79952 0.997467 2.2649 -4.12677 -3.3383 -0.0827051 -2.10102 -1.12467 0.683798 0.540422 0.643513 0.763146 -1.22465 2.65011 -1.78448 -0.821863 -0.373486 -0.669454 -0.0998565 0.656575 0.463454 0.402478 -0.257759 -1.4561 -3.19871 -1.33921 3.32994 0.153752 0.471999 3.29667 -2.96615 0.541948 1.79858 0.869778 -3.41234 -1.72704 1.79424 -1.78747 1.87402 4.5566 2.2602 -0.36079 2.79995 3.12149 -2.34492 2.83377 1.13285 4.21088 0.615497 -0.208319 1.1713 -1.9328 -3.00369 -0.805078 2.12781 -0.713401 0.314585 0.586444 -0.903775 -2.58791 -0.539567 0.728904 -0.517533 3.14811 -0.437208 -1.48387 1.76775 1.56279 -2.12592 -1.1865 -4.51411 -2.3379 4.55556 1.60491 -0.714316 -0.297678 0.234321 -1.18198 -0.047792 -0.37843 0.211554 -0.795679 3.26768 1.96313 1.1915 -2.35005 3.5797 0.665975 -1.59081 -2.70986 0.957488 1.09775 -0.96585 0.803186 -1.19034 -1.29594 3.71923 3.26017 -1.16507 3.6516 -1.82604 -1.09696 -3.81268 -1.16422 -1.36119 0.229377 -2.27503 -1.36613 5.12888 3.75445 -3.77978 -2.227 0.328196 -1.17081 -0.593036 -2.30934 2.00824 -2.11176 -1.26267 1.7633 -1.15744 -1.49803 0.724693 0.775903 1.49736 -2.39167 -2.25141 2.01032 -1.13218 2.29975 -0.8052 1.32347 -0.658773 1.53862 1.80529 -0.404126 0.954985 -0.82046 4.11689 0.919034 -1.67003 0.669332 1.85778 -2.09778 -1.74676 -0.198065 -0.817652 1.47191 -2.21821 -2.09558 0.615864 -1.46532 0.7463 -0.173894 0.584674 2.88748 -1.47172 3.10837 -2.59188 2.74099 -1.01511 2.7084 -3.37266 0.237861 -2.60146 -0.347179 -1.45836 2.33607 -2.67733 -2.0025 -3.16501 -3.56475 3.20426 2.464 3.16037 0.122013 -1.35008 1.1334 -1.43883 2.40315 0.222114 1.56877 2.60463 3.81091 -5.37303 0.742088 -0.901456 -3.25291 -2.81936 -0.858058 1.27165 -0.55385 1.42088 1.43406 -0.711814 0.928922 -0.256844 -1.94671 0.973968 2.32496 -1.06296 -1.89996 -3.37126 -0.0637227 0.492202 -4.08527 0.799036 -0.581011 3.5562 1.70928 3.88647 2.45631 -1.5858 -1.37376 0.468337 -2.70186 2.36702 -1.39561 -0.796777 0.545976 -4.11664 -0.576983 -2.80288 -2.44942 2.90091 1.30033 1.70733 2.80569 1.1478 -0.577044 -1.94592 -2.29414 2.36695 2.77963 0.622272 -0.950713 2.31074 -0.326792 1.81976 -2.34413 -1.61486 2.29041 -2.12421 2.4778 2.81796 2.6971 -3.65355 -2.4225 1.22269 2.64272 0.210028 3.34941 -1.55962 -2.45961 1.41844 -4.64589 -0.474013 -2.99496 -5.21006 -1.84765 -2.24061 0.319102 -0.890591 1.49773 -0.443434 1.20267 4.31434 4.27796 -3.84948 -1.73437 1.6436 -2.43019 -0.0748314 1.51231 3.62212 0.189459 1.26841 1.27653 2.7543 2.10535 -0.173895 1.961 1.8056 -0.902737 -1.96997 2.95804 -1.45634 2.03174 0.771569 1.12198 -0.183111 0.128361 -0.899014 1.17429 -0.158208 -2.4062 -0.174566 2.41145 1.5786 0.999298 2.87838 -1.90667 0.0660421 -1.22666 -1.66112 -0.114017 0.593158 2.18818 2.97555 -0.265694 0.580828 3.2122 0.184149 1.53948 -1.94879 0.605609 -2.79391 -0.98526 -2.44362 -0.367138 -2.51186 0.0989411 -1.55724 -1.23252 -1.93017 -1.70397 -1.67144 -1.23716 -2.13202 -0.677145 -3.33525 1.46702 2.73501 -2.56752 1.25834 1.75365 -2.83505 1.79711 -1.36845 -0.0547502 2.524 -0.684042 1.09091 0.10419 -0.321482 2.23206 1.38377 1.5645 -2.10266 0.924406 -2.18531 -0.917447 -2.09864 -1.74078 2.6982 -1.02072 -3.06174 3.86767 -2.97824 -3.35185 -0.246651 0.729026 -1.80364 0.808557 1.33671 -1.56529 -2.23383 1.8728 -2.68416 -2.49379 -2.0448 1.80761 -2.12598 -0.858547 -4.07593 -1.13755 -2.93387 -1.2316 0.614643 -1.46049 1.40745 -2.22425 1.05246 2.18061 -0.387951 -0.198675 -1.01163 0.547624 -4.64626 -0.0540788 0.748741 -0.231269 0.926115 -2.70321 -0.826991 1.02725 -0.325266 3.12656 2.51094 -0.631794 2.073510 -2.85067 -0.843043 2.9968 0.360729 -1.79406 -0.904752 -1.55675 0.478774 1.75329 -1.06986 0.971099 -1.58495 0.533097 -2.62233 -0.398205 -2.40449 -3.20194 2.09357 -3.86822 -3.661 2.46406 -1.28843 3.51775 -1.79467 1.56835 -3.03195 -0.999542 -1.88452 -0.591143 -1.21226 -0.647664 0.120365 -1.26279 1.2045 -0.390454 0.693869 1.37962 2.99399 0.677511 -2.5768 -2.33454 1.89221 -2.82553 0.974212 2.03491 1.27409 0.89584 4.20234 -0.801782 -2.83102 -4.73397 -3.70873 1.22922 -1.5128 4.16376 -4.21448 -4.03974 1.33091 2.48183 2.39998 3.05863 4.26807 -2.18763 -2.52486 0.155278 1.44053 2.61776 0.958342 1.40721 -1.61541 0.271126 -1.21848 0.8605 1.43687 -1.65954 -1.48698 2.99521 -0.400281 -1.51256 3.15824 -1.17545 -0.25483 -1.64031 0.983123 -2.07562 0.0280771 -3.14994 -2.76394 -1.23478 0.38551 -1.90118 -0.355724 1.72674 -1.00259 -2.38929 1.55742 -0.835536 -0.417188 -0.132267 0.614215 -1.09098 2.4073 -1.19462 0.810266 3.56706 -2.12403 0.534318 -0.164312 0.00256353 -0.411939 -0.32313 -0.436354 1.37559 -0.273019 -3.30345 -0.438185 -3.89312 -2.339 -0.403943 1.50127 4.14972 -1.36924 -2.64553 -3.66015 -1.06052 3.3972 -1.51537 4.1551 -0.599445 -4.27564 -3.91876 0.496475 0.380566 2.57643 -1.26371 1.14139 1.88983 -2.10413 0.696493 3.12101 -2.4789 2.84793 0.638325 3.89453 -1.57555 1.39506 -1.56383 -1.45 1.20975 2.08869 -0.705405 -1.09989 2.15577 2.94107 -1.37327 0.352977 2.0987 0.262703 3.0466 0.431349 -1.62578 0.332591 -1.14469 -1.18491 2.19153 0.781579 -2.60537 -1.21812 -0.191656 0.558428 -1.35801 1.92212 -0.110233 -0.63802 0.422193 4.00104 -0.580645 -0.595477 0.612384 -2.15497 -3.46007 -1.61254 1.71465 -0.872585 -1.29966 0.564898 -0.831507 -1.07535 -1.5197 -3.23478 -1.21665 -3.07572 1.47142 0.250862 0.661153 -0.84518 0.587054 3.28739 -1.01303 -1.88665 3.17716 3.29997 -2.93826 -2.83187 1.32243 -0.510697 0.952849 -0.891324 1.68377 0.785607 -0.865444 0.719748 -2.7192 0.0101932 -2.50069 3.25242 -2.42439 3.12668 -0.892361 0.671102 3.23612 2.45064 2.05786 -2.45296 -2.04767 -3.30381 2.84585 4.47591 -2.31275 -1.26658 -3.40617 0.892666 -2.27436 -0.0683004 -2.47871 1.16282 -2.09229 -2.03699 3.03043 1.81866 2.4156 -1.05655 0.787011 -2.1792 -1.51054 0.783593 0.167608 -0.280892 2.44874 -1.3748 -2.55281 -4.41652 1.39189 3.23978 -1.89306 1.58788 0.95352 3.262 -4.36946 -0.886868 -2.51253 -1.86523 4.17188 0.251839 3.0585 0.640522 0.460524 -0.415235 -0.390332 3.89166 0.329295 -1.89416 2.68844 1.65893 -0.771508 -0.828517 -0.901334 -3.09 0.112674 0.347118 -1.13883 -0.565447 0.0653096 -0.971587 -0.150517 1.42833 1.04324 -0.290475 -0.51503 1.91559 2.11255 -1.22361 -0.142277 0.880764 -1.44865 -1.30253 -3.34519 -0.0122074 -2.80471 -0.512345 -1.73302 -1.2418 1.39958 3.32139 -2.54988 -0.913419 -1.00638 2.16901 -2.08386 2.96689 -1.39665 -1.66906 0.230232 0.303964 -0.285592 -0.253548 -0.614643 3.68773 1.85394 1.95032 -1.56719 2.99997 -1.73693 0.550981 -3.45701 0.736106 -0.56093 0.111637 1.86969 -1.08982 -0.08417 -2.69985 -2.40614 -3.57866 3.66619 0.190558 -0.475784 -0.242927 -2.50856 1.58538 -0.375561 -0.0943632 -0.216804 -1.76049 1.84796 0.357372 0.0227668 -2.14563 -3.34959 3.06345 0.401074 -0.277108 -1.44224 1.23289 -1.07089 -3.10367 1.16373 1.84051 1.41563 3.75109 1.93225 2.71938 1.6878 2.8262 -0.821009 -0.885281 -0.57149 2.81399 -0.391186 -3.42454 3.00607 3.56877 -1.21885 -0.945952 -1.32951 0.0174566 -1.11869 -0.906461 -0.506851 -1.15683 2.17133 -1.02377 1.42259 -2.18421 0.495377 -0.292978 -0.167913 1.648 1.21458 0.708457 1.93719 0.247383 1.94678 -0.898892 -1.54869 1.24424 -1.51384 3.44639 -0.13831 -1.33262 0.277291 0.822291 -3.30345 1.6411 -0.181219 2.11402 1.15915 -1.01596 0.372265 -3.61345 3.50383 1.57909 4.34956 1.22233 0.530045 2.39228 -3.24332 -2.10981 -0.431105 -1.9845 -1.93408 -1.7705 1.33494 -2.39241 -3.10697 -1.88214 1.022 3.10831 2.85452 -3.60033 1.01566 -1.39897 -0.0222175 2.1529 -1.40263 0.700156 3.04526 1.16269 2.01752 -0.166387 3.23759 -1.51408 2.30726 -1.69689 1.46098 1.97284 0.21131 0.990081 -2.27284 -2.37471 3.61126 -3.41618 0.962981 -4.33143 -1.18534 3.21378 -0.37434 0.205634 1.09006 2.34675 1.49736 -0.666524 1.81481 -1.15903 3.03378 0.597003 1.61773 -0.982025 2.64278 -1.34794 0.889126 -1.36467 2.26972 0.0150761 3.03153 -3.36821 3.65777 -0.227119 -0.171636 0.522172 -0.332286 1.13004 0.305368 3.31346 -2.97446 2.66555 0.457839 -2.17774 -1.12619 2.17603 -0.778832 4.26344 -0.496109 -2.01941 0.0590838 -1.01267 -4.35731 0.560381 -2.45863 -1.7575 0.669332 -0.590289 0.29255 -1.16617 0.135075 -0.950264 -2.32057 -0.443739 -1.03458 1.54424 -2.38148 -4.72329 -1.28593 0.997162 0.873257 1.53874 -2.75088 1.23441 -0.779992 -0.434645 1.24229 3.2158 2.85592 -2.46297 -0.161809 -3.5504 0.423475 -3.98395 -0.12122 -1.17692 1.02786 -2.60402 3.05747 4.63771 3.62163 -0.751732 3.3762 -0.265267 -2.87063 3.44285 1.28587 2.58235 -3.30564 -1.08286 0.876797 0.194525 1.41185 1.96991 2.50362 -0.234809 2.93265 1.94971 3.21036 0.885891 0.309336 -1.77862 3.33897 -2.7756 0.457656 0.277657 1.68987 -1.45952 -0.388623 -1.124 1.61449 1.91272 -0.855739 0.0728782 -1.59032 -0.951994 -0.865993 -1.96783 2.39515 -1.44212 -0.956938 -3.51866 0.0419324 0.0646992 -1.1077 0.691794 -2.46596 1.02274 -1.69835 -2.14289 -0.867519 -0.876492 2.772 -2.25501 -1.28037 -0.837367 0.586383 1.49773 0.899136 1.24302 -2.29933 2.45491 2.02344 -2.81301 2.00464 -3.1229 3.528 2.0376 2.32136 0.441054 -2.05518 -2.48286 3.52702 2.38227 -2.03015 -3.67449 1.1619 -2.83572 2.96078 2.14631 0.90817 -0.45558 1.23838 -1.76043 2.30946 2.91208 2.57002 -0.501663 -1.89068 -3.22343 -0.795007 0.83578 0.580706 -0.719932 3.84167 -1.21165 0.221015 4.60567 2.89773 1.20231 -1.80615 -2.83956 -0.538652 -0.1189 -0.116947 2.40803 4.29682 1.0701 2.94198 2.22297 1.27879 -1.34953 -0.792016 0.643696 -0.367748 0.921232 -0.138066 -2.09961 -0.646931 1.83953 -0.798242 2.59017 -3.8197 -2.40126 2.40986 1.87432 -1.49821 1.41819 2.68715 -2.4228 -3.43937 1.41606 -0.869961 0.0567034 2.34596 2.44533 -1.27604 1.72192 -1.46702 2.76577 -0.171087 2.07703 -3.142 -1.57463 2.53236 4.16138 -1.70617 0.22956 1.24497 -1.73534 1.40819 2.16956 -1.08695 0.788781 -2.7261 0.187628 -3.7774 0.134526 1.31156 -1.84588 3.17148 -0.513565 2.43464 -2.07196 2.38282 0.370983 3.87506 2.38093 1.53716 0.861843 0.0645771 0.255379 -1.70525 -1.68847 -2.05628 1.73547 1.08719 0.479568 3.07779 3.60131 -0.850978 0.932951 0.949126 -3.15323 -0.83169 2.59816 -0.191351 1.63274 -0.0715963 3.33366 -0.546464 0.448134 2.31751 -2.59719 0.310678 -1.63787 4.07978 0.71926 -0.800134 -2.76656 2.68441 1.74078 -3.84814 0.756859 -2.31379 1.8869 -3.34367 -0.779992 -2.04627 1.35508 1.71307 -1.15244 1.13968 2.2093 0.0644551 -1.39488 -1.23289 0.618793 -1.01724 1.33885 2.31104 0.1189 -0.01471 0.127201 -0.356334 -2.22968 1.85644 0.717673 1.22379 3.09323 1.3469 0.924406 1.40336 -2.35298 -2.06885 -0.137211 0.224982 1.13779 2.99081 1.89428 1.08829 3.91955 1.8045 -1.84454 3.65697 1.77203 0.718528 -1.44749 5.38456 -1.17374 -2.1305 1.08676 1.02994 0.512833 1.83959 3.39372 1.54375 -1.59142 2.61342 -2.63186 3.69323 2.85849 -0.782372 -0.250862 3.80627 1.24369 -1.58727 -0.458571 3.00754 -0.225959 -1.1832 3.14743 -0.678854 2.68007 -1.16861 -3.91394 2.01654 2.67544 0.74984 -1.82751 1.56975 -3.42857 -2.58266 -0.968719 0.61916 -0.0870388 -2.17628 0.824732 1.28629 -1.48833 -4.00104 3.06326 0.24073 0.756798 3.58818 0.378857 2.88052 0.568743 -1.5175 0.134831 0.00567648 -3.11905 -0.119999 -1.25578 0.359081 3.51836 0.148625 3.57653 0.408826 -0.652364 1.87243 3.32359 -1.25175 -1.42039 2.44942 -0.296762 -1.51225 -2.9086 0.62093 -0.627583 1.01474 0.649434 -0.694906 -3.07364 -3.50591 -3.09604 1.11002 -2.14063 -1.51189 -2.965 -3.09873 -3.6389 0.0660421 2.9183 -0.199896 2.82449 2.7828 -0.308847 2.98544 1.93744 -0.10065 -0.407178 -2.32496 -1.76122 -0.780419 2.95175 3.66399 2.00757 -1.07974 2.1963 -3.21183 0.363964 -2.25245 0.765526 -0.301401 -1.54308 -1.04337 -1.20835 -1.69054 -2.38844 -0.633198 1.43126 -1.69536 1.31339 0.910306 1.72106 -3.92743 1.90277 2.04852 -0.169439 0.446303 0.855922 2.42842 -1.41063 -2.37825 1.5269 -3.84161 3.16282 -0.366039 3.22446 1.07572 0.749352 0.758446 3.50151 1.37883 0.179815 2.22163 1.52892 -0.993805 -2.71438 -2.41212 1.43156 1.12845 -2.08008 -2.79653 2.459 -0.864772 2.49916 0.0673848 0.86874 -1.51292 -0.0568865 -0.489395 -3.60674 2.81143 2.89138 1.0513 0.171026 -0.385022 -3.9364 2.80789 1.00925 0.988067 1.64861 -1.16105 -3.1381 -1.32359 -0.41377 -2.20905 -1.60894 -3.10483 -1.3726 -2.77804 1.48973 0.260689 2.0398 -2.0166 1.64074 -1.78753 -0.162419 -0.970367 0.986969 1.30473 -4.58925 1.03305 -1.01364 0.738975 -1.57317 -2.82247 -0.470107 -1.48637 3.88012 1.50902 -0.607623 3.5667 1.16623 -0.787072 0.897793 -2.7159 -2.94559 3.19889 -2.33222 -0.247505 2.43312 3.36283 -1.66765 -1.87432 -1.29698 0.905362 -0.92349 2.48872 -2.30396 2.07959 -2.10291 -3.41783 2.99063 -2.25709 -0.553484 -1.22398 -1.49986 -2.91061 -0.66335 2.65444 -1.78753 1.93554 0.778954 0.595721 -2.779849 -2.0625 -1.56413 -0.279183 -1.97131 -0.887906 -1.64226 1.58013 -2.30641 -1.96344 2.8804 2.96103 0.19837 0.104862 -2.64107 -0.814661 -0.589984 -3.78796 1.61394 1.27622 0.814112 2.24519 0.960112 -1.6364 -2.21027 1.75072 -0.300424 0.711997 0.0365612 0.160771 1.94946 -1.26554 0.0215461 -3.05441 -1.32127 3.3798 3.32829 2.07294 -0.164678 1.25651 2.77578 1.14505 -1.57067 -2.12159 0.188665 -2.40736 -0.543962 -3.60057 -2.31092 0.297616 -1.47313 -2.78298 2.38838 3.01859 1.08884 -4.18305 -3.65056 -1.99994 -2.89761 0.23603 -0.29725 -1.86731 -1.94134 -0.483047 2.77932 0.044557 3.20334 2.52944 -2.85269 2.49806 1.84924 2.53438 1.42039 2.46437 0.650533 0.865749 1.71227 -2.74532 0.71041 3.10276 -3.38163 1.08084 -2.59926 -0.888699 2.59499 0.418287 1.76904 0.326548 1.60814 0.551958 -1.59655 -0.348033 -1.06339 1.67504 2.63759 -0.647542 0.99527 0.917325 -2.03864 0.313242 -0.944365 -1.32066 -1.47642 0.0415662 0.743614 1.64568 -2.41017 -1.21525 1.18186 -3.14847 0.839869 3.1417 1.65813 -0.817957 1.37535 -1.46013 3.69103 0.67336 -0.687643 -0.0424817 -1.63109 -2.00549 -3.16385 -1.7412 0.839015 0.485427 1.59099 -0.474929 -0.183172 1.12113 1.28092 2.75039 -2.00281 2.78451 0.357738 -2.71865 1.23673 0.215705 1.6679 -0.626606 -1.61443 -1.98096 -0.0629292 -0.76223 1.64263 1.09671 1.96515 -0.0412 3.30802 -0.111515 -3.59477 -0.349498 2.811 2.79257 -1.99145 2.23206 3.88531 2.1377 -0.800867 2.19398 1.76672 0.0888089 1.86334 0.733848 0.291513 -1.14542 -1.7749 -1.36839 -1.2338 1.57573 1.68072 1.24351 0.487014 -1.73211 -1.52995 -3.01199 0.782128 -2.80563 3.05979 -3.30113 -3.54711 0.0432142 -1.89056 3.22117 -3.51207 3.2841 -0.0954008 -1.37913 -0.0739769 -1.92047 0.117313 -3.60668 2.74245 1.1279 -3.21397 -1.96753 -0.36726 -3.19285 1.37522 -2.65511 -1.42717 1.00211 -3.2009 -0.117557 2.0238 2.98404 5.28153 -1.13614 0.661702 -2.27943 2.92367 2.96689 -0.492264 0.991912 -0.138432 1.35942 -1.67156 -2.31715 -3.11795 -0.649373 -1.81298 1.63463 1.37614 2.03265 2.01599 -0.578814 -0.498672 -2.71041 3.09049 4.43434 -2.56838 -0.450392 1.27323 -0.353832 -1.43077 -0.347362 -1.09116 -2.57247 3.58904 2.21247 2.24146 2.79537 -3.80346 -2.15699 0.229316 -1.53612 1.4727 1.63103 -3.36369 -1.92145 -2.32521 3.2208 5.26884 0.00103767 -1.61943 1.89575 2.23524 0.0260628 -0.164007 0.0239876 3.10892 1.40263 0.393994 -1.7517 2.85855 -5.46574 -3.08823 -4.20875 0.43086 4.73525 -1.01456 -2.74526 1.85589 2.41371 -0.106326 -0.716147 -2.25068 2.06409 -0.870693 -1.52361 3.09043 2.43477 -2.60872 -0.0937528 1.14652 -1.74792 0.911039 1.64171 1.42253 -0.12476 1.99261 -1.37101 -0.492874 -4.74575 2.63576 -2.68093 0.694418 0.56801 -1.87713 0.411084 1.25254 -0.0831934 1.4387 -0.912076 -0.784875 2.44575 -0.596026 0.120365 -3.42558 -0.728233 1.3936 3.21079 0.744102 2.59004 1.51457 1.95691 -0.828822 -0.664266 5.1229 1.80499 0.975188 1.77654 -1.45201 -1.62664 -2.52028 -0.593585 -1.09378 -2.48506 1.52281 0.523331 0.873074 -3.50139 -0.588153 -0.141423 1.29148 -0.316294 -2.5956 0.636677 2.49257 2.0586 -1.41307 1.44127 3.20145 2.02496 2.026 2.25837 -2.09687 0.797327 0.0686056 -1.92425 3.54607 1.79485 1.66607 -1.58782 0.454421 -0.599384 -0.403699 -0.849086 0.329539 2.46382 1.45964 1.05197 -1.79174 -0.0831324 2.32221 -0.679098 1.26139 -0.111515 0.883633 -1.39341 1.29881 -0.320689 -2.95663 3.80236 -0.135319 -0.0160528 0.740257 -0.971343 0.790429 0.7275 -2.06128 3.17002 -0.91409 -0.105045 1.64202 -3.6599 -2.96097 -1.27097 -2.19935 -4.34541 2.40443 -1.33183 1.99603 -1.31999 1.54979 3.40287 0.771142 2.94015 0.441237 -2.57601 1.48741 -2.14948 0.337413 -3.5612 0.575823 -2.54079 1.0698 -0.971587 2.06537 2.365 -3.21506 -1.07791 -1.74224 -2.80844 3.02298 3.26518 -1.5739 -2.00726 -1.99603 -1.74749 1.4127 -4.04035 1.00497 1.50658 -0.00183108 -0.190863 2.69326 -1.4312 -1.07743 1.22636 2.29926 0.887234 0.426038 -0.261116 0.49794 -1.33158 1.19077 1.39171 -1.12204 -0.0261238 -3.44511 -0.394238 0.870022 1.4312 1.87585 -1.41087 1.01224 1.93902 -1.08451 1.67797 -0.573565 -1.26048 -0.873928 -1.01682 0.380261 1.2316 -0.292612 0.715415 -2.19068 -0.0978424 2.31404 2.56606 -3.32243 -2.2508 -1.71569 1.51653 -0.954802 -2.42628 0.27015 2.45412 3.72637 2.51076 0.137883 1.96533 0.403943 -0.820704 1.01883 -0.314524 -4.91598 2.82632 -2.61733 1.57799 -0.241524 -2.16645 -2.98941 -2.48329 1.15439 0.971343 -1.26005 1.55034 -0.555498 0.76516 -0.141362 -2.78091 -2.20576 0.357433 1.02237 -3.69659 1.61895 1.23624 0.57094 -0.624165 -3.57408 -2.79592 2.11786 0.532365 4.663738 -0.0336315 -2.71285 -1.32054 1.64397 -0.289316 1.47533 -4.24934 -2.17267 2.05341 2.51064 2.22797 0.326182 -1.27134 0.0869778 -1.6599 -1.48094 -0.605121 -0.155583 -0.678121 -3.75787 -0.0670186 1.97497 -2.90487 0.233467 2.61171 -1.77508 2.76156 -1.83648 1.49474 1.17362 0.270455 1.12735 -3.53294 1.65642 -0.356273 -2.52809 3.25163 0.215461 0.128849 0.835292 2.7922 -3.55486 -2.34187 -2.73019 -2.61873 -1.88543 -3.01358 -3.67077 -3.09592 -0.0653096 -3.11539 2.98935 -3.42729 -0.147893 2.7615 -2.7214 -0.469008 2.73904 1.09079 0.500504 -2.30226 -0.641377 0.0189825 -3.09171 -1.76855 2.47731 4.52687 3.72338 -3.01706 4.00092 2.51973 2.3592 -1.68151 -0.991058 -1.77526 -2.26576 -1.3173 -1.43571 3.26579 4.54628 3.28001 -0.832362 1.79382 -0.622272 1.24851 0.738792 0.0476089 -2.48073 -1.2996 0.99472 -1.28233 1.37364 -0.995941 0.10181 0.491592 -0.677877 1.68438 -0.524674 -2.84823 -0.0715964 1.31462 -3.39622 -1.39396 2.35115 -0.223518 -2.22889 -1.78045 1.84375 -0.73983 -1.4481 0.828822 -0.784875 -2.61562 1.95593 -0.190558 -0.874477 1.80688 2.09503 -4.42659 -1.90545 1.70122 1.24937 -0.127873 -0.905911 1.47874 0.206793 0.276986 -4.39839 -1.87494 1.75115 -2.78292 -0.00744649 -0.470046 -0.828089 -2.05451 -2.86142 1.18394 -2.32405 -2.19044 2.09705 -1.38292 -1.43107 1.20261 -3.24277 -1.04471 -1.91198 -3.43248 -1.67418 2.96927 0.755699 -2.16535 -1.48033 -3.01102 1.13419 0.658467 -3.65148 0.0621967 -2.14765 1.83911 -2.64443 3.72906 1.78014 -1.70415 0.195868 -0.211249 -1.77245 -2.0293 -4.57668 1.43504 -2.95724 -0.96292 -2.63198 -2.86892 0.481582 1.78808 -2.03107 2.60469 0.726707 -4.42103 -2.55409 0.332774 -3.06937 1.20096 0.683981 -0.104862 -0.343394 -0.943938 -3.80145 0.570086 0.592181 -2.48311 2.56752 1.54552 -2.58699 1.83642 1.1937 -0.87521 -2.33174 -0.0108036 -1.71679 -3.70232 1.56621 -0.18128 -3.09378 -1.94476 1.53087 -2.13831 0.0203254 -0.180364 2.41041 -3.77062 1.32908 0.368725 2.20521 -0.0827662 -1.14786 2.62581 1.1981 -1.08029 2.08081 -0.307382 -2.64498 -0.475661 1.59532 1.49962 -0.124516 -2.83816 -3.98389 -0.552507 -1.23331 1.18375 -0.830287 0.416272 -1.68487 -2.05347 0.335337 -0.482376 2.33326 -3.42521 -1.54216 -1.03714 -0.948332 -2.22059 1.19266 -1.57604 -2.46101 -1.89581 1.66369 0.261666 3.51585 -0.021363 1.80651 2.99545 -1.55547 -4.04993 1.17252 -1.60894 -2.23206 -0.529557 -1.93115 1.54082 2.16993 0.611713 -2.08997 3.30876 3.73437 -0.91232 -2.34565 -1.47905 -3.12046 0.954253 1.20206 -0.728599 -2.06079 1.36503 2.62954 -1.27976 -0.73281 -0.243355 4.13367 0.758995 -2.25892 1.83758 1.56236 0.918729 3.53948 0.758202 2.40779 1.89489 1.06638 -0.164373 -0.86813 -0.935881 1.90039 3.20603 -1.2935 1.36863 1.64287 -3.21598 1.23734 -1.05686 -1.46379 1.90075 -1.45091 0.857692 -2.26423 -2.00317 -0.392651 0.354076 -0.900296 2.74471 -0.348949 2.94882 2.38148 -2.02441 -2.09033 -1.22184 -2.30665 3.78759 -1.21574 0.560625 -2.87942 -0.794519 3.36064 0.551469 -0.644124 -2.22614 -1.86364 1.86493 1.23508 0.452589 -0.166631 1.53722 2.0448 0.190985 -0.830164 0.709067 4.47969 0.560625 0.469375 1.29734 -1.87878 2.8135 -0.0188605 -1.46294 -0.681967 -0.252388 -2.21461 -3.23618 -2.66482 0.751671 -1.83953 -2.18714 2.65706 -1.59679 1.28526 -2.58797 -0.691366 0.998566 -2.84841 -1.05936 -4.91989 1.38536 4.56667 -2.06897 -0.479141 0.476211 -1.89007 -3.31266 1.58361 -2.18323 3.93292 0.396558 -1.2078 -0.417127 -0.736839 -3.89508 1.80798 2.38289 -1.49931 -2.05853 0.268685 -0.760338 0.769982 1.95202 1.77575 0.12714 -2.1894 -0.0696433 1.90643 1.43718 -2.92062 -0.385205 1.12314 -1.25077 2.93576 -1.3723 2.45619 -0.717002 2.79067 3.53087 -0.164068 0.401684 -2.90933 -0.626667 -3.05307 -3.45152 4.01227 1.10886 -1.51695 0.986114 -2.25776 4.25178 -0.327769 2.71541 -0.77926 -1.84753 1.95239 -1.04959 2.2179 -2.73501 -1.32878 1.52232 -0.378063 1.78088 0.682394 -0.413587 0.815088 -0.994964 1.71661 1.0126 1.00766 2.85098 -2.60048 0.825648 -0.589251 0.824671 -2.20386 1.08017 -0.882473 3.87939 1.35044 -1.46361 -0.428419 -1.49065 2.0998 0.517716 -3.50346 0.464064 -1.9624 -2.67855 -3.8385 -0.549333 2.50099 3.56169 0.856349 -1.7929 -3.54711 0.813929 2.45344 -0.684042 -0.456618 -2.05896 -1.06815 1.13523 -0.18714 -2.52547 -1.26414 -1.77831 -0.0755639 -3.57707 -0.156072 1.62242 3.79186 -0.111332 2.42518 0.405408 -0.520096 -2.13965 -0.0441297 -0.18836 2.25709 3.56352 -0.327525 1.39628 1.66759 1.73809 3.23466 -3.46281 2.50417 3.22355 -3.52519 2.68844 1.55284 0.220222 -2.89084 -2.25404 -0.0113529 0.609149 -0.716391 -0.0880764 1.29173 -2.3028 -0.168951 0.419263 -0.355397 3.77239 -0.885708 2.50508 1.11649 -2.16761 -2.66842 -0.00469984 2.21143 -0.125553 1.15561 -3.11405 -0.181036 0.10889 -0.415967 1.29014 2.27967 -2.5179 1.8786 -2.87497 2.73617 -0.1236 2.46089 2.9208 2.21522 0.364879 -0.353038 1.11625 1.23301 -2.10205 -0.906583 -2.77389 -2.20222 -1.20835 2.82595 0.248604 -2.31202 -0.602191 0.732749 1.68926 -1.12406 2.32789 1.39109 0.579119 -0.0224616 -1.39305 1.10697 -0.141118 2.59951 -1.86804 2.03845 -2.49568 1.45952 -1.18955 0.281991 -2.2284 2.15546 -1.24711 2.79379 3.93182 -1.54186 -2.10474 2.02094 1.87402 1.00168 -2.57363 1.12137 1.95166 1.24851 1.39525 2.64211 -1.55632 2.60158 0.871914 -4.46571 -1.99017 -3.45946 -0.960418 -0.619831 0.512223 1.65783 -2.40999 -1.29661 1.57897 3.46434 -3.2006 -1.75579 0.285958 2.84774 -0.341014 0.0662862 -0.670125 1.05234 -1.5659 -2.62215 -0.931181 1.0568 0.0308237 -2.06299 -3.19547 1.22642 -1.46147 -0.0814234 -1.31663 1.1135 -0.670126 -0.884182 -2.41273 -2.71938 -0.910184 -1.64415 -3.60637 -0.976287 -3.8518 -2.0022 1.97687 -0.133671 -2.50557 2.3932 1.32615 4.70486 -1.15659 -0.817103 -0.842372 0.475234 0.13477 0.304331 2.39161 0.219794 0.834498 1.5847 0.872951 -1.57445 -2.58345 1.79516 3.7083 -0.487381 1.40001 4.04071 2.59572 1.34532 0.314951 0.361644 -2.47829 -0.358165 1.97375 -3.5797 -1.79949 -0.842982 0.421705 3.14988 0.629109 1.51494 -2.05774 -3.76415 2.1363 -0.438063 3.4926 -1.68548 0.298471 2.12287 -0.0581073 -1.24912 1.0969 -0.975433 2.49342 -2.11951 -0.30726 0.274422 0.655293 0.588946 -2.80612 -0.743126 0.147588 -1.90106 2.79043 -0.168584 -0.891873 2.8453 0.628559 -2.7972 2.98276 -2.69033 -1.19248 0.441053 -1.53368 3.69366 -0.137089 -1.4774 -3.12296 1.29875 -1.87939 -0.227607 3.3328 2.49672 -2.70797 0.57741 0.107547 -1.84216 -2.31312 1.24961 -1.45561 -2.58376 -1.58342 2.91299 -0.104617 2.64565 -2.03253 -0.71334 -0.531144 0.521378 2.51381 -0.755394 2.45381 -1.95593 -0.651265 -1.97845 1.80126 0.398083 0.808923 2.94223 -3.46617 -2.47926 2.06391 -0.449293 2.86135 -1.74096 -1.85107 2.01245 2.47334 -1.01413 -0.384533 -0.336314 -1.60979 -0.447279 2.1728 -2.41444 2.74129 -0.546587 -2.30287 3.07712 0.847621 -0.927152 -0.0164189 -2.1012 1.98633 0.899075 -1.38536 -1.83093 1.20762 -2.43239 -3.67895 1.78027 -1.4171 -0.379284 1.20945 3.21427 0.256905 1.84948 1.23283 3.63359 -4.32081 3.09793 0.27839 0.11713 -2.60884 2.40376 1.24644 -0.0770897 1.74236 4.3495 1.49767 -2.35322 -1.08878 -1.50139 0.0415053 3.15677 -1.3936 1.7951 -0.156926 2.17231 -4.1789 -1.20499 0.621174 -0.628132 3.0195 -1.38658 -2.48689 1.8952 -0.875576 1.45433 0.984222 1.11948 1.68932 1.60198 -0.649678 -1.41447 -3.37962 -0.250679 1.29704 -0.0532242 -2.16852 -0.464064 -2.23749 0.815455 1.20231 3.17319 0.565081 4.38417 -4.78402 1.02817 3.14609 0.693869 2.65334 2.04785 -1.19437 -2.57265 -0.286691 -2.11188 1.80663 -1.89996 -1.05686 -0.36494 -1.28159 1.52373 -1.65783 -2.01819 3.38127 -1.58043 -2.97385 -0.255135 -1.14164 -2.94504 -0.183538 3.59032 -0.239387 1.77734 -0.862636 -0.155339 2.30763 -1.67754 -3.40892 1.26945 3.51103 1.77197 -1.41136 3.66881 2.84658 1.03146 -1.59014 -0.790185 -0.20484 -0.288949 1.0676 -0.671468 -1.374 -0.724754 -2.64785 -3.90436 -2.20454 0.345103 1.43205 0.920682 1.34007 0.019837 -3.62041 -0.535905 -0.364818 1.10141 -1.99158 -2.3625 0.896756 1.08817 -2.6169 -0.435499 4.80013 2.81973 -1.61113 -1.62438 -0.409986 0.644124 -1.27079 -1.28202 2.06037 -0.0153813 -3.27305 -0.154057 -2.22761 0.17774 0.307932 2.17725 0.89346 0.46205 0.535722 0.182073 -0.973907 0.989105 -1.92114 -3.515 2.40504 4.73263 -1.01736 2.05115 0.835414 2.17219 -1.88177 3.33451 -2.24964 0.625019 -1.31053 1.26164 -1.24186 2.10041 0.166509 -1.07273 0.0581073 -2.44728 1.02652 -1.12601 0.0978424 -2.59029 2.6733 -1.16556 -0.150273 -3.75347 2.91073 0.809412 -0.924467 1.48466 1.34654 -1.64501 -4.03681 -2.01056 -2.8981 -1.04099 1.50175 -1.55931 -0.80166 0.374889 1.97467 -2.64882 -1.99915 -2.20618 0.947539 -1.39024 0.0915555 4.72738 0.119205 0.422376 -1.05509 2.47407 2.41816 -2.47487 -0.212958 -0.948881 -1.28617 -1.45109 -2.99515 -1.54241 3.52287 0.404431 2.49043 1.15128 1.07895 -4.43306 1.28343 -1.38957 -0.85171 -1.86499 0.899258 0.857326 1.96014 -1.46373 2.70925 -2.18439 -0.37019 0.758019 -2.25037 -0.617389 1.45012 1.97528 3.33738 1.0828 -1.57677 -3.54747 2.86312 0.185553 2.41108 1.59508 1.14237 1.15738 1.27696 2.02087 -0.307138 -2.67428 -0.604694 3.53447 -1.68145 1.62944 -3.09665 0.871487 -0.627277 1.32688 3.06894 1.09348 -2.92508 -3.204117 1.15183 4.50465 0.261177 -1.46678 4.1319 0.968108 0.932463 -0.488235 2.67904 1.49583 -3.00986 1.97095 0.740806 -1.01474 1.5208 -0.686483 2.1222 -0.0187994 3.01205 -2.29408 3.43132 -0.664144 -1.12479 -2.9852 -1.2302 -4.35902 -3.3552 -1.29496 3.53862 -2.68966 3.23423 -0.426649 0.734947 1.18436 -3.37919 2.19355 5.1204 -2.46718 -1.66448 0.947356 -1.37443 3.33348 1.13266 0.515641 0.378124 -2.30506 -1.78674 3.7069 2.71749 1.30821 -1.62004 -0.506119 -1.42015 -0.209113 3.4948 2.141 -0.374523 0.810083 2.61721 0.287545 0.480911 -1.14939 3.19749 0.869594 -3.52409 -2.49251 -0.301035 0.753136 4.24653 -0.823389 -1.9743 -1.04886 2.57851 0.0193486 0.12891 0.303598 -3.12741 -1.9248 -0.831629 1.49205 -1.40294 -1.60112 -2.39552 0.266549 3.11008 3.09372 -3.40587 0.756737 1.22337 0.119755 1.06577 -0.254891 1.88391 0.752342 0.850185 -1.22361 3.3469 1.55913 2.24085 0.976775 -1.78368 -1.21928 0.357616 -0.540361 1.72826 -3.01822 2.69289 -3.80767 -1.35063 -0.148625 2.20936 2.1999 -1.82952 -0.973907 -1.63158 1.97607 -1.83471 -1.1865 0.465896 0.985992 2.19129 -1.31364 -0.357555 3.12394 2.60945 -2.5721 -0.0463881 1.01157 1.19395 -1.20121 0.866115 -1.99597 0.611408 2.60237 -0.439283 -1.21561 2.14014 1.02518 1.41374 -0.583758 -0.991974 0.123966 3.03403 1.73528 0.721702 2.33723 2.22925 0.949919 1.76415 -2.10541 1.27628 -2.67238 0.0322275 -0.998993 -0.126774 -1.15537 2.39485 0.666402 2.14332 1.66759 -3.26121 0.0617695 0.0703757 -0.650166 1.88739 2.27338 1.73943 1.61199 -3.2454 0.327769 -3.24516 -2.417 -1.87664 -0.631489 -0.78396 0.378735 0.409925 4.8547 4.61953 1.88977 -1.20005 0.657063 -2.9321 0.65627 1.12418 -1.07004 1.15964 3.70342 1.85247 -0.370067 0.929777 -0.787622 1.5786 3.55797 -1.7766 -3.09659 1.37529 -1.19974 -1.12705 5.00394 -0.612812 0.443312 -0.944426 -1.32371 3.04526 -2.56423 -1.79656 2.78555 0.26899 0.475784 -3.15354 3.87341 1.04147 -1.20573 3.75762 2.22053 -3.28013 1.71435 -3.22208 4.87094 -3.53056 -1.14274 3.69909 -1.51146 0.18482 2.8724 3.57048 2.9299 -0.71865 0.565264 -1.18357 -1.60363 -1.27177 -3.69945 0.529679 1.05441 1.69823 1.55138 -2.68032 -4.01434 2.20881 2.47322 0.0935697 -1.64782 -0.867763 -0.623981 -2.863 -2.35572 0.947783 3.9707 -0.120182 1.893 2.60848 -1.73894 1.71184 -1.28581 1.90399 -3.03543 0.231758 0.0682394 -3.31352 -0.675008 -0.700949 1.60149 0.343516 -1.79681 1.26566 1.45091 0.882534 2.31574 -2.23707 -2.61507 -0.987335 -2.50594 1.41783 3.15403 2.59096 2.84664 -1.12638 -1.07297 -1.18986 1.68944 -0.508866 -3.30937 1.50664 -0.870144 -1.89636 1.48204 -1.04233 0.170049 -1.79778 1.33384 -0.453139 -1.78881 -2.07489 0.805078 0.67275 -0.169805 1.22782 -1.02609 -1.72747 -2.29548 -1.39366 -1.23692 0.340587 -2.43855 1.75207 -1.51964 -0.189276 -2.97476 2.50942 -1.55754 -1.81481 0.237617 0.51381 3.56005 -0.723655 -1.87365 -0.114444 2.75961 2.44295 0.198614 -0.647908 -1.88433 -3.30644 -2.26905 2.17444 2.56941 1.03183 2.23499 -1.74535 3.10703 2.41859 -0.93173 -1.2017 -1.7243 -1.27396 -1.92773 1.90381 -1.09098 2.06067 -0.893338 -0.539262 0.939726 -0.173956 2.35615 -0.276437 1.17154 -3.09543 -4.71126 -0.0568254 2.88986 0.331126 0.135075 1.42656 0.178961 -2.16773 -4.23402 -0.598773 1.8305 -0.388867 1.84637 2.06043 -2.29139 -3.25517 -0.867397 -0.838282 0.452834 1.57872 -0.200568 -1.4442 -0.608173 -0.516129 -0.340342 3.02042 -2.45747 1.36045 0.161199 3.77245 -1.42845 2.25422 -1.96973 1.03726 -1.40977 -2.53084 -1.56066 2.04559 1.66295 1.54485 1.57335 -1.16489 1.9002 -2.52388 -1.53233 0.233711 3.01236 -2.44838 1.99823 -1.60485 -1.8001 -0.817408 2.88998 0.265694 1.25596 -2.90072 0.628803 0.354747 -4.24976 1.29118 3.14408 1.18625 -0.8193 -1.93817 -2.86123 1.80352 -1.04617 -0.4214 0.946745 0.704184 -0.917508 -2.71364 -2.21564 1.58055 0.464553 -1.43278 3.27836 0.238594 -2.3741 2.01355 -0.859645 -0.92819 -3.20273 -1.30345 -1.13358 -0.534196 -1.79669 2.80013 -0.666341 2.50624 1.43712 0.996246 -1.82928 -1.63353 -1.20499 -2.05963 2.77761 -1.24747 3.44877 1.25608 -3.13309 -1.22739 -2.67275 -0.611408 -1.59374 4.61715 -2.41444 3.69988 0.831507 -0.586444 -3.46678 -1.81964 3.41014 -0.360179 -2.09998 4.15571 2.62667 4.464 2.31166 -2.64504 -3.53197 0.391369 -1.14853 -1.27128 3.48283 1.59001 -0.414869 0.376965 -1.51561 -1.72979 -0.0829493 -0.0266122 0.784875 -0.503922 -4.33833 -0.942778 -3.1793 -1.20072 -2.30049 -1.4359 1.05618 2.97311 -0.907315 0.977081 3.03256 2.4225 3.5385 0.468032 0.442579 1.44285 -1.96771 0.407666 2.10193 2.80276 0.618 1.6165 1.454106 -0.992523 2.09735 -3.26646 -0.827357 -3.38273 4.57704 0.077395 0.660665 -2.00531 1.72594 -3.62651 1.78484 2.85659 -0.38197 -0.273995 -2.74392 -1.99457 -0.962432 2.20325 -0.391369 -2.38203 -1.88208 1.41856 3.96197 0.459914 0.193121 -1.52348 -0.320872 2.40693 1.73528 -2.33753 0.801904 2.64583 1.25211 -2.75216 3.13047 -2.07031 2.02112 2.78933 1.82922 1.26359 -0.466079 -1.70666 -0.569781 -0.607074 0.527787 2.62569 -1.89032 1.47484 -3.52367 2.53395 -1.88623 -2.70028 0.418653 1.66613 0.207099 -2.55208 -2.00403 2.95535 -1.98077 -2.25404 -0.422559 -2.25538 0.16657 -3.5941 2.34571 -4.96805 -1.97943 0.217902 3.21732 -1.794 3.00052 -1.82733 1.47581 0.647969 -0.736473 2.88894 -2.01019 -0.421522 1.67083 0.220038 1.89257 3.51866 -1.10129 3.416 1.59612 0.745079 -4.42451 -3.78576 -0.981964 -1.88781 -0.683676 -0.762963 -2.10633 1.61589 2.53145 -1.93542 3.0488 0.0734886 0.881558 1.36772 -0.491775 -0.700766 0.259285 1.46721 -1.68407 0.143376 -1.83312 3.69811 -0.0587786 1.7749 -2.63192 2.95486 2.14429 3.58226 1.68896 -2.21046 1.18021 1.06449 -4.16028 -1.55797 1.21134 -2.90884 3.14023 1.17191 -3.19218 -0.0961333 -0.987579 1.27287 -2.59273 1.23441 2.1261 1.13999 0.611713 -2.08423 -2.93429 -0.232856 -0.80575 -1.6397 2.39729 -3.94958 0.692953 3.28043 -1.99438 -1.73205 2.46504 2.0246 -0.415113 2.11927 -2.9238 -0.0915555 -1.85272 -2.31166 -3.09677 1.91064 -1.56523 -4.28242 0.819056 2.11206 -1.89923 3.55736 -0.157598 2.25214 -0.457595 -0.829798 4.62093 2.77712 2.25501 -0.43202 1.62523 -0.244697 -2.41408 2.05042 0.932157 1.03555 1.76171 2.6241 0.46321 -0.979461 3.06235 3.9779 -4.43526 1.43626 1.0206 -0.613971 -1.20432 3.46397 -0.480483 0.916532 0.801416 0.617878 -2.33705 -1.68096 -0.850368 1.73901 0.293527 -3.03067 -1.99738 1.4799 0.0367443 -2.76058 -0.501541 -2.34077 -1.25968 1.67718 1.7199 -1.14469 0.190191 4.36128 2.12244 1.61998 -2.02832 0.81399 1.30131 2.68215 0.356883 -3.15751 -0.0339366 -0.4803 2.08893 2.68508 0.00360108 -3.32566 0.939909 0.834864 2.5002 1.1821 -1.08225 -2.07709 1.60082 -1.50395 1.99591 -0.973113 1.07895 2.27808 0.241951 -1.21476 0.49263 -0.569292 2.21973 -2.30671 -2.19947 1.74773 1.5388 -2.0495 -0.684652 -0.444899 -0.571001 3.241 -2.13367 4.72195 -2.78793 -1.18461 -1.95001 2.41005 0.54799 -1.74425 -4.5605 2.94418 1.3278 -2.70791 -1.36766 1.17215 -0.90762 1.05032 -2.99429 2.69295 -0.152226 1.10477 -0.937834 2.32704 2.15412 -3.29063 -1.76855 2.20338 0.364025 2.58614 -0.987335 -1.16062 -1.11612 -2.36183 4.32374 0.588458 -2.66652 -3.0253 -1.06064 2.82699 -1.52184 1.60845 -0.110843 2.26215 0.812098 0.212287 0.690451 -0.270272 -2.33845 1.30491 -1.70592 2.85995 0.689596 0.239509 1.6151 -0.0157476 -0.328196 -2.62636 -1.47655 2.66176 -3.57707 -4.20673 -3.82665 0.194525 2.74465 0.967498 -2.45979 -2.48665 2.27241 0.704856 1.04611 -2.1966 0.0970488 1.79388 0.144658 -0.751671 0.0336313 1.6942 -4.25739 -0.734458 -0.586932 -2.33943 2.33338 -0.390149 1.27427 -0.33076 2.71273 -0.281747 -2.17316 -0.475478 2.1601 3.67278 -0.933622 2.52144 0.953032 -1.84594 -1.59178 -1.96393 0.0933255 0.764977 -0.777001 1.42296 -2.88125 -1.90759 0.145695 1.58855 2.8768 0.890164 -0.969634 0.623737 2.13215 1.75152 1.43205 1.86291 -1.11197 0.649068 -2.5168 -1.25156 -2.70852 -2.28083 1.04807 -1.12406 -1.00082 -1.33891 -2.98013 1.5927 3.88165 -1.87237 -1.35289 -0.473159 -1.06528 0.486953 2.75521 2.42073 2.28169 -2.67818 0.740135 1.64403 -0.868618 -0.950041 3.21567 -2.23841 -1.42387 0.0338145 2.17817 -2.46852 0.0982086 0.558428 -3.42607 -1.29331 0.663228 -2.94717 1.13877 3.01706 1.27482 -4.07337 -1.61626 1.70586 1.86444 2.39955 -4.39088 -0.00268567 -0.608051 1.69793 -3.1876 -1.13468 0.0336924 1.99493 -2.62831 2.48653 -1.67028 0.465346 -2.62288 -2.25642 0.167852 -2.16553 -2.51357 2.16199 2.47822 -3.20585 -2.82192 0.648335 -1.48582 -2.34053 3.27787 1.41136 -0.40492 0.644368 0.633931 -0.565935 2.18183 -3.87176 0.816675 -2.12018 -0.833033 0.291147 0.714927 1.79888 2.24909 1.48894 2.90677 -3.48271 -1.73241 0.747887 -0.321665 -2.91989 -1.62529 -2.24989 2.56734 1.12387 0.917508 -2.31275 -0.697714 3.55309 2.90609 2.3545 -1.9812 -2.60231 -1.0568 0.863857 2.62062 3.22581 2.48909 -0.651265 -2.83309 1.48253 4.33711 -2.96463 1.15641 0.138188 -2.82351 0.0572527 -2.41389 2.01306 3.11588 2.38551 1.65716 4.15748 -0.960234 -0.74752 0.00500495 1.66271 2.68111 -3.55632 -1.6715 4.27509 -1.72472 -1.17185 -2.70931 -3.80975 2.67788 1.50999 2.56978 -0.596149 4.81631 -1.03018 -1.06766 2.98764 0.306549 -0.425611 2.20661 2.67556 -0.559526 -1.17228 -0.973602 -2.87533 -0.579791 0.740013 -1.77337 3.23594 0.380627 0.688192 1.76012 -3.10166 -0.59151 -0.855495 -0.986297 1.54399 -4.56661 -2.35395 -1.60283 2.87814 2.53243 -1.61754 2.08185 -1.83349 3.56902 0.775658 1.76073 0.452834 1.04556 0.426344 -2.69051 2.07733 -1.96057 1.80322 0.218635 -0.121036 0.10181 -1.95099 1.67498 4.45149 -1.0098 -0.72103 -2.83279 1.82635 -0.885586 2.74612 1.48955 -2.03571 -2.43306 -1.75146 -1.98328 -1.57579 -3.38499 2.15638 -1.86798 -0.412427 -2.47291 -2.5746 -1.32585 1.81091 0.613483 0.984954 -2.71548 -3.11417 -1.65209 -0.138249 -0.471023 -1.82287 0.456557 1.42497 -2.33503 -0.185247 -2.16388 1.12149 -1.06345 -0.683798 0.188482 -0.921049 -0.737388 0.0155644 0.237678 -3.04862 2.20325 -2.33168 -0.590655 0.381176 1.07175 1.61473 1.84674 0.453383 4.07056 0.869167 1.63494 1.51878 -3.6737 -0.481643 0.114811 -1.24387 0.698752 -4.20441 -1.84484 2.85501 1.23545 1.2114 2.26136 -2.81277 -0.847194 0.113651 -0.604755 -1.15049 -2.78475 4.05243 1.3817 -3.05539 0.38551 -2.67598 -2.22626 1.4818 -3.37425 2.07117 2.05695 -1.73131 -0.278268 1.31059 -3.93823 -0.828639 2.00415 2.26679 -2.53615 -0.885464 0.844325 2.38575 1.24375 -2.79879 -1.20139 2.40242 -4.0166 3.32316 3.27622 2.8384 -0.125492 1.63884 1.60411 4.30396 -0.689352 -1.70617 1.36699 1.98016 0.941557 0.758019 3.89538 -1.34452 0.0639669 2.15564 -1.22428 -1.30747 -1.77801 1.96142 -2.73812 1.29789 -5.10575 0.439589 2.4565 -2.52626 -1.85723 4.20136 0.143132 1.02353 1.09537 -1.74932 2.14154 -0.0142827 1.14096 3.90289 0.0607928 0.874844 2.7112 -2.06067 1.32664 -1.89978 2.52126 0.384716 -0.644612 -1.05911 -1.85235 -1.7268 3.75506 0.447707 2.81698 0.782128 0.419324 -1.34654 -0.719566 3.10959 -0.598163 2.4612 3.64879 0.467177 0.431715 0.58504 2.06464 1.56682 -0.041261 -4.07447 -0.916105 -3.02762 -2.40767 -2.25532 -1.35533 -0.303232 3.81793 2.02387 -1.50407 -0.588214 -3.14304 -1.62462 0.963408 3.65563 -1.44359 1.88366 -1.07578 -2.59786 -2.82943 2.25111 1.87066 2.37715 -3.07883 0.624226 -1.06784 1.48643 0.202704 2.47334 1.73424 1.74303 -1.68731 2.90335 -0.0315561 -2.94589 -1.41923 -1.23215 -1.45213 -3.74377 1.76971 -0.0357067 -2.77541 -0.23603 -0.374401 0.282418 -0.458693 -1.78802 -1.54704 0.183111 -0.00427263 2.46553 0.585223 -0.117679 2.28956 -1.63005 -0.368786 -2.88583 -0.461074 -2.37867 1.369 1.94879 1.32194 2.12586 -1.83642 3.03903 -1.56627 -0.771386 2.78268 -2.32606 -1.76794 -0.816492 -0.514481 -3.98938 -0.559954 2.24104 0.261788 1.86023 -2.71334 -1.27317 2.09217 4.4037 1.8587 -0.509781 -0.892544 -0.785607 -3.46446 -1.90851 3.52293 0.957976 -2.60982 2.10926 -0.781091 -1.85302 2.42055 -1.06284 -0.153569 2.32765 -0.505081 -2.54811 -0.670125 0.0674459 -2.11621 -1.08109 2.64455 2.1269 2.25098 0.517655 -3.25883 4.18195 -2.01971 0.859218 1.49608 1.47783 -3.28489 -3.12992 0.556413 1.78924 0.983551 3.41984 -0.0375988 1.05625 -1.2183 1.06211 0.415418 0.079104 -1.00247 -2.72628 -0.929167 2.63936 -1.45872 -1.4445 0.729331 3.42784 0.0650044 2.77773 0.299936 2.1518 -0.859279 1.14365 -1.58574 0.195624 -2.22321 3.1428 2.0625 -1.7868 -0.857387 -2.12653 -1.87341 -0.976287 0.381848 1.10703 1.69103 0.185858 -1.61559 1.46764 0.996673 -1.36955 1.39592 -2.89309 -3.07785 -0.280709 1.33769 -1.75506 -1.1373 3.10953 -2.28864 0.950713 2.8807 1.79907 1.96771 -2.45595 -1.99335 -1.27506 -0.793359 -1.0126 0.563494 -0.707175 -1.9071 -3.35588 0.387585 -1.79015 -0.14539 0.781701 -1.17508 2.99802 -0.756004 1.18796 0.3755 0.562212 -3.66662 1.28397 -2.14002 3.18778 0.0235602 1.10154 0.987091 -1.65807 2.13544 0.502823 2.19044 0.657674 -1.03476 2.01862 3.61925 -3.53221 -2.82492 -1.32316 -2.85311 -2.72616 -1.10672 0.200873 -2.71682 0.514786 -1.09903 -1.05356 2.85525 4.01923 2.78164 -1.0397 1.34025 0.50972 0.903104 -0.474014 -0.280282 -1.46062 3.11393 -1.41887 1.73406 0.229682 1.02292 -2.6252 -0.592059 2.19147 -1.25828 -0.258065 0.72689 -0.0021974 -3.03751 1.37053 1.33512 0.589068 -2.7543 2.43654 -1.86694 0.980438 -0.604999 0.979705 -1.35179 -0.349498 -1.20701 -1.60302 0.0538347 2.9841 0.572283 0.429762 -2.28913 -2.85531 -0.501969 -0.984893 -0.88937 -4.24763 0.435621 -1.61791 1.08695 -2.26069 0.280831 2.76418 2.18097 -2.23713 2.22431 -0.897427 -1.97449 -2.45424 1.22782 -1.87994 -4.36842 -1.47636 1.58568 -0.866237 0.445265 2.16846 -0.550798 -0.0144047 -1.94562 -1.62932 1.184 1.46727 -3.58129 2.24897 0.440687 -4.39076 0.49855 -0.235664 -1.18992 -0.784814 -2.84402 0.515213 -1.05936 -1.99036 -0.596127 0.0863063 -1.00955 -3.21812 1.49077 -1.67278 -0.708945 0.895413 -0.151677 1.9367 0.0969267 -1.46306 -2.13739 -2.27552 3.29612 1.08823 -1.74493 -3.06955 -3.0441 0.984893 -2.19709 2.97195 1.58147 -1.55504 0.654683 -1.00491 -1.04209 -1.56078 0.919156 -2.39222 4.45485 -2.72158 -1.59569 -0.833583 3.66643 0.193182 1.37809 -1.00943 2.26319 -0.71981 0.226936 -0.113651 1.92804 -0.808069 -4.10895 -1.65514 1.25437 -0.0578631 -1.05594 -3.20084 2.48103 4.2046 1.19877 0.308847 0.935392 2.47786 -2.28932 2.04932 0.0655538 1.49498 1.05484 1.98138 2.93155 1.24558 1.75018 -2.92367 -2.96774 -0.00476089 -3.29026 -0.531327 -0.653951 -1.33116 1.58733 0.91464 -1.54759 3.97717 -3.10288 1.93097 0.620136 -0.340403 1.7843 1.98767 0.726646 -0.77749 -0.683981 3.12992 -1.10843 3.53929 1.17386 -2.5942 -0.305734 0.697409 -2.38343 2.47438 0.853969 1.46037 0.59444 -0.235481 0.243477 -2.27766 -0.116214 3.5689 -1.88324 -0.670553 0.1236 1.43858 1.4199 2.64486 2.62209 0.259224 -0.935697 0.228156 1.8139 -1.61882 -2.9642 -0.989227 0.239753 0.179937 0.214972 2.33522 3.92584 -2.57991 1.78124 -0.762597 0.0335093 -2.19929 -2.91891 4.34834 0.662618 -0.946074 -1.16971 -0.216254 0.672262 0.974029 2.52773 -1.59416 1.40513 -0.249763 0.953947 1.8233 0.182012 -1.01895 -1.36741 2.51003 1.44584 1.74108 3.12662 3.41612 -2.57009 2.07929 -1.95489 -3.55358 -3.77709 0.320994 0.63741 -2.81985 3.1091 -1.45061 -3.15421 1.20829 -2.94467 0.643208 0.69808 -0.536576 2.22272 -0.758446 0.905972 -4.08374 0.376232 0.0164189 -2.4463 1.01553 2.06806 -2.37745 1.74609 -3.75781 2.46846 1.70275 1.09128 -0.839991 -2.2787 5.32334 1.89679 4.32966 3.69787 0.213141 -3.05081 -2.53395 -0.977813 -0.81576 1.75701 2.21589 2.24842 0.105045 -1.87323 0.920682 -2.94259 -0.195807 -0.0466933 2.75472 -2.6437 -1.72069 2.09339 2.59932 -1.85376 -4.41469 -0.799463 -1.96258 -1.95563 1.77709 3.39799 -2.16089 1.32408 0.281564 -0.340587 1.31523 -0.643391 -2.92404 -2.22132 -0.089053 -0.673727 4.04419 1.79754 0.420423 0.0921659 -1.11197 1.7719 1.18973 1.0745 1.96954 0.74752 -1.31095 -1.96039 0.455886 -0.17835 -0.172552 1.65856 -1.85418 4.16706 3.38285 0.712424 1.34971 -3.11075 -0.0745262 -2.17707 1.19968 1.59807 -2.39064 3.58184 -1.23594 0.562029 1.20487 -3.04978 -0.657064 1.32627 -0.252937 -2.18781 -3.68468 -1.33616 0.179632 1.54558 -3.07981 0.740379 2.36366 -2.50453 4.33814 -1.63701 -1.17179 1.22056 0.455275 2.19135 -1.35954 -1.61516 -0.318552 0.782861 2.76522 0.17835 4.19745 0.351817 -1.70647 -1.87036 -2.99301 -2.88925 -1.08683 -1.802 -0.83047 -0.923734 0.99527 -1.99066 -2.41469 4.20765 0.674703 1.11856 1.71392 3.75896 3.29649 2.1684 -2.40724 1.71624 0.60445 0.823328 -0.460219 3.19431 1.04807 -1.64971 -2.09211 -1.32823 0.58034 -1.27537 -0.730003 -1.06424 -0.676412 -1.86785 -0.590899 1.61187 1.47667 -1.2523 -0.512406 0.156133 1.84014 -1.34111 1.77129 -1.81646 0.334117 -0.184149 3.28318 -1.99451 -0.118717 3.8778 -0.2378 -1.74505 1.03384 -0.166448 -3.69878 -0.528275 0.717795 -2.72823 -2.96005 0.523698 0.467666 -2.82797 0.287667 0.739402 -0.46968 4.09656 -2.55007 -1.37394 -1.78967 1.65368 0.136296 -1.95087 2.83157 -0.888211 -0.178777 0.746971 -0.307993 -2.9653 -1.56456 0.0573748 -2.61361 -0.182684 2.26313 -1.27116 -1.13047 2.99234 1.51579 -0.305124 -1.36332 -2.81277 1.96356 0.681417 -1.60161 2.60585 -3.00461 -2.47279 2.6202 1.90423 2.48415 -4.90963 1.30503 1.34428 -1.17075 0.613849 -0.606159 2.09333 0.558306 0.428236 0.157537 -0.451857 -4.14643 -1.1337 -2.04419 2.55708 0.387829 4.26167 -0.260567 0.41554 -2.16547 -1.09061 0.66744 1.50999 1.43907 3.86261 1.21964 1.48564 -0.98648 -2.56075 1.17386 -3.18802 -0.259102 -1.68371 -0.174322 -0.376904 -2.84451 0.0834376 -0.172735 -2.29615 2.68105 0.132511 0.0150151 1.50291 2.09546 1.75988 -1.39201 0.0410779 -2.69723 0.352428 0.146428 1.59471 1.78411 0.536271 -2.45302 1.0278 2.10224 -0.840052 -1.34697 -4.35395 -0.162969 -1.0101 0.647603 1.45201 2.32502 -2.00964 -0.286752 -2.33088 -1.42106 3.0665 1.30631 1.41966 -1.23753 1.14005 2.42341 0.422071 -0.407056 -3.56023 1.23624 1.58867 0.0505997 0.875088 1.46831 1.39598 3.76611 -1.62883 2.88833 1.90393 0.464187 2.04157 -0.705039 0.298044 2.8359 3.06876 -4.62771 -0.169134 1.21555 -3.82598 1.78295 2.03607 -1.56163 2.54634 1.8811 -1.90942 3.2512 -2.89395 1.41691 1.20273 2.65438 2.98373 2.60927 1.89434 1.54778 -1.92138 1.95831 4.06067 -3.94372 -1.41453 -2.82247 3.6765 -1.08982 -1.6502 0.61745 0.0257576 1.25529 -1.05966 -1.4456 -2.66958 -0.732627 -3.074108 3.72533 2.65249 -4.05261 -4.11884 -3.52416 -4.05731 2.47017 0.0611591 -0.0950957 2.1175 -2.53822 -0.156743 0.370556 1.02707 2.58675 -3.4127 2.74416 1.20463 0.806604 3.72466 -2.22169 -0.741661 -0.298715 2.3028 -1.03311 0.789392 0.2154 -1.7553 0.274605 0.707663 -2.79012 0.191168 0.105472 0.822047 -1.80474 -3.19523 0.891385 -3.42338 2.61739 -1.58977 -0.328745 0.813745 0.0733665 -0.153996 -0.961455 2.43165 1.83398 1.40031 3.82897 -0.180425 2.04315 -1.29032 -1.07309 0.937895 4.97342 2.49312 -0.434706 -0.0761742 4.71157 -1.00369 -0.511002 -1.90588 -0.352367 0.0227667 0.364086 -0.776452 0.145817 -2.57479 -0.198431 2.96768 -0.23365 -1.06619 -2.62435 -3.68621 2.42146 -1.80615 2.0072 -1.07291 1.83184 -0.108951 2.0904 -1.72869 1.66723 0.836634 -0.263741 -1.62194 -3.26359 -4.11139 -1.49095 4.13929 -2.38691 1.58483 2.02887 0.997284 1.06003 -1.64 -3.18369 -0.0892361 -1.36235 -1.77361 0.756615 1.4666 -4.13465 -3.21311 -1.44823 -0.984527 -3.6867 2.46419 3.54472 -1.29215 -1.00259 -2.19117 1.28147 -3.6989 -2.54494 1.77612 4.19343 2.61708 2.87741 1.83221 0.770043 -4.47993 1.66631 0.774743 2.59993 0.298166 -2.19849 1.13956 2.65328 -3.68755 -1.61534 -3.93414 0.181158 -0.201239 -1.26218 1.50023 3.60924 0.691122 -0.567705 -3.39146 -1.20542 1.34336 1.6223 -0.72219 2.03015 -0.974578 -0.941252 -0.425733 -0.839625 2.06769 -0.844142 -1.95892 -1.80547 -0.472976 -0.509781 -0.294137 -3.21665 -1.7459 0.101749 -1.32719 -4.06055 -2.76791 -0.0238045 2.17805 -0.624775 3.0651 2.08191 -1.02145 -0.16834 2.48799 -0.664449 -1.04489 -2.22431 -0.222297 -0.126164 0.797143 1.83941 0.935392 0.00384531 0.652058 0.375072 -1.48173 1.20823 -1.39116 -2.49532 -3.00546 -0.419263 1.893 1.03543 2.49684 0.0650044 1.64647 1.61614 -1.15134 -2.12452 2.17035 -1.4865 -0.259285 3.47044 -0.497574 1.37883 0.928617 -2.54439 0.205023 1.38151 2.33045 -0.206244 -2.75973 1.08707 -0.10303 -0.307932 1.80517 0.449416 -2.86825 0.545122 0.0028687 -1.70287 -1.86724 2.30763 1.22538 0.686972 0.0331431 -4.32911 -0.878445 -0.501724 2.71584 -3.5783 -1.97327 2.64583 3.67681 2.35206 1.7271 -0.715781 -0.0894192 3.10044 -2.56392 1.38029 0.6957 -0.700583 1.85687 3.02622 -0.848354 3.40001 0.204535 0.870754 0.446547 -3.44786 -0.934293 3.04355 0.526627 1.91583 1.96808 1.94421 3.24485 2.77419 2.53536 2.27644 1.76196 -0.171026 0.105655 3.69689 2.09839 0.0498062 -1.31736 -0.542375 0.706503 -2.54775 2.10022 0.415845 -0.0570086 -1.81762 2.27058 -2.21546 1.31535 -1.72155 -0.6039 4.00153 -3.62462 0.490249 1.01553 -0.90994 -2.86392 2.52589 -1.23978 1.888 1.88879 3.10385 1.69878 -0.484207 2.29133 0.185553 1.14035 2.46657 3.60668 1.76202 1.77471 2.68331 -0.0366222 3.56914 2.02441 0.00677509 2.51662 0.109928 -1.5197 -1.63469 -1.62041 1.35423 1.30088 -0.921171 4.20655 -2.50502 3.44481 0.659078 -1.70391 -1.86749 0.616901 0.474319 -0.903104 0.264534 -1.20133 -2.34278 -0.0178838 -0.544206 0.239082 2.62966 0.176397 0.562029 -1.21683 2.61977 1.70391 0.383251 3.41105 0.546648 4.23591 -1.37626 2.86062 -3.35398 1.71062 -2.47139 0.214484 2.21522 -1.3972 0.577288 0.32136 2.84707 -2.28321 -1.3939 -3.07224 -1.46544 3.3759 -0.264168 2.39644 0.0159307 -0.11182 -0.521683 0.885281 0.736106 -2.84133 -0.602252 3.86377 -0.198309 1.32572 0.702536 0.837184 1.30375 -1.70489 1.14139 0.159917 1.38023 2.04938 3.57799 -1.19205 0.397656 1.60283 0.622578 1.98828 1.62529 4.48292 3.69188 1.45738 -0.225349 2.60775 -1.12766 -2.57155 0.78225 0.438551 -0.032899 -3.06241 0.210273 1.27927 3.09287 1.54643 3.63848 1.601 1.20963 -2.74508 2.42213 -4.73647 -1.04587 -0.49733 -1.80493 -2.48811 2.15351 4.12757 -0.511246 0.619098 -3.60814 1.16288 1.841 -0.945647 -0.990509 2.34523 -1.22452 2.0492 0.90347 3.20664 3.02188 1.43657 4.51119 -1.37083 3.35258 -3.36161 -1.65465 2.73647 0.413465 0.67745 -1.53819 -0.00836206 0.919584 3.08615 -0.77047 -1.61229 -2.40577 -4.41023 -0.218329 -2.40651 -1.77435 -1.56005 -1.47917 2.93832 -0.784387 -0.73397 2.05445 -1.89398 0.993133 2.3321 2.93381 1.4171 0.674703 0.061098 0.574053 -1.43132 1.33757 -3.28831 1.72863 0.713889 -0.713462 0.0773339 2.89206 2.74923 0.690268 3.08133 -0.990692 -3.31114 -1.04489 -2.85067 0.863857 1.00229 2.22108 1.22868 -0.47969 0.782006 -3.65441 -1.67168 0.1966 -0.370312 2.75893 -4.53694 1.94244 2.12159 0.556963 -3.13431 -0.505325 1.73943 2.21473 0.350169 -0.309519 -0.865505 2.29194 -3.30192 -3.1926 -0.395093 -3.49773 1.94397 1.21067 -1.34416 2.53108 -3.56859 3.67675 0.524308 -0.0383312 -1.47716 1.77587 -1.46306 0.703268 -0.634092 -1.3187 0.180486 3.27873 2.82455 -1.21592 -2.2436 4.35841 -0.220588 2.48726 -0.500565 2.90933 -2.22114 0.554826 2.0285 -1.66185 -1.18766 2.39149 -0.989288 2.00012 -0.257027 -1.37468 -1.08823 -0.550615 1.05258 0.371044 0.705954 2.81014 1.23606 -0.451735 2.42097 -1.3654 -3.28123 2.62874 3.39824 0.633625 1.17295 -1.81164 -2.86648 -1.35533 -1.89447 -3.35984 -0.417493 -2.77908 2.59859 0.519364 1.80084 1.21012 -1.93249 -0.29902 -2.206 -2.2989 1.9234 -2.07971 -1.5435 -0.286203 0.00390638 0.973663 0.467666 -0.99649 -0.343822 -3.0267 1.0267 -2.63833 -2.65804 1.03378 -0.702292 -2.22053 -1.36009 0.759911 -2.56093 2.85629 2.52327 -1.08237 0.0970489 1.82446 3.78497 3.65783 -0.768212 1.56664 -2.51393 2.66915 1.15708 0.999664 -2.69613 -0.362072 -3.33653 -1.79858 -0.348766 1.38578 -2.89444 -2.34559 -2.55361 2.06189 1.32218 0.981292 -0.594684 0.766625 0.26838 -1.45231 0.732627 0.977874 0.23487 -0.691488 3.08603 0.158513 -0.473708 0.269601 1.68853 -0.0821559 1.4771 0.941984 1.46556 3.103 0.676595 -1.83599 2.07935 -1.80517 1.28196 -1.33415 -0.263802 -0.616291 2.29072 0.750084 1.64464 -1.30058 -3.35038 0.464614 -1.0062 0.572344 -0.925138 -0.355968 -1.66735 -2.80337 -0.542985 1.19205 -2.77779 -2.92367 -1.27134 -1.01895 -1.96533 1.12314 2.06653 -2.25501 -4.22205 0.685629 2.305 -3.66234 -2.18165 1.88317 0.435865 1.73498 1.37486 0.618793 4.06879 1.15268 -1.33604 0.646931 -1.27262 3.65874 1.56749 -0.929044 0.857021 2.64986 3.69738 1.64617 -0.582537 -1.42796 -0.263985 -3.73974 -3.06247 1.25919 -0.0756249 0.971648 -3.09439 1.2606 -0.428602 0.974456 2.3694 3.53954 -2.53401 0.870022 2.62441 -3.08902 1.05869 2.61763 0.860683 -3.40056 0.292856 1.54003 -0.352123 -0.714804 -2.039 -1.24198 3.12931 -1.97931 2.4579 0.430616 2.80245 2.38936 -1.19382 -1.82574 -0.238472 -0.721946 1.83306 -0.963103 0.274728 3.64739 3.36814 3.40214 -0.428114 -1.3375 -0.658711 -0.803003 0.721335 -3.42741 0.65334 -1.21879 -2.53768 1.70312 1.69384 -1.11063 -2.12091 0.940702 2.38496 0.00329599 -0.218696 -0.911771 -0.37843 -0.470351 -1.32646 -1.54143 -0.0140385 -0.842982 -0.816126 0.0880154 -2.38905 -3.23313 0.828638 1.93957 3.0654 3.27616 -1.01016 -0.524186 -0.861171 2.78158 1.97589 1.97284 -0.599445 -1.6137 1.04483 -0.049562 -0.594562 0.081057 -3.7365 1.09708 2.42384 -0.948027 -2.92203 0.0581683 1.56987 0.797754 -1.53252 1.47099 0.204535 1.42241 -0.437208 -2.38661 2.48427 -0.514908 1.59813 0.0463882 3.93567 1.77941 0.0752587 -1.37748 -2.07251 -0.584674 -1.98816 1.23887 -0.0836818 -3.41594 3.15378 1.70415 -0.659444 -1.62481 4.01953 1.10056 3.03757 0.0240485 -2.34132 0.0115971 0.0599383 -0.0359508 1.99567 0.99173 1.76531 -0.940947 -0.368175 0.654561 -2.94693 2.38966 1.98846 -1.2479 0.626606 -2.03088 -5.34513 3.62163 -3.8482 0.765587 0.828699 -0.625935 2.1919 -1.59886 -2.28993 -1.79876 -1.21299 0.908353 -3.2609 -2.82681 0.561052 0.914884 4.53853 0.904508 -1.77648 2.63356 1.44444 -2.53914 -3.65294 -1.96863 -1.50053 0.885952 1.29337 0.553789 -0.220466 -4.28413 3.16056 -3.22172 0.931791 2.86642 -0.368786 -3.6259 -3.20023 0.256539 -2.40663 2.73849 3.00998 -2.44581 2.40858 0.690634 2.3907 0.411878 -1.29533 -2.40571 3.10648 1.56804 0.567461 2.28565 1.37547 2.19465 -0.996246 2.17792 1.64922 -1.1428 0.555498 -3.07456 -0.873074 3.47221 -1.06503 -0.985504 -2.51772 -2.37465 -0.440016 -0.34199 -3.32524 0.638752 2.86233 2.37251 -0.276071 -1.24955 -3.75744 -1.39207 3.31663 -1.21232 -1.44694 -2.19227 -0.872585 -0.291696 0.97354 -1.72552 0.725364 1.38261 -1.8363 -4.78774 2.93924 -2.00635 -0.435011 -1.67144 2.56087 -0.570452 -3.27781 -2.63985 3.25889 -1.95788 -1.49248 -2.09064 -0.422376 -3.85107 -1.8858 -0.0452284 0.898282 1.65215 -2.29731 -2.579 0.23487 1.1478 2.56648 -0.824793 -1.25864 -0.0936918 0.698386 1.82983 -1.19437 -1.9093 -0.36903 -1.27604 -1.39714 0.594745 0.422498 -0.539201 0.98648 -0.127323 2.67037 0.37318 -0.411573 -0.86465 -1.58202 -1.70507 -0.993072 1.29014 0.84109 0.011597 1.95355 -3.00375 -2.42323 1.76568 2.23804 3.21384 2.57961 -0.808191 -1.5374 -0.381909 0.374218 0.0560931 -0.697531 -1.74065 -1.41624 2.17652 -0.751122 -0.164495 2.6039 0.895657 -0.315684 1.96057 -3.69927 0.485733 -1.82635 2.79867 2.61098 1.85693 0.83694 3.44011 3.90887 -1.05564 -1.31419 -1.60448 0.0278329 -3.84735 2.79421 -0.418043 3.80224 -2.77261 -0.819239 1.17484 0.00781274 -2.06726 4.27815 -1.2963 -0.423597 -1.09152 1.86029 -0.234687 0.959319 -2.91885 -3.69073 1.72729 -1.48814 -1.99426 -2.90884 1.80029 3.78051 -2.48793 -2.68325 -3.14841 1.55858 1.02939 -2.495782 2.33741 0.594134 2.9678 -0.254341 -0.27546 -1.18033 -3.47258 0.160649 1.78234 -1.0192 -1.68554 2.16834 -2.88571 0.537492 2.13428 1.79553 1.30943 -0.285592 -1.65941 2.89224 0.0822169 -2.42427 -0.884182 2.79348 -0.216193 -0.00384536 0.0525529 -2.92978 0.652852 1.40641 -1.58208 0.239814 0.18366 2.18854 2.47157 -0.68923 -0.0121464 1.59191 0.212043 -0.958098 -0.478286 2.05017 -2.0694 -0.215217 -1.94324 -1.22977 0.942534 -3.21195 0.267281 0.470107 -1.12729 -0.162358 -3.19083 -2.86013 -0.126408 -1.8927 3.26811 0.70217 2.14557 3.0969 -3.15354 0.4438 1.13657 0.528336 0.172124 1.09922 -1.20023 0.0819727 1.59386 -0.546464 -2.7239 3.83929 1.34922 -0.652364 -0.614215 -1.68548 -1.02853 -3.04624 0.297006 2.94668 -2.68606 -1.79827 2.75014 1.92651 -1.43187 0.226936 -1.78845 2.23542 3.6466 -1.28214 0.332652 -1.23008 -3.6892 -2.96298 3.08676 -0.572588 1.41453 2.98953 1.96326 3.02701 -3.36119 1.11496 4.58992 0.942045 -2.90432 -1.61998 -0.840785 1.31846 2.17383 1.14182 -2.96353 0.754112 -0.000671404 -2.74026 1.9212 2.31355 0.892483 1.23399 1.93744 -1.24577 -0.81222 0.237617 -2.96902 1.83892 -3.20151 0.927152 4.04462 -1.39195 -2.10144 0.897 -2.15217 -0.511185 0.0948515 -3.33927 -1.10154 3.11521 1.46757 0.0296029 -4.39454 2.73366 -3.14621 0.762841 -2.1247 -0.930876 0.747948 1.37016 -1.7907 0.529374 2.19178 -2.06641 0.733848 -2.38368 -2.96506 -5.16941 2.53285 -3.57237 0.937651 1.2302 -2.33876 0.116031 -1.51323 1.23508 0.214118 1.18503 1.80834 3.55132 0.821863 3.49828 -1.95483 -1.44749 0.954314 -3.12918 3.07773 0.62093 1.40202 1.12516 2.85989 -2.36689 -0.687277 -3.52104 -0.25013 -0.526566 -1.84179 -0.851039 -0.792627 3.44176 1.00461 1.03562 -1.76897 0.437757 1.46385 2.37214 -1.08414 1.79199 2.69796 -3.79174 2.50111 2.62111 -3.14463 1.60594 -0.714805 -0.418775 3.31004 -1.58257 3.78533 2.89444 -1.9198 2.53053 -1.49065 -3.47551 -1.19547 0.443129 -2.27375 0.375866 -0.356639 0.0540788 -3.40214 2.38972 -1.51109 2.53627 -0.943388 -1.5844 -1.14707 0.172369 -2.20148 -4.26972 -3.19016 -0.973113 -0.230232 0.0802637 -0.630879 -2.67238 2.51888 -1.87805 -1.34806 -1.56548 0.792016 1.13724 2.24946 -0.73159 2.74709 1.89483 2.13318 3.07688 1.15519 -1.46171 2.49684 1.40904 -1.02438 -0.631062 0.902371 2.17896 -1.33274 2.40553 3.1055 2.68789 0.622211 -4.41133 -2.06415 -1.51683 0.0860621 -0.485916 4.60811 -3.07175 1.95135 -3.44285 -1.16514 0.358715 0.788659 0.277841 4.12311 -4.30256 -0.503067 0.969512 0.621784 1.41014 -2.05457 1.23325 -0.098758 0.665548 -3.01651 1.44902 2.03711 -0.412671 -0.808802 -2.97708 1.37236 -0.536027 -2.25147 -0.71981 -0.663534 3.79516 -1.20347 1.88214 -1.30766 3.04776 0.664388 0.643269 -0.411878 0.00134281 1.34056 2.62044 -0.209906 0.551408 1.55943 -1.6505 -0.531449 -1.15146 0.881802 -2.89212 0.914212 -2.34907 0.140568 3.07437 1.56005 0.760948 -0.368969 -1.7401 0.68038 0.422193 0.415601 -1.90771 0.147771 -1.44499 0.123051 1.51939 -0.382763 0.699973 0.613788 -2.48781 2.51643 1.5493 0.887783 -4.15687 -0.78573 -3.06217 -1.39109 -1.99005 -2.25336 -2.82785 -0.377331 0.185369 -1.53166 -3.43248 2.84048 0.0637837 -2.98685 0.0733665 1.86486 1.48228 -2.06958 -0.14185 -1.26463 -3.31132 1.38011 0.731284 -0.837733 -1.86407 -2.7474 1.27537 0.630879 -2.32905 1.09885 1.56371 2.74624 -1.00003 -3.76537 -3.65917 3.19553 1.30168 -1.59545 -1.46336 -1.29716 -2.13764 -0.628559 -0.0073855 0.351268 1.61205 1.81359 0.273934 2.64565 1.43095 -2.10059 2.44288 1.695 1.10739 -2.08069 -1.3336 -2.11438 2.8168 -0.656087 0.53798 2.42152 1.00125 -1.30992 0.981414 3.10611 -1.48033 -1.43486 2.61861 0.743858 -1.04965 -1.73461 -0.528214 -2.46858 0.912076 -1.69408 0.878017 -3.18332 2.28852 -0.74691 -3.51354 3.60106 -1.77752 3.2385 1.22184 1.15708 0.761132 0.526261 1.07816 1.14017 4.02197 -2.48903 -1.37236 -3.43352 0.75985 2.51979 -2.8865 1.03287 0.206061 -2.20569 -3.99585 1.55388 -0.943754 -1.97266 -1.11679 -1.60784 -2.51881 -0.170537 -1.44932 -4.74471 2.03723 4.49922 0.210212 -0.765954 -2.65194 0.473952 3.61638 -0.141423 4.43837 -0.163335 3.05948 2.64754 -2.41401 1.24906 -1.94079 0.522416 -2.4214 -0.307749 -0.352916 2.46693 1.23765 -0.613788 -2.89358 2.80013 3.09531 0.263863 -1.94885 2.4449 -0.907193 4.37471 -3.28666 -4.43898 -1.82226 -1.40715 3.31907 2.92306 -0.32606 4.00732 -0.577837 1.41221 -1.69823 0.361156 0.0776391 3.00394 0.719321 -0.0719016 -4.27784 -1.38017 1.46446 3.18705 2.64339 0.22364 2.16816 -1.32023 0.908658 2.53273 -0.0821558 -2.57711 2.63082 -0.276864 0.644185 -1.75121 -0.557024 0.502091 2.198636 -1.54784 2.06189 0.920255 3.44133 0.114444 4.81045 -1.69524 -4.11029 -1.51433 1.97607 -0.318613 -1.99335 2.79354 0.881252 2.06519 1.79913 -0.141484 4.53896 -0.00622582 0.926237 -3.11136 0.769311 1.67626 3.74981 -0.172063 -1.3477 -0.86343 -1.59239 -0.364757 1.19138 -2.27815 1.78643 -3.1315 1.06296 0.354198 0.266121 -1.05258 0.326548 -2.10083 -1.88464 -3.52928 0.972014 3.02664 1.40819 -1.03488 -0.824244 0.939421 1.33952 -3.56365 0.145207 2.34223 -1.18442 -0.898038 2.42158 4.03064 0.191107 3.67724 -3.47905 -1.53087 -1.9693 4.5912 2.78603 -0.260628 -1.23185 -1.49089 1.32102 1.22758 -4.86032 0.532182 0.891751 0.432264 3.26682 -1.5479 1.65862 2.26142 2.25861 -0.561663 2.62111 0.198431 -1.78259 -0.474807 -1.3513 -1.29026 0.515213 0.283578 1.97375 -3.72954 2.21815 1.04355 3.01749 -1.61992 -1.46403 1.04917 1.42875 -0.0524308 -0.83108 -0.0841701 -1.78967 -3.58171 -3.57134 0.770043 -0.198004 1.01657 3.00705 0.44087 -2.99667 -0.517899 -2.73214 1.0831 -0.394116 3.67345 -2.06018 -2.39576 -0.388806 3.41209 0.0784936 -2.72793 -2.09046 -0.0540178 2.18104 -0.124149 -0.703574 0.403638 2.32087 -3.18339 0.697287 0.61568 -0.816797 -2.49434 -0.520158 1.67943 -0.126225 1.43773 0.728172 -2.36085 -1.62621 -1.6776 -1.65069 -2.33949 0.521195 2.64449 0.895779 -1.92993 1.38841 1.02805 -1.03116 -2.36109 0.934477 -3.21836 3.08731 1.48155 -0.194708 1.99683 -3.11142 -1.0513 -0.842494 1.57695 0.543107 2.88687 -1.61974 -2.42921 1.2537 -0.361461 -1.40873 2.18647 1.71593 -0.837489 1.78069 -2.14252 1.41423 -3.35667 -0.521683 2.74252 -2.37031 -1.02982 -1.18009 0.0260018 -2.96658 -0.543779 -2.11359 -0.599017 2.7405 -1.82305 2.19184 -0.895108 -4.3011 1.29978 -1.80627 0.88699 1.2938 0.779626 1.70446 0.278024 0.0308848 1.79913 1.07266 2.54237 -0.813868 1.3242 1.01572 -1.31803 0.290536 1.15256 -3.02573 -2.12745 1.32267 -3.17075 -0.133427 -1.29722 0.49147 -2.19581 3.11368 -0.406079 2.47719 -1.79254 -2.18409 -1.22654 0.00817895 1.61614 -2.04804 -1.82049 1.65148 3.18778 -2.52504 1.66936 2.68526 2.53877 -2.81631 1.90704 -0.0648213 2.73611 -2.75845 -1.69347 -2.55373 -1.21567 1.21934 2.4048 -2.13593 -1.02158 -2.46547 3.038 -1.59563 0.498611 -1.83093 -0.300668 -1.71917 -1.37748 -1.47172 0.450575 0.471389 -1.06851 2.32966 -3.23777 0.693197 -0.120365 -2.61373 -2.33821 0.465834 3.11026 -1.83392 3.55687 -0.866604 -3.1146 -1.00308 -3.88305 -0.275887 0.0106205 -0.202216 -1.416 1.51903 -2.37617 -1.79357 -1.11423 0.20893 -1.77062 1.98224 1.93139 -3.48985 -0.652791 3.55467 -2.5406 4.11866 1.15537 2.59926 1.81817 1.87097 1.49876 0.507767 0.0474258 2.9968 1.64177 2.63576 -1.35704 -3.6729 0.135075 2.19459 1.374 0.34199 0.178106 -2.33009 2.53053 0.926664 -0.153386 1.63884 1.97583 -0.283761 0.562273 0.856166 -1.62151 -2.1015 -0.818995 1.49541 -3.00156 -1.64483 -2.92831 -2.59218 -3.59594 -0.987884 -0.435926 3.28367 2.49318 -1.72295 -2.86398 -1.41618 -1.8081 3.43706 -2.27821 -1.8778 -0.786767 0.892422 -0.491592 -0.828944 2.23945 -0.898099 -2.39741 2.9631 1.91278 -2.88717 -0.0623798 -3.53014 -2.99539 -2.446 -0.201178 -1.67394 0.140873 -1.03854 -1.65996 0.778588 -2.54671 2.31892 -3.53148 -2.46663 -3.45933 -1.31932 -0.528703 -0.623188 -2.8948 2.75918 -2.24195 3.44371 -3.35429 1.34342 -0.9017 -1.98938 1.58098 -0.565691 1.72308 -3.31346 2.17579 2.96097 -4.32929 -0.122684 -0.351024 0.960356 -2.24958 -0.602435 1.83477 0.0928373 -0.505631 0.108463 1.77331 0.368297 1.48137 -1.54888 3.60784 -1.04318 1.40037 -2.24458 -1.841 0.964141 -0.768761 2.19654 -1.44304 0.0377209 -3.0809 -2.7261 4.29994 -2.31153 -0.0863063 2.69112 -3.88067 0.196173 -2.04749 -0.493423 0.0252693 1.97571 -3.53929 -0.564837 0.903592 0.279427 -0.0562151 -1.83013 0.0464492 0.112247 0.745567 -1.39372 -1.01437 -3.77062 0.550981 1.83666 -1.9953 -0.902066 -1.9964 1.79406 -0.292367 -0.307077 -2.18195 3.42082 -1.98346 2.00446 0.756188 2.23328 -3.02664 0.130741 3.84802 3.16214 1.72204 0.833461 0.229621 0.539689 0.0453505 2.42665 -0.0274667 -0.889248 -1.16941 2.87826 -0.720115 -0.0565813 -0.15833 1.9975 -2.57399 1.11106 -0.831263 2.58199 0.812647 1.02432 2.73391 -2.59804 -0.483535 -1.71404 0.226325 -1.10373 -0.294076 1.94494 -2.15802 2.45088 -0.702597 0.0220344 2.20356 2.14209 -1.76836 2.18647 -2.16669 -4.18561 -1.26017 0.4532 0.558184 0.36848 2.97806 -0.218452 -2.78225 0.134892 -0.59621 0.445021 -1.94763 1.21134 -0.729698 2.05029 0.145817 0.632649 -1.38884 1.07993 -3.70128 1.25388 1.09439 1.83319 -0.295175 -2.78231 1.11667 0.640461 0.808557 2.88516 0.516861 1.22629 -1.28397 3.093927 -1.72027 -0.90524 -0.463027 -3.34031 -3.39183 2.81533 2.03113 -1.10923 -3.2631 -1.92029 -1.0679 1.15732 -0.135868 0.41023 0.329905 -0.772423 0.573809 0.387036 1.47954 2.34187 0.127384 -2.7206 -0.583514 0.868557 -1.00406 0.94583 0.750755 2.42073 -1.99017 -0.115604 -0.983795 -0.691183 1.50157 -2.6924 -0.0504776 -1.79559 -0.185736 1.11368 -2.92697 0.889309 -3.44646 1.6317 1.95923 0.965972 1.95642 -2.98306 3.54643 1.40489 -2.24909 2.16779 2.88845 3.80016 -1.11393 1.04099 1.70623 2.21461 -0.499466 2.24189 -0.880825 2.48262 2.51064 -0.238044 -3.06735 -2.14905 2.18952 0.739769 3.85363 1.82977 -0.88522 0.121036 1.01163 -0.870815 0.856655 4.0918 1.16007 -0.441908 -2.21589 0.15894 1.93091 -0.243171 1.36454 -2.24323 1.52068 -0.357067 0.32667 1.24949 -0.821558 -1.55797 2.07135 -0.792505 -1.12229 1.17875 0.693869 -0.165838 -1.46165 0.504776 1.00266 0.413282 -2.81857 0.737571 1.90307 0.657125 2.38795 -3.01529 0.523759 -0.173711 -1.56407 4.22932 -1.5399 1.49919 -2.50545 -2.7488 1.51097 -0.135807 4.24622 -3.73992 0.279977 1.41166 0.312998 -2.88736 -0.976837 3.89636 -1.1348 0.992889 0.109317 0.451552 -2.21851 -1.57408 -0.524796 2.72585 -0.25898 0.505448 -1.55205 -1.08414 -0.380749 0.20484 -0.692038 -3.42369 -0.436659 0.650838 -0.0285653 2.07544 4.12311 -0.768639 -2.83816 -1.42515 -0.189581 0.416456 1.45225 2.40938 -0.535844 -1.83673 1.54698 -0.263253 -0.204657 -1.21677 -0.818201 1.33995 -1.51451 1.14444 0.0163579 -2.55049 3.21506 1.08512 -0.107242 0.466872 0.997772 0.913602 1.8377 1.45836 -1.80627 -1.13157 1.18021 0.300974 -0.422926 -0.585284 0.16419 -2.65127 -3.16697 3.2515 1.4243 2.49965 0.86166 -2.09497 -2.29218 1.53313 2.25751 -0.21662 -0.78872 3.5999 0.348277 -3.43443 1.9104 -2.26771 1.16068 -1.19614 -1.74389 2.2544 0.690023 -2.39009 3.61528 2.96359 -4.14692 1.3032 -2.17597 3.96417 1.49229 1.89404 1.23954 -0.978973 -0.19013 -1.72027 0.652425 -2.68618 2.6097 -0.975433 0.446425 1.46348 -1.28507 3.60155 0.372448 -0.293222 0.94351 -3.03018 -0.68392 -1.9035 1.01077 0.364086 2.43171 -1.40257 0.738548 -2.83212 -2.98141 2.95785 -2.05676 0.750694 -3.48503 -1.77264 3.3795 5.13718 -2.01563 -2.19861 1.11045 1.39103 2.46767 1.85961 -3.31248 2.58345 -0.421949 -2.91818 -2.49324 -1.77892 -0.284799 -0.488723 1.71905 -2.9877 1.26829 0.439344 -3.92724 2.8428 -1.81207 1.19089 3.05997 -3.1633 3.30106 0.68276 -0.259529 -3.61809 -3.2595 -4.37062 -3.37596 -2.01355 -1.12931 -0.725181 0.979888 0.849757 -2.92447 2.51802 -1.04965 0.0179449 -0.206854 -0.682821 -3.15305 0.000671397 3.1644 2.2392 1.99841 3.72356 1.67559 -1.96667 -2.47023 1.6917 0.168523 3.10373 1.44633 -1.75988 0.590228 2.75423 4.39613 1.7431 0.863186 -1.91668 0.487564 -2.33973 -2.75491 0.401379 -2.46144 -2.70406 3.55809 -2.95383 1.12735 1.13993 2.65725 0.472915 0.824244 -0.32667 -0.480728 2.49104 -1.02036 -1.49168 1.32237 -2.47383 -1.56102 0.738609 3.89184 -1.2197 -0.435255 -2.6227 -0.110965 1.16367 2.93606 2.75478 0.119694 0.876736 2.10511 1.75146 -0.670797 1.5161 -1.21842 -0.25605 -2.12934 -3.42393 -1.17728 -3.86438 -1.38951 -1.77252 1.40263 2.34803 -3.54454 0.242012 -0.263863 -0.852748 -2.13221 0.940214 1.73345 2.18531 1.75127 -1.95984 -1.04282 -1.37791 -0.924223 -2.72298 -1.73772 1.71282 -1.37742 -1.32694 0.487503 0.22718 0.219855 0.328623 2.579 1.58373 0.844325 -0.38551 -0.483718 1.56694 -3.03128 3.63543 0.420728 -4.49281 2.52229 -1.15708 -2.7839 1.79565 -2.15381 1.6729 -3.78008 -1.39103 -2.98434 0.077517 1.0405 0.723838 2.90304 -0.163884 -0.849147 -0.711814 3.3596 -2.4897 2.52077 -0.569598 1.88836 -2.07569 -1.32426 0.579547 0.185492 -1.95703 -3.4376 -1.62993 -4.07807 -2.87558 1.59264 1.01047 -0.855373 3.01987 -1.75732 0.983489 -1.33354 -1.50365 -1.41801 -1.03812 -0.171331 1.46159 -2.89322 2.80642 0.99881 0.956572 0.253304 -1.47295 2.19239 0.80166 -1.0347 0.0794092 -2.81857 2.7629 0.692282 -1.12888 -1.52519 -0.881314 -0.80929 -2.14344 0.535966 0.4991 2.50722 -0.909879 2.62233 2.87259 -0.485733 -0.38374 2.6133 1.5587 3.37687 0.57094 -0.791528 0.136906 2.32319 2.36866 -2.13398 2.12989 0.0958891 2.85018 -2.14154 3.335 -1.54289 -0.733787 -0.178777 -1.32066 0.123356 2.97348 -0.831202 1.47343 0.505448 -0.286813 -1.24894 0.93759 0.628254 -1.6447 2.13013 -0.122807 -0.396069 -1.02561 -1.15476 4.38191 3.03696 1.13865 -0.950896 1.42259 1.73144 1.28489 0.882839 -3.77813 -0.920133 0.0530412 -2.02973 -2.72665 -0.493179 0.459243 0.404187 -1.11631 -1.66076 -4.22431 -1.40208 1.11393 -0.513565 0.00122072 -2.61745 -2.612241 -0.705527 -2.21088 1.71795 -1.116 2.96011 2.71297 -0.603229 -2.13654 -4.13025 -1.2581 0.118778 0.013245 -3.75152 -0.196234 2.30195 3.47447 3.48216 0.30726 1.01523 0.155156 -1.49992 -2.49934 -1.59825 -0.0390027 -1.41459 -1.4572 -2.03107 -0.578021 -3.01218 -0.842799 0.121159 -1.40373 -2.27998 2.75002 -1.68963 2.11902 -4.09424 0.862026 1.17722 0.276192 0.0589618 -2.16718 2.06104 -2.02216 0.666585 -1.45036 3.25126 1.50316 1.45335 0.158147 0.355357 -1.10685 -0.302194 0.608966 0.160772 -0.129215 1.98138 0.914396 -2.63778 -2.84542 3.73956 -2.00739 -2.46803 1.04904 0.993805 -3.0289 3.70751 -4.81796 0.639485 -0.172857 -2.0296 3.26737 1.66088 -0.761254 1.3947 4.76138 1.65264 -1.47862 1.73363 -0.700644 1.02029 2.52705 0.228095 -2.22437 3.23588 0.376354 0.903165 1.94848 -2.47743 -3.09482 -0.265633 2.4435 0.345225 -0.305795 -2.94443 -0.969512 0.0792871 2.56148 -1.41636 -0.950346 -0.765771 -3.61138 0.435865 -4.14106 -1.39116 2.16163 -2.48714 3.18247 -2.25147 -0.906888 0.627277 1.22959 0.0842311 0.709433 1.74566 2.46596 1.12455 1.77068 -1.275 2.90396 0.0792261 -3.09555 -1.08396 2.7955 1.2855 3.82354 -2.99271 -3.40544 -0.184271 0.00384533 -1.51073 -3.92822 -2.36164 3.70196 0.107364 -1.55077 0.710227 -1.82116 0.684591 -0.564226 1.3715 -3.98614 1.68499 1.03488 0.421583 2.37642 0.895413 -3.9986 -0.750145 -1.86505 0.598773 0.821986 -1.60387 1.6776 -2.38661 1.0925 0.913968 -1.6834 0.57796 1.17014 0.916776 -3.8432 -0.150945 -2.02576 -4.3249 3.29667 -0.605548 -1.18979 3.648 -0.757775 -1.94708 1.09061 2.8132 -2.59249 -0.465285 -0.168767 -0.316538 1.57384 -3.46031 -1.20432 1.37278 1.1868 -1.62969 -2.83724 1.0936 -1.63665 3.40788 -0.408887 -2.53926 1.48558 -0.167425 1.56041 -0.0286264 0.254036 -2.03778 -4.14252 -0.957121 -0.921415 -0.418714 -1.91064 2.97928 -0.320811 -2.36305 1.09128 0.240852 -4.22687 1.67919 -1.89007 -0.603412 2.7228 -1.58428 0.636982 -2.87149 3.01895 -3.23801 2.76119 2.66695 2.47707 2.75503 -2.0766 3.03006 2.01679 -2.28852 -2.05585 3.44346 -2.0965 3.00443 0.197394 -2.68545 -2.67214 -1.17307 0.80929 0.136784 2.19196 -1.67009 -2.24299 -0.303598 -0.0150761 -1.50352 1.73772 -3.03775 0.618915 -2.8641 -1.31217 2.02844 2.09918 -2.6299 3.82702 1.48589 -0.0921049 2.98593 1.09647 3.60118 0.971221 2.03064 -0.124271 1.67174 -0.910855 -1.97546 0.844081 -2.06122 -1.30003 -1.83435 0.867519 -1.57176 -0.142582 3.90069 2.78249 1.09677 -4.70846 1.23991 -0.0450453 -2.34346 -3.56688 0.18775 1.48692 1.45762 3.27061 -5.3336 1.94531 -2.20429 -1.07913 0.306894 -2.50844 5.02878 -0.213874 -0.520035 -1.71697 -1.12992 -1.83129 0.948027 -2.97665 0.238594 -1.7752 -2.49361 3.53618 -2.96353 -1.87243 0.992279 1.23667 -1.76598 1.31761 -1.96344 1.37846 2.63137 -0.288461 1.9331 2.94699 -1.32267 -0.249641 -0.0021363 0.0762352 1.71661 0.155461 -0.201178 -1.13419 -0.95761 4.27284 3.62517 1.47038 3.12754 1.87603 -1.42552 -0.664022 -2.58797 1.30784 -2.36647 1.46287 1.01889 0.830226 -0.876431 1.56407 -1.22483 -3.93866 1.89019 -4.00085 0.912687 2.37501 1.60936 -1.64415 2.82308 -2.86843 1.58574 2.55452 1.24363 0.626423 1.41795 -3.64885 -2.75362 0.617573 -3.0936 5.11637 2.40797 1.31938 0.578814 3.75744 0.532609 1.72948 2.20643 0.670187 -2.69185 -3.83319 2.68813 1.58391 -1.73797 -0.102237 0.678182 3.18351 3.40184 2.71914 -0.670858 -1.62291 0.905484 -2.61788 0.52681 -0.910062 -1.75304 -0.276864 1.99512 -1.54564 -2.87954 3.38218 -1.36052 0.2743 2.55 -0.0178228 -2.48933 1.63823 2.54866 3.6447 1.7589 2.55544 0.711692 2.71523 -1.04563 0.49086 2.11206 -0.425062 -0.846217 -2.32765 0.875149 -0.584918 0.0794092 3.04886 1.81066 0.844813 4.79299 0.76809 2.47157 -2.78951 -0.763512 -2.94284 4.01923 -0.496963 -0.985382 -0.626911 -2.73251 -0.277169 -3.20511 3.70391 2.28309 1.58397 -2.3 -2.10883 -0.0876491 -2.57344 -1.93402 0.853786 3.61669 -1.78283 -3.05521 -0.417615 -0.0156865 -2.49123 1.72271 3.78387 2.2992 2.23719 -4.76949 -3.9516 -2.46242 1.22819 -2.27705 3.41667 -0.828333 -1.70837 -0.902676 0.216803 -1.85028 -1.22526 2.73165 2.05524 0.434461 0.45259 -1.68548 -3.17539 -0.532243 1.6289 1.0416 0.617267 1.94317 -0.676168 -1.44585 0.40437 -2.74459 -1.57903 0.996124 1.37022 1.00674 0.652058 3.56169 -1.23405 2.94058 2.29078 -3.08927 -1.83587 -2.31745 -0.565264 -1.17228 1.98383 -1.3397 1.74633 -3.50493 2.16749 -2.42433 -2.4695 -3.23887 4.87906 -0.189703 -0.97586 -0.225471 -0.899319 0.133427 -5.23148 1.35997 5.00491 -2.90994 -2.05231 -0.487686 -0.0288705 2.44392 1.55724 -1.61742 -1.86908 -1.95019 0.243498 -0.868984 -0.693075 0.531632 0.9935 1.02182 1.22782 2.13807 -2.37928 -1.86462 -3.10849 0.155278 -1.52654 -0.925504 2.9509 -2.75222 1.68932 3.0336 0.998383 -0.895413 0.800745 -2.38539 -0.375378 -0.235542 -1.74023 -2.24207 -0.875271 0.996612 -1.20457 -0.834742 2.72817 -1.88891 1.48399 -2.41041 -1.77337 -1.42711 1.40477 1.36955 1.87768 -2.20325 1.75695 -1.42259 -1.54711 0.496536 -0.688376 4.16333 -0.686972 1.96313 2.07654 -1.53801 -1.62059 -0.351268 0.0440687 2.44679 -0.119633 -2.57015 1.9032 -0.904019 -2.25605 -3.07443 -1.41551 -3.74383 0.51735 0.244392 0.51912 0.367809 1.68035 -3.46385 1.48003 0.436476 -0.763085 0.72573 -0.112308 1.62108 0.452223 2.79739 0.450026 1.81188 1.61315 4.01324 -0.98703 2.57869 2.68868 -1.56767 -0.502396 -0.14124 -1.23704 0.112857 1.79864 1.76373 0.11713 2.36683 -2.4828 -1.12265 0.833705 -0.555254 -1.59239 0.421217 -2.20051 -0.974029 2.40559 1.66314 -0.0155644 -0.111698 4.12195 1.94067 1.86505 1.13144 2.66921 -1.3206 0.873318 -2.66897 -0.299142 0.777001 0.744896 1.99792 0.5356 -1.27122 0.638752 -2.28523 -0.757897 -1.12699 -2.09278 1.33079 -3.43846 -2.87515 -1.6129 0.58211 1.53935 -2.41877 -1.90875 2.52162 -2.2569 1.36479 2.17414 -1.87658 -1.05747 -2.91372 1.0419 1.44664 3.12418 0.300241 -2.50893 -2.2757 1.71758 -0.674642 2.74276 -1.23789 0.906949 0.809839 1.24918 2.01209 -2.09552 2.41145 0.152226 1.70299 -2.94009 -4.02899 3.26267 0.402051 -1.32133 0.554216 1.4376 -2.62239 -2.571 -1.26798 1.23417 0.14539 1.20835 -0.517167 -0.291879 1.56639 3.34544 -0.916715 1.2393 2.87588 1.01474 -2.63253 0.251228 -0.982696 2.73562 0.729637 -2.29017 2.65578 -0.168157 -0.758995 1.26548 -0.755333 -1.26969 -0.737755 0.920072 -4.47603 -1.03452 0.920682 -1.90527 -4.17664 1.77514 -0.169805 -0.0314951 -3.4575 -1.84759 4.43025 -3.03525 3.1887 -2.76199 0.312937 -2.73525 0.342723 1.91986 -1.07791 2.21516 -3.0698 -1.47966 -2.00879 0.512589 1.17258 1.44511 3.09958 1.03458 1.5913 1.66546 -2.27992 -1.80554 0.443983 1.91467 -0.863247 1.6953 -0.036195 -2.53249 -0.400159 -1.44401 -2.22108 -4.61666 2.10291 1.28745 -2.11298 -0.917569 2.14826 0.0905179 -0.442213 1.13504 0.882595 0.953703 -3.45732 1.13584 0.972625 -0.476699 -1.03641 1.53978 0.598895 -3.377 0.253548 2.33308 0.941435 1.29588 1.53142 -2.58486 2.53365 -0.754601 -0.221931 1.56822 1.8562 0.550188 0.193915 -1.11539 3.55083 0.526261 -0.890347 1.53392 1.62358 -4.38636 -0.171331 1.73748 3.01761 0.161016 -0.227851 -0.169378 -1.07346 1.98321 1.3054 -0.712912 1.22654 0.568743 0.617207 -0.424146 -0.602252 -0.190985 -0.968596 -0.267891 1.31724 1.12735 1.12058 -0.486709 -2.71035 0.880032 4.00055 -0.985626 2.69875 -2.09265 0.179754 -2.37733 -1.35228 -2.89291 2.33821 -0.821131 3.97058 -1.0933 -1.58959 -1.77117 3.98138 -1.49132 -2.65096 -1.76727 1.34477 -1.21506 1.9433 2.61184 -3.56413 0.694235 1.06461 1.50536 0.568865 -2.90231 -0.278939 -0.885464 1.46605 -0.151311 -0.711875 0.506424 -1.65349 0.0308237 -1.70446 -1.24613 0.00524921 -2.78225 4.14368 -0.712912 1.25987 1.63488 2.12427 -1.67034 -2.86074 1.09085 -1.87854 0.297861 -1.80914 -1.44047 1.36717 -0.966643 -1.7224 2.28614 -0.37434 -2.25117 0.244575 0.288461 -0.816248 2.55824 0.825526 1.13559 2.02051 2.46876 -1.83099 -3.12766 -1.46971 -1.29191 -2.64492 1.96838 -1.82214 2.26386 -0.720786 2.16498 2.45589 0.507035 -1.72124 -0.904446 -3.47661 -4.22181 -2.12275 2.55599 -0.100223 2.8088 -3.98071 0.294931 -1.4152 1.85308 1.17502 -2.79366 -1.01163 0.406201 -3.31675 -0.206 0.0365001 -1.61516 2.71633 -0.217231 -4.16791 1.64031 3.23191 0.756432 3.24839 0.686178 1.29746 1.69115 2.82229 1.50987 0.152715 -0.735374 1.33207 -0.65511 -2.60903 -1.18821 0.426893 0.280526 3.63323 3.80535 -2.31275 -2.41804 -0.933378 -2.26667 2.48952 -0.405225 -2.76986 -1.74731 -0.94998 -3.88702 -0.587664 3.48772 1.02469 0.0809961 3.0441 0.354198 2.03784 1.50682 -2.54231 -1.2169 2.51527 -1.53795 -1.61101 -2.28608 -0.802332 0.0432752 -1.40526 -1.2595 1.7091 4.16645 -0.0348521 1.2775 0.553179 1.07559 -3.4998 3.12638 0.916349 1.43577 -0.468459 2.31556 -1.3502 -0.112919 0.557756 2.08728 0.805689 0.935331 -0.923673 0.909391 1.10379 4.05219 2.77889 -2.61525 0.701926 -1.13706 -2.50972 1.93493 0.647542 1.29478 2.22559 -0.870022 2.3824 -0.44087 -1.26261 0.546037 2.67745 0.848476 -1.06772 2.01697 -0.626606 -0.384899 -0.472427 1.16105 2.29987 -1.68505 -0.672811 1.05747 1.74871 -0.516617 -3.51225 3.94446 0.878872 2.02484 -0.845668 4.81613 -1.57567 2.58663 -3.16526 0.793481 0.0826441 0.895108 -0.10419 -1.161635 0.95706 -0.0733665 0.546709 0.821497 -0.569842 -4.21009 0.693503 0.411939 0.840541 -1.80511 2.034 1.34294 -0.661031 2.38038 1.77007 -0.751427 0.301889 1.38084 3.31272 -1.6436 -0.329356 3.50175 -0.647359 -0.229499 -1.40056 -2.11847 -1.32444 0.530961 3.77935 -2.98495 -3.90728 1.31895 -0.18067 3.11167 -1.13572 -3.31162 0.0569476 1.1655 0.989837 1.69347 0.171758 -2.38868 -1.25919 0.790002 -5.01907 -2.55849 2.81161 0.886685 2.78842 -3.34233 -1.54009 -1.5819 1.66222 -1.06473 -0.982757 -1.68194 -1.98077 3.37254 -3.85992 -1.23655 -2.11097 4.20093 2.17884 -0.430494 -0.770287 3.33189 0.0371715 4.10712 -2.32289 0.61391 -0.0975982 -3.38206 2.09687 0.676107 0.213996 0.805933 2.31495 -0.767968 0.251228 -0.428175 -0.593463 -0.280587 -2.28614 -2.22297 2.91037 -0.84756 -3.33305 1.90301 3.35093 -1.94226 -0.76809 2.4825 -1.56188 3.37303 0.391064 -2.8168 -2.67605 -0.820032 -0.712973 0.412061 -0.713401 -1.8496 -3.61254 1.31785 -2.77981 0.575823 1.89361 -1.93066 -1.69549 1.85998 0.764306 0.279733 0.229621 1.34617 1.73376 -0.544328 -0.651692 -0.644673 1.69536 -2.65584 -2.86416 1.31193 0.828333 0.0539567 1.32792 3.82769 -2.15802 -0.176763 0.11298 -0.376049 2.71035 2.31355 -0.244942 0.164129 -1.72405 -0.700522 -1.97882 2.87173 -1.90478 0.634236 1.78881 -2.19105 -4.10004 -0.638752 1.20585 -3.30705 4.05359 -2.14875 2.78347 -2.87881 -1.62944 0.836573 3.7918 2.88388 2.68282 1.2194 2.33497 -2.76443 -1.48119 2.52766 1.48222 0.00646981 3.27921 3.89648 -2.17243 -0.57973 0.273995 -2.55525 2.85495 1.50053 4.00928 -0.0710471 -0.518571 3.93744 0.0835597 -1.4583 0.158391 -2.70949 -0.917508 -1.26365 -1.10147 0.402356 1.83642 1.94922 -2.38984 2.89743 -0.577288 1.09464 -2.88961 3.64293 3.28416 -0.290597 -0.807459 -1.95471 0.839564 -1.37944 -3.87573 -2.94205 -2.03748 4.01093 1.95007 0.773461 1.70098 0.757653 -0.0286874 -2.52144 2.61489 0.921903 -1.21439 1.04416 0.104984 -2.7416 3.2512 -2.4745 2.11164 -2.37373 -1.2418 -0.148442 -3.44859 2.17103 1.18076 3.47014 -2.12531 1.15677 -1.12021 -4.16688 0.113773 1.32115 -0.859218 -3.40782 -2.20234 2.62911 1.41154 -2.62246 -1.88891 -0.701559 -0.277657 -1.95898 -0.331858 0.977264 2.66066 -1.76641 -2.71999 1.94018 -2.72634 1.19327 -1.91058 -1.81262 -2.72201 -1.37925 -3.55333 2.31501 -0.052736 -0.486648 -3.09677 -1.96735 2.05481 1.83825 0.698264 4.2082 1.24668 -2.08753 -0.889615 0.306589 -0.781274 0.374096 1.05478 3.10581 3.07352 -0.39198 -1.70635 0.558245 -0.768334 -0.485672 3.64196 0.678671 0.273934 -1.51762 -0.461257 -0.673238 -0.913602 0.453627 0.361522 -3.23276 0.686422 0.943693 1.85705 0.875271 0.102969 0.902677 -2.93551 -1.1337 0.687216 -0.716269 0.106998 -2.57497 -0.773705 -2.80074 1.22263 3.1077 -1.76159 2.53816 -1.58397 0.890774 3.82244 -2.08313 1.09964 0.746422 -2.56539 -1.1547 1.10282 -1.88629 -0.024659 -3.02567 -3.57622 0.144719 0.549516 -2.69314 -0.901822 1.59777 0.285348 -1.75542 2.55983 2.25575 1.58238 1.34526 -2.13178 3.74175 -0.836573 -0.334849 -1.81988 1.60814 -4.69387 -0.435438 -1.16465 0.575091 1.6303 -1.15354 2.43764 -1.20884 -2.18683 0.109195 -1.69976 2.99289 1.61205 2.18195 -4.3636 -1.56206 -3.4373 0.523637 -2.13587 -0.511917 -4.2627 -0.543168 1.40526 -1.28892 -4.07263 -0.888211 -1.64971 -1.61217 2.63491 -2.04205 -1.63262 0.285958 2.24067 1.79583 -0.773888 -2.41292 1.72918 2.08325 -2.68532 -1.16501 2.34266 2.47603 -0.475356 1.78301 -0.461806 0.450453 -2.12256 -0.986358 1.62804 -1.10984 -1.73284 -2.79092 -2.52998 2.50703 2.69765 -0.0570696 3.59288 -0.0270394 2.38441 -2.12952 -2.88003 -3.36076 3.10038 -1.80547 0.880459 -3.28507 -1.86187 -0.722861 1.06723 -0.217597 0.265511 0.275887 -0.170232 -1.47728 2.0448 1.67876 -0.829066 0.528825 1.89972 -1.38725 0.521195 -0.922941 3.29484 -1.2006 -1.63091 1.73778 0.408765 -2.96438 2.32295 -0.306467 -0.32374 0.0716575 -2.02661 -1.35429 -1.43126 -0.236946 -1.06021 2.18122 0.996612 0.370861 -1.5327 -1.52556 -1.30137 -0.114322 -1.04208 -0.798059 2.00391 3.24967 -0.197516 1.541 -2.66909 1.3516 -0.106326 2.1305 0.808924 -2.3282 -2.80483 1.86731 -4.61476 -3.55046 -2.26167 0.413038 -1.19297 0.248115 0.424635 -2.71145 -2.16132 -3.20518 2.0072 -1.57286 2.10083 2.96915 0.628132 -2.93564 0.898709 1.81243 0.284616 -0.159551 0.420423 -1.56047 -1.40062 2.98624 -1.3256 0.721213 2.27223 -2.52895 3.54704 -1.38548 -1.41606 -0.0122074 -0.651204 2.01972 -0.66567 -1.3538 -2.76717 1.03177 -0.42201 -1.74541 -1.14963 -1.53117 1.5468 0.0614642 -1.37431 -1.45317 2.12281 2.83279 2.02496 -0.42201 -3.75799 0.140812 -2.81179 -1.43168 2.60402 -2.119916 -0.691977 1.58794 2.05762 0.895169 -0.878811 -0.209601 -0.953459 -2.43245 -1.10385 0.955412 0.480605 1.28275 1.28501 0.42909 -3.58715 1.60521 0.41908 1.33872 -1.10263 4.06781 0.621479 -0.0446181 1.39946 -2.56551 0.111454 -1.91974 1.13846 -1.82055 1.07596 2.32997 -1.26713 3.04666 1.4846 0.192938 -2.47346 -1.42698 -1.98077 0.737754 2.96829 2.44935 -4.50117 -0.157659 -1.57756 -2.41304 0.169073 -0.177801 -2.21595 -0.223029 2.23524 1.33299 -0.727317 3.80401 -2.98764 1.41984 2.78158 -1.09964 -1.93298 -0.408277 -0.843898 2.4095 1.72692 -2.20624 1.77874 0.534806 0.33198 0.15247 -1.16953 -2.94894 1.6032 -1.6306 -1.39012 -1.14963 1.50383 2.64022 2.28016 -0.800928 -2.03357 3.96826 0.421033 1.58147 0.864528 1.75561 -4.23835 -4.99631 -2.40156 -1.45915 -1.53325 3.6353 3.6765 -0.240364 0.352428 -0.342784 -4.3404 0.404492 0.407788 -1.79815 1.85302 0.457778 1.99579 -0.750023 0.110416 0.973968 -1.89264 1.36406 2.13233 2.6838 1.04862 2.13337 1.63323 -3.00174 -1.07199 -1.7951 1.74712 5.2852 -0.67159 -2.22419 -0.945341 -1.70574 -1.47111 0.419569 -0.401685 1.60668 2.66048 1.12516 2.26795 -3.01926 1.16282 -4.5779 -3.07413 -0.525163 -1.07651 -1.53429 -1.34721 4.214 3.47154 -1.04215 -4.51888 -3.31687 -0.402234 0.779382 1.00003 -1.58037 -4.2154 1.20933 1.19871 1.97546 0.811548 2.60311 2.93075 1.03049 0.916227 0.408399 1.36741 -2.47017 -0.11243 -3.60973 1.82 -2.28236 2.46016 -2.05536 -0.696432 2.94522 -0.60976 -1.63073 -0.781762 -2.87259 0.587664 0.974639 4.52248 0.723533 0.67336 1.90197 0.773278 1.11417 -0.654378 -1.46928 0.409497 1.25486 -1.07523 -1.65575 1.65123 0.474868 -0.548418 1.13236 -0.607562 -0.697897 -4.28382 -2.59481 1.45982 2.18427 -3.40849 -2.10688 1.61394 1.98505 1.04758 -0.993622 -1.33103 -3.87194 1.21683 1.13187 -0.89761 -1.73553 0.894803 -1.35942 -1.46605 -0.661275 -0.159795 -1.51897 3.44505 -0.072573 -1.74261 0.232429 2.51625 -2.27174 -0.166326 2.49641 -3.04233 -1.92938 1.70452 -1.50346 -2.79476 -0.675375 -0.274911 -2.23328 1.3596 -0.914762 -0.578692 0.798059 -3.25828 -2.99661 2.99484 -2.47725 -2.05707 -1.85882 -1.24229 0.510392 -1.26188 0.724815 -0.627216 -2.25361 1.24552 -3.82812 3.27317 -2.12378 -0.299814 -0.733543 -2.36482 -1.21909 0.222419 -3.64202 1.28458 0.366894 -2.04926 -2.54176 -2.09821 -1.56035 2.91897 2.11243 -0.0867335 -1.46007 -1.95044 -1.08304 1.43223 2.61495 2.64064 -1.43645 -1.36802 3.40043 2.71682 2.27979 -0.0769067 -0.611225 -2.37349 -0.458144 -1.6895 3.25925 -1.7467 -3.06021 -1.69506 0.641438 -1.77917 0.0618304 1.7644 -1.90716 3.46434 0.279733 1.0394 -0.839564 -2.45546 -3.6928 1.79986 -0.596942 4.07959 0.406445 3.91504 -2.74899 -2.33308 3.11692 -1.23734 -0.424635 -3.32401 4.3852 -2.65456 0.844508 3.27885 0.966216 1.58391 2.73952 -1.89966 -0.0261238 1.16593 -2.8923 0.862148 0.454237 2.32618 -2.87301 0.389599 0.858119 -1.07089 -0.446303 -2.63564 -1.71337 -1.76788 -3.06638 -2.8066 -2.61501 3.70379 -1.35093 0.36903 0.76046 -0.72982 1.67559 -4.30311 0.797571 -0.630512 -0.0750756 -0.232795 2.74825 1.18168 3.05039 2.04108 0.969146 -0.58388 1.58562 -3.0698 -1.81732 0.0277719 1.29661 -1.75494 -2.36232 1.2385 -0.382031 1.3817 0.0412 0.236518 -2.94778 -1.37077 -2.8591 -0.0661031 0.401563 -1.03177 -0.170415 2.14948 0.714743 1.73565 -1.35087 -0.400403 0.816736 1.53252 2.56709 1.06815 -0.699667 -0.250008 1.90136 -1.87078 -0.145207 2.08478 -2.72994 -2.19794 -1.19675 -0.575579 -1.56188 1.5092 -2.27235 1.47429 -1.06247 -1.28532 4.05493 -3.50114 2.33717 -0.383313 -1.52361 -1.4387 0.0343638 -0.729575 0.0832545 1.62291 -1.55315 -2.48463 0.0815455 1.89019 1.47618 3.082 0.973174 -2.22297 -1.87909 0.253121 0.0710471 -1.14054 -0.886563 0.456435 2.22449 -0.803675 0.453505 1.1586 2.63173 -1.6054 1.71673 2.4427 0.612201 -0.210028 1.01175 1.63768 3.21665 -0.87991 2.45955 -1.62151 1.54534 1.06503 0.0722678 0.471145 -1.34458 1.03073 -4.09571 -1.0632 -0.0732444 1.54753 2.35395 -1.38884 -1.23569 -1.33634 -1.51445 0.673238 -3.48753 -0.295969 0.253059 -0.521805 -0.54622 -2.22889 -1.50511 4.07202 1.77056 -3.63561 2.57796 -1.24247 3.33952 -2.50911 -0.434767 -2.90634 1.24088 -1.3571 0.782128 3.69671 1.8507 -1.98096 -2.34486 0.221992 4.39491 1.3607 0.700339 -2.09815 2.84011 -0.218268 -2.46651 -0.989593 -1.00589 -2.03375 1.78155 1.63549 1.69353 0.106693 0.76339 4.12897 0.950468 2.96005 -2.17652 -2.38801 1.93817 3.39592 -0.813685 -3.08902 1.68438 -2.18708 -2.79159 2.29627 3.35325 0.796228 1.90771 0.401196 0.985748 2.39137 2.63619 2.69826 1.57854 1.37272 -2.812564 -2.09955 -2.62819 -0.123295 0.357616 0.672079 -0.775842 -1.22074 -0.611713 1.01474 1.94787 -0.811426 -1.08805 2.71218 2.48012 -0.568682 2.53279 -0.79928 -4.23469 -1.09409 3.35862 -0.750877 -0.775414 2.17725 1.21531 0.813074 0.68276 -1.31046 3.01175 -0.551836 -1.36522 -0.529435 0.122745 -0.348765 -2.27754 0.203681 -1.32371 -2.49489 2.29548 0.0415662 2.61098 -0.993805 -3.06613 1.53758 -2.61898 2.44325 -3.19175 3.06919 4.18964 3.20823 0.749046 -2.87228 -1.3867 1.41026 3.90173 -0.14716 -0.493179 0.671773 -1.15586 1.18009 -1.94732 -3.52446 0.039491 0.984893 -1.1663 0.445082 0.498672 -1.40934 -1.19327 -1.07327 -2.46901 -0.978362 -1.95276 0.254341 -1.54588 1.3693 2.14423 1.06626 -2.85958 -1.34428 4.1167 -1.94733 0.274361 0.559709 -4.26997 1.5089 -1.80438 2.38807 2.08631 -0.933988 -2.79647 1.66259 -2.64034 -2.02167 -1.80255 -0.300607 -0.439405 2.33949 -3.47295 -2.44343 -1.80712 -0.396374 -0.0697042 -0.277718 2.68892 2.78573 -0.570025 0.921354 1.48918 -1.28312 0.0695211 -0.586993 -0.351146 0.730308 -1.64354 -1.84216 -3.15946 -1.8504 -0.706748 1.22391 -0.368297 -1.04038 3.86962 -1.18809 1.90832 0.029664 -0.110599 -1.72637 1.32591 -0.732566 1.0101 -3.5053 -0.34547 0.0780053 -1.13346 1.02176 -3.09842 -1.49858 -0.843104 -0.694418 -0.920988 1.40599 -1.43693 -0.562273 -2.50368 -1.88946 -2.61544 1.75323 1.45195 -2.18806 2.75582 -1.32493 2.19721 -2.80837 -2.67495 2.17817 2.04913 -1.42216 -3.72985 -1.75835 2.52699 -0.963591 -2.4753 1.67382 3.38609 2.76687 2.08966 0.672628 -3.57298 -2.82192 -0.694296 0.509659 -2.04798 1.01926 -0.0360729 -2.29859 -2.25605 -3.06131 -1.87609 2.05188 -1.55431 2.85025 -3.47996 -2.06738 -2.78866 0.475845 0.428907 2.18561 -0.492325 1.44627 2.87063 0.0127567 0.936186 -2.67116 0.0233772 0.237129 -1.04373 -2.03815 1.72308 -0.696982 -1.6187 0.466933 -2.07739 -0.604511 -1.47868 1.31724 -0.01001 0.0509049 1.85186 3.83502 -2.28645 0.634541 -1.92132 -0.506119 -3.10251 1.06174 -0.521683 1.40117 -1.58592 2.13428 1.38462 2.33296 -2.40474 0.870937 -2.2989 -2.29737 -3.16721 2.20344 -0.690023 -0.169439 0.265999 0.415845 -2.74471 -0.105594 -0.57149 -0.299081 4.57503 -0.0640889 -1.26634 -2.79244 4.65487 -0.705588 -2.33161 -4.04242 -2.01709 -4.15241 0.57448 -2.99741 3.17631 0.431166 2.88949 2.19922 -1.84454 0.811304 -1.27512 0.975494 1.34446 -0.409681 4.65572 -1.53374 2.7665 2.4145 -1.40764 -1.61095 -1.08432 -1.13804 2.61916 2.03784 -2.72427 -3.61425 2.66329 -1.23154 -3.63732 -2.31294 -2.12189 -2.64773 -0.834986 -0.10889 -1.38737 -2.42879 3.85925 1.90515 -0.162114 -0.570147 -2.32917 -1.67071 -1.08512 -0.639668 -2.23682 -3.70067 2.56862 0.794153 1.01981 -0.369274 -0.0486465 -1.52458 0.603229 0.64565 -1.33464 -0.106449 -0.837977 2.05316 -3.37919 3.20499 2.56075 -0.741722 2.60756 -0.975738 0.0070803 -0.5215 -1.55162 1.45775 0.455519 0.0366222 -0.381726 -0.248543 -2.84365 2.21064 -0.804895 -0.0649434 -3.76977 -0.987518 0.0239875 -0.169317 -0.860561 -2.72866 -0.0328989 -1.19687 -1.06558 0.397229 3.11319 -0.369274 -1.85308 -3.80218 1.82501 -2.13617 0.208502 2.12787 0.495926 2.05493 -1.73455 2.33924 1.89355 0.227363 -0.730735 -1.08548 2.96396 1.9635 -0.787439 1.65319 -1.0289 -0.516251 -2.60726 -3.21274 -3.15097 -0.905789 -2.43019 -0.996551 2.63845 0.375011 -2.09973 1.14292 -0.11652 0.486343 1.5186 -4.04352 -0.132206 2.96701 -0.358531 2.29115 -1.44194 -3.60015 -0.927335 2.07819 -2.86563 -3.67931 -2.02112 -1.49693 0.98294 -0.259346 -4.18488 1.73046 0.0229499 1.66527 1.27348 -1.4434 -4.75423 -1.02145 0.130375 -1.63109 -3.66106 1.06882 -1.13273 -0.216193 1.27201 4.57277 -0.0604266 -1.66063 2.71773 1.61064 0.569231 -0.381787 0.18366 2.89096 -1.06491 0.174383 0.732505 -2.94675 3.63854 2.64083 -2.84115 -0.367016 -1.68548 -0.609577 -1.49388 3.01419 -2.73043 1.12778 1.7915 -1.24778 0.0152592 0.784814 1.8186 -0.362316 -1.42344 -2.90353 -0.0499894 0.877041 -0.551408 2.23243 0.716758 -0.233161 0.0769067 -2.14612 -0.862575 1.23325 -0.265206 -0.0173345 1.62444 -1.38462 -1.32359 -2.95859 -0.6498 -2.93484 -2.56374 -2.54366 2.95083 -3.06064 0.15363 3.18332 -0.561785 -1.44133 -0.206305 -0.457167 2.20081 3.70959 -0.855861 -0.267403 2.96329 -0.737999 -4.54164 -3.60399 2.58321 -1.71783 -1.37577 -3.38127 -0.441237 2.00842 2.72842 2.73232 3.12156 0.072451 0.896573 -0.705649 -0.209601 -1.66283 -2.71871 -1.37333 2.26228 1.72521 0.0732444 3.28123 1.51305 -0.583575 -2.58968 1.8103 0.984588 -0.212897 2.06153 0.218146 -0.267708 0.464736 -1.24271 -0.53383 -0.590289 0.878323 0.0464492 -0.59212 -0.0374157 -3.32768 2.54781 -2.47218 -1.08951 3.36515 -2.5226 0.863002 -0.851140 -3.37645 3.32487 -2.52547 3.72094 -1.46922 -1.44939 1.85376 -2.28175 -0.780663 0.184271 0.628986 0.0440687 -2.75173 0.194525 4.9548 2.05353 0.0975372 -0.491836 -0.0460219 -1.3361 -3.84814 -0.446547 -0.409009 -2.7615 -0.443983 1.19987 -2.65102 1.05301 -2.69161 0.972991 -0.913785 2.22535 1.97461 0.417676 -1.55174 -1.01846 1.39055 2.4836 -0.791162 -1.8692 2.73568 -1.19004 2.91623 3.62841 0.346446 1.78472 2.21839 0.0974761 -1.3524 -0.750877 -1.75555 4.18897 -0.425184 -0.270028 -1.58654 -1.34898 -0.134342 0.0664083 1.05002 3.98535 1.59337 1.31181 -0.821864 2.56215 1.31455 2.78518 1.87091 -1.92499 1.21311 -1.85614 -2.47121 1.20335 -2.39119 -0.643452 -0.536699 0.3614 0.209235 -1.55199 2.16071 2.41029 -2.52266 -3.10678 0.598834 0.202277 -0.506607 -1.46373 0.995514 -2.16004 -2.3177 -0.0957671 3.36058 0.518754 -1.21519 -0.202399 -3.77245 -2.16901 2.44337 2.02808 1.94104 -2.59371 -0.216926 -0.820277 2.87149 -0.237678 -1.64214 1.26872 -1.06186 1.24241 0.839686 1.17594 -1.19211 1.91266 -1.17606 -3.2711 3.15287 -2.70339 -2.87069 3.30741 0.332102 -1.18021 -2.03796 -1.15482 0.884976 1.84039 0.323496 -0.891018 1.1984 0.140873 -1.96399 1.12204 -1.26865 3.75585 -2.24061 0.6133 1.16941 -2.98978 0.375988 -2.63454 -0.117924 -0.354991 1.11557 -3.6657 0.0618305 1.90063 -2.20002 2.41902 -2.08338 2.43989 0.579852 2.75289 -0.706809 -0.019654 2.53584 -3.60369 2.10279 1.5114 -1.47545 -0.700156 0.929167 -2.02527 1.64208 2.41755 2.19062 2.27876 -1.32328 -1.15799 -1.76977 -1.47569 -4.06842 -0.158635 -3.28776 -2.6816 -3.2103 -0.335215 -2.30177 0.0449232 0.392651 -0.99881 -3.22312 0.974883 -1.18406 0.957915 0.624348 -1.914 0.1095 -2.56081 1.36845 1.46837 2.579 1.79913 0.134159 0.191229 3.68676 -0.359874 0.14185 0.505325 -1.05643 1.63842 1.73656 2.25684 2.16901 -1.73443 3.721 2.38685 0.49031 0.283517 -0.631184 -1.60839 1.46397 -1.11069 -2.5063 -1.38066 1.68493 3.38255 0.945219 2.27674 0.264534 2.23084 -1.0886 2.02295 0.551592 3.40996 -0.598041 2.02362 -0.530717 -2.10956 4.28352 -1.65929 -4.15534 2.14997 -0.754112 2.53444 1.10587 3.58263 -0.925504 -0.650838 -0.279733 -1.31877 0.600055 -0.638203 -3.24851 -0.129154 3.70324 1.46611 -2.09204 -3.13871 2.7513 2.06708 1.45677 2.40309 2.83651 -2.13861 3.38322 0.311289 -0.803308 1.08029 -0.83517 3.64428 -3.81188 0.0655538 1.53893 -1.10092 0.191046 0.0596942 1.63616 -1.88849 0.81576 -0.920743 0.857387 2.72475 -1.20707 -0.249153 -1.13236 -0.890713 -1.08426 1.98285 -0.918119 -2.39503 2.41243 -0.653584 3.01724 -1.03757 1.12284 0.0453505 -1.11093 0.0570696 -2.14307 1.34465 -0.176824 0.751732 3.30515 2.33491 3.06064 -4.21699 -0.120487 -0.0905178 3.52831 -0.453078 0.860988 2.8265 -0.845424 3.65502 -0.775964 0.730247 -0.700522 1.14249 -3.48277 -2.98788 -2.32167 -0.802149 0.17365 -1.62041 3.15213 2.29121 1.62517 2.0116 -2.24036 -0.424268 -2.40345 1.17508 3.36937 -1.56127 0.956694 0.178961 -1.68133 0.0747093 -0.506241 1.53624 3.42601 0.958037 1.00253 -1.78564 0.740013 0.0880154 -2.95541 -4.15479 2.40968 1.8836 1.76861 -4.22791 3.04434 -3.40007 -1.84454 -0.193487 0.94229 -3.85424 -1.92743 -0.428785 -0.439589 -2.829 -1.4951 -0.694845 2.60256 -0.694174 0.341502 -0.996857 -1.90252 0.421339 2.0918 -1.23307 -1.15238 -1.21091 -1.09275 -0.757652 -3.38377 0.0152593 -2.71865 3.01743 -2.56514 0.620685 1.80547 -0.144291 1.4011 2.14667 0.352855 0.64156 0.343822 1.65838 -1.92987 -1.08884 -1.26811 -1.47819 0.545366 0.843166 -0.802087 -2.67147 -1.46733 -3.41246 0.0564593 -3.15482 -1.39402 -4.19642 2.18696 -1.14029 -1.88269 -1.71563 -3.33854 -1.19706 -3.16483 0.54207 2.48799 -1.98334 -2.36183 -0.76986 -0.154607 1.54735 -1.3643 0.274483 2.18818 1.33561 -0.902982 -1.40745 -1.41069 0.681783 -2.44307 -0.7275 -2.29456 -2.1424 -1.52135 3.08786 0.729453 -1.25584 1.84411 -2.77645 0.712424 0.364208 0.049501 2.08948 -0.37141 3.1923 2.48323 -2.90957 -3.44401 2.11011 -1.84692 4.23853 0.349254 1.88751 2.74953 2.46974 0.180548 -0.940641 0.507645 1.55229 -0.676901 -1.92071 -2.74642 2.45155 -0.450148 -2.38148 -2.99747 -0.966338 1.52562 0.890286 2.48842 -0.0207526 0.567583 -2.12854 -2.00415 -2.21851 3.14573 -2.70077 -1.12418 -0.291513 -0.49855 -1.68639 0.110599 -0.401502 -2.2411 -2.37355 -1.68603 3.36723 -1.09702 -1.91351 -2.46852 -0.898526 -0.000976616 -1.48155 -0.775964 2.61373 1.03067 -1.28819 -1.19736 3.33097 -3.27079 -2.5688 3.0969 -0.602863 2.77126 3.32633 3.12381 0.859767 -2.28462 0.615192 0.539872 -2.18317 4.06153 -2.58449 -3.85345 -1.59728 1.79638 -1.40007 -3.17563 1.48131 1.81097 1.017569 -0.726585 -1.07303 0.556963 -0.822047 -1.0679 2.36732 1.32286 0.613239 2.45228 1.25962 -0.50032 1.88946 2.10193 3.18003 -0.783776 4.0481 2.47468 -0.80221 2.71578 0.00640885 -0.123173 -0.788293 -0.151677 -2.42116 -3.22843 -1.88055 1.0582 2.01752 1.65105 -2.29829 -0.764428 -0.0467544 0.712485 -0.909818 -0.187079 -1.38871 1.71697 2.69582 -1.52367 0.173101 0.399426 0.474868 -0.129215 3.16251 -2.18873 1.4044 2.67196 -3.26939 0.965545 1.04538 0.399731 -2.28602 3.16288 2.06372 -0.650532 -1.65831 -1.62822 0.591083 -0.983978 2.46413 2.03906 -2.70656 -1.61705 0.181463 0.703452 0.0276497 1.45683 -1.25266 -1.20792 -3.04239 1.41588 1.6173 0.967498 1.00699 2.7521 1.52263 0.407666 -1.47703 -1.21873 -0.556413 1.38878 -0.974334 -2.10504 -0.645405 0.549516 -1.08121 -2.07288 0.617267 -2.79257 -3.96478 2.0166 -0.100467 1.10801 -2.10431 -0.665853 0.490433 1.97571 -1.44902 -1.94549 -1.1102 1.24662 2.88638 -2.05908 0.546098 0.354747 -2.73849 -2.07288 -1.38261 1.9483 -2.63729 2.06348 3.63158 -3.58898 0.138493 3.20499 -2.0813 -1.93713 -3.30222 1.81878 0.693503 -2.58547 3.04526 1.28141 -0.340953 1.85369 -0.476638 -2.95468 1.01212 -2.86636 -2.15351 -2.95401 -2.28266 -3.95575 -1.4102 2.72677 -0.0648213 0.63448 -1.98151 -1.94409 -0.530778 0.366283 3.12583 -0.0885037 -3.88665 -1.4254 1.75744 -2.79293 -0.227058 -2.3954 0.696982 -1.86377 -1.76672 -0.996246 -3.41185 -1.09262 -1.54741 1.14591 -1.43394 3.34758 -0.747093 0.657247 -0.524003 2.74728 1.28367 0.0241096 0.552202 1.32304 0.135319 -0.245369 0.433485 -1.32786 -1.52434 -2.53108 1.38926 4.59426 -4.91653 -1.70367 1.6314 -0.345286 0.658406 -3.04923 0.586932 0.867397 2.27515 -0.139103 -1.99268 -2.13392 0.365123 -0.270394 -0.211432 -1.05338 0.0949736 0.900235 1.37571 0.348216 3.01749 1.89996 -0.368908 -1.84558 2.8721 1.53868 -3.96368 -1.81487 -0.590838 0.938994 -1.89471 -2.74508 -1.8883 -2.13172 -0.11536 3.17576 1.69158 -0.246712 0.413587 0.874355 -0.768151 1.74664 -2.97977 -1.99561 -1.14359 -1.7749 -1.66991 1.42369 -2.20484 2.09284 -0.142643 1.91461 -2.27778 -1.73968 -0.93936 0.521073 -2.7543 -2.3152 -1.26743 1.87909 -0.582904 -1.66607 -2.39894 -0.0875271 0.142033 -0.54268 -0.983795 1.2725 -0.63686 3.53801 -3.40239 3.89422 -1.10855 -3.70348 1.72015 -3.95636 0.761803 -2.87234 3.70574 3.23496 1.98529 0.338878 -2.39283 0.386792 1.57744 -2.43056 2.44868 2.59755 1.73229 -0.233406 -1.19755 -0.0871608 1.022 -0.913419 2.57894 -2.53993 1.49364 -0.894558 -4.10004 0.323496 -0.460402 1.70635 -2.06458 0.539384 -3.58269 -0.97824 -3.42631 -2.41914 -1.70934 -1.19272 -2.19532 -0.288644 -2.32801 -2.38197 -0.312815 1.57994 2.13587 2.16626 -0.221076 -2.56661 -1.81811 -2.76833 2.90152 3.32121 -1.8786 0.504471 -1.88446 -0.333384 -0.138981 2.72994 -2.21485 1.58177 1.46251 -2.46529 -2.40236 4.29756 -1.65276 -2.69222 0.425184 1.08737 1.02847 -4.49104 -1.10782 1.05887 1.2374 -2.21473 -0.466384 2.18482 -1.67327 0.264412 -2.59041 -1.0463 3.82067 1.40373 0.059267 -1.9873 -0.0124515 -0.229988 1.66363 -2.82449 0.313669 -1.8778 -1.7044 -2.8254 -0.252388 0.174749 3.13034 -2.46986 4.59481 -3.58477 -1.50884 -0.0897855 -0.0650044 1.35301 -2.39253 -1.64135 2.43825 -1.43016 -1.04208 -0.233406 0.453932 3.95288 2.0744 -0.0415663 -2.75155 -0.519181 1.68157 -1.22794 3.26817 -2.05896 5.05014 -0.494644 1.29569 0.949797 -0.569475 0.105594 -3.61406 0.652425 -3.54607 1.47539 2.44752 1.48027 0.36494 2.27082 -2.65493 2.3346 2.96548 1.567 -1.59386 3.5761 -3.85339 -3.23405 0.195502 -2.8049 0.881191 2.12226 0.441786 0.536332 -0.451247 -2.74203 -2.01465 -4.04975 0.47676 3.04984 0.626301 -3.24577 -0.436415 2.25245 4.74453 -4.13068 1.86511 0.245064 0.568438 1.51341 2.01422 -2.73434 -1.03122 -3.67675 -1.6447 3.51457 1.64837 0.283273 -4.33863 2.49843 -3.39433 -0.169378 -0.686361 -0.00518818 -1.24955 -2.48189 1.81591 -1.995 -0.463149 -1.39482 -1.47905 -2.92318 -0.499893 0.953154 1.44426 0.367748 -4.43635 0.602008 -1.96619 2.82687 -3.00388 3.40025 -0.21839 -3.13297 -0.108707 1.06473 -2.45778 -4.09278 4.04621 2.04645 0.438978 1.15403 0.113285 -2.42695 1.23051 3.00107 -3.09983 -2.7499 -2.98691 -1.57762 -1.30479 0.588214 2.1355 1.73083 0.486526 -1.16221 0.196356 -1.92004 -3.04007 -0.498672 2.00665 1.08261 3.14359 1.90143 -3.61492 1.92132 -1.42766 0.178961 0.665548 1.32682 2.8569 -1.90539 -0.20954 1.79852 -1.4785 0.0110478 -1.13553 -0.559282 -3.00797 2.43007 -1.95404 -1.20621 1.60753 -3.54277 2.64657 -1.97021 -2.4706 1.57573 -2.6813 1.89172 -3.57518 3.09427 -2.7958 -0.250191 -2.20154 -2.34693 -2.409537 0.149968 2.84683 3.16123 -1.76006 1.22892 2.71224 3.5327 -0.597736 -3.62798 -0.990509 2.60884 2.82473 0.488784 0.501114 -0.368908 0.194586 2.279 1.79675 -1.35514 -2.24323 1.86755 -0.0512711 0.208686 0.685629 -4.81912 0.824427 -0.218574 -2.57741 4.44118 -0.875698 3.16581 2.8464 0.149968 3.92499 1.38115 1.15543 1.94433 1.61882 1.33976 -0.663472 -0.309763 0.130741 0.705039 0.0940581 -1.80535 2.27839 3.30198 3.1146 2.91171 -1.84021 -0.541215 -0.456862 2.01251 -3.56182 -0.346263 0.546159 2.20093 0.39967 1.83996 0.832545 -0.356944 2.65908 0.825465 -1.98553 -2.60726 2.39143 2.08429 2.67611 -3.32041 -3.04117 -1.62932 2.02936 -2.55666 -2.18604 -0.486587 -1.96912 -0.516373 0.549028 3.76525 2.8356 -2.39876 2.9697 1.08133 2.4582 0.10828 -0.932218 -1.29716 -0.476028 2.07898 2.76693 -2.57949 -0.0198981 0.71865 3.31571 0.892483 2.63991 -1.7749 2.20631 -1.60949 2.44197 1.51549 1.48894 -0.645283 -3.70806 -1.80291 -0.636982 4.12323 -1.63097 0.1554 2.91372 -0.780236 -2.23682 -1.86804 -4.12671 3.57018 -0.67159 -1.32676 1.28147 2.02307 -3.38151 0.818323 -1.08255 0.550188 -2.21418 -0.0949126 -0.617451 -2.49757 -2.68508 1.86889 0.704489 -0.704733 -1.5327 1.40825 -2.6592 -1.10367 -0.688192 -0.608173 -0.543535 1.49791 -0.783227 0.884365 0.348155 -0.261544 2.67794 -0.837184 1.89361 -3.14206 -0.643574 -0.898709 -0.101688 -1.84399 -0.796411 3.2971 -2.78268 1.12986 -0.453932 0.314524 -3.47771 0.666891 -0.992035 -3.57958 0.596088 1.66832 3.14237 2.18873 -1.97858 1.47526 0.649434 1.34294 0.148076 2.47664 1.05716 -0.77926 -2.79714 -0.730308 -3.26524 2.22834 1.42778 0.752708 -1.88079 1.66082 -0.886746 1.51933 -0.971831 1.26792 -0.59212 -1.06412 0.931608 -0.06592 1.77343 2.27107 3.06137 -1.14823 1.96594 -3.74511 3.23124 2.56307 -1.58708 -0.554277 2.24213 -2.75954 0.866787 -0.227058 2.74905 -0.410779 -0.79635 3.63689 -0.536088 -2.26295 2.24842 0.93643 -2.43092 -0.504715 2.49532 -1.59545 2.21644 -0.641194 0.605304 1.62011 -0.0119633 -0.373669 1.549 0.0755029 -0.807215 -0.990509 2.27406 -2.32484 3.87378 -1.88781 -3.22849 3.03763 0.400647 3.15061 -1.58428 1.97626 1.52544 -2.71041 3.45097 -1.46226 -1.22898 0.973785 1.50273 2.96713 0.0330821 0.623432 2.9888 -1.02115 -0.732688 1.07297 1.30088 0.708213 -0.863613 1.12864 1.63671 -2.28382 1.49541 -2.38508 2.35542 -1.57567 -1.41539 1.29252 -1.27049 0.354869 -2.18787 0.013184 0.974212 -0.450087 2.99503 2.4969 -1.57994 1.54595 2.93606 0.0975372 -0.28663 -1.72289 2.21351 1.9386 0.912992 