2.869890 -2.12864 -0.661855 -1.13263 2.73113 0.0694906 -0.580187 -0.188086 0.686636 0.76989 0.816645 -2.46983 2.59703 3.46248 0.604724 -0.842586 -3.02863 -2.12046 -1.19446 -2.02457 -1.07678 0.801752 -0.282937 -1.82797 -2.35325 -3.62392 -3.29115 1.20295 -0.922666 0.884274 1.67092 0.198706 0.425275 -2.10532 -0.699149 -2.14969 0.264138 0.743706 3.41969 0.214087 -3.1308 4.2725 1.50056 3.87179 0.486862 -1.23182 -1.39686 -1.11707 -1.77383 2.04007 -1.10584 0.968932 1.25867 2.56774 3.94803 1.36341 -0.985412 -0.335246 -1.99039 3.76992 -1.93722 -0.41026 -2.58629 0.860836 -1.63942 -2.4572 0.339274 -0.241615 0.564135 2.48869 0.0938444 0.932798 1.08313 -3.25971 0.11301 1.9548 -1.43013 1.2414 3.86148 2.54399 -3.47005 0.48674 -2.17716 0.344523 -2.25956 0.0153508 -1.23011 -2.12918 1.16449 -1.58364 3.49574 0.0586871 3.05048 0.784478 0.200476 -3.1435 -1.09949 1.56081 -4.28391 0.302652 -2.00052 -0.301553 1.76034 -3.48579 3.18879 0.0909146 -1.59859 0.0369579 -0.42613 4.19797 1.93167 -5.01642 2.85321 1.80935 -0.676382 -1.59352 -3.04407 0.882626 0.469832 -1.66518 -0.324198 1.39222 -1.6169 -2.07975 -0.0129704 0.128452 2.55187 2.1229 1.73385 -1.61806 -2.36723 0.380413 -4.62365 -0.545335 0.67449 -0.307535 -3.51534 1.92923 1.05133 1.56301 -1.33595 -2.35911 -1.69637 3.23322 -2.39677 -1.71572 0.0656454 2.64672 -0.0697348 -0.405316 1.27161 -2.41722 1.56557 1.04096 -1.17426 -1.60652 3.25703 -4.03177 0.926328 0.7846 -2.01309 -1.87307 -0.77282 2.07761 1.93887 -0.473861 -0.970763 1.38893 -2.29295 -4.45262 1.6849 -0.835139 3.44404 0.261513 0.404706 -3.49013 0.625538 1.87649 1.65621 1.74404 2.12577 -0.735405 -2.66301 -1.37007 -2.7116 1.49898 1.91507 -0.295572 -4.31822 -0.660817 -2.28001 -0.846736 0.224097 0.604175 0.574999 -1.3332 -0.632618 -1.63063 -1.04486 2.71227 -0.971191 -0.0738853 -1.13807 0.663076 -0.0460524 1.438 -2.40049 0.220374 5.20295 0.237342 4.63964 -0.434675 -2.55785 -0.307413 2.76519 0.678701 2.73669 -3.41011 1.67977 -2.73363 0.521226 3.9631 -2.73357 1.72884 -1.55354 -2.69134 0.689261 0.608631 -2.21909 1.12891 2.51976 -1.04096 0.0605793 1.73244 2.08078 1.06452 2.67199 -0.763543 3.19056 -2.04239 -1.94485 -3.29371 0.49736 -0.835017 2.21708 -4.63396 -0.407331 3.11933 -0.760491 -0.174841 1.08612 -0.319132 -2.52831 0.249367 1.83676 1.19807 0.0932951 1.42396 -2.47935 1.55135 1.7358 1.63582 -0.271462 1.61306 -2.14859 1.32118 3.77578 0.563952 2.51366 0.410321 -1.58303 -2.49754 1.34046 0.310343 1.64962 -3.21583 -2.77483 -2.53899 -0.20658 -0.470626 1.56453 -1.59682 -1.96213 -1.26411 -1.33229 -0.704276 1.63912 -1.56459 -1.95926 1.8204 -0.0422682 2.32994 2.22556 2.40922 0.5244 -1.65444 2.88659 -1.26508 -0.680349 2.54381 -1.1681 0.400494 2.45683 -3.17689 2.6538 1.76388 -0.547349 -4.14737 -0.32078 -2.16019 -0.720573 1.6744 -0.0842006 1.21039 -2.6234 -0.591906 -1.31916 -1.11347 2.81982 0.503159 0.603137 -0.943785 -2.17435 0.967406 0.681326 -3.34425 0.787774 -2.98437 3.08979 3.70406 1.02277 1.57411 1.41731 -0.665029 0.424177 0.0752282 -0.972289 3.46864 -1.79855 -3.01294 -0.771172 -2.94745 1.8995 1.50661 -0.0643635 -3.17963 -1.11914 -4.13944 0.520493 -0.505844 1.46199 2.65075 -0.468368 1.37709 1.88809 -1.32563 0.971618 0.269448 2.33622 -2.33012 -2.17881 -0.354595 0.132237 -0.588183 -3.5024 -1.96988 -0.628529 1.60225 0.933042 1.51381 1.12769 1.99136 3.96152 -3.66256 1.44044 -0.83404 -1.2964 -2.50554 3.26716 -2.5551 -2.36674 -1.72213 -0.412946 0.314798 -1.98477 -3.28401 -0.154332 1.8489 -0.597278 -2.16831 0.925596 2.54192 1.88003 1.66451 -1.16651 1.00201 2.73907 -2.01047 2.28874 -4.06534 -1.72335 -0.323466 4.40092 -4.14292 -3.59804 -0.38023 1.62636 -3.01929 -3.26307 3.18183 -3.81118 -1.30079 -4.09641 3.08539 -2.84692 -2.87976 -3.31953 -3.30659 2.33616 0.0758996 -1.28162 2.6118 0.24839 -1.94711 1.50166 0.553331 0.249001 -1.52309 -2.7561 -0.596423 4.10288 -2.2089 -1.5956 1.42109 -0.872494 0.764031 3.51302 1.51192 2.11863 -2.53441 3.99026 1.51766 0.238075 1.34999 -2.34672 0.450911 0.0565508 -3.12091 -0.408551 -3.38228 0.935423 2.12918 -3.90066 0.566149 -0.0649128 2.81225 2.35929 0.792352 2.43876 -2.84344 1.55324 3.15113 1.67891 -1.92282 4.09915 1.89926 1.35279 -1.92166 0.694205 3.31452 -1.48341 -0.676687 -2.14475 3.82656 0.942747 -1.68984 1.64168 -2.40342 2.13053 -0.409345 -1.75063 -2.51524 0.156896 1.96847 -0.835078 2.33897 -0.446394 -2.3842 1.56435 -1.45119 2.40025 1.54817 1.64479 -1.20203 -0.181249 -2.11399 1.58034 -2.04978 0.0580767 -1.64553 3.78317 -2.98517 -3.64315 -0.556078 -2.83813 -2.88067 1.814866 1.68154 5.06543 -3.56746 3.14637 1.44221 1.5934 1.97702 -0.549058 2.74187 -0.0290842 -0.7387 0.60918 1.44807 -0.335673 3.67788 0.0686361 -0.653798 -0.0660115 -1.40284 -2.73785 -1.5013 -1.49409 4.10147 -2.83703 -0.666067 -0.945677 1.28925 -2.88641 -1.09473 -1.82296 0.094882 1.12268 2.75225 1.55861 -0.44438 0.81225 2.80786 1.99991 0.465316 -0.793939 4.78484 3.01093 -0.647328 4.54515 -2.52031 2.6458 1.72176 0.316385 -0.566637 1.27424 -4.50993 -1.31306 -2.61699 1.97165 0.566576 1.5248 1.94644 3.22083 1.49953 0.198523 2.97241 -1.39436 -0.860591 0.342936 -0.00173959 1.19337 2.25071 2.77435 2.24992 -2.71715 -2.99207 -1.25245 1.6205 1.21607 -0.680471 0.741142 -0.929868 1.93179 -2.08957 0.953673 1.87948 -1.04443 3.10523 -3.29273 -1.80496 -1.49025 -0.752007 0.937193 -1.69198 1.43196 -2.30369 -1.03961 -2.90234 1.58943 0.326884 -0.290933 1.08368 0.478622 2.48973 0.615833 -3.48238 -1.30628 -2.64977 2.33909 -0.0409253 1.95511 0.555895 0.51561 -0.23423 2.38334 -0.838496 -1.2721 -4.05844 0.706595 -2.24198 -2.12436 -1.22187 2.09067 -2.26542 -1.8674 -0.276833 -2.72478 0.617542 -1.31379 -1.07831 -0.291971 -2.58208 -2.5623 0.859065 0.361553 0.932249 3.85836 -3.45167 -1.07849 2.92572 -0.819147 -0.301248 -0.96588 -2.85681 1.1236 -2.70006 -3.70168 -1.91995 1.32472 2.06516 2.69262 0.452315 2.68181 -0.837275 4.12204 1.3039 0.78045 0.683706 -3.22431 1.68831 0.599719 2.27195 -1.02142 1.86196 2.68279 -0.636769 0.226051 -1.07422 -0.0402539 -0.533433 -1.90744 0.854549 -0.588549 1.92508 -1.30311 -0.149388 -0.241981 1.59481 -2.58708 -1.04157 1.36573 -0.118381 3.51637 -1.1214 3.55287 -0.432539 5.44917 0.919492 1.48769 -1.13147 -1.60396 -0.978576 -0.137242 -0.836604 2.85589 2.79485 -2.46495 -0.177709 -0.105808 -1.49538 2.31651 2.58415 -2.22904 -2.05496 0.106235 0.910276 1.62453 -1.86532 -0.450484 2.75878 -1.09943 1.77664 2.41154 -1.78854 -1.78158 -2.5844 0.853511 0.397748 0.35435 -0.766289 1.79843 -2.85522 -0.964415 -2.58269 -2.4254 3.79879 0.231605 -2.95978 1.02393 -1.35029 -2.37504 -3.60872 -3.73812 1.40052 -1.04169 -1.3072 -0.721366 -1.88443 0.935484 0.139378 1.56581 1.08814 3.37226 0.202185 -1.04028 -2.93835 0.277261 -2.87066 -1.1139 2.24705 -1.44191 -1.41426 0.194983 1.5663 2.03232 2.36369 2.77166 -1.4319 3.43574 1.10968 1.1153 3.44661 2.11563 1.99557 3.06702 3.60292 2.09336 -0.719169 -2.12094 0.188635 2.18638 0.69628 -1.18812 -2.93316 0.875668 1.59004 -3.55483 -2.37266 1.60817 1.77322 1.89053 -2.10404 -0.781731 -2.99768 -1.90359 -2.62517 3.16059 0.0359203 -1.57216 4.04941 0.234962 -2.79864 -3.28706 -2.9986 -1.50014 1.4142 -0.0600299 -2.93451 1.05249 -2.42033 1.79604 -1.03491 1.37019 -0.675588 -1.7687 -0.63329 0.897153 -1.01764 -0.759453 0.290567 -1.43617 1.78799 2.04404 -1.68722 -1.06995 2.1984 1.86019 0.999634 2.63292 1.29664 3.4554 1.00739 -0.165746 1.20215 -0.341533 1.2906 0.349834 -2.56822 0.027253 -0.149388 5.15003 1.14789 1.85495 1.46767 0.918699 2.23032 2.70421 2.84637 -1.64034 1.10987 2.65612 -1.37873 1.93539 2.3018 -0.538987 -1.34639 1.72597 1.57515 -1.22004 0.0574052 -2.90069 3.69625 2.70293 -1.60524 -1.12439 0.685476 -3.26954 3.47731 -0.325175 -0.478988 -3.58785 2.20798 -0.863094 -0.769402 -2.18107 -2.09336 1.70009 -1.69204 -2.95215 0.551683 -0.375408 0.389508 -1.06134 1.37672 -1.04981 1.13099 0.193945 0.261452 1.07642 -3.7781 -0.911435 -0.647694 -2.35264 1.47255 0.95703 3.35206 1.43855 0.912534 -0.354533 -0.0874356 0.921323 -0.158849 -1.88443 0.573901 -2.79748 2.76135 2.38908 -0.319742 -2.97925 3.13929 2.01865 -2.28281 0.489792 2.92627 -2.72588 -3.49837 -2.7257 -3.22108 0.232704 -5.33326 -0.111179 -1.08393 1.95486 0.876095 3.8019 1.55074 -1.05786 3.20637 -0.959838 2.83221 1.05719 0.135411 -1.02606 1.23957 -3.90371 -0.426557 -1.0268 0.359966 1.2035 -0.625965 0.624439 -1.00739 -3.69143 -2.23569 0.191382 0.51268 1.78494 -0.871273 1.01086 -1.56374 1.50447 -0.411603 0.508774 2.1218 -2.51421 1.80807 -2.47502 1.54353 1.31971 1.47304 -3.365 -0.919553 -1.44337 0.871578 1.15418 -0.74926 1.25013 2.01852 -2.48717 0.335551 -3.16279 0.760735 2.69219 0.825068 -3.45155 0.301614 -0.597278 2.62889 3.53078 1.57759 -1.30018 -2.01822 -2.1265 -3.06848 0.718619 -4.00949 0.726188 0.514695 -0.783257 -2.24839 -1.31111 -0.145116 -1.38466 -2.01883 0.673208 0.0347606 -0.778497 4.09714 0.410504 -1.09168 -0.676809 4.68303 -3.19568 -3.19929 -0.157506 -1.7195 1.30604 -0.874691 -1.76559 2.44224 -3.49092 1.35548 -0.680349 3.98154 -0.857112 -1.20997 -2.26121 0.362346 1.65755 2.55028 4.324037 1.16248 1.58638 -1.75814 -3.18952 -2.45433 -3.12757 -1.27406 -2.62743 2.6881 2.34874 -0.569567 2.34294 -0.914487 3.55501 3.64241 3.13178 3.6907 5.08692 -1.78024 -1.76516 -1.19257 -0.344523 3.15729 2.28574 1.68813 -2.94824 1.44429 2.22733 0.763604 1.19953 -1.34346 2.2938 -0.548631 2.48619 2.71184 2.48796 -0.527268 1.55904 -0.766228 -1.75826 0.620899 -0.227332 -1.0412 1.94864 -1.08637 -1.5226 0.620716 2.05344 -1.92581 -3.66665 1.75625 -1.60988 0.267556 2.84228 0.86523 1.45094 -0.956908 1.2776 3.36262 0.278726 -1.59133 3.20893 0.762627 0.666127 -3.01892 -0.200171 1.5295 -3.64827 1.14838 4.07364 -0.965575 0.900815 -5.82009 -0.671133 3.05597 0.954161 -0.773797 1.89737 0.258888 2.53893 -0.862178 -2.57347 2.0936 -2.87683 -0.947874 -1.12067 1.54921 1.1062 4.67498 1.43519 1.20063 -0.573839 2.19968 0.480209 -2.0148 0.981689 -3.19782 -2.12339 1.14777 -1.45558 3.64657 0.695059 2.79131 -3.141 0.338237 -2.39933 -0.529038 3.61122 0.767937 1.07807 -1.73299 0.956664 1.27577 2.68395 -2.22214 0.295389 -0.921018 -0.485458 -0.533372 -0.0209661 -0.100742 -0.923582 -0.198096 -1.36024 -1.27436 -1.25465 0.628834 1.82797 0.652333 1.00311 -1.7933 0.645436 -4.27207 2.64013 2.35575 0.0629597 0.754631 -0.890866 2.14096 1.60829 -0.0276803 -1.77981 -0.456465 -1.88736 -0.430708 2.3607 1.5436 -0.795404 1.95273 -2.56731 0.0623493 -2.76482 -1.28034 -2.30851 2.19724 -3.67275 0.263588 4.67412 0.184606 -1.77023 -1.04334 -0.596606 3.53432 -0.328043 -2.15793 0.0622272 0.765801 -3.10273 -2.22337 -1.68734 3.1908 2.07236 -3.03992 4.46202 -3.82656 1.25105 -2.21244 0.649831 -1.68856 -1.41334 0.966002 2.25657 -4.03171 -1.52211 -2.17313 -1.29243 -0.395734 0.333842 -1.22217 3.87277 -0.667837 -0.350322 -3.17194 1.23933 2.14493 0.07828 0.124729 4.05271 2.24778 0.183569 2.43901 -0.392682 2.93194 -2.43297 3.53908 -0.121433 -4.56987 0.0525224 0.387249 -2.31822 -2.80926 -1.38478 1.099 2.54607 -2.99518 -2.25248 -3.40065 1.48927 3.4294 3.94235 1.9205 -1.11402 1.93802 3.9877 4.06705 -1.39045 -0.757988 -2.24326 -1.60024 -3.35975 -1.78463 -0.819025 0.463546 -2.67357 -4.13596 -1.90603 1.20496 -0.516038 -2.22599 -3.36402 -3.48787 1.52486 -2.52214 0.901242 -2.98151 -4.20151 -1.82083 1.52211 -2.89666 1.33869 -0.734428 -0.127537 -0.969604 1.19611 1.05646 1.58065 -2.83898 -2.44902 2.21531 2.03708 2.1782 -1.20832 3.27003 1.5865 0.260048 -0.258705 2.67467 -0.907712 -0.859249 1.22852 2.85266 3.5577 -0.00589005 -1.81649 -1.34333 -1.50758 1.08051 0.44969 -0.314188 -3.28303 -1.90799 -0.504074 2.89392 2.28281 1.13501 -0.778008 -1.07086 -0.796075 1.28547 2.03818 -1.35768 -0.314127 2.65905 -1.58962 -2.80059 -2.46587 -3.07416 -0.939756 2.23765 1.43818 0.217444 0.000457799 1.5016 -2.18943 -0.648122 -2.39866 0.398541 1.87521 -2.67327 -2.1287 0.907407 -3.31458 3.00635 -0.861995 0.282266 0.767815 -1.052 0.321024 2.98535 2.0701 4.30326 1.98184 0.288613 -1.09186 0.728141 -5.66225 -1.01965 -2.40403 0.245582 -0.570849 -2.38487 -0.554369 2.99268 -0.374737 1.74404 -1.17322 -2.20792 3.65859 2.56236 -1.02741 -2.51262 -3.626 -3.5865 3.21809 -2.0256 -2.62041 -2.41362 -1.63961 0.871944 2.78753 -2.15842 -4.17161 -3.23548 -0.768304 -0.893674 -2.6541 -1.04035 -1.6473 -1.22388 0.781365 -1.30854 -3.06848 -1.94302 -1.13379 3.71224 0.866207 0.790277 -3.52553 1.20899 2.17289 1.19428 -0.854488 -1.01996 1.20533 -2.03836 4.54283 -4.18747 -2.7268 -2.85022 -0.468856 -3.00458 -0.146947 -2.69793 2.567 -0.0928678 1.57436 -2.76397 -3.92135 1.61483 -0.828608 -2.06211 0.536607 1.42286 -2.41124 2.99994 0.888852 4.30955 -0.576159 -2.96173 -2.94031 -1.81625 2.89978 -1.47151 -0.807611 -3.09052 -3.45027 0.496628 1.32484 2.02445 -0.191565 -2.49675 -1.81277 1.09619 3.68777 -1.64113 0.810053 1.65645 2.7337 1.00519 1.6238 -1.35829 -1.55232 1.00409 -1.25379 -1.71279 1.3589 0.068453 4.13999 -1.59548 -0.063326 -1.92642 1.32649 -2.01431 -0.46794 0.986328 -2.65111 2.06864 3.53072 -3.84945 -1.33271 -1.19996 3.91275 -2.63512 -0.325724 2.63799 -0.602222 3.19092 1.52058 0.625111 0.37138 2.92889 1.93533 1.67757 -3.22706 -4.29917 -0.267861 -2.18082 0.138157 -0.925291 2.68358 1.30592 -0.0195623 -1.33119 0.45555 0.571337 1.69991 -2.82348 -2.7113 0.936949 -3.79257 -1.75631 0.111423 3.01868 -1.54982 -0.359355 2.77508 0.772759 3.02814 -0.835261 0.0979949 -1.88644 -1.91336 -0.290262 0.405805 0.04532 -0.324198 2.94201 -1.7466 -0.75927 -0.240028 2.0181 -3.97916 -1.99118 -1.93222 -1.21516 -1.93411 0.584582 0.971679 -2.10434 -3.87777 1.68197 -2.42204 -2.71722 1.63436 0.245766 3.328156 -2.57659 -2.29081 0.339763 -2.43962 -5.16541 0.380108 2.10971 -2.58397 0.238136 -0.135411 0.756523 -0.377117 -1.17182 -0.493026 0.461898 -2.00491 -2.91437 1.09137 1.19697 -0.349956 -0.430586 0.213355 1.35701 -1.14765 -1.87252 2.39836 2.15903 1.57747 -3.03668 -0.347819 -3.26508 -0.0269478 -4.00559 -1.86526 3.86636 -3.0857 -2.05728 -1.35853 -0.711661 -2.16617 -0.408734 -1.42109 -1.49025 -1.98239 -3.35182 1.12726 4.0795 2.5526 0.651906 2.27128 -0.759697 -0.88525 -0.642018 -0.608142 -1.09223 2.78515 -0.95642 0.102268 -0.0899381 3.07813 0.167089 3.01746 -4.57298 -1.62508 -1.17841 5.14728 1.56618 -0.0533158 1.41768 -2.40526 5.01276 0.75164 -2.96533 4.2534 -2.30857 -0.798395 0.878109 3.18555 -0.621754 -0.921995 -2.72118 1.37452 -1.80276 -4.21195 3.67348 0.532456 1.94339 -1.85006 0.002472 -1.34242 0.165624 -2.11014 2.96423 1.02118 -2.04941 0.0447096 1.56087 -0.721 3.34181 0.451827 -0.623646 -1.61019 -2.66717 -0.481735 0.0209662 0.0299997 0.375225 -1.54646 3.18177 0.191443 0.330485 1.15503 1.71615 1.65242 1.81338 -0.0666829 -2.77361 -0.996094 3.85794 0.265236 2.55095 -1.07483 3.84317 -3.23908 -1.38832 3.39119 2.62169 -0.465804 0.0553301 0.500351 -1.21802 1.16193 -0.87701 2.61412 2.987 1.42061 0.190039 0.488266 0.322428 -0.0103458 -1.59041 -2.90838 3.59584 0.304544 -1.09955 -2.20597 -2.47819 -1.24934 -4.08536 2.61229 -1.2674 0.385907 -1.57747 1.20356 1.54714 1.37599 -2.44536 0.292703 2.44316 -0.666738 0.335795 2.21909 -0.836116 -2.25401 3.1493 0.292398 -2.60009 3.68288 -2.6306 3.64553 -3.01856 -3.0362 -1.39937 -0.72924 0.521165 1.98508 -2.04337 -4.07419 -1.55654 -3.62185 -1.17627 -2.39921 -0.663076 3.70486 -0.461104 -0.771783 3.57045 2.35734 -0.574633 0.329447 3.10627 -0.130833 -1.37928 -0.719657 1.45192 0.811396 1.13446 -2.11307 0.6845 1.4662 -0.425153 -1.04395 3.48891 1.4676 -1.01904 0.549913 3.14167 1.59255 0.196631 3.6122 1.38582 -2.1077 0.226661 -3.3487 -0.872921 -0.647633 2.00882 0.172826 3.89285 1.26545 -0.956481 -1.45882 -1.01074 -0.493332 -0.684378 1.96664 2.29777 1.90249 1.9451 -1.70211 -4.35868 -2.12986 -2.9917 -0.687918 -3.33192 -3.47066 1.96414 -0.810968 -1.82101 0.460555 1.11988 1.85397 -3.15528 1.3058 -2.41655 -3.11768 2.24754 -3.60311 2.12857 0.648 0.181921 -1.40248 -1.58339 2.40648 1.15851 -1.4518 -2.98621 -0.0013733 2.04074 -0.49913 -0.364544 0.862667 1.75814 -2.0687 0.0605182 1.04352 1.03088 0.115818 1.15082 -0.115574 -0.956786 -0.139927 2.41343 1.0904 -2.99646 1.56929 -0.457137 -0.150304 -0.470687 3.84341 0.382183 2.70214 -2.20731 -2.21104 -3.26069 -0.159276 1.36702 1.23322 0.496322 0.533677 0.707816 -0.973632 1.44734 -2.64397 1.20997 -1.37629 3.30879 -0.0829798 4.77563 1.1305 1.33009 1.77084 -0.168676 0.999756 -0.0483108 -2.8023 1.73275 0.570971 -2.06046 1.54726 0.491745 -3.36543 1.44111 -2.17893 -2.23234 1.21216 -1.60573 -0.803095 0.0557574 1.73898 -3.26923 -1.83291 -3.98672 0.835749 1.80978 1.99045 -1.14032 -3.14106 -0.481979 3.13739 -2.21165 -0.585315 -3.52217 0.419416 -0.671987 1.02551 -2.20341 -0.509567 0.590075 1.1366 -0.203101 -1.59401 1.34144 -2.34904 0.164037 -1.07184 2.83697 2.17734 -1.04901 3.26563 -1.64669 -1.81985 2.87396 0.931699 -0.640797 -5.7767 0.339579 1.41597 -1.74233 1.48622 1.64126 -2.65368 -2.35685 -0.252663 3.75784 -2.16037 3.00549 3.02057 2.19834 -1.28047 -1.17841 -0.970519 -2.67479 -0.705191 -1.02777 -0.289285 -2.40239 0.384381 1.41762 2.93176 1.16681 1.27454 2.07559 -3.3907 -1.73196 -1.70248 1.83474 1.42152 -0.159093 -3.28047 1.64162 -0.707877 0.818476 -1.3758 3.60121 -0.155064 3.52077 0.478927 1.02326 2.00632 -0.407086 3.07428 -0.639637 -1.04999 -2.0773 1.51973 0.965819 -2.43107 0.975463 -2.01212 -2.38517 2.66057 2.98669 -1.11048 1.72597 1.01611 2.4445 3.17255 2.21665 -0.400983 0.305582 -2.57347 1.93704 -0.999329 -1.62276 2.48735 2.61083 0.36082 1.30549 -2.77947 -1.77145 -1.05927 0.605579 -1.81948 0.826899 0.536424 -3.82583 2.82446 -0.408795 1.91849 -4.28117 -1.02545 3.22126 -2.51366 -0.45732 -5.7864 0.494919 1.32771 -2.8789 -0.0983612 -1.03058 -1.1366 2.91266 1.49928 0.756645 1.27375 -0.167089 -0.109165 3.30885 0.886654 -0.162145 -0.612781 0.156224 -1.27955 4.04813 1.10297 -0.47087 0.364788 -0.146764 1.39009 1.80477 -4.61064 -0.562731 0.0176091 3.7167 0.469405 1.15491 -2.21262 -1.73861 -2.59136 0.204199 -1.73244 -1.75484 -1.74129 -1.97134 3.33753 2.40049 -5.28993 -3.11213 -0.773736 2.01865 1.95126 1.03162 -1.26246 -0.971801 0.178564 0.919736 2.34288 -2.53728 -0.0522781 -0.0796839 -0.164769 1.25092 0.55034 -2.0734 -3.456169 0.268471 -0.393048 -2.66961 0.588733 1.59139 3.06177 1.78652 -0.50914 1.88284 -0.232826 3.20826 -0.221412 1.85665 1.84664 1.43257 2.32395 -1.24873 -0.979492 -2.01212 -2.53148 3.75448 4.08628 -1.59206 -2.16111 2.3112 -0.263588 -1.47719 3.21607 2.2609 1.90622 1.17103 2.15439 1.73208 1.83425 0.76458 0.0330516 -0.262001 0.0261544 4.14914 0.229163 -0.590625 0.307962 3.19294 0.0977509 0.800104 1.15735 -0.455794 -1.54982 -0.793939 -1.50118 -1.00482 -1.78542 -0.0683309 1.15192 -2.11313 2.96808 -0.555345 1.11872 -1.00354 -0.973632 -2.14628 -0.100192 1.3415 -2.21812 0.649525 -2.97638 1.33924 -2.0264 -1.3578 -4.02066 -0.239967 -1.42268 2.03928 1.73818 1.91159 2.00711 -4.40605 -2.94598 5.48836 0.310099 -1.23121 3.72726 3.52974 2.04746 1.84487 -1.97855 0.918943 0.543748 3.92142 0.420454 1.86459 -0.802911 -0.263833 -3.08844 0.797235 0.534654 -2.7492 -2.0145 -3.876 -1.29926 0.932554 2.53618 -0.724723 -1.93161 -1.32588 2.85241 0.481307 -0.343608 -0.711539 3.88571 -2.28269 -1.95444 2.51323 2.98444 0.254555 0.476058 2.46623 3.27851 3.25343 0.817804 -1.51302 -1.09528 2.83709 0.0972015 0.302286 -2.74053 0.0845668 -1.7272 1.45375 -1.53267 3.37696 0.942747 -0.075106 -0.751274 -0.461959 1.67263 1.90378 1.38197 -0.793817 -0.366558 -0.378582 3.93887 2.87139 -0.763787 -2.79931 1.48689 -0.978881 -0.552294 -0.544847 -0.556078 -1.1731 1.47877 1.57442 -1.22797 -3.18806 -1.46748 2.63329 -2.80096 1.93735 2.29527 -1.13697 1.15406 -1.45796 -0.134983 -2.37761 1.60689 1.57924 -0.202551 -1.99557 -0.00308238 1.57784 0.963134 -0.982055 1.43764 -2.22184 -1.10071 1.27992 -4.6118 -1.13178 -0.653859 -2.84082 -1.02356 -2.23527 3.65377 1.30482 -0.838862 1.87515 -0.253273 0.498398 0.922788 -2.72308 -0.662343 -3.22889 1.66805 2.25254 1.0705 -1.28346 -0.962279 -1.3835 -1.71181 -1.05884 0.303812 0.275613 -0.892636 -1.40907 0.543748 1.45314 -2.51091 -5.11298 1.78018 0.0216376 -1.00635 -1.3871 0.27195 0.378399 3.90634 -0.514451 2.14737 -0.700858 1.42122 0.35435 0.561144 -0.787652 3.57326 2.1583 0.56975 -3.67269 -1.40028 4.58531 2.90643 -1.94388 -1.57228 -3.63491 -1.15259 -0.834101 -0.0334178 2.14078 -0.643544 1.09821 2.89807 1.84603 2.69097 -2.10501 -2.35081 -2.46184 -0.336039 -0.832514 -1.76235 1.61281 0.743828 3.54482 -0.32548 -0.655263 2.18229 -2.96002 2.6126 -2.30827 1.3564 -2.22575 0.930723 -0.705435 -3.48561 1.49153 0.936033 1.61629 3.10944 -0.696707 -0.121982 -1.84512 -0.0879237 0.103916 4.45555 1.66787 -0.912839 -0.910642 -0.990356 -1.65511 1.42335 0.819147 -1.91263 0.86932 -1.09876 2.25938 -0.937315 1.30189 -0.208899 4.24369 -2.49553 -0.273354 -1.5367 0.788324 -3.02094 -2.40208 -2.89788 2.70318 -0.0290231 -2.27897 1.50942 -1.07068 1.61653 -0.190832 2.18516 0.0480667 0.928587 -0.448775 -3.12714 -0.606494 1.20923 4.13041 -0.241371 2.20774 4.33171 4.12619 3.50801 -1.72103 0.579577 0.743889 1.33094 2.49455 2.73492 0.305277 1.26289 -1.2486 0.097812 0.936338 1.84671 -2.3408 -0.872066 -0.606067 -0.595813 1.47328 0.394391 -1.03412 2.08676 -3.30445 2.5219 -3.61733 -1.11097 -0.216895 2.82 -1.32118 0.815912 4.39537 3.28431 1.94064 -1.61074 -0.373699 -4.34404 0.877743 2.68188 -0.348308 -1.77328 -2.84228 4.06546 0.233436 -3.92264 -0.561815 1.86276 -1.48445 1.43928 -4.96326 -0.911802 -2.44859 -2.1384 -1.82449 -2.53368 -2.00076 0.877377 0.735649 -1.08551 0.42204 -3.1496 2.46287 0.678762 -3.36872 4.69707 2.55925 0.308878 1.51186 0.160985 1.59774 -0.338237 -2.23838 1.34095 1.70174 0.118015 0.992004 -0.85406 1.9194 0.202429 -0.384503 -0.624622 2.73913 1.79354 -3.03156 -1.89425 -3.32405 0.11063 0.0989715 3.07489 2.87146 1.66567 0.661122 0.748222 2.64208 -0.632191 -1.64718 3.75857 -2.08567 0.967345 4.33335 -1.59957 -4.51506 0.0262764 -0.941893 0.876034 -0.958373 1.60604 -2.02841 3.96902 1.88327 -0.144444 3.49001 0.843989 2.27763 -4.31077 -1.28407 1.65169 0.39256 -0.25663 -0.677358 3.63149 -1.26112 0.796319 1.03931 2.39738 3.06354 2.8421 1.18458 -0.904721 1.62722 3.0025 -2.32353 5.11823 -0.191198 3.46791 1.96261 -0.93231 -2.02957 1.65212 -4.69536 -2.35051 -0.479232 -2.2504 -3.14338 -0.809809 1.11652 -0.1171 2.97327 1.46156 -0.0622272 -3.97366 -1.81478 -1.49861 1.97427 -5.1023 1.28242 -3.8807 2.2617 0.99707 -1.06177 -1.22852 -2.99475 3.99026 4.31437 1.49538 0.525681 -0.382794 -0.916196 1.58913 2.9682 2.31626 2.31132 1.72811 -2.28971 -1.25086 2.62212 1.19709 0.408002 2.41844 3.10675 -3.0647 0.612049 -1.44093 3.38942 -0.922727 -2.09909 1.49892 -1.69588 -1.32612 3.45918 1.66665 3.61348 -3.71151 1.04468 -1.837712 2.20688 -2.84973 0.279458 0.0422071 3.21851 1.55159 0.201819 0.595813 -0.501755 0.182653 -1.98215 -2.34373 -2.12101 -0.915708 -1.00885 -3.72231 1.67074 -2.08933 2.4033 -1.12232 -2.17496 0.188208 -2.46971 -2.9342 -3.7947 -0.742607 -1.43471 0.621571 -4.60289 -1.41456 0.428388 1.81387 -1.49751 0.1395 2.40208 2.24809 -0.649953 3.50325 1.52681 -1.57399 -3.43922 -0.571398 0.697073 -0.788873 -4.09183 0.509751 3.3929 -0.619495 -1.59328 -1.33784 -0.0133365 -3.5436 2.57048 0.101718 1.56154 -0.997559 2.27482 -2.49577 0.177343 -0.42967 0.663991 2.03873 3.52699 -1.51143 1.5367 2.95672 4.91223 -2.32243 -3.34999 3.42964 -3.51466 0.679495 2.38133 -1.68068 2.68847 0.0905484 0.178137 2.5689 -2.17234 2.58367 -1.75558 -0.0975066 -1.27479 0.707083 -3.10999 2.5222 -3.61983 -0.349773 -1.01154 1.48646 -0.419965 -3.84109 1.97598 2.46214 -1.60176 -0.206214 -3.16803 -1.46754 -1.48366 -0.288614 -3.52248 -3.24567 0.307657 -0.833979 -0.970763 4.14548 -2.37962 0.909604 -1.6556 1.7944 0.197119 -0.318583 -2.69994 0.781549 0.668935 -1.02161 0.236976 -1.40846 2.06052 -1.71224 -1.99002 -2.28709 2.7456 -2.02878 0.0824305 1.10712 0.788385 1.99228 3.09918 0.236305 -1.39119 -0.332865 -1.62105 0.338359 -2.0889 -1.36628 -0.237831 -1.36573 -2.19077 -1.77987 0.250526 -1.8439 -3.90915 1.4059 2.87829 2.88653 0.555651 0.557482 0.251137 2.88983 0.363201 3.13147 2.19071 -0.86932 2.33348 0.527879 -0.0795007 -1.33741 -1.87008 2.28513 -1.76406 -0.126255 -2.72887 -1.19959 0.0878019 0.479781 -2.09946 -3.23304 -0.97528 -2.04831 0.257973 -3.48775 1.92685 1.06226 0.785699 -2.57372 3.47053 2.24235 -0.189367 -3.3321 -1.23981 -2.56664 -1.2624 1.33497 -0.43144 1.12397 1.69088 -2.7127 0.614796 -0.744621 1.54402 0.810297 1.32801 -2.31156 -0.727775 0.303873 1.52589 -1.08539 0.568834 -1.8113 0.449629 2.7011 -1.34211 -1.78677 -4.40812 -2.64245 1.24592 -3.64998 -3.24451 -0.68865 -3.45308 4.47209 1.7795 3.67769 0.319559 -1.01019 1.37019 -0.485519 0.852718 -4.35435 -2.52281 0.449263 -0.161779 2.6436 -1.3517 2.36192 0.0686971 -2.69225 0.801935 0.816096 1.89572 0.459029 -3.1438 -4.07736 3.38716 1.68764 -0.348491 -2.67492 -1.87674 -0.278787 -0.399274 0.993835 -4.43535 -0.931822 -0.488876 0.514145 3.93307 1.12494 2.0087 -3.43849 -1.45918 2.93658 2.00729 -0.754448 1.50862 -0.202002 -0.342876 -0.987365 1.80471 0.880612 -1.78799 0.79516 3.54848 0.0752892 -3.74789 -2.90564 -0.488266 3.23768 2.69884 -1.31483 -0.242714 0.0218207 -1.93997 -3.37342 2.35166 3.49367 2.34587 -1.7275 0.0889615 1.70626 -0.914365 -3.03809 0.165258 0.430769 -0.108127 4.08365 -3.26209 1.22443 3.00244 -0.8034 -2.68865 0.026948 2.24052 0.900021 0.882199 0.47264 -2.16788 2.13205 -1.21497 3.10309 3.51466 2.5952 0.17478 0.671133 1.37526 -0.0148015 3.08319 0.721854 -1.13916 0.720145 0.986328 1.63778 -2.61077 -0.15006 3.82278 -2.66314 1.0058 2.83935 -0.602832 0.810968 0.519578 0.907834 2.10843 1.69039 -2.44151 0.616321 -1.0603 0.0235297 -2.02152 1.38838 -0.352092 -0.538926 -0.933164 -0.349651 3.09021 2.0264 -0.0245674 -0.718314 0.621998 -0.334941 -0.178381 -0.938658 -1.48891 0.760735 -3.10437 -5.20283 -1.70162 0.800836 1.41072 -1.17298 1.04419 1.38331 1.23176 -1.42311 0.401715 0.750481 -0.974853 -1.13208 0.450484 0.0383617 -3.73904 -0.345988 -0.770806 -1.5732 2.51207 1.88357 -0.0949431 -0.618519 -2.52281 3.16596 -3.48189 -0.827998 2.18058 1.93844 2.2374 -0.14597 0.768853 -0.18656 -2.93609 1.90622 -2.64348 0.798334 -1.0755 -1.29548 -2.65069 1.07312 -0.914548 4.02603 1.68642 -1.98471 -0.167699 -1.23566 1.43739 -1.8428 -2.65587 0.0521561 -0.807306 2.76495 -0.290933 -1.03088 2.68505 -1.27473 -0.989807 -1.97055 -2.92224 -2.56932 -0.57384 2.63414 5.35951 -0.655141 2.27958 -4.32615 3.28016 -3.05823 1.97134 1.47584 -1.7297 -2.29801 -0.258461 0.271706 0.776727 1.85696 -0.809931 1.38661 1.4518 0.56328 0.496811 0.327006 2.64 -2.79791 -0.721061 1.95834 -0.409467 1.48512 -0.977294 2.96179 -0.15891 -2.94446 -0.973815 3.75442 2.20591 2.27616 -3.2082 1.06262 1.80569 -3.11603 2.80541 1.33467 2.58 2.20792 0.638844 2.18046 1.717 -2.3715 -1.68368 2.02786 -2.5631 -1.02503 -0.122288 -0.82165 -1.42811 3.54067 1.07892 0.455794 -0.627491 -0.592944 2.16874 -3.37001 1.98556 1.76754 1.67367 -3.19373 0.0346996 1.92898 4.13596 -1.03192 1.74557 -4.31101 -0.26548 -3.14319 -1.94858 0.771477 0.733757 2.3831 -1.88382 0.00375376 -1.30885 1.74801 -4.28739 1.93356 3.36543 0.471358 -1.10541 -2.43736 1.26136 -0.493637 -1.6017 0.891781 0.748589 -2.36637 -0.786187 -2.0416 -2.30772 -1.68093 -1.24097 4.033988 0.533494 2.2241 2.09909 -0.141453 0.754448 -2.44389 1.6451 0.0113834 1.67043 -0.552965 -2.22929 1.09302 1.48177 0.544664 -2.2139 4.4163 -2.47447 0.00778221 -0.299173 -1.51106 -0.335185 -0.9082 2.2219 0.776238 -2.25028 -1.49074 -2.58403 1.45814 -0.906369 -0.241554 3.48036 2.87347 -1.10529 -0.398907 0.0534989 1.33119 -4.45164 1.88272 1.5088 2.98413 -0.21952 -2.1221 -3.33528 -1.55538 1.54329 -2.64727 -1.6476 1.83914 1.6122 -2.47221 -0.728263 -1.02295 1.81686 -1.8685 -0.415326 -1.66475 -3.15186 -2.26896 -3.33027 1.53365 -2.42418 -0.471358 -1.51296 -5.00403 0.816767 1.80825 -1.01703 -0.516526 1.48714 1.22486 -3.02203 1.18293 0.0825526 2.1185 0.969726 1.04517 -0.58208 2.04514 -0.706595 0.0549638 -2.43449 -1.29145 -1.92447 -0.877987 0.931455 0.482528 0.41612 1.28162 -3.59401 1.71059 -0.759819 -1.11054 -1.47432 0.970641 3.2552 1.5027 2.58385 3.49129 -1.55007 3.12952 -0.371929 -2.09195 0.575732 -1.46095 0.283853 -1.45094 3.04401 -0.683035 1.33619 -2.56847 1.67953 -0.645802 2.01444 1.16468 -1.23212 2.45689 -0.0893887 -1.06091 -2.16721 -0.235084 -0.525986 -1.20319 -2.42015 -2.33225 -0.983215 -1.63656 -1.55177 3.902 -2.83172 1.23359 2.20371 -1.47951 -3.28248 1.19611 2.01267 -4.57884 0.777825 1.48781 -0.565905 -0.878292 1.21534 5.2602 -2.23252 -1.53481 2.27476 2.44847 0.192175 -0.0485549 -0.656545 1.23341 -1.86099 2.37278 -0.210364 1.2768 0.329142 1.44826 1.81008 -1.0766 -0.0825526 0.140965 0.230018 1.55623 2.18101 1.34547 3.18854 3.28925 0.186316 -1.36421 -1.35359 3.19001 -1.12574 1.75735 0.660146 -1.785 -4.99762 0.553148 -1.65047 0.0495926 1.37922 -1.98636 -2.4929 2.03482 -1.17341 -1.87027 -0.221778 1.37416 4.31565 -0.752129 -0.645558 -1.19575 0.701346 -1.39619 0.116062 0.917661 2.50694 -1.26887 -0.838923 1.32557 -0.817621 -0.573839 -2.34159 -0.151952 0.285562 -0.0405591 0.963195 -2.08072 -1.98312 -0.778497 -3.0697 3.39546 3.54689 2.48881 -1.63399 -1.04999 2.57451 -1.50124 2.55296 -2.74938 -1.44618 -2.47899 -0.213782 -0.902707 5.02625 -1.88766 -0.13889 -0.28605 -0.507065 1.24146 -1.55623 1.38093 4.27384 -2.52654 2.27061 -2.40733 -1.22309 -4.0983 3.10468 0.933287 0.630299 2.51036 1.39515 1.85067 0.101047 2.65947 3.57179 -3.47645 -2.7506 1.37922 3.9136 1.00568 0.247475 2.1605 2.92926 -0.168554 0.305155 3.92611 -0.812799 2.27866 1.63887 0.877499 0.532334 0.468428 -0.0792566 0.896603 1.62685 -3.50813 -2.3552 -4.8048 -4.24839 -3.2461 1.85018 0.898007 1.80996 0.717521 -1.3647 -0.754387 2.46379 2.23783 -0.0943327 1.10901 -1.65206 2.67547 0.785882 -1.50502 2.29441 1.97275 -2.86065 1.74142 0.504074 -1.1175 -2.36845 -2.92145 0.609546 -3.46126 5.77194 2.2515 -0.44145 -1.44911 -1.62679 0.887936 -0.740471 1.81692 -0.128819 1.29963 -1.07184 1.23572 -1.0697 -1.59456 -1.93112 0.511521 0.785028 -1.53761 3.03198 2.23441 -2.25315 3.29225 1.08057 -4.575 1.31782 -2.30717 -1.09113 1.73446 2.34581 -1.27894 -0.453658 0.48027 0.661733 -1.46815 -1.41505 -4.28745 0.633351 1.46571 -2.32945 3.49428 0.0759606 -2.93133 -3.80941 0.58269 -3.04584 3.73434 3.10163 2.7022 -2.68358 -1.34773 1.82778 -2.40623 -3.10425 2.75646 4.17399 -0.970031 -0.183691 -1.64797 2.18644 2.98022 -3.15687 2.11899 -0.0994598 0.118503 -1.38624 -0.831233 -0.0871914 1.85739 0.284158 0.851924 -1.28516 0.0964079 -2.96619 -0.00442526 -0.273904 -2.12711 -3.13739 0.264138 3.96371 1.10389 2.11692 1.3285 1.28584 -1.39668 2.18509 0.529832 -1.85165 -1.43397 -3.20191 0.728446 -1.19147 2.70312 2.37376 -0.976318 1.91775 2.21665 -3.16157 2.03116 -4.56438 2.80322 -2.62816 -1.59261 -0.190161 2.87072 -3.49727 2.30808 -1.6498 -3.84133 -3.00098 -1.53432 -1.25562 2.94873 -3.00958 -1.4217 -1.35603 1.04907 1.75503 -0.307901 3.26508 0.749748 -0.385052 0.268654 -0.0646077 -1.07556 -1.62606 2.62426 3.53121 0.475265 -2.26634 3.42482 -0.264504 0.304971 2.13083 -1.0694 0.0604572 -1.99808 -2.57298 -1.32807 1.56642 2.43016 -0.105625 0.246742 -0.779412 0.405866 -1.07123 2.92688 1.82778 0.655507 -2.06711 0.760125 -2.52751 -0.765313 -1.19495 -1.14301 -2.58629 1.60256 0.468612 3.54695 2.36149 1.53304 0.884884 0.0934172 0.0812708 -1.94394 2.98193 2.65728 0.259011 -1.38661 -2.0607 0.190344 1.56569 1.61397 0.266457 -3.04791 -1.14313 0.582629 2.11118 -0.663869 -2.55065 3.08411 -0.76574 -0.311258 -1.59267 2.6126 4.09445 0.815302 1.77847 2.63353 -1.53029 -0.144261 -0.283425 -1.0351 -2.93518 3.21857 -1.57076 -4.31321 0.534227 -0.739128 -1.1142 2.76476 -0.640919 4.40355 3.22645 2.57549 -2.9787 1.36518 -1.19514 1.52327 -2.0961 3.20649 -3.19031 -3.296192 0.361675 1.87002 1.39308 0.411664 -1.60341 -1.09723 0.251625 1.85061 0.37669 -0.94763 0.592151 1.28449 2.23453 -3.58174 1.42378 2.76513 1.58419 -2.14805 -1.89175 1.45344 0.194128 -2.71056 -3.88577 -1.88382 1.25245 -2.29466 -0.0959197 2.20969 -1.13813 -1.62514 -0.10361 -1.25837 0.205298 2.13321 3.44118 1.0987 -0.187109 0.316324 2.74297 1.02521 0.376751 -1.92434 -4.32859 1.94272 -0.458907 -0.250648 0.396039 -1.20411 -0.884518 -1.02081 -2.21879 0.614551 2.13889 -0.736076 0.483322 0.97644 0.240028 -2.3693 2.68133 0.561388 -1.27369 3.11676 -2.61565 -1.01856 -2.15775 -1.25434 -2.75042 -5.92306 -2.36827 0.690115 -0.150487 3.86569 2.84411 3.30232 1.32514 1.32734 -0.679373 -2.29521 1.36561 -2.77758 -1.70016 2.62835 1.44746 -0.879269 -1.92416 -0.820063 3.27393 3.83352 -2.54747 2.23667 -2.64934 -2.56493 2.42668 4.14408 2.63689 2.06491 0.538499 1.41206 -2.79455 -2.31144 0.329386 0.0959807 -3.14399 0.0176703 -3.65914 -1.45424 3.61104 2.76403 -2.90405 -2.78368 1.03851 1.42512 0.495834 -3.77761 2.33653 -3.21809 0.0748008 -1.67226 2.11441 3.30171 2.54613 2.05582 -2.1857 2.62566 -1.92068 0.606739 -4.29618 1.34107 1.74618 1.2743 3.38227 3.21192 -0.431074 -2.95703 1.73489 1.06494 -0.383282 -0.942137 -1.72518 0.51616 -0.422712 1.6523 -1.1908 -3.27863 1.25007 -1.37739 -4.63414 0.346293 -2.60717 -3.56429 1.32112 -2.06656 1.36366 1.05811 -0.33842 2.86486 0.988952 2.09238 3.32362 2.09665 -0.89465 -1.08795 -2.45909 0.862972 2.20194 2.47844 -0.854671 0.528672 -0.391522 1.52742 -1.25025 1.78451 2.66277 0.818903 0.758904 0.367168 2.29637 2.12735 -0.858882 -0.501999 0.475387 3.66958 -0.102817 2.21873 1.93582 2.6516 0.169164 -0.17832 -0.353191 -1.37422 -3.07929 -0.444258 0.443953 -1.65755 3.13062 1.79592 -1.73324 -0.214209 -3.56532 3.86721 -0.559191 0.0809657 0.156163 0.706961 -0.562181 -1.04028 1.65694 -0.444685 1.55605 0.47203 -2.04593 2.8601 0.954344 -3.3686 -0.466292 -1.4156 -3.51888 1.68123 -1.69845 2.10373 1.73232 0.669424 -3.39167 -1.11994 -2.22324 1.02014 -2.713 0.102023 -3.0105 0.787652 -0.36198 0.476364 -1.5743 -3.71761 -2.69774 -1.64083 -1.82467 0.756096 0.959655 -0.584399 -2.86224 0.830378 -0.214881 -2.00754 -0.350566 2.36277 -3.391 3.39564 3.40547 -1.57021 0.710746 3.25507 -1.88809 -0.876827 -0.812922 1.16852 -0.693228 1.83688 -1.16547 -1.18989 0.78399 1.74276 -2.52318 -2.30998 -1.93753 1.13343 0.684011 0.754814 -3.66414 5.32667 0.811212 -0.983764 -2.66167 -0.186804 2.30174 -2.60729 0.568224 -1.65908 0.189184 0.954222 -0.698416 2.61797 -0.264321 1.75753 -5.15998 -0.67571 0.144505 -0.5421 -0.575915 -2.8775 4.28385 -0.113559 1.25105 1.34809 1.36152 2.77892 0.0383618 -0.927244 0.484115 -1.15583 4.56743 0.22721 -1.957 1.36299 0.641713 3.4687 -1.14148 0.4962 -3.09467 2.4821 0.0273751 1.5002 -1.04926 -0.597339 1.40352 -2.9693 -0.841365 1.04791 -0.344523 0.722343 0.70629 0.644337 -2.16623 -3.76528 3.17914 0.737907 -2.61168 0.951353 0.227821 1.9769 -3.42665 -1.48439 0.70513 1.45192 4.17423 1.39808 -2.28123 1.28278 -3.50197 -4.32536 1.0434 1.13862 -1.43562 3.211 -2.67925 1.37971 3.42866 -2.56847 3.4966 2.50658 0.5833 -0.126743 -2.08182 -2.39354 1.3708 -2.30345 -1.45582 1.48408 -1.65719 -0.646413 2.69274 -0.840205 -1.49019 2.59496 -2.22776 3.43153 1.41127 -1.99777 3.42897 -1.82144 1.95096 2.23936 0.551866 -2.89862 0.929197 -1.79922 -2.43199 0.581469 1.21265 0.254738 -0.529649 -3.65053 -1.52174 3.76028 -1.98721 -1.34864 -1.53157 3.0506 4.51054 1.59578 -0.303201 1.0694 -2.31718 -2.62694 -2.46117 2.84484 -0.0211493 1.03497 0.648183 -2.00662 2.81841 -1.48274 -4.36613 -1.56319 0.188269 1.59853 2.93731 -1.4778 3.0354 -3.52199 -0.15482 1.73177 -2.11533 1.66481 -0.422224 -2.83081 -1.86978 -0.141514 2.3881 -1.98703 1.42854 1.51967 -0.390179 1.11908 -0.364971 -1.19446 -3.40626 1.96628 0.723441 -4.43199 -0.533311 -1.87362 -2.87945 2.09708 -0.347819 -2.54759 -0.102451 -1.70455 1.09204 -1.83493 1.25343 -0.0220039 2.103 -0.967711 -1.26923 3.97708 -3.19257 -1.17505 -0.401959 -3.2552 0.07828 3.2378 0.836787 -3.85995 0.929197 -3.53835 1.17371 1.08356 0.29545 1.59737 0.591235 -3.22517 0.135716 -0.905087 -2.24253 0.153783 3.79855 -0.590991 0.811884 -0.704947 -1.4153 -0.943419 -0.0593585 -4.57451 0.450362 -1.73702 -4.81188 1.24873 -0.219947 1.38868 3.93149 2.2653 2.17545 2.31602 -0.538133 -1.22108 -0.810297 -0.00698875 -2.8891 -2.72869 0.951598 -1.68587 -2.64513 0.836421 1.61196 -0.471175 2.33793 3.36091 -0.447798 -2.63366 3.25092 3.13807 -2.70666 -0.938902 1.00299 -0.347005 1.03912 0.468734 3.62355 -2.12046 0.795892 3.45967 4.833 -1.18854 3.00311 -2.22324 1.21705 -0.804438 4.61327 2.54668 -1.55373 -0.129612 -1.44221 -2.37083 1.97531 -3.62899 -0.460921 -0.00387582 0.658071 -2.17124 4.0817 3.32221 -3.27778 2.80248 1.7842 -0.0185247 -1.46687 -1.26685 -0.291299 -2.36894 -0.409162 2.70727 -1.15748 1.57448 2.19266 0.213538 0.572558 1.08618 -0.796808 1.58663 2.10959 -1.10645 -3.63314 -3.18073 -3.20252 -2.0062 2.60009 0.43553 0.249062 -2.99805 -1.2981 -2.89367 2.24113 -1.78878 -2.07956 -2.29655 3.31056 -0.442976 0.812494 0.471114 -0.013947 -1.33027 -4.16825 1.00647 1.59548 -1.79281 0.0882291 -0.26194 -1.41737 -1.35182 1.70931 2.58629 1.27601 -0.257973 4.24717 -0.50499 -0.958861 0.79577 0.564928 -3.47725 2.76086 -3.01056 0.640736 2.17917 -1.42671 1.9064 2.72826 -0.305338 -4.18699 -2.53508 2.30912 -0.0871303 -0.914731 -2.5584 2.27628 4.48979 -4.58287 -0.230445 0.784905 2.09 -1.58052 -2.19596 -1.78903 3.26643 0.396893 -0.261696 1.64901 0.711234 0.346599 4.36106 0.392438 -1.43556 -1.21937 0.33903 -1.16651 1.4706 1.3083 3.21784 -1.78475 1.06635 -0.0795007 -0.679556 3.67861 -1.40895 -4.09153 2.74102 -1.96011 1.30696 1.35865 2.61071 2.73559 1.41115 -2.84313 -1.16755 -2.62761 1.13642 -3.55531 1.46583 2.322 0.719413 3.46004 -0.0475173 1.7936 -3.07105 -3.29731 -0.631703 1.82675 0.841426 2.36357 1.89261 -1.36146 -3.45375 0.948607 2.67534 -0.235755 -0.523606 1.04498 2.29978 -2.57262 -3.95462 -0.843013 1.01703 2.57988 -0.718802 -2.44395 -1.05011 -0.95587 2.14267 3.07916 -2.55449 0.202918 3.20832 0.813959 -2.22935 -0.334269 0.422712 1.60878 2.33293 0.354045 -0.409955 1.34376 -1.38411 1.44343 1.30012 -1.09906 -0.980529 1.59719 0.976073 -1.22828 2.78747 -2.06931 -0.269753 -2.76202 -0.786981 -0.854549 0.71746 2.06589 2.31022 0.264931 0.670034 -1.35292 0.136082 1.41694 -4.69543 2.52928 -1.04559 -1.90524 4.28941 -0.732353 1.42573 -2.66308 -1.5475 -0.458235 -2.98956 -0.738334 0.931089 4.46843 -0.219703 0.395001 0.935362 -0.947386 -4.18912 -3.77132 1.82369 -3.28614 1.35994 3.44813 0.174291 -1.17786 4.00455 1.26093 3.53993 -1.81668 -2.0668 0.27543 -2.42735 0.4138 -2.42106 -1.6465 2.20969 -1.86398 -1.2234 -2.11563 -0.398175 1.93753 1.63674 -0.0863979 -2.52043 3.0293 2.32237 1.56392 -3.36299 -2.45994 -2.08524 0.188513 -1.7745 -2.61437 1.55708 4.68969 -2.45628 -4.3513 -3.93851 -0.554491 2.01157 1.41041 1.17066 -0.721915 2.0134 1.96365 2.65783 2.90234 0.302347 1.3578 -1.5461 -0.707083 0.648854 1.19819 -0.00857568 0.406354 3.42378 0.649526 1.94778 -1.30287 0.801386 -2.42698 2.5811 0.863704 -0.726676 1.74062 -0.15891 -3.73965 0.155675 -1.94266 1.44789 -2.58013 3.78195 -1.26264 2.1193 -2.888 -1.93411 2.36161 2.14115 1.38942 -0.876156 -1.23548 0.463118 3.04608 0.64214 1.67916 -1.48976 -1.06543 1.67891 4.08267 -2.10343 -0.424482 -2.41398 -1.82144 -1.77145 2.4962 -0.257973 0.954039 0.185888 -0.261391 0.776788 1.24628 2.06723 0.972594 -3.01502 -0.738334 -5.01251 2.65184 2.60674 0.478378 -1.08264 -1.35017 -0.332255 0.875545 0.746696 -3.18482 -1.93252 -0.57738 0.565416 0.880734 -0.401898 -3.23084 -2.6541 0.167211 0.586596 0.0710776 2.21512 2.51549 -1.15625 -1.11115 4.50359 0.888852 1.61202 2.1019 -3.23933 -0.920164 2.19309 0.768059 1.92166 2.95929 -4.05039 0.872005 0.812311 -1.29322 1.36518 -1.10321 1.18531 0.459517 -1.15192 0.158605 2.46733 0.814875 -3.02808 0.838313 1.41053 -3.37233 -3.16498 3.6523 0.834284 3.53798 -1.77108 0.0954314 -1.35731 -0.3361 0.303446 1.19782 1.3075 -4.09513 0.415082 -0.271462 -0.9953 -2.71612 3.84671 3.78811 0.589221 -1.22926 -1.91537 -3.27717 1.59676 4.02542 -3.65517 1.3047 -2.53697 -3.50618 0.0287789 -0.89465 1.14264 -4.69945 -3.19788 1.01147 1.31867 -2.63237 3.98465 1.81137 -1.61 0.203833 1.93039 0.795404 -3.57643 0.79931 -0.902341 -0.697012 0.258278 -0.937071 -2.51408 3.15961 1.94839 1.23969 0.132664 -3.06494 1.73623 -2.25376 3.35652 -2.03439 -0.262001 0.862972 1.43361 5.07392 1.53194 -1.28321 -1.60445 1.9255 1.83731 -1.00317 2.63555 1.96207 -2.5302 0.836421 1.01007 2.84307 -2.23685 -1.69875 0.125462 -2.66173 -0.359783 -2.07944 1.4944 2.60747 1.52821 3.69881 4.25266 -1.19739 1.29688 -1.95602 4.11826 -3.06568 0.414594 2.05423 -3.71072 -1.06525 1.50587 -0.405866 -3.0398 -4.14109 3.49745 -1.39576 1.14441 -0.839534 -0.456099 -1.92337 1.49715 2.97754 -4.0831 -1.86319 1.81997 2.36949 3.04718 3.66933 1.93612 -2.56053 -1.09552 0.921323 1.62526 0.281899 -2.0911 1.52742 -1.69668 -1.30946 -0.315021 1.38771 2.13749 -2.43352 3.92892 0.83874 1.27943 -0.0364696 2.34318 -0.443098 -1.08905 -1.29341 -1.78903 2.62725 -1.21644 0.522202 0.414289 1.21979 0.940489 -2.38176 -3.68801 0.307962 2.31236 -1.34864 2.59032 -1.13251 -0.1301 -1.98312 1.1402 -1.00726 1.02338 1.40156 -1.84921 -2.62963 2.95495 0.534959 -0.396527 -2.45634 3.57271 3.07886 -2.64348 2.40873 -0.227332 0.588488 -2.99213 -0.621876 -2.30107 2.48839 -0.278726 -2.34904 -1.31605 0.994812 -0.793939 4.02432 -0.437971 0.926511 -1.96377 -3.31477 1.0426 -2.66063 0.4962 -0.576037 2.82641 2.92254 -3.8572 -0.302652 1.15796 0.0936613 -0.730766 0.989746 -0.502121 1.73135 -3.54299 -3.09857 2.00473 3.48128 -0.591235 3.40754 -1.48933 1.57485 3.24171 0.719291 0.684622 -0.904172 1.43794 -0.807977 -1.93826 -1.365 -2.36949 2.71026 -0.363323 2.26823 -0.580249 1.9924 -2.30229 0.795953 -1.5981 5.25105 -2.40092 -0.816584 -0.396588 2.64513 -3.84964 2.13553 -1.49831 -2.03561 -1.68111 0.747734 0.825007 -0.0201728 2.92309 2.16782 -0.683157 0.900693 -0.986023 -2.79369 2.65355 0.373943 1.62569 -0.164647 -1.30091 -1.53468 -1.41639 -0.489975 -0.708915 2.05716 -2.9386 0.251808 0.73809 -1.89938 -0.43083 -2.56749 1.22108 -1.83444 0.0632039 -1.80685 -2.71514 -2.28581 1.86557 2.43815 0.605945 2.54814 2.07822 0.340861 -0.774346 -0.141636 2.18186 -0.701834 -3.56398 -3.68111 1.50484 0.273049 1.50484 2.661 1.25184 0.458663 1.4283 1.16419 -2.22214 0.207678 1.89877 -0.495651 2.7962 3.15717 2.67412 -2.6054 3.20618 1.49403 -0.461654 -0.544969 -1.76821 -0.709403 0.0381787 2.75249 -1.44423 1.85562 -0.815546 2.44389 -0.865718 -3.9686 0.306986 1.96451 2.38829 -2.61895 -0.751518 1.1952 -0.552415 3.19605 1.08655 3.04755 2.14579 -0.731742 1.56886 3.90664 -0.554369 1.36067 -1.54781 2.36277 4.98706 1.31458 0.931944 -4.32139 -0.557054 2.73009 4.34593 2.42051 -3.6274 0.160314 2.34678 2.69567 1.25642 4.75311 -2.27567 -1.56508 -1.59749 0.280129 2.06845 3.15332 1.41469 2.49083 -4.54118 -2.37126 -0.0993377 -2.27384 0.371136 -1.06073 0.120518 -0.266152 -1.01715 -0.7116 -3.74929 2.61913 -1.92807 0.0643024 1.96109 0.869503 0.69042 -0.432661 -3.0163 2.3914 0.80401 1.83975 -1.63082 1.49757 -1.91562 -0.957824 1.11188 1.77847 3.04022 -3.19221 3.83401 -2.20035 -2.32432 3.01703 2.21598 3.56154 3.86593 -2.57707 1.86123 2.65545 -3.36934 4.57732 5.28077 2.05985 0.503464 1.47884 -1.31391 2.50896 0.171239 0.395489 -2.71911 -4.62755 -0.414777 2.28977 -1.26759 -1.01288 0.720695 -0.714225 -2.48277 -1.62886 -1.82327 1.62032 -2.17612 1.26679 -1.19544 1.50795 -0.297647 0.441572 2.55022 -4.63555 -1.85385 -0.809137 1.69839 4.82257 -0.203345 1.9758 -1.292 -0.0241401 -3.04437 -2.8637 -2.17533 1.29536 3.59401 3.61531 0.656545 -0.353496 1.04279 0.631764 0.90405 -1.14722 2.0582 4.24229 0.429182 -1.76223 2.94147 3.72365 -2.14872 -2.41423 0.408612 -0.278603 1.85952 1.95914 2.8905 1.09387 2.42497 0.804987 -1.0437 -1.60591 -1.89492 2.79778 -5.45576 0.927305 -3.37489 -3.15577 -0.310343 1.318 0.921873 2.69915 2.43461 -1.47169 -0.156896 -4.38224 2.61052 1.26136 -0.314737 0.496139 1.17963 2.68914 -2.24174 -0.0777306 -2.18009 -1.55641 -1.83413 -2.4116 2.44755 0.80517 0.987915 1.49281 1.35511 1.02881 -2.94812 -1.62697 1.66482 0.744133 1.48408 -2.19224 0.772881 -1.63289 0.222327 -4.57695 -3.52083 -0.538316 0.68395 1.64266 2.48869 -1.01288 4.77123 3.4181 0.969726 -3.63027 -4.59368 -2.62413 0.860591 -0.661916 0.780084 -0.176916 1.60756 -2.54662 1.50209 -3.95798 1.02551 1.28205 0.842708 -1.68099 -3.03333 0.137303 -2.7495 1.13819 3.48567 -1.66384 3.33711 0.982421 3.18647 0.903928 0.509628 1.17719 2.44389 0.66509 -2.55046 1.21406 3.18043 1.66005 -0.386761 0.992981 -2.10953 -1.17798 -0.0507522 1.41975 -0.401532 -1.14557 -1.98032 1.79592 -2.56243 -1.7571 1.70919 -0.56035 -0.462325 1.3448 0.711478 -0.0243843 -0.0926847 -1.51332 -0.0181585 -0.272195 -0.997131 3.01459 -1.65835 0.65801 0.665456 -2.7719 -1.57839 -0.717948 -0.882076 2.14109 -0.866146 -3.99228 2.70849 -0.998962 2.85852 0.323588 -1.91385 -2.48857 -1.4695 -1.71523 -0.500107 0.68865 2.8211 1.72671 -1.09754 -0.708426 2.59056 -0.352214 -0.444563 1.76711 2.81097 -2.80187 -3.18732 -3.3592 -0.861873 0.709769 -3.22089 1.29731 -0.674856 -3.79232 2.5258 -1.91806 -1.33821 -2.15867 0.550157 -0.332926 -2.36998 1.66695 -0.826289 2.61602 0.961913 -0.772698 1.55678 3.08332 2.28532 0.359233 -0.976379 1.59078 1.54976 3.67 -2.61589 0.813837 -0.584582 -1.88064 1.93789 3.31782 -4.20469 -1.85562 -2.1503 -2.8197 -1.26417 3.76394 2.338075 4.4395 -3.17304 0.102756 0.0889615 0.300333 -2.67541 -2.23057 1.40138 -1.95438 1.17835 2.52934 -0.608814 3.57869 -0.853999 -2.296 0.300943 2.54228 4.18796 -2.25541 -0.214087 1.95053 -1.67568 -3.59493 0.137486 1.26698 -0.853328 -2.03848 -1.62172 -1.12708 -1.83267 -1.08918 -1.08545 -3.14289 -1.80258 0.588366 -2.5642 0.0681478 -0.0605793 0.138707 3.74734 -1.6332 0.982299 -1.71657 2.22355 -1.98587 1.38557 -0.684744 1.57192 1.13428 1.04187 -0.237953 -3.41011 -0.811823 1.00372 1.1565 1.60836 -2.60155 1.96316 1.34846 0.303751 0.0583819 0.0697349 -0.203162 -0.429426 -2.33305 -2.72161 -0.718253 0.138951 1.82583 0.409528 1.46931 -0.373272 -3.16712 -1.88668 2.77123 -1.28877 1.91696 -0.0769372 -2.06522 -1.88894 -0.95819 0.58562 1.79983 1.06372 0.226112 -2.14243 2.66192 -1.01502 -0.690787 0.953246 -0.320902 -0.997314 0.106967 1.83163 -2.24296 1.04645 -0.111972 -3.48714 2.35496 -2.81579 -1.88461 -1.39259 -0.356426 0.893124 1.38496 2.249 4.46062 2.94989 0.5009 0.615589 -0.508469 -2.36863 4.6281 -0.769158 0.122837 -0.0884731 -1.54988 2.22733 -3.60256 -0.661306 1.28431 2.76305 0.515915 3.28919 0.0769372 1.77859 1.31477 -2.72655 3.22669 -1.71877 0.166173 0.995117 -0.832942 -2.65661 -2.26865 -2.16337 0.650868 -0.996582 0.00704994 2.47172 -1.33168 -1.74258 3.10254 -1.71743 -3.05744 1.32679 -0.816034 -2.72454 2.93396 0.391278 3.02704 0.179235 -1.70467 -2.02451 3.60829 -0.585925 -1.28602 -2.82665 -3.82022 0.620472 -1.92312 0.901303 1.26222 -2.56761 2.8985 -1.63521 -4.00992 1.18567 1.94687 1.92965 2.25437 -3.75265 3.00842 -1.41914 1.07166 -1.34822 1.72396 -0.840266 -0.376629 -1.26466 -1.56124 -0.433821 0.40141 1.4532 -1.99771 1.11243 0.892941 -0.93292 0.451216 -3.78268 1.2508 -2.10678 -0.479537 0.628285 -1.62313 -0.205664 2.91437 -3.64339 -0.13535 -1.89438 -0.723563 2.51689 4.23319 -1.31574 -0.202124 -1.74514 -1.10944 -2.23594 3.39692 -1.04578 -1.73135 1.30811 -2.58635 1.90585 -2.44102 1.54482 0.752434 -1.36818 -1.50508 -4.62572 1.40901 -3.95163 -1.38734 -1.6642 -2.67382 -0.344707 -5.56868 -1.18348 -1.49287 -1.05847 -2.01303 -1.80068 1.33052 2.19254 -0.838862 -2.37205 1.0011 0.886837 1.2389 -2.91809 -0.925596 -1.12848 2.1348 -2.55168 -0.00521863 2.50145 -1.274 -0.724296 1.58003 -1.07013 2.72594 0.900144 3.39583 -1.2577 1.5389 1.62911 -0.0493485 2.11295 0.534959 -1.32728 0.657033 0.679922 4.17746 -4.49254 -2.5125 0.321451 2.44475 -1.63912 2.27012 -0.979186 -0.0171819 0.505356 0.556932 -0.989135 -1.57527 -0.951598 -3.99466 -0.618397 -0.683645 -0.0944549 -1.7925 4.34025 -1.9147 -2.35478 1.9067 -0.68804 -3.51051 -0.108371 2.53819 -1.93167 1.98373 -3.02631 2.03159 1.06873 -0.557054 0.508103 1.81338 -1.79446 1.67702 1.60323 0.944029 2.13895 -3.82308 0.371319 0.332011 1.40919 0.528367 -2.56279 2.9574 -2.48711 1.93094 1.13086 -0.955199 -0.866756 1.26057 -0.950682 -1.87454 -0.291665 1.11261 -2.32011 -1.08014 1.52773 -1.73843 0.767693 -3.01465 2.54357 -2.0217 2.11686 1.06122 1.08496 -1.36134 -2.48729 4.05008 2.6607 0.0628987 -0.544908 -0.424787 -1.96011 2.02341 1.38276 2.04892 2.79913 2.35807 -2.91424 -0.811274 -2.48204 -2.87426 -0.0116275 2.92218 2.81957 2.24351 -4.01285 3.61513 2.43327 -0.960021 -3.45955 -0.438765 2.47655 -0.833796 -0.313822 0.672109 2.13669 3.29823 -2.31504 -3.69802 1.94266 -0.930357 -1.03101 0.149205 0.815424 -1.32508 1.08893 2.16672 4.08151 1.57399 0.342692 2.42405 1.6404 2.74322 2.77673 -1.1449 2.47118 -0.0945157 0.245216 -0.169652 4.66576 -1.82211 -1.78451 -0.51091 1.17798 1.57631 -0.992737 -1.22535 -1.52449 1.81088 -2.8479 2.10245 -1.72048 1.81429 -1.43709 -1.39601 -2.41594 2.43565 0.197913 -2.11618 3.13892 1.74233 -0.0899381 -2.77734 -2.41618 -0.637806 -0.834651 -1.82998 -2.57372 1.30854 0.322001 -0.540574 4.0427 -2.2786 -2.84637 0.186376 -0.104587 -1.03436 -1.69198 2.18479 -2.84631 0.520249 2.38487 1.54012 -1.09656 0.100497 0.324198 -1.82217 4.13346 -2.55437 -2.21036 -4.53801 2.68749 2.21421 1.23536 2.74487 1.36933 2.41997 4.34385 0.799677 -2.61406 0.85107 2.52409 3.08423 0.319803 -2.09519 4.15323 0.757927 0.813776 2.27946 2.25376 -3.59468 3.16114 -2.04282 -0.709464 -1.60799 -2.01663 0.920408 2.77801 2.79601 2.1868 2.03269 0.380963 -1.14972 -1.61873 -2.47221 0.202185 0.837153 -1.04462 3.54079 -3.06201 2.36515 0.988464 -3.8818 -4.40519 -4.02676 3.18995 1.1493 -2.55022 1.99655 -2.94446 -0.350261 -2.05264 -0.371929 1.42494 -3.16028 -0.785516 0.122776 2.62682 0.453047 -3.11383 -2.92938 -2.59392 -1.2884 -2.07346 3.68429 -3.18873 -2.59026 1.133 2.03464 1.224088 0.536668 -2.98767 2.17423 1.8088 -0.116977 -1.28437 2.08396 0.283303 0.0636921 -1.28266 0.381695 -3.31886 -1.60341 -1.07019 -1.26905 0.809809 4.07413 0.939756 -0.11594 2.8778 -1.9349 4.04941 0.302652 1.39039 0.185461 -2.1818 3.28809 -0.493271 0.773369 -1.21339 1.55934 1.05078 -2.59288 -1.93179 -0.777642 2.36076 -1.89419 -0.494919 -1.9404 1.16779 -2.55559 3.06616 0.081576 0.688101 -0.972777 -2.8211 -0.720206 0.117954 0.753044 0.685965 -1.48488 1.71822 -1.68929 0.104404 0.479781 -2.32371 -2.65581 0.886166 -1.32765 -3.06635 1.71969 0.360027 -4.67931 -0.835505 -1.66042 -0.955565 2.19315 2.09464 -2.06522 2.0195 -0.768059 1.34889 0.275369 -2.95569 -1.04944 1.01111 -2.76366 -2.88989 -0.471664 0.0893887 -1.84268 2.11118 2.54314 3.06775 -1.06806 1.32624 2.27744 -0.261879 -0.734794 3.39698 0.536485 0.496139 1.53737 -0.512619 3.91659 2.28782 1.70815 0.317545 -0.543199 -0.601062 -2.29472 0.752129 -0.379925 -1.7308 -0.27195 -1.3614 -1.46858 -1.47713 1.90646 3.57686 4.41746 3.40114 1.75552 -1.6896 0.181982 3.78317 0.85754 0.427534 3.05792 0.987365 1.21412 1.05518 -0.733512 -1.4651 2.70226 -1.75936 -1.36933 2.06656 -1.9252 -2.29868 1.07147 -2.40104 2.94024 -1.36561 -0.0694296 1.30952 1.16108 1.27161 2.05405 -4.96637 -0.892758 -2.13095 -0.42497 -1.3321 3.20325 -0.183203 -0.666189 3.65902 -1.79562 2.55809 0.871822 0.773248 -1.35688 -0.996948 2.93628 2.32951 2.87835 -0.87109 1.43599 -3.91568 0.189245 0.447615 2.78307 -1.04169 -1.64986 3.03504 -2.44273 -2.21268 0.121067 -0.195593 2.43583 -2.70916 -1.9039 1.71517 3.31758 0.442061 0.34373 2.60027 -0.411908 -2.57311 -1.72329 3.30518 2.45695 0.382061 -2.80749 3.82046 1.30653 0.0956755 0.916318 -0.900998 0.991943 -0.137669 -1.01166 -2.75494 2.02426 0.677602 -2.16715 -2.24015 -1.41786 -1.04181 0.341899 0.535386 0.28196 0.979492 -2.68212 1.28028 0.648366 1.21339 -0.792413 2.06845 0.221473 0.756828 -0.433882 -1.30641 -2.76165 1.03815 0.690115 -0.476119 -2.17362 -5.01288 0.854915 1.53529 2.64538 2.85888 3.59706 2.22037 -2.08426 0.894894 -1.5262 1.05298 1.77383 4.01505 1.74496 -2.79992 -4.11527 2.72216 0.40495 -2.83221 3.25837 -0.590991 0.0135807 1.06653 -1.80166 0.255226 1.7521 -0.813654 -0.670705 -2.09684 -0.849361 1.56856 -2.36784 -0.904111 -0.0797449 -3.74068 -1.5688 -3.53035 -2.67345 0.937315 -2.73406 0.68572 2.54625 -0.404889 -1.41102 2.08823 -1.56124 2.97247 1.22449 -1.92111 -1.82308 2.41856 1.5259 -0.606311 -0.833064 -2.12259 0.170568 5.46699 -0.299173 -0.317301 1.52986 0.0763268 2.77734 -3.15418 -2.45256 1.45027 0.525925 -0.469222 -2.9284 0.0286568 1.67708 -1.60274 -1.4297 0.063509 1.51003 -1.49495 3.17176 -1.75478 2.72027 2.46281 -2.03195 3.54744 -3.35878 -1.49031 -1.48341 -0.530381 -0.738823 -1.77853 -1.52242 -3.12665 -4.53319 -0.479476 -0.672536 2.59392 1.95968 1.68618 0.0835291 2.01663 -1.72732 -3.95407 -2.02377 -1.19337 0.335246 -2.96051 -3.98843 -2.02121 4.01389 1.33937 -1.64669 3.49214 5.07337 1.71957 1.47108 0.562609 0.992981 -2.64263 -0.0154119 1.8768 3.07721 1.25611 -0.853755 -2.1055 -1.70803 0.474349 2.89807 0.430464 -0.724357 -2.14402 -0.561022 -0.30137 -0.0504471 2.93957 -2.75756 -1.9877 1.17591 -1.25983 3.46101 -3.6802 -0.107517 2.09098 3.6534 2.77111 0.168493 0.228675 2.77581 3.49696 1.61422 3.31477 -1.62996 -1.20795 -4.41746 -0.423627 -2.10935 -1.11298 0.605091 0.756645 1.10401 -1.50288 3.49043 0.560228 3.50014 0.33787 -2.46764 1.78304 3.6548 -1.20875 2.2606 -1.18647 2.47624 -2.08774 -1.8309 1.1916 -0.722221 2.96301 2.86566 -3.08667 0.611866 5.66085 2.07474 -2.82824 0.801935 0.330729 1.93423 -0.784478 -1.88699 -2.85479 0.0231635 1.01752 -4.50462 -2.35667 1.55641 -1.55928 1.84072 -1.28681 0.18479 0.585864 -1.31483 -1.77273 1.83944 0.0108341 -1.69717 0.519456 -2.94555 1.50948 0.121067 0.885189 -5.78933 -1.86538 5.39729 1.30152 3.13178 0.157018 -2.90417 0.544542 1.47444 -2.35679 0.902463 0.901425 -0.649892 -1.65584 -1.68923 0.655812 0.614002 -0.422712 3.72201 -3.45961 -1.74227 -2.20542 2.49345 1.3415 2.34898 -3.47896 1.87423 -1.15827 -0.053621 2.35118 -2.23545 1.29371 -2.56236 -0.309366 -2.76366 1.60408 2.7304 -2.06436 1.75533 1.42354 1.73428 -4.23222 -2.96405 -0.675283 2.57805 0.261635 0.474837 2.25858 -2.00931 1.48695 2.09275 2.47398 1.29023 2.29398 -0.0731528 1.09204 0.413739 3.9711 -0.189062 2.51787 1.42988 -2.54015 2.47734 0.8811 -2.03207 2.81756 -0.0775475 2.69127 -1.99734 -1.38911 -2.02872 0.89465 4.43211 3.93411 -3.02228 0.522202 0.885678 2.73241 -2.3997 -0.887021 1.20173 0.071160 -2.41124 0.104892 -1.99246 -2.59478 -1.48 -1.62496 2.84594 1.42427 -3.57924 0.122837 1.27845 -0.982787 -4.7843 2.27763 3.41047 -3.81185 -1.065 -0.377239 1.26875 -3.27686 -0.377789 0.822993 -4.5266 -0.0754112 0.879879 -0.461776 -1.36006 0.155858 -0.0118717 -2.18162 3.94974 0.881161 0.53441 -0.0382397 0.323893 -1.112 0.495041 2.02426 -1.35524 -2.61773 1.70003 -2.82995 0.452254 -2.35844 -0.375652 0.0511795 -0.438704 1.91403 1.4416 -3.60353 0.0356152 1.25043 1.27381 1.01044 2.95184 -1.04016 2.58165 2.35478 1.39534 1.37013 0.625355 2.91168 2.12461 -1.41249 -1.05927 -0.488754 -0.659719 -1.06116 -1.23841 -1.18995 2.99793 -2.21586 -0.669179 0.11063 -4.90088 0.389203 -1.96579 0.707266 0.404767 -2.45726 4.2971 -0.0524003 -1.00153 1.60854 0.179785 -0.802911 1.14783 -2.30253 -0.390545 -0.108799 1.89303 1.64962 -2.81249 0.86639 -2.19596 -2.48991 0.50615 -2.8432 -2.65496 -1.80782 -1.08313 1.44166 1.27912 2.0065 0.6845 2.3325 4.55498 -3.24647 -2.53539 2.68877 -1.88821 -1.93942 0.0440384 -1.85153 0.0394604 -0.349773 -1.71932 -4.94006 -1.46999 0.232826 -2.82159 4.00455 2.06241 -1.29316 2.03763 -1.90548 -0.746513 0.354167 0.617176 -1.75979 -2.18546 -2.28031 1.24592 2.56474 1.05084 2.86297 -1.1811 2.16086 1.34236 2.66631 -2.37815 4.37602 3.04181 -2.10916 4.91272 -2.19102 0.228187 -2.33415 4.20548 -1.78603 -2.2465 0.0983001 2.18986 -0.511032 1.02039 2.69182 0.225684 2.94525 0.925535 -2.73907 2.34776 3.04004 1.41212 1.03082 0.720145 -1.23731 0.0624103 0.605152 -1.52022 -3.14057 -0.828364 0.495529 -1.09986 2.08658 1.74075 -1.10572 2.82019 0.676992 1.82235 2.38401 -2.73077 0.21128 -0.337687 0.264565 -0.766655 -1.92318 1.07092 -1.80837 1.48976 1.70492 -2.54009 1.81063 2.45848 0.772332 -0.0111393 -3.92795 0.999817 2.55675 -3.74911 -1.07794 0.100131 -1.37098 -1.05872 1.04749 -3.61885 2.0762 -3.05744 0.369305 -2.62853 -4.56285 -1.7336 0.969848 -0.523789 0.541612 3.28706 1.13886 0.585681 0.4373 -0.294351 -3.76846 0.254921 0.597644 -0.315409 1.02002 1.39851 3.59139 -1.41664 3.22816 2.43181 -3.59505 -2.25913 2.94031 1.80056 2.60723 0.73632 -2.43406 -0.166173 0.537645 1.56893 -0.948363 -2.14078 5.71285 4.19309 -2.97382 -2.48308 2.63219 -4.15482 -1.43324 -3.78903 -3.82266 -2.39592 -1.7261 -2.36607 1.78555 0.614856 1.34382 1.30396 2.58818 3.42195 1.32032 -3.94925 4.70409 0.844295 3.2237 1.38923 0.870174 -0.170324 1.7322 -0.28544 -0.398541 0.728446 3.11505 -2.73656 2.06302 3.42183 0.593921 0.770196 -0.152318 2.74352 1.8309 -2.23838 -4.15861 -1.36732 2.21873 -0.572619 -0.632985 -0.547227 0.67394 -0.00119021 -2.20859 -0.0821864 1.60829 -2.42088 -0.213233 0.0605793 1.7734 2.36174 0.431013 -1.31794 -2.33537 -0.832453 1.33522 -0.282327 2.16959 0.251625 -0.0141301 0.95996 2.15128 1.30122 -2.50945 -0.425275 3.6512 0.576708 -1.08826 3.84591 0.402875 2.12308 -0.620716 3.58907 0.340251 2.99408 0.167821 0.672231 1.78854 3.42659 3.92465 4.07706 -1.97128 1.90097 3.24036 -3.05896 -2.08048 -1.97574 -2.25578 0.0202948 -0.735893 -0.821528 -0.083407 -2.99738 -3.38716 -2.13608 -1.19959 -3.88028 2.18564 1.683 -2.19285 -0.515061 -0.398175 2.89575 1.79635 -1.39906 -2.89056 1.4883 1.62087 -2.52617 -0.00460832 -1.31007 -2.67425 -0.232215 0.866207 -3.12256 -1.81381 3.44288 1.49043 -1.19617 -1.2281 -4.69225 0.88464 -1.9133 1.22755 -1.06781 3.33302 1.89914 0.954711 0.347026 -0.970458 -4.20524 -0.114841 2.97961 1.02783 -0.391461 2.52971 0.253883 -0.813288 -1.63222 2.992 -2.70153 0.800714 -0.845882 0.136631 0.195227 2.59972 -0.149999 3.09491 -1.79055 1.8088 2.71282 -1.70174 -2.5609 0.953978 2.70641 4.22861 1.318 2.10123 1.53536 -0.932188 2.41191 1.2154 1.31428 -0.560167 -3.05408 0.330607 -1.18799 -0.571825 0.500412 0.213782 -1.79336 -1.94015 0.310038 1.21375 1.29121 -3.55989 0.608448 -1.01959 -0.936277 -1.27137 -1.54811 -3.25715 1.6451 -3.85922 0.460799 -1.16663 -1.54549 0.167516 -4.08225 -0.854365 1.58834 -3.80795 -1.34223 -4.78668 -3.66964 -2.29698 1.18879 -2.40239 -0.256447 0.27897 1.48054 1.27021 -0.734123 1.54103 -2.14066 -1.31874 -3.73934 0.257973 0.444807 3.19782 0.451888 0.788751 -1.43226 -5.40114 0.182226 -3.94443 0.606372 3.3213 -1.56319 1.22932 1.67641 -0.867733 1.56136 1.31764 1.61586 2.93164 -3.37965 -5.15546 -1.30073 -0.646107 0.328654 -1.1941 -0.478011 0.873104 -2.50597 -0.910764 -1.51515 -0.91229 -0.089816 -4.45219 3.32875 -0.122105 -2.36546 1.9133 4.14316 0.120945 -0.406537 -0.264748 0.297403 -1.34706 1.4452 2.53673 -3.27436 -0.835994 -0.35435 1.37123 -1.99661 -2.28526 1.64827 1.706647 -0.342814 0.561815 5.18018 4.67064 -0.860042 2.97717 0.527696 -0.704459 -2.08701 0.754753 0.77398 -3.79366 -4.9281 -2.91516 -2.07956 1.67812 -0.0498367 -1.51039 -0.16483 2.80993 2.14286 0.50206 -0.0401929 4.14939 -1.61403 0.78106 0.719596 -0.781976 -1.27277 0.345988 -1.43385 -2.87286 -0.571154 0.621082 -0.401959 1.47212 3.03705 2.97436 -0.309793 -0.310709 -2.94269 2.44145 -1.92557 -1.93332 1.67446 2.32041 -1.69478 2.596 -2.05039 -0.675954 -0.448592 0.847468 -1.06104 -0.0204169 0.148167 -0.934873 -0.835688 1.96176 0.348857 3.65999 0.880306 1.04523 -3.78689 -0.705252 2.56865 -2.63073 -0.429426 2.74737 0.103061 -0.305826 -4.00705 2.73614 0.0187689 -0.655324 -2.27897 0.900204 -0.676992 -3.47713 1.47151 -3.88217 3.28999 -3.32026 2.07376 -0.646413 -2.3303 3.63399 -2.1348 -2.781 2.75585 1.12134 -1.21296 -0.563341 -2.25706 -0.529588 1.11652 2.39317 -1.1822 -2.91876 -0.227393 -0.0299388 3.41639 1.40407 4.13511 -2.15976 2.08567 1.09906 0.311197 2.41508 -1.60799 2.06943 -2.20988 0.631886 2.30595 1.05115 -0.578723 1.77102 3.50655 -0.549608 -1.34651 1.48396 2.04251 1.11316 -1.02478 3.22602 -3.21625 0.716544 1.49025 1.27943 -0.893796 -1.53047 -0.432966 2.55223 -1.75869 -2.19175 0.502121 -2.65716 -0.265603 3.77609 3.12946 -1.74288 -0.556261 2.77349 -2.68059 -2.53624 2.52086 -0.631214 -1.69961 3.4803 -4.19187 -1.1471 1.74294 -2.33073 1.0943 -4.77276 0.541734 -2.35807 -2.34141 -2.68358 -0.763726 -0.252235 -2.45 2.68401 5.00458 3.8428 0.0310374 -1.9509 3.16822 2.52306 2.62859 -2.11527 -1.8522 2.01016 -0.772576 1.88675 1.80465 4.87707 -1.35536 1.00183 -1.89462 -0.201209 2.12119 -1.2981 0.0509354 2.52306 1.16852 3.19251 1.80215 -2.76269 -1.78933 1.24042 1.94394 4.53044 -0.546129 -0.688223 -1.17768 1.12836 -1.57442 -1.29395 -0.105563 1.59676 -0.38084 2.37254 -1.97385 -2.80493 2.68053 0.098178 -1.32105 0.0713219 2.5761 1.756 -1.0824 -2.01779 0.178991 1.29609 2.18271 1.73 -1.29017 3.17383 1.76034 2.50175 -1.5295 -4.10416 0.890194 1.29664 3.30934 0.378216 -1.55379 -2.36723 3.25263 -2.20371 -1.87045 -2.2822 0.744682 2.6231 0.111911 -0.729484 -1.07312 1.5342 -4.93701 -4.81426 1.40004 1.8749 -0.49382 -0.776604 3.90378 -3.62905 -1.56972 3.91317 -0.648915 -0.225929 4.10703 -2.13785 0.656728 -1.87179 1.03931 -1.34675 0.795099 0.345256 -0.0115665 0.518235 0.527146 -1.22584 1.00995 0.977599 -0.768731 -1.5417 0.439192 -0.367656 -0.721 -2.24125 -0.234657 1.29609 -0.610279 -1.96005 -0.672597 2.65294 1.40388 -0.899899 2.77422 2.63201 1.91159 2.03427 3.22065 1.68374 -0.825312 -1.77963 -2.95703 0.144993 -1.22163 2.11307 -1.75027 -1.11652 -1.5483 -1.46779 -4.64092 0.405011 -0.507614 0.137669 -0.269631 -0.385723 -0.763787 -2.22666 3.28101 2.41496 0.00552389 -0.629994 0.525864 -0.661733 -3.02448 2.09415 -3.11859 0.384381 2.39885 3.4322 0.166723 -1.73171 4.61809 -0.107578 -0.758904 2.2537 3.31361 -2.9812 0.71807 1.7654 -0.5833 1.39961 -2.31162 -4.03378 -2.87066 4.35801 -0.604846 -1.5132 0.485641 -1.98294 -2.20713 1.49324 3.89523 -0.579333 -0.0674154 0.28489 -2.89697 -0.598315 -1.89248 0.605579 2.0076 -0.116733 0.699332 3.85604 -2.23283 -1.69814 1.66018 -1.60128 1.64187 -3.16218 3.56832 -1.86227 -4.00046 1.14362 2.19675 2.56536 0.930662 2.25327 3.53102 -2.54131 2.90191 0.36607 1.17225 2.41911 -1.10578 2.18601 -2.93335 -1.56404 -1.54219 0.508164 -2.50572 -2.33225 1.1203 -0.259377 1.25929 -3.37617 -4.40959 0.0439772 2.01437 -1.06305 2.19272 1.78219 1.66305 -1.08753 0.96588 2.96881 2.76995 2.04355 -1.12787 -2.6046 -3.07819 -2.32395 -1.45344 -3.8655 0.976928 -1.98178 2.02597 0.0968964 4.13517 0.671743 -0.101413 -1.6625 1.77248 0.881161 -0.693472 3.79507 -1.02539 -1.3133 -0.755852 1.1518 3.70589 -0.837031 -1.41731 -1.49806 2.55333 -1.0614 -0.732353 -0.482894 0.981994 -4.82092 0.117771 -0.206091 3.04059 2.22263 -0.330424 -1.92611 0.452437 2.05423 -2.49962 0.0221869 -1.96866 1.80978 0.47148 1.24995 -0.641163 2.49358 3.32423 1.2743 -2.33854 -1.90341 2.07096 1.09503 1.82388 1.30866 -0.38377 -1.91568 2.47612 -0.997436 -1.9548 2.8684 -1.90603 -0.311014 1.01837 1.89523 -1.95352 2.11863 -1.29225 2.37327 2.53227 1.22706 -5.28431 -0.732109 -1.66274 -1.39424 -0.58916 1.04431 2.35881 -2.31046 1.1175 -4.15629 1.82333 -1.15638 1.60164 -1.21809 -2.85498 -3.45692 1.28486 0.0544145 -1.64278 -0.171239 0.626392 0.539659 -0.945189 0.226844 -0.887631 0.583728 -3.21314 -1.67684 0.285684 -1.3412 1.83627 -0.824946 2.25742 1.5779 -2.67809 -2.24747 2.13779 -5.04413 -1.43538 2.59203 -0.181127 -0.967141 -1.34901 -1.14533 1.5547 0.55736 0.134251 0.973998 0.767693 -3.62563 -0.190405 -1.92141 0.526353 3.48543 -1.49928 0.384014 -0.873714 1.18122 2.79644 -0.267983 3.21534 -0.00521869 0.673086 2.47459 -2.10172 1.13318 -0.0583819 -2.11985 0.261147 -2.34147 -2.54381 0.26072 -2.25163 -2.89666 -1.97708 1.99484 5.83596 -1.79598 0.942808 -0.354961 0.431562 1.44453 -2.86712 2.35154 1.4474 -3.90237 0.755303 2.68908 -1.0268 -2.55309 0.297342 -0.821223 0.496017 0.882504 1.03851 -1.36213 2.59893 -1.44771 3.84091 3.55715 -4.42259 -0.736992 2.20164 0.693594 0.41319 -2.68767 0.50499 -3.93399 2.53807 -1.05768 -2.58959 -1.46144 -4.16947 0.10184 3.31562 1.18372 -0.720084 -1.79385 -2.17026 0.60857 -0.245399 -2.42216 -1.80099 1.43464 1.31526 1.26081 0.615039 2.11649 -1.49306 0.891476 -0.649525 3.28834 0.0705282 -2.68249 1.65517 2.82568 4.50841 -0.351299 3.35072 -3.19196 -0.0575884 3.43001 1.06397 0.5739 -2.29337 1.6216 2.03244 3.04962 -1.89846 -0.921872 -0.576952 -1.45405 1.75893 -3.79214 2.09891 1.20753 3.04712 2.50633 -3.22639 -3.70229 0.958251 1.64467 1.49031 1.51668 1.91202 2.80804 -1.64046 2.52934 -0.0843837 -0.0343333 2.50084 -0.101474 0.517441 1.76193 1.11756 -2.39213 -2.01126 -2.28428 3.64663 -1.63948 -3.82278 3.4178 -1.07886 -2.15696 0.461959 -1.59066 0.281594 1.14386 3.25379 -0.567064 0.572863 1.50819 -1.52474 -3.25764 1.9664 -1.37751 -0.53972 2.15769 -1.45521 0.614551 -2.29466 2.55382 0.584155 -1.04816 0.918149 -2.52904 -1.52699 0.435224 -4.2064 -1.46559 -0.792047 -0.534043 -2.04013 -0.632374 -0.6021 0.778436 0.527695 -0.309 -2.28086 1.82705 1.68465 0.292276 0.757378 1.01025 0.769219 0.554063 -2.82714 -1.07587 1.26215 -2.77258 0.12833 0.828974 2.13486 2.1409 -1.08399 -2.4799 -0.0116886 -0.472213 1.72011 -1.21241 3.42579 0.665212 -1.5453 -1.34785 -1.91055 0.506943 1.6147 0.568407 3.80703 1.99991 -3.92868 1.77816 -1.72311 2.77325 -2.23923 -0.994934 -1.26276 -2.11478 -3.80886 -3.32374 -1.94864 -0.6845 2.71538 -0.142308 0.64861 -2.10776 -0.499741 1.09357 2.7589 0.339457 -0.864864 -4.66558 -1.62368 3.133 1.81234 2.14365 -0.60625 -4.14731 0.0199286 -2.63347 1.33845 1.72005 1.68551 -2.5446 -0.845149 0.00210586 -0.296304 0.630909 -1.53475 -0.0202947 2.7907 -1.92782 -3.2508 3.15809 -0.401959 1.32344 3.87942 -0.588488 3.02783 -0.900937 4.44755 1.75167 -3.31715 1.68294 1.32496 1.39967 0.392987 -1.89828 0.887509 -0.139927 0.750053 -3.73544 1.34822 -2.32658 1.59597 1.25532 -1.3694 2.5432 2.39445 -0.0368969 1.22614 -1.48128 3.42787 1.24226 0.464888 0.928098 1.75655 -2.21409 -0.353557 2.73913 -1.12305 -1.09857 0.460189 -0.953185 0.0151066 -1.62276 4.13822 3.36573 1.99734 -1.3744 1.77401 0.420576 1.62868 -0.708853 -0.750237 1.11939 -2.47508 1.51088 3.20386 0.397504 1.32813 -1.98508 -2.52007 3.62123 -0.753838 2.25443 -1.50569 -1.76339 -0.141881 -1.25715 -1.04242 0.352641 3.11347 -0.197119 0.390484 2.94513 -1.52889 0.89935 1.87008 1.3683 -0.887082 1.75198 1.44282 -3.13599 2.16721 1.41255 1.64418 1.7546 1.88253 -1.50679 -2.43876 -0.995727 -2.31205 2.73736 0.875484 -0.157323 -1.92209 -2.88653 0.321879 4.13199 0.258156 2.62957 0.00747708 -0.831965 0.49089 -0.956603 2.01901 1.60451 1.0777 -0.331156 0.762505 0.182287 -3.0846 -2.54503 -2.52843 1.95779 3.56429 -1.46767 0.320231 3.71346 1.76534 0.411115 -3.42231 1.24012 2.34489 -2.98199 2.24741 0.177282 -3.55818 -0.236915 1.61867 -0.900388 -1.00116 0.818232 -1.8215 0.538255 0.450362 1.80001 1.31391 0.620228 -3.45076 -1.95767 -1.75533 1.02014 1.26746 1.64608 -0.374065 3.90591 2.70611 -2.5078 -3.74648 3.56746 -1.04157 -0.589892 -2.68499 -2.58141 -0.143284 -3.31703 -0.381085 0.0559404 1.54445 2.08316 4.24369 3.06372 -0.189856 1.61892 0.040376 0.253456 -0.879879 -0.812617 2.43089 3.02472 -0.712149 0.314859 -3.0669 1.53175 2.71923 0.174535 -0.142003 -1.64949 4.16648 0.0708945 -0.391705 0.326151 -0.0663167 1.57399 1.02264 -2.70849 0.469161 2.49565 -3.79959 -0.652699 1.27992 -2.10843 4.24302 1.38441 0.109714 -1.7206 -2.64953 -3.4579 -0.684134 -1.74203 -2.28678 -2.71184 -0.617481 3.71773 2.63262 -0.195471 2.50865 -1.1731 0.308329 0.371807 -1.79373 -1.01563 1.73495 -0.56389 1.8511 0.923826 -0.862362 -1.95224 -1.88461 -3.84371 2.3903 2.35777 -1.77041 2.94403 -0.149083 0.860103 3.00238 -1.01526 -2.94647 -1.93033 0.541368 0.00143438 1.69222 -0.681387 0.610401 0.420576 2.33409 0.363445 0.560839 1.32728 -0.695853 -1.51387 -1.22535 -0.112949 -0.827448 0.781915 0.557421 -2.58238 3.28468 -3.6863 -1.58431 4.30332 -0.226783 -2.16953 -2.33744 -1.057231 3.48872 -0.27311 -0.719291 -1.1427 -2.71789 3.93924 0.987487 -2.65496 -0.914914 -3.5389 -1.56447 -4.46989 0.217017 0.170751 1.48878 3.33747 1.36091 0.648671 1.50795 1.36964 1.64693 -3.31513 2.58763 0.952147 3.27552 2.15354 0.678579 -3.48811 1.12275 -3.05268 -0.464522 -4.5114 -0.234962 -2.34184 1.4247 1.95737 -2.64434 -0.309244 -2.46764 -2.84661 0.798517 1.49849 0.0100406 -0.908445 -2.35203 0.626453 -3.40748 4.4564 1.18122 2.25126 -2.27061 2.96155 0.07181 1.90487 3.16382 3.36042 -2.8905 1.06854 1.89975 -2.70397 0.399335 -2.67364 -1.50771 0.179724 1.4767 1.76455 -0.398419 -2.71801 -0.217933 1.30299 -0.257851 -3.77096 -2.0745 -1.34931 2.17313 -1.91397 3.18177 1.56801 -2.13981 -1.77956 -2.34495 2.12357 -1.54939 -2.87182 2.54814 -0.361858 0.195471 0.413129 -1.02564 -0.00247203 2.76165 -1.89413 2.75054 1.02399 1.86489 2.51097 -0.392926 -1.40596 1.66665 -1.23292 0.255593 -2.80908 -2.12986 1.31159 -4.25352 1.57588 -0.548326 2.43339 2.55937 1.27003 -2.03305 4.10447 -0.139988 -1.46767 2.37034 -2.72576 0.364544 1.5193 0.280251 -0.180639 -2.7561 1.31733 -2.36479 1.32997 0.511765 0.533921 -0.328349 3.92538 -2.67199 2.13346 -2.83782 1.28462 -2.34111 2.20811 2.85754 -0.922056 1.73025 3.36879 0.060091 0.990478 0.710257 -1.55483 0.275735 -2.48076 -0.938414 -0.817438 -0.125584 -0.259316 -0.00283825 1.61983 2.70238 -2.77508 -1.51943 2.84161 -3.42109 -1.70638 -2.79351 0.78692 0.619617 -0.196875 1.9982 1.8052 1.31843 -1.3553 0.0616779 -2.35557 -1.66744 0.143467 1.53218 -1.43776 -2.0997 1.55147 -0.248817 0.243568 -1.16352 1.81466 -1.28797 1.21625 -2.96313 3.80648 -0.890683 -1.55074 1.4341 2.21342 1.43367 -2.1782 -0.662099 1.26002 -2.45524 -0.847896 -1.89755 1.4626 3.16407 2.47069 3.05274 -0.405133 2.72137 -0.771538 2.61101 -0.940062 0.995727 -2.87347 -3.43867 -1.15137 0.98645 -1.74789 2.38725 -1.72335 -3.54842 1.21296 -0.380902 1.68764 2.55242 2.95434 -4.86511 -1.69454 -0.959716 0.947325 1.34553 -2.56999 1.42463 -2.56462 -1.79781 -1.8414 0.559374 2.42796 2.96985 -2.17978 -1.91763 1.1258 0.696463 2.31736 2.15146 -1.53047 1.32075 -1.44887 -3.09259 0.496078 2.35307 0.129978 0.108127 -0.810358 -0.930662 -1.46193 0.364971 -1.48079 1.15271 -1.04016 4.42497 2.34416 -4.27787 2.94214 -2.06839 -2.1196 1.68764 -0.91583 -1.89438 1.41279 -0.63744 -0.0563067 1.77767 1.93899 -3.72042 0.342692 -0.78222 -0.563829 1.14203 1.26637 -2.80645 -0.562426 2.84716 2.53575 -0.303629 0.601245 -1.47572 0.449141 -2.22739 2.96588 3.52144 -2.42759 -3.10071 -2.42363 3.27644 -3.12867 1.33869 -2.83166 2.01523 1.36982 -4.08847 2.5988 -1.78945 1.52492 2.62664 2.70855 3.73934 1.50099 4.60057 2.30955 -1.32246 -1.46193 2.7116 -0.0231636 -1.33076 -1.40675 -0.580615 -1.66066 0.807428 -3.55049 -0.81048 0.55327 2.96344 -0.523118 -2.03665 -0.354472 -1.49684 3.23145 1.1062 -1.5818 -0.670888 0.0835903 0.273842 -3.40339 1.18171 1.06146 -1.36341 -1.08698 -1.85897 -1.90555 0.892697 2.80956 0.266579 -1.15113 -2.48448 1.45094 1.30769 1.3393 -0.333049 -5.26612 0.430097 2.50603 -3.78347 -2.02158 -3.11182 -2.056 -2.6961 -1.00934 1.58602 -3.02753 -0.118076 3.18567 4.46092 -1.76974 3.67653 -2.54527 3.6307 -0.0116276 -0.997375 2.46751 -0.761589 0.362651 0.875362 2.09391 -2.0643 -4.38243 -1.15296 -0.365032 -1.06256 -0.252358 -0.983093 3.55226 -0.40904 -2.47832 1.64229 0.375652 -0.606494 -1.81747 -3.20435 3.48811 2.39531 -2.01675 -2.49828 1.46455 -1.07074 2.75347 0.790094 0.659047 0.600024 2.67858 2.10697 1.72536 1.47267 0.482955 3.5165 -3.24244 1.39991 -0.798212 1.13562 2.74151 0.421491 -1.26972 -1.76577 -2.0018 -1.82363 -2.66137 3.44258 -2.68358 -0.736625 1.33851 0.500473 2.45177 -1.5107 1.08924 -1.01172 -2.31431 -1.05866 0.532701 0.474166 -2.86755 -1.18043 2.44151 -2.48088 -2.5233 -2.02866 -1.43013 -0.0278634 2.83416 0.060274 2.89532 1.99789 -2.58019 3.30995 3.13611 2.27183 -3.28559 -0.240211 2.73516 -1.21882 0.810602 1.97031 -1.5052 -1.33229 -1.36689 -0.886288 -1.94662 0.551988 -1.28162 -4.60942 0.386578 -2.22483 5.23658 0.707205 3.52547 -2.00314 -1.05023 0.551439 0.676199 1.58541 -0.20719 1.00684 2.9306 0.237709 0.758049 1.84078 1.75179 2.26963 -2.21958 -4.39744 1.42738 2.00943 -0.695791 -4.32621 -1.32679 -2.26542 -3.77877 -2.79846 1.57674 -4.40934 1.86837 -0.140843 -0.929746 -0.073336 0.768731 -1.63228 3.11499 -2.51506 -0.189795 1.71554 0.791131 -0.113071 2.54216 3.01599 0.476547 1.84701 0.280862 0.939146 -0.698599 -0.444685 2.71337 -1.34626 0.0696128 2.66533 1.68221 -2.7788 0.83166 0.325602 2.874773 -0.62682 -0.702506 2.6906 -1.12073 2.61577 -2.72387 0.350261 -3.03455 -0.406598 1.33259 -4.88452 2.16111 0.654714 0.842219 -1.40474 3.42671 -3.44783 1.64058 0.00515768 1.95035 -3.78237 -1.5533 1.64394 0.467391 -2.45079 -3.74715 -2.5247 -2.73424 0.14713 -0.133519 -2.74749 -0.438643 -2.06284 -0.209143 1.62374 -0.0674764 2.61681 -0.364605 2.65477 -3.49989 -2.13553 -0.761345 1.20844 0.542589 1.24775 -1.30604 -2.38408 -1.77041 1.76754 3.46699 3.07874 -1.83328 -2.0231 -0.213172 -1.7618 1.43519 -1.38716 -1.49397 2.35313 -0.185217 2.67394 -3.38917 1.51521 2.87872 -3.11133 2.57067 -0.649098 -2.35362 1.50642 -1.28462 -3.36366 -0.516587 2.34831 -1.16944 -0.728813 -4.06711 -1.93966 4.14908 -2.95782 -3.82919 -1.49892 1.93747 0.621632 1.76748 1.2049 -0.142003 -2.77172 1.44588 -2.14444 2.29575 -1.60073 -2.47447 1.71065 -2.16392 0.300577 -1.26667 -2.0889 0.0868251 2.02023 -0.922483 1.61623 3.02179 0.279458 -0.536363 -2.10013 3.04364 -2.00174 -4.25236 -1.65426 -1.05335 3.1551 1.90823 2.28001 -0.0282906 1.3758 0.0270699 1.57649 3.13489 -1.30818 -0.233192 0.976684 2.02506 -2.09702 1.03259 0.855037 2.25077 0.982971 0.502243 2.37474 -0.271767 0.966979 -0.280923 -4.03494 2.99713 -0.245155 -0.573473 -2.93829 -2.25016 -2.72771 -2.16019 -1.95486 4.76464 -1.57729 -4.46306 0.318278 -0.573534 -0.72924 2.65838 1.45473 0.028901 0.893979 1.10273 -2.63811 -2.96429 -3.6603 3.40761 0.391644 0.500534 1.12458 -3.00098 1.33827 1.82015 2.71398 1.50246 -1.74013 1.02185 -0.578234 3.79574 0.0638142 -0.240211 -1.83688 -3.50014 -2.21317 -0.783135 3.50069 -3.41023 1.51802 1.09644 1.42274 1.811 -0.110324 -1.11109 0.287393 -2.40483 0.085055 -0.393109 4.37388 -3.8403 5.29267 -0.831294 0.474776 -3.52461 1.54659 -0.374065 -1.02808 0.796197 -3.10553 -0.586108 -4.17356 -1.5685 -1.17646 -1.1792 2.92779 0.455916 2.88708 -2.14353 1.23231 0.037141 0.46849 0.713309 -3.8641 2.07248 -1.38081 2.00198 -0.48796 2.8244 -2.09256 -3.0459 -2.14457 -0.764092 3.21747 2.77703 -3.0293 2.62041 1.43324 1.34645 0.6386 4.40666 0.950621 0.428938 -0.296915 0.632923 -1.05402 1.618 -0.988708 -3.12647 -0.651479 -3.82723 0.648671 2.28617 -0.553575 0.946715 -1.09748 0.467574 0.0686361 -0.408185 -0.604419 1.80691 1.27808 -0.768242 3.82394 -0.97943 -1.48665 -2.21671 0.736808 -3.44002 -0.881161 0.11948 -0.200415 1.57717 -1.80319 -3.74087 -4.0275 3.13538 3.72372 -2.22611 -0.953917 -2.6444 1.86276 1.59334 2.96759 -2.8175 2.41649 1.40333 -1.59896 4.45915 1.35096 -4.17985 -3.04657 -3.00244 -1.66738 1.53114 -3.49519 2.33537 -1.78481 2.58397 -1.91507 2.85888 -1.58882 2.02097 -0.272256 -2.01096 -0.90997 -2.96454 -0.255776 -3.88791 -1.8638 1.84878 -3.14844 -0.0572222 3.80783 -0.51738 -0.405133 4.009 3.03034 -1.37233 -1.50105 1.94632 2.26621 -1.21345 1.38795 0.28843 -1.10468 -2.11936 1.31208 -1.56081 2.04514 -0.487655 -2.48515 -0.482284 -1.19379 2.06369 0.883602 -4.23899 -1.22571 -1.1742 -1.68575 1.17463 0.851741 -0.660146 1.4358 3.11304 1.24982 1.14283 0.12418 -2.51494 0.627247 0.101962 0.249855 -2.7329 -0.697989 2.52709 2.08951 1.00928 -1.52278 -0.752983 2.84661 3.02942 -3.58742 -1.16071 -0.286355 1.97604 1.48695 2.19901 -3.08515 -2.55071 -0.919126 -2.36491 -2.83361 -2.62957 2.22471 -1.31782 0.992798 3.78182 -1.05792 -2.18632 2.3361 1.76949 -1.76589 0.245216 1.8956 -0.803827 -2.36576 -2.98401 0.635426 -0.073275 -1.72311 1.53383 -1.10334 2.24009 -1.58504 2.77361 1.55574 3.11017 1.32398 3.31483 0.657399 2.04764 4.52928 -0.593371 -0.0276193 -4.81414 0.297708 1.24879 -1.09485 -0.69805 -1.67421 0.672719 -1.80136 -1.54323 -1.43446 0.414716 -3.13465 2.9461 3.12543 0.165014 -1.20923 1.24592 3.18091 -0.417585 0.43907 -1.35725 1.83694 -0.53911 -1.89712 -0.766228 -1.12494 -2.76354 2.13382 -3.01349 2.32566 2.02048 0.590747 -1.45582 0.800897 -0.650929 -2.25687 -0.535569 -0.470992 -5.16565 1.86782 0.580004 -1.97684 -1.0954 -4.22404 -1.83358 0.325419 -0.176733 -1.49129 -1.39149 -0.237465 3.17176 1.63686 -2.75311 3.15058 -1.01489 0.604785 -1.90121 2.38633 0.727592 -3.44545 -3.86471 0.364055 3.29475 1.06824 -1.19385 -0.848567 -1.76882 -2.73656 0.49736 3.36781 1.35127 -2.31333 0.609119 -3.30378 -1.0531 0.431623 0.945128 0.47264 -4.22282 -0.0709555 3.09455 -1.7167 -2.98218 1.84115 3.49971 1.5154 -0.633167 2.49858 -1.10602 1.7908 1.48854 -1.68203 -0.20011 1.2262 -3.0155 -2.3618 2.77044 -1.54537 -1.92001 -3.58876 3.0658 -0.654408 1.21265 -1.81356 0.451888 0.362041 -1.28871 1.824 -0.193457 1.4922 1.75118 -4.62059 -0.779473 0.69219 1.040733 -0.409345 3.28468 2.7788 -1.43513 -2.5916 0.245827 -1.29121 2.15799 1.00897 2.72393 0.181127 0.78283 -1.27723 -1.32801 1.50301 -3.98227 -0.681021 2.27268 -0.346721 -2.65386 2.08475 -0.546312 -3.51564 -0.695608 0.132053 1.7134 -0.00344859 3.40663 3.37526 -1.05853 0.624745 1.03357 -1.38874 0.923948 3.47554 -1.52498 1.14679 0.218177 0.448653 2.31101 -0.599048 0.0885342 -2.81494 -1.67989 -3.06983 2.18516 -1.22407 -1.89505 1.30622 3.65908 -0.830744 -3.38362 -1.71236 4.3972 0.215613 -1.22919 -1.27717 4.06552 -0.713553 0.342753 -1.38148 -2.35075 -2.59484 3.32356 -4.18339 -0.823237 2.82739 0.931028 -4.28739 2.31285 0.00576798 0.460982 1.45418 -2.48766 -1.11731 -2.83575 -0.94293 4.42027 0.441816 -2.66106 2.88037 1.2027 -0.54033 1.82571 -0.11124 -2.49779 2.39464 0.0923796 0.150304 -1.29994 -0.650563 0.0961637 -2.00021 0.173742 0.0448927 -1.8898 -2.69201 -0.760002 -1.25581 1.70363 -0.70629 -0.531785 -1.93649 2.05899 -1.68368 1.05182 2.60503 -1.17945 2.0875 -0.0742515 2.35496 3.65493 1.73605 -2.68078 0.777459 -0.286294 2.16825 2.42741 -2.45146 1.1886 2.15647 -0.107578 2.86096 0.141026 -1.40303 2.78179 -2.75799 0.798212 4.374 0.748039 -0.176489 -1.49879 0.263893 0.0613117 0.99237 -2.50755 0.323344 3.20014 0.371197 0.731925 -2.80767 2.68749 0.0578936 -0.0749231 0.755852 -1.13862 -1.93606 -3.04248 -1.40553 -1.73312 -2.10837 -1.08374 -2.33012 0.354656 -0.816584 1.88894 -4.32536 -0.822016 -2.61669 1.72842 -2.50975 -0.22776 -2.65069 2.97015 1.18555 1.90579 0.850337 -1.91214 2.99786 -1.11133 -1.11225 -1.72146 -4.26884 2.12876 4.78094 -0.0400708 4.00955 1.12024 -3.05255 0.172338 0.823603 -2.44591 -0.67394 -0.930052 -1.19208 -0.763298 -3.63247 0.688833 2.68596 -1.4955 0.542405 0.179662 0.320658 0.82226 -2.70562 -3.30641 -3.19233 2.25321 -0.617054 0.108188 1.05029 -2.51402 -2.45103 2.77856 1.25007 3.11042 1.44105 -3.49342 -3.24567 3.82339 -0.25602 1.91006 -3.30146 0.259011 -2.55925 -1.6183 -1.12561 -1.87405 3.15125 -2.1724 -0.729362 1.34083 2.48027 2.36839 -0.283914 0.844783 -1.68197 1.19294 0.0681476 -0.207495 0.0237739 0.753838 0.37907 -1.20148 0.436079 -0.512802 -0.517624 -0.0693075 -1.35627 1.25056 1.43544 -2.86395 3.45692 -1.33961 -1.74984 -2.21073 1.51283 2.5208 -3.63875 3.04767 0.959105 0.529282 1.2566 -0.295633 0.645802 -0.551805 -0.284585 1.22401 -2.2324 3.92642 2.09079 2.6502 -2.10678 0.162755 0.0689413 1.0697 2.31834 -0.402631 2.35044 0.325846 2.68139 0.814203 -0.315531 1.66207 1.77682 -1.14917 -0.30314 -1.00983 2.50652 0.0939664 -1.05231 -1.53639 1.90463 -2.04453 2.65886 -0.950926 -1.82467 1.5107 -2.45549 1.78176 3.67769 -1.71023 0.187719 0.390179 -2.20103 3.41145 0.393231 2.98071 0.652211 0.239296 -2.03745 -0.531297 -2.46629 2.75762 -1.678 0.441572 -0.917783 -3.15418 3.44423 2.14469 -0.92645 0.646107 1.50026 3.2743 0.787835 -0.794671 -2.32023 -3.73226 -2.10752 -2.416 -2.38285 2.7774 -3.22956 -0.383099 1.85861 -1.98624 0.23722 0.512375 -3.18775 -0.349956 1.5818 -5.51906 -1.38478 1.97024 -3.13172 3.57826 -0.645131 0.952391 0.439619 -1.05219 0.0853601 -3.02753 -2.44658 2.6588 -1.92709 0.816523 -2.9035 -0.6845 -1.29005 -2.3104 -1.69149 -0.364605 1.5342 -1.09253 0.455611 -0.821284 -1.20972 -0.0396438 -0.609302 2.41667 -0.025544 -1.36592 -2.06162 1.32807 -1.20771 -2.12107 2.04044 -1.28901 -2.02188 -2.88971 -0.398175 -4.60356 2.40147 -1.36824 -2.02689 -2.44847 1.90805 4.86578 -2.99414 -0.740165 -1.67318 3.08191 3.62227 -1.43178 2.08426 3.30659 0.830317 -1.81619 2.85772 0.106052 -2.86987 1.01221 -2.2855 -2.07352 1.24134 3.72317 1.16535 0.680715 0.0921964 0.528977 -1.42616 1.26856 -2.98993 -1.63088 1.36024 -0.282632 -1.95315 -0.318705 3.43416 3.6343 -2.62114 -0.0495926 -0.704276 1.64895 1.7195 0.223792 3.24342 -0.45378 0.679067 -0.222144 0.122288 -0.235084 -2.98651 1.12488 -0.944151 -0.0417188 -2.30302 0.54619 2.59319 1.29872 3.75375 -3.65847 2.71239 0.216895 -2.20756 3.9808 0.118076 -1.73757 1.17664 -1.65743 -3.73183 1.77163 -2.23411 2.236 -1.43104 -1.96701 4.1746 -0.619251 2.17515 -2.36448 -0.525803 1.04462 -1.16614 -0.311563 -3.7134 2.51793 2.20896 3.59835 -1.80056 -1.38423 2.12186 0.0937834 -2.55766 -1.60298 1.15033 -4.81591 -0.234657 -1.71712 -1.98227 -0.263283 0.45146 1.76736 3.21461 2.36552 -3.59566 0.903256 -2.71331 0.3137 0.248146 -0.244423 3.23066 0.0220039 -0.6245 5.00519 3.42958 0.0655843 -0.117222 -0.108371 -1.42854 2.15238 2.33048 2.68712 -3.01428 0.864559 -0.736747 -2.12003 -0.167089 -0.164525 3.43202 -0.73394 -3.40986 -2.95172 0.648488 -0.875179 -1.73531 -0.948830 2.22007 0.676504 -1.22321 0.00802641 -3.11048 0.00216678 -2.05155 3.58913 1.22993 -3.38258 -1.46657 -1.47719 0.422163 -1.1156 -3.27107 1.36439 0.358684 1.45247 0.605945 -1.15369 1.00903 0.913083 -4.10758 4.27421 1.98288 2.85705 1.55391 0.542161 -1.76803 2.52208 2.59807 -0.540147 2.82531 -1.78304 0.554552 0.0708335 -1.26557 -0.288247 3.05493 -0.340922 -1.42793 -3.22193 2.95801 -1.87594 -1.78713 0.0722373 0.454451 -0.584582 -0.759026 -0.457076 -1.40864 0.71276 -3.84078 2.55638 -4.35105 3.04035 -0.703177 -1.07935 -3.18592 2.00137 1.35414 -0.996582 0.580981 -1.67745 -1.47951 2.12442 4.32206 0.893918 -1.89315 3.41316 0.463302 1.99106 -0.375591 -3.67965 1.70235 -0.629078 -0.749321 0.967833 0.708426 -1.07587 -1.37886 -0.4738 -3.26148 0.574694 -0.118137 -1.19275 0.609607 1.11225 -2.06003 1.25916 2.46452 -1.3545 1.85366 2.55107 -2.23222 -1.63369 -3.70638 -1.06525 -2.03037 0.306803 -0.98175 0.572619 1.27467 -1.21833 1.29652 2.01523 -0.0461135 0.202124 -0.781243 0.022248 1.63887 -3.05316 2.83111 -0.0924406 -2.96893 1.98062 3.03137 -3.39894 -0.531175 -0.094699 3.16529 -2.38762 -1.21448 3.13282 3.25788 -1.91598 0.900632 -1.13385 1.81991 3.12275 -2.42479 3.57704 1.16681 3.59389 1.77749 -3.33454 -0.814631 0.571154 -0.913205 -4.00583 -0.512314 0.623402 2.5811 -3.02307 0.889523 1.12976 -0.359111 -4.08408 2.15067 1.81045 2.10953 -0.727226 -1.08625 3.6578 4.24625 -0.441633 -3.21931 -0.540269 -2.09207 3.53444 -0.538072 -0.900632 1.40376 1.40852 -2.06101 1.81851 -0.551866 0.714225 -0.424116 0.634266 2.66344 1.56142 1.11536 1.09717 -3.94205 -1.05426 2.5031 -2.42674 0.926328 4.80468 -0.530564 -0.75512 3.60121 -2.49516 3.81417 3.00958 3.50111 -0.545213 1.32459 -0.527574 -2.09299 -1.47914 2.27042 -0.78576 -0.0922575 -2.05612 -3.59127 -0.47496 0.950133 -3.56313 -2.56023 -3.2121 -1.56716 -0.84521 -3.15241 -3.29353 -2.21989 -2.77825 0.0656453 1.55623 1.43397 2.50688 0.905393 0.652516 0.201209 -0.670034 1.18207 -2.77984 -2.60588 -2.20768 1.47859 1.85385 1.20197 0.41319 1.98276 3.75411 -2.27256 -1.23725 1.33729 -2.07022 0.134617 1.78085 -1.56252 1.5533 2.33268 2.46367 3.11737 1.65218 -3.35462 0.611377 -3.34114 -0.666433 1.89785 -3.67885 -1.9368 0.71807 3.35462 1.9136 3.02112 1.77975 0.956481 2.979 -0.480636 3.27363 -0.715934 2.23606 3.0246 2.9425 -2.30937 -3.11817 -2.82714 -2.81329 2.03989 1.12964 2.91559 1.38862 0.486679 2.61418 0.0455641 -0.927427 -1.26063 -1.64187 2.05222 -0.901425 1.23902 0.983886 -1.76437 -2.93561 -0.306803 -3.14173 2.02188 2.11502 -2.59453 -1.14039 -2.58831 -2.66155 0.833125 1.45186 0.508164 2.9414 -1.18793 -3.24403 0.0521561 -1.61269 0.892148 3.30567 1.90884 -1.31001 1.20734 4.17069 -2.56029 -0.956786 -2.66509 -1.8569 0.701712 0.981201 -3.43348 0.667776 0.402936 -1.74874 -0.962584 0.204932 3.56301 -0.409101 4.14768 4.71722 0.807123 2.59313 -0.284768 1.9606 0.234291 -0.150182 2.29508 -1.72274 -2.20115 -0.439924 0.10477 -2.43242 -0.860652 1.7911 0.99414 -0.865963 -1.20386 -1.42268 0.892636 0.084872 1.75143 -0.950377 -2.82311 -1.01636 -0.768059 -0.223487 0.394269 2.43181 -2.28965 -0.490158 0.775933 -0.72869 -0.954955 -1.48085 2.98517 0.0995209 -3.30934 -2.29569 -0.470992 -1.2248 1.92398 3.67153 -3.72073 -0.387188 -2.98315 0.962645 -3.46614 2.94385 1.29749 -0.374432 -0.940001 -1.26026 3.03314 -2.69103 2.55406 0.980407 1.07794 -3.92532 -2.04147 -1.54616 1.21766 1.11133 -0.928953 2.68059 -0.84753 1.53652 -1.11591 0.643788 -0.947691 -1.52083 0.0918301 -2.98303 -2.37358 0.62505 -2.79608 1.57521 -1.36116 0.413373 -1.29847 -1.52388 3.81472 -0.923948 2.6729 -0.898618 1.0658 1.70235 0.36906 1.14325 1.98337 -1.48085 1.11261 1.62447 1.52559 1.57283 -4.99866 -3.46046 3.84365 -0.998291 0.841609 0.805475 -2.81768 2.08628 -0.251198 -2.79296 -2.20774 -0.737602 -2.14505 2.02664 -0.210364 2.28928 2.55882 -1.95499 0.905149 2.75457 -2.24577 -1.39912 3.05579 0.11008 0.481063 -0.603931 -2.322 -4.58098 -3.57369 3.73428 0.7622 0.00875883 -1.27735 -0.118564 1.52034 1.20936 -4.5258 0.235023 -0.368816 0.37431 0.452498 0.987609 0.995544 -2.63781 2.39598 -0.0235298 0.941588 0.673513 3.35499 -0.597827 0.815363 -0.575793 -2.48582 1.107 -1.10273 2.35014 -1.06366 -0.900632 1.57997 0.0228583 3.65725 -2.98944 -2.2562 -0.528367 0.578173 -0.823969 0.271889 3.39143 4.58641 -0.980834 -2.36406 1.12983 0.342815 -2.562 -0.502732 -0.358989 2.17789 -3.12879 1.25404 -0.412458 2.52739 -0.26371 -0.522202 -1.21418 2.3513 -3.07428 1.17194 0.177282 3.9689 -0.948668 0.793756 0.515122 -4.25047 2.12003 -0.0258492 3.431248 -2.9013 -3.6689 -4.12467 -0.283059 -2.83074 -2.31687 1.12256 0.0772424 1.74764 -0.924192 -0.75396 3.75228 -2.26096 0.595752 0.57445 -1.01056 -0.299661 1.67397 2.51354 1.47737 1.85049 -1.1991 -0.851375 1.28523 -0.000213698 -0.511704 -3.88833 -1.98178 -3.16376 -1.83505 -0.356548 -2.62554 -0.997803 0.692312 -2.20499 3.29353 -2.5974 -0.81048 -1.29633 2.87823 1.18207 1.85531 -2.12168 -1.71279 -1.19385 3.47145 -0.562548 -1.22449 -1.31397 -0.721061 -0.76989 3.07471 -1.21546 -2.08683 2.78411 3.30403 -2.3618 4.08341 0.0142521 -1.40748 -1.76302 2.68609 1.63057 1.60683 -2.80523 3.04187 -2.81719 2.16501 -3.34712 -1.06207 -0.320597 1.1316 -2.65136 -0.831538 -1.28217 -1.22474 0.292215 2.25748 -0.934996 0.779046 1.4839 2.05319 -3.37654 4.0911 3.11444 1.88199 0.722098 1.80129 1.68075 3.94742 -3.33161 3.23572 2.45903 -0.338847 -0.498581 -1.55043 0.769951 -0.400006 0.878048 3.31367 -0.525681 0.765862 0.0376904 -1.62587 -0.862179 -0.154821 -1.22431 1.68221 -1.7015 2.15067 -2.63286 -3.22883 2.28111 2.93512 1.37709 -2.02347 3.98788 2.76305 -1.70559 -1.71749 3.11078 3.62832 3.92978 3.88253 -0.803095 3.50606 3.50911 2.64312 3.00781 0.0249336 3.4073 -3.3415 -2.3914 -1.05164 0.453719 0.0800501 -0.373272 -1.84774 2.75085 0.411969 2.11386 -3.21479 2.94086 -3.53957 -2.54833 0.301431 1.86099 1.1203 -2.2598 -2.95025 1.51997 0.190832 -0.900021 3.11267 1.33998 -2.59459 1.33326 -0.92645 0.594775 -3.13556 -2.62322 3.41139 0.985351 1.05713 -2.01517 0.197668 -1.70962 -0.339274 0.0809656 -0.205542 3.02924 3.30592 2.21384 0.233375 -2.92938 -2.50731 1.55837 1.96609 2.1334 -1.15259 -0.105563 -2.32615 -0.894589 0.906369 1.00714 3.82321 0.129856 -2.38511 2.93799 -4.34568 2.38688 3.7286 3.5331 -1.70791 -0.486495 0.303506 -1.28004 -2.33659 1.59792 2.46556 -2.04721 -2.08628 -2.31553 1.64278 0.262368 -0.996033 -0.270913 -2.54869 1.34993 -2.81957 1.94009 1.42103 1.16144 2.00363 -1.5555 1.74697 -3.62136 -3.37892 1.21632 1.25831 -0.731925 2.97668 3.20136 -2.21268 -2.68053 -1.36256 0.581835 1.12964 -0.882015 -1.06653 1.1142 1.78091 0.882687 -2.91015 -1.52168 1.63894 -0.889584 -1.95614 3.57546 -2.14237 -2.23612 -3.36634 0.713736 -3.95804 -0.561449 -0.154759 1.61928 -2.03201 0.948729 -0.195227 -2.79553 2.0206 -1.23127 1.20539 -1.95871 -4.46941 2.76708 1.85525 1.46663 3.20502 1.67061 -1.96738 2.26463 -1.16895 4.69817 1.33992 -1.14087 0.448164 0.796625 0.73748 -2.04312 0.17008 -0.0754112 2.45225 -2.4243 0.848689 -0.188574 -4.5576 -2.60179 -3.23719 4.63848 -2.89044 -1.61306 -1.47548 -0.927976 2.94409 0.597949 -2.614 -3.90622 -1.20972 -2.86761 3.13672 0.0571611 -0.57683 3.16175 -1.2223 3.41408 2.11838 -0.0367748 -3.83828 0.547044 0.906491 -1.0918 -4.21567 3.14411 -1.80007 -2.66662 0.91644 -1.44685 -0.523606 1.23841 3.26124 1.55641 -0.290567 0.743584 0.330058 -1.0022 1.23322 1.24964 1.71798 -0.294229 1.72591 -1.76882 2.46886 1.14417 2.00516 -1.39436 2.71978 1.23347 0.31724 -1.38588 -0.191382 0.775323 -1.18989 1.1518 0.0345775 2.92175 0.878231 -3.51717 -3.74154 1.12403 1.06549 -0.716605 -1.46907 3.99948 -1.785 -2.05814 1.93478 0.553697 -0.449446 -2.93774 -3.17151 -3.80404 2.38182 3.10224 -2.31651 -3.01416 -0.884152 -1.91543 -0.306131 -1.45387 0.266335 -2.6765 3.35499 -0.917905 -0.854793 -1.90298 -1.80911 -3.05548 -1.07385 -2.7929 -0.174352 2.17222 -0.233741 -5.63509 1.57814 0.451521 -1.32557 -2.66308 -3.22657 2.93402 1.81191 -0.210547 -1.04224 2.3455 1.91592 -0.227821 2.20023 -1.17585 -1.46992 -0.226173 -1.32563 1.93014 -0.267556 -1.71023 -0.295572 2.25657 -2.95416 1.84133 -0.537706 3.08759 -3.77993 -0.623279 -2.494 -2.46727 -0.427778 -1.99771 1.34486 -0.416547 -1.42628 -2.02902 -0.780694 -1.47853 2.37016 1.87204 2.28312 1.12201 2.92334 -0.0442823 0.375835 1.08814 -1.53963 -3.46425 -1.42738 0.150121 -2.07956 1.39949 0.698721 -1.72543 -1.91574 5.16907 0.99469 -0.587939 2.07431 2.54979 0.1254 0.22898 -1.08557 0.401776 2.71215 -3.74538 2.83612 -1.42561 2.58177 -1.11426 0.015778 -1.56215 2.91882 -0.318033 1.43684 -2.94562 1.50484 3.3943 1.55678 -0.0788904 2.2382 4.15915 1.47261 -1.77413 1.11634 -1.7007 2.26951 -2.44768 -0.128147 2.16807 1.23988 1.97177 -0.553209 2.47136 4.66173 2.4575 -1.50264 1.51155 -0.177526 1.56429 -0.891415 -3.21595 -0.0228584 -0.696402 0.917173 -2.63189 0.926756 2.15799 1.81893 -1.4532 -3.09369 4.16758 2.45714 -0.902951 -1.53212 -1.96957 -3.32636 2.68255 0.0481277 -0.848811 -2.88592 -0.20774 1.90597 0.575732 0.1713 -0.342509 2.12015 -0.249245 -0.544176 -1.41255 2.147823 -0.954283 -0.0149846 -1.83853 -2.08066 -1.02747 -1.73177 1.71157 -1.6993 -1.95718 0.487838 0.537889 0.0342113 0.199988 -2.04642 -1.70833 -1.57613 1.76193 -1.97531 0.962401 0.304666 0.812677 -0.319254 -1.0907 1.69906 0.982666 1.93655 -1.62709 1.03314 -3.44905 4.28117 4.90454 -1.40205 2.81127 1.33345 -1.84982 -0.0544755 -1.36494 -1.10096 0.430402 -0.0962248 -2.82659 -2.38182 -1.45381 0.902829 3.6321 -2.61028 3.25813 2.29514 -1.94351 0.760491 -0.135105 2.36082 2.07138 2.46715 -1.66884 1.683 -0.49968 1.31831 -1.60903 1.58205 -2.18552 3.60298 0.0709555 -1.70351 -1.65926 -1.78628 3.07019 0.596423 0.170263 0.674551 -0.569689 3.51918 -0.297769 -1.74514 2.9389 -0.0881069 0.763054 -2.63579 -0.301248 -1.52651 -2.76208 1.40986 -2.6964 -0.0242621 3.14948 -3.69301 3.0575 -1.64071 -3.87576 1.83023 -1.32838 -1.61446 -0.814692 -0.010651 -0.11655 0.537339 0.802057 0.62389 2.42833 2.84991 0.143895 -0.603137 -1.19544 -3.63381 -0.532334 2.37962 -2.73028 1.89908 2.58159 -1.58608 -0.495956 -3.21143 1.31751 -2.56072 -1.61989 3.34663 0.956603 -2.02835 -1.72488 1.66701 -3.46193 -4.07773 1.36317 0.499985 -1.00501 -0.0543534 0.326029 -1.13117 -0.950377 1.49873 -1.08002 2.12156 -0.191137 0.805536 0.834101 1.1034 -2.00284 -3.0885 0.280618 2.13889 0.762383 -0.987243 -3.2486 0.507859 -0.00607318 -4.74773 -0.617481 -2.89294 1.09003 4.16916 -0.641346 -3.01764 0.112156 -1.0166 -2.19944 3.41865 2.26286 1.91494 -0.430281 -1.72329 -0.373699 -1.28938 0.427229 -1.73598 1.10669 2.57823 1.98746 -0.17423 0.505051 -0.291971 -0.0992157 0.344096 -0.331339 1.57253 1.7065 2.33567 0.65331 -1.80923 -0.212928 0.32963 -0.165868 -4.4547 -0.129856 -0.880306 -0.0958587 1.33876 -1.49251 -0.927183 0.695059 2.27738 -4.02634 -2.81536 0.761895 -0.930174 4.01987 3.56862 0.665517 -3.6708 -1.08045 2.06583 3.89316 1.56319 1.24696 -1.33546 0.350505 2.44218 0.821223 0.413861 -1.6307 0.533067 0.257118 -1.47707 0.161596 2.68438 -2.44108 -3.66988 -1.33973 -1.74825 -0.806208 -2.16886 -3.31422 -0.64922 -1.91574 1.45326 4.37394 -1.67605 1.95523 -1.23737 1.80148 1.61122 -3.52602 -1.20612 0.750359 0.209082 -1.37696 -2.3126 -1.45436 -0.0917081 -1.26405 -1.67763 1.90371 -0.504685 0.643971 -0.365825 -0.268166 0.106723 2.36247 -1.6971 -1.18665 -2.07694 -1.24207 4.50005 3.31672 -0.609241 -1.36464 4.38102 -3.93277 -2.8421 -0.321879 3.0119 0.517747 -0.0863369 1.68227 2.41789 -2.64599 -1.68477 1.52107 0.43791 2.67949 0.19541 -3.72164 1.07819 1.70461 -2.7683 -2.01395 0.0473952 -3.10828 2.2711 -1.59554 -1.83578 2.48399 -0.50914 -0.71514 0.322733 -1.64321 0.590259 -1.4518 -1.29676 -0.865231 1.19477 -2.17911 -0.0804773 -4.49492 -3.33613 1.76162 -1.21729 -2.3314 -0.511521 0.620228 -1.62191 -0.135289 1.46461 2.46416 -4.86444 1.90848 -3.16663 -1.49043 -3.41566 0.676504 1.57344 3.99771 0.478378 -0.519883 1.03076 2.0477 -1.01947 0.262368 3.07929 2.932 -3.40608 0.556078 0.993774 2.20359 1.52583 4.14249 1.22675 0.118198 -0.82873 -0.654408 -1.72671 -2.21305 1.40834 -2.0983 -0.184729 0.494919 0.387371 0.338908 2.32939 -2.37199 2.50462 2.80798 -1.65291 1.64125 -0.753532 -2.70232 -4.44426 1.50703 -1.40791 2.17789 2.92578 3.08289 -0.335978 0.998657 2.05307 -2.16703 0.308939 0.495346 -1.09589 0.345561 0.303629 -0.27543 2.15159 2.07578 -2.13462 -0.721732 -0.715873 1.76168 -1.83749 2.50749 2.68572 3.94284 1.50472 1.69564 2.86346 -1.97781 1.90768 1.11975 -0.98297 -0.689322 -0.286172 3.9346 2.13535 -1.51552 -1.03882 2.81774 -1.19269 -3.09546 -0.815485 -2.68273 -1.06372 -1.77596 2.33775 -0.167638 1.5428 -2.27201 0.524827 -0.830195 1.84506 -0.158483 3.2284 -2.38749 -2.19382 1.24183 -2.28111 -1.56301 3.33076 0.0154119 -2.66173 -0.183081 2.30241 2.29411 -0.661122 -1.94876 0.650563 -3.19129 -3.02832 -1.94461 2.62951 -1.19959 -0.49443 -1.95077 4.50017 1.72231 0.868587 0.38316 -0.196448 -1.82675 -1.40138 1.43898 3.40999 0.499619 -2.21073 0.540697 -3.46779 -1.49849 -0.280862 -3.18348 -2.10532 2.68261 -0.147557 -2.05295 1.23762 0.480209 0.898984 -2.26481 -3.64803 1.91421 1.61892 4.44237 -0.17069 0.0901822 3.0625 2.8197 -3.28968 0.995605 -3.07123 -2.22105 1.22889 0.0279854 3.73702 -1.36415 1.82754 1.68905 1.48781 -4.13474 -1.35731 -0.114475 2.51463 -2.69323 0.639271 1.27302 5.20173 3.756 0.585803 -0.920469 0.262246 0.87994 3.0578 1.8475 -1.73672 3.39534 -0.345683 4.53142 2.08304 2.44438 -1.3805 0.387738 0.989136 0.109287 -2.94971 3.0965 2.02689 -4.00143 -3.11524 -0.450545 1.40309 -2.15226 0.85406 0.744987 -0.448042 3.06696 -2.41465 -2.77599 -3.42543 -0.823481 1.482946 2.48991 1.73519 0.0669272 0.52263 -1.15796 1.70376 -1.98068 -3.7101 -0.931516 3.23328 0.426924 -0.782952 2.42912 -1.0434 1.15058 1.43739 -3.62978 -2.00644 -0.547472 2.30583 -1.59114 2.05246 0.436872 2.81964 -0.381939 0.71569 1.94443 0.691275 2.16025 -1.40193 -2.17032 -1.73824 2.2971 -1.93875 2.56554 2.44005 -2.68017 0.175573 1.10755 2.85858 -0.165746 -2.3842 -1.04218 -0.569506 -4.16233 -1.82308 -3.63259 1.49709 0.0287179 0.599414 -2.39006 -2.24796 0.78222 1.39021 1.26887 1.13099 -3.7687 0.327372 0.4738 -0.146825 1.8934 1.33589 1.02344 0.803278 3.27369 0.421735 0.332133 -1.56001 1.88949 -4.64763 1.13923 1.42012 2.14835 0.771538 -1.08405 2.1243 3.5201 -0.567492 -3.08826 -0.72631 1.43861 -2.75585 3.77163 -1.17725 5.37226 0.808832 -0.332743 -0.683035 1.49818 -0.853572 1.87716 0.90466 2.42302 2.28965 -0.246925 -3.81448 1.38014 0.435102 0.010712 2.09049 1.34712 -1.65493 -1.71792 2.97223 2.51805 -3.32185 -2.13291 4.10105 0.569079 2.94391 -0.377056 1.74935 -0.846065 -0.234474 3.9252 -0.945494 1.06854 -2.86242 2.64342 -2.15622 3.51967 0.369671 0.0644246 -0.38377 -0.0636922 -1.60213 -3.29786 1.8594 -2.23539 -1.84225 -1.06696 0.896908 -3.32313 1.70211 0.391217 -2.55022 0.638173 1.75149 2.06485 2.10001 0.265236 2.36869 -0.97235 0.843379 -3.08356 -1.56215 0.745842 1.92135 2.94971 2.64391 -1.10389 2.1157 -2.41612 3.63137 -2.3676 -2.30314 -1.19245 -1.96243 0.241188 -1.78719 0.762627 -1.91678 -0.882077 -1.69796 3.05042 1.40883 -2.99103 -0.27427 -0.608814 0.844356 0.449751 0.798639 2.07718 2.80181 -0.659658 -0.587451 -0.344523 3.97427 1.5967 -1.16511 -1.71999 1.03211 2.8117 0.473312 0.167821 -0.996948 -2.13376 -1.2074 -0.400922 1.0224 0.428022 0.57152 -2.10312 -0.857356 1.2721 -0.313578 3.82632 -1.11121 -2.63457 1.60988 -3.15326 1.2472 2.65044 0.812006 -0.339579 0.776177 0.462813 1.25159 -0.512436 3.52406 -3.47243 -0.855586 0.512619 -0.555773 4.46361 0.195715 0.93469 -3.00592 2.73791 0.486679 -2.94006 2.60405 3.00861 -0.801202 -0.122105 0.704703 0.789361 2.36784 4.55089 3.00317 2.37828 -2.15036 4.26243 -1.31172 -3.01733 -1.30805 -3.14167 -1.738 -2.01559 3.09253 -2.28306 2.67479 0.276711 0.136448 -0.712455 -3.54012 -2.38707 -2.50078 0.735222 2.55181 2.90686 0.300088 -1.87234 1.47121 -0.584277 3.29548 0.603565 -1.42451 -0.248451 -2.3986 -1.04218 0.0497758 0.651845 -1.86947 0.0824915 -2.66686 2.45018 0.928465 1.7018 2.66723 -0.817927 -5.39589 2.83563 -0.548692 2.26908 -2.9649 -1.56764 4.09665 -0.290933 -0.46202 1.60829 1.05951 -2.27982 -2.30863 1.92648 1.75045 -1.23005 -1.00073 -0.84051 0.99884 0.927427 -1.41945 0.968993 -4.23515 -1.52089 3.07489 1.94009 -0.215369 0.743461 1.94864 2.40898 2.8366 1.02026 0.394085 0.522141 -3.68361 2.61772 -0.997925 -4.03775 -0.191565 -4.11234 0.402875 0.779962 2.33976 -0.78692 2.05667 -0.231727 1.00574 -2.1204 1.38606 -0.181372 2.65569 -0.226234 4.43547 0.693289 1.32173 -2.15983 0.242408 2.65435 1.08338 0.241188 -1.88284 -0.614612 3.05322 0.15067 0.00643941 -0.356365 0.169652 0.122715 -0.863521 -1.92026 -5.51234 -3.02734 -0.877255 -1.33637 0.651418 0.107395 -3.27088 1.15278 -1.76138 -2.75964 -3.5309 -1.95871 -3.33552 2.43443 -1.76669 2.4268 3.33082 0.402081 0.131199 2.23289 -1.29279 2.00943 -0.263405 1.22474 -0.962951 0.912595 -2.07694 -1.74569 2.34874 2.27189 0.474837 -0.824885 0.463973 3.47554 3.66414 0.860714 0.691458 -0.187231 -1.01984 1.76693 1.88797 -0.964721 3.19953 -1.52467 0.582202 -2.25913 -1.01947 0.653371 -0.159276 -2.48003 2.176 -0.129612 0.572069 3.80136 -2.95355 -1.29261 -2.05399 3.33302 -0.436201 3.59597 -3.37202 -2.75945 1.99142 -0.174047 -0.495651 -2.40562 -1.06946 -3.84066 3.5942 -1.57356 -1.9819 1.48537 -4.16971 -0.864986 -0.535081 0.956481 0.401532 -0.787347 -0.380779 0.0446486 2.33769 -1.76321 -1.2505 -0.0505691 -0.969542 -3.94235 4.22422 -1.19831 -1.62484 3.12629 1.28504 4.09757 -2.77984 1.89187 2.59758 -3.20258 -3.18665 1.21619 0.763482 4.53624 -1.06891 -3.26704 -3.01099 -1.63015 -0.62035 3.09754 -1.90915 2.50761 -1.44575 1.05585 1.03034 -2.54057 -0.255654 1.28175 -0.838252 2.03958 -1.12665 1.90756 1.38398 2.66399 -1.64272 1.69411 -1.61837 -0.624378 -3.22468 -2.22465 1.14264 -0.957762 -0.966857 -2.08621 -0.0583209 1.15424 -1.28816 -3.79537 0.976196 -1.32997 -0.712699 0.168126 -1.15912 -0.661 1.90872 2.16465 -3.96902 1.94406 0.422102 -2.9273 1.66005 2.8985 1.3285 1.1662 4.57884 -0.363445 -2.63726 2.12613 3.08545 2.23496 0.380901 -2.87042 0.413312 -0.299844 2.24351 -1.05072 2.18174 0.364849 1.142238 -2.99884 -0.999145 0.823054 1.74239 -0.719718 -3.58449 -1.15119 -0.228797 0.120334 3.37745 0.732597 2.16916 -0.285073 -0.570177 0.470626 0.0615558 0.337443 -2.20231 1.2508 2.29911 -2.80126 -3.43434 -1.33345 -2.43876 -1.12055 -0.866634 4.09946 -0.0390331 1.27107 -1.863 1.70669 -0.171117 -0.0303049 2.02127 -4.54698 2.37132 -0.94525 0.453108 -0.377545 -0.114719 3.19245 1.76205 -2.75408 0.221046 -2.99982 -3.40651 -0.111667 -0.824336 0.611682 0.968627 -0.77514 -2.48863 -0.623035 2.92969 -4.14994 0.279458 0.637745 -0.0351268 1.7546 3.14075 3.5154 1.399 3.90555 1.37117 -1.3553 -1.06641 -0.627552 -1.76217 3.79952 -2.47063 -2.56737 2.43229 -5.66305 3.81527 -0.906491 1.25129 2.40922 -1.78884 1.47169 -0.788873 3.86795 1.95584 -2.53557 -1.21717 2.81213 1.2212 0.152196 2.93487 -1.29499 -0.493393 0.368389 0.17423 -1.99429 2.49651 2.875 -2.23075 -2.75152 -3.42891 1.58052 3.84396 -0.490219 -2.84289 1.24018 0.0307932 1.19868 0.10477 2.07163 -2.62932 3.10895 0.280374 0.727714 1.14624 0.671743 -3.43837 2.06284 -0.66686 -2.65648 3.42293 -0.872982 0.365215 -3.93167 -1.70461 -2.16874 -1.10822 -1.24653 -1.10407 -0.283608 -2.78008 2.69097 1.70534 1.26447 1.12793 3.86941 1.78756 -0.807306 1.73659 0.108432 1.13623 4.16385 4.12809 -0.045381 -2.26408 2.35166 2.39616 0.276772 -1.47395 1.30067 1.82015 0.49852 -1.54634 1.51625 1.8453 -1.59578 -1.19477 0.220923 4.56017 1.45772 -0.999023 -1.28187 2.35752 -3.43135 -2.95581 1.79855 1.46675 4.24839 -3.19184 -1.37416 1.04376 0.0853603 -0.647633 1.54176 -3.49165 -0.511521 -1.54927 2.22538 -1.18604 0.623768 -0.473861 -0.353374 0.339091 1.49098 0.171056 1.24903 1.08753 -3.92569 3.44795 1.80203 -0.116367 -2.49608 -3.84707 -0.643727 0.253517 1.16688 1.2342 -1.25513 -0.325846 -2.29539 0.545457 2.06253 -0.11655 0.836482 -2.86645 0.564196 0.93585 -0.0589922 1.23469 -0.581103 -3.30934 -3.65896 1.17646 -2.24406 -3.57723 -0.776971 1.36897 -0.557909 -1.75838 -1.87045 2.57237 3.02753 -2.9953 -0.0332957 2.63097 0.294656 0.417646 -0.542467 2.85815 1.85311 2.00174 -3.01544 2.26218 -0.786798 -3.37587 -5.24494 0.797845 1.77767 -2.72954 -0.770867 -0.164647 0.189551 0.753838 0.745048 1.0296 2.47203 1.04157 -1.71621 -0.220618 2.39982 -2.10477 2.30766 0.465133 -1.46266 -2.49699 -0.393353 -2.34922 1.38392 2.79614 1.10022 2.43761 -0.939879 -1.86166 -3.4792 -1.84121 2.97583 -1.92801 -1.07642 -3.39985 -2.08402 -1.18867 0.95819 -1.06207 3.98227 -3.8312 -2.1616 -1.425 0.825984 -3.39735 -1.04932 -1.92819 1.61367 1.07343 1.03345 -0.649342 -2.84057 -1.60469 -1.12732 -0.633473 -0.337077 -2.22629 -1.55763 0.430952 -1.50972 -2.78954 2.43413 -4.62645 3.4358 -0.52916 -2.88958 -3.26612 -0.0994598 2.29417 2.42058 2.16495 -0.570849 -1.46077 