1 0 0 0 0 0 0 0 0 0 0 0 0 0 0 0 0 0 0 0 0 0 0 0 0 0 0 0 0 0 0 0 0 0 0 0 0 0 0 0 0 0 0 0 0 0 0 0 0 0 0 0 0 0 0 0 0 0 0 0 0 0 0 0 0 0 0 0 0 0 0 0 0 0 0 0 0 0 0 0 0 0 0 0 0 0 0 0 0 0 0 0 0 0 0 0 0 0 0 0 0 0 0 0 0 0 0 0 0 0 0 0 0 0 0 0 0 0 0 0 0 0 0 0 0 0 0 0 0 0 0 0 0 0 0 0 0 0 0 0 0 0 0 0 0 0 0 0 0 0 0 0 0 0 0 0 0 0 0 0 0 0 0 0 0 0 0 0 0 0 0 0 0 0 0 0 0 0 0 0 0 0 0 0 -4.358 0.293451 -1.59137 2.25966 1.40628 0.502533 -1.79789 1.84763 3.05232 2.39178 -3.11641 2.26379 -0.108356 0.197928 -1.27301 -2.76145 -2.42169 -0.0778374 -1.65561 -2.41159 2.20574 -0.841014 -2.17427 -2.0771 -2.19323 -1.27618 1.48087 -0.456847 0.285088 -0.0142062 -1.53326 0.685979 -0.692878 0.31164 -2.91966 -0.230553 2.19201 2.52713 0.999252 -2.2033 1.32287 1.80216 3.25015 2.57471 0.118153 -2.13274 -0.812233 -1.09749 2.08861 -1.03566 1.26495 2.38821 2.0139 3.44168 0.873302 0.0476851 -2.22942 -1.60422 1.04002 -3.6565 -0.158528 -1.72779 2.2572 -3.18078 -2.96489 2.82282 -1.77182 -2.01439 1.45465 0.333491 1.81196 1.61557 0.237297 -2.47399 1.94331 -0.897382 0.102466 3.03881 1.8166 -1.95882 0.238793 -0.107227 1.10704 -0.317164 1.5579 -0.14568 -3.48361 -0.573702 -0.150075 2.09111 0.422208 1.99727 1.87141 -0.962146 -2.09118 0.471923 -0.105487 -3.1292 0.969832 -0.194296 -1.2488 1.50128 -2.84807 2.01783 1.90272 -0.5094 -1.56769 -1.30969 2.56562 1.79923 -1.39828 1.93904 2.42612 -0.232688 -2.05876 -2.48941 0.972761 1.24221 -2.52948 -0.836345 1.98015 0.252159 -0.45053 0.987656 1.17443 2.13543 1.11364 -1.18123 -2.38979 -0.468291 2.32861 -2.59128 0.794839 0.140858 -0.0621509 -3.50103 2.08333 1.65421 1.09258 -0.537996 -0.615391 -0.23278 2.93828 -1.33835 0.703101 -0.321314 2.74472 -0.808573 0.549684 -0.01854 -1.14318 2.14565 0.753514 -0.647374 1.2503 2.07967 -3.29476 2.94893 0.969435 -3.1837 -0.436552 -3.08824 1.23458 1.25503 0.454771 -1.10586 2.49399 -1.66407 -1.801 1.00588 -0.794933 1.82343 -1.40707 0.0924562 -2.37329 1.05617 2.77931 1.74949 0.399838 1.32589 -1.26354 -2.02028 -3.79728 -1.96071 1.41837 2.8983 -2.74089 -1.68055 -0.423918 -2.60654 -2.01988 -0.797708 1.79164 0.149251 0.523988 -3.91447 0.75663 -2.06554 0.550661 -0.413785 0.326532 -1.43341 -0.0418256 0.461211 0.380428 -1.54431 0.874919 3.75068 2.0201 2.13329 -2.30367 -1.204 -1.86344 3.6756 0.44232 2.29336 -1.12077 0.424894 -1.783 0.0345623 2.05443 -3.08418 2.05653 -0.504822 -1.01201 1.41305 -0.0609606 -1.07653 0.88255 -0.034196 -0.754524 -0.911115 1.19845 0.388669 1.44544 1.34328 1.09304 1.06927 1.29614 -0.84559 -1.55292 1.01457 0.330072 1.76524 -2.48993 -0.96104 0.915448 1.13747 1.69693 -1.49963 -0.328791 -1.16653 1.56421 1.49396 -0.485015 1.99516 1.50275 -3.09652 1.12896 1.07274 3.17055 1.22405 1.12123 -3.53541 2.20364 3.55493 -0.332789 0.719093 -1.76725 -2.32364 -1.08989 2.45843 2.7385 1.60996 -2.09791 -0.321925 -2.22655 -3.42911 1.36862 2.58277 0.0883056 0.72364 0.0748161 -1.3937 -1.31402 -0.36349 -0.921433 -0.216666 1.34174 -1.1473 1.64811 2.11837 2.11479 0.475707 -0.872598 2.11483 -2.61304 -2.81998 0.529939 0.11919 0.458403 2.55225 -1.85704 2.63416 1.22839 -1.83397 -2.07888 0.260613 -3.00108 -0.695562 2.95442 0.42114 0.926769 -2.27526 -0.212485 -0.476104 0.156301 2.38421 -0.123799 -0.277428 1.1675 -0.476654 -0.0421309 -1.07311 -1.63386 2.01927 -2.3804 1.22252 2.45056 -0.590152 0.846599 0.355098 -0.415891 1.50195 0.826915 -0.564974 3.9073 -0.0378887 -3.19881 -0.480468 -2.58463 1.80271 2.23156 0.226249 -2.25811 -0.835093 -1.92482 0.0388957 -2.13198 2.30804 2.44378 0.456602 1.29864 2.20971 -3.57434 -1.35421 0.731544 -0.316462 -1.63962 -3.24874 -3.24865 1.42111 -0.664098 -1.48022 -1.41876 1.86308 2.20058 1.39571 0.42172 1.30773 0.862899 3.74345 -2.59207 1.16109 -1.83497 -0.647132 -1.28045 1.73698 -2.89002 0.884777 0.870006 -1.48889 0.722296 -1.58978 -0.290093 -1.76286 1.32543 -2.29549 -1.82615 1.82984 2.51739 0.447325 2.30379 0.42233 -1.37677 1.98802 -0.422849 2.50424 -2.09151 -2.16863 1.07509 1.54379 -2.66718 -2.49823 -0.482299 0.00550853 -2.87339 -1.06288 1.70182 -0.835429 -3.02977 -1.9236 3.36789 -2.37264 -2.94008 -3.21019 0.0323953 2.96245 -0.16335 -0.187094 2.81278 2.34948 0.665166 2.83671 0.777566 -0.347132 -1.7599 -2.5853 -0.145283 2.82463 -0.998033 -1.16057 0.826274 -0.957533 1.34453 2.64548 -0.557863 2.49356 -2.10646 1.89607 1.18661 1.2033 1.64087 -2.09004 -1.27709 -1.17769 -2.78901 -0.416837 -2.44653 0.773293 1.04592 -3.03777 1.92375 0.665715 0.784616 1.22723 -0.500458 2.38366 -2.37576 0.737159 1.8542 1.75547 -4.06184 1.298 0.290826 0.207815 -2.06316 0.306635 2.0353 -2.68616 -0.350215 -3.07192 2.32879 0.639011 -0.9879 1.96309 -0.547029 1.79213 -2.66435 -1.44107 -0.782937 -0.910779 1.94535 -3.57428 1.93889 -1.2672 -1.73746 1.70844 -1.54795 2.91645 2.11987 2.17312 -1.82881 -0.241173 -2.4194 0.8661 -3.25967 -0.525605 -0.944559 2.89857 -2.69351 -1.31335 -1.01488 -2.48667 -3.06096 0.289667 1.88166 3.09425 -0.767616 0.764905 0.000930503 0.267113 1.62253 -0.639622 1.43378 -0.24279 -2.55423 1.03636 -0.107685 -0.849895 3.27453 -0.415555 -0.0234229 0.22164 -1.4421 -0.171987 -0.800758 -3.01552 1.10332 -1.69174 -2.44778 -1.88453 1.42306 -3.63715 -1.1035 -1.08779 0.484466 -0.99617 -0.0474409 1.44308 -0.108783 1.49948 0.179251 2.0392 0.02617 -1.93123 3.316 2.7916 0.189443 2.59366 -2.12688 2.20446 0.261437 -0.247551 0.351375 1.66367 -3.07702 -0.512086 -1.53028 -1.12456 2.96348 0.206992 1.18554 2.93388 -1.29352 -0.374722 1.78599 -0.832468 -0.91173 0.662053 -1.16564 1.43112 2.41632 2.28628 1.25002 -2.01258 -1.65949 -1.27301 1.30337 3.64558 -0.929823 0.95207 -3.18914 1.30398 -1.63547 -1.18398 1.307 -0.439391 2.33114 -2.20571 -1.52542 -3.45806 -2.43857 -0.301416 -0.380947 0.610355 -2.36392 -1.71272 -3.53757 1.1024 2.53037 -1.82475 0.0434735 -0.239525 1.95024 -0.0536062 -3.00148 0.00581359 -1.86619 2.87965 -0.986892 2.71666 1.14491 -0.808664 0.717871 0.662939 -0.808507 0.202261 -2.18777 1.25579 -0.996933 -3.66571 -2.29772 1.76856 -2.20617 -0.656774 -0.57648 -2.31674 -0.153127 0.694281 1.14144 1.32174 -0.754219 -1.51355 1.00145 2.41506 0.792001 2.83332 -3.38357 0.769265 1.63132 -0.898237 -0.0305643 -2.31619 -2.37323 0.922105 -0.98854 -3.72358 -2.99382 -0.630528 1.74275 2.37344 0.316248 1.22658 1.04762 1.12069 1.21419 -0.268059 1.07619 -2.02769 1.12984 0.72193 0.443846 1.2113 0.327235 1.56953 2.03691 -1.34073 -3.60291 -2.16949 -0.298029 -1.26589 0.713782 0.000259014 1.60169 -2.49243 1.88532 0.286034 2.51694 -3.07866 0.72898 2.80699 0.879348 3.81883 -2.19628 3.1205 1.81172 1.94548 2.03096 2.48728 1.95958 -1.42144 1.43274 -0.222068 -1.60267 1.93865 1.52276 -2.57086 0.384365 -0.960128 -2.62296 2.3537 1.25884 -2.86192 -0.0811636 0.213004 0.245994 1.42926 -1.55399 0.956531 2.46469 -2.84452 0.935896 1.03548 -2.08968 -2.22125 -0.844432 0.19689 2.70158 -0.629185 0.110004 1.2623 -1.63663 1.88364 -1.14095 -1.19878 3.43594 -2.54819 -2.7631 2.10225 -2.81531 -1.61618 -3.50034 -0.650822 0.697577 -2.00014 -0.560121 -1.59085 -1.85472 0.971175 1.99068 -1.86256 1.49145 2.3182 0.859967 0.607272 -2.57059 -0.278528 -1.78235 -0.831888 1.83091 0.30636 -3.02712 1.74223 0.482849 2.5513 2.66913 1.26153 -1.60071 1.48114 0.53061 2.65604 1.48523 0.800088 1.68943 3.29477 2.83503 -0.880535 0.12685 -1.71085 -0.552095 1.938 -0.64246 -1.4353 -3.3594 0.529237 1.38995 -3.8947 -2.06295 -1.60389 1.99224 1.27755 -2.2806 -2.55735 -2.20217 -1.3573 -3.58012 2.52579 1.27905 -2.8401 3.53437 1.53711 -0.879376 -2.81059 -2.76096 -0.321619 1.02599 2.1993 -3.10628 2.07823 -2.51432 0.584841 1.20913 2.41418 -1.45889 -1.49475 -0.638096 2.69083 -0.929152 0.144368 0.839547 -3.16689 2.63767 0.299982 -2.70685 0.252006 1.4191 3.71171 2.18273 0.0328528 1.26134 2.02949 0.493194 -1.08791 0.380398 -0.167135 0.305994 0.689764 -2.25384 -0.396817 -0.496918 3.23873 0.679144 1.05897 0.389645 -1.23339 1.69178 2.75724 2.51086 -0.51471 2.10454 1.37006 -0.550234 3.34466 0.468322 -0.459014 -1.11538 2.98714 3.32696 -1.273 -2.3146 -2.42013 1.34467 2.93354 1.33505 -2.32027 0.339564 -2.25262 0.451811 -0.213218 0.242881 -2.42179 2.69877 -2.25543 0.525514 -1.49429 -2.14285 0.642858 -0.883404 -0.350704 1.34918 -1.62287 -0.65186 -1.54087 -0.0134124 -2.47702 -1.04442 0.838023 2.23204 -1.31744 -3.33218 -1.50097 -1.25131 -2.04475 1.41424 0.466674 1.5246 0.694769 0.683747 0.125874 1.34851 1.20296 3.06529 -0.273125 -1.07829 -3.47901 2.49979 1.75074 -0.614719 -2.02797 1.27886 1.04292 -1.45477 0.611575 2.31597 -1.87974 -1.42462 -0.756935 -2.27328 0.55945 -1.51984 0.154073 0.245293 1.86881 0.0993226 2.22836 0.5112 -1.24429 2.93354 -1.40704 3.75516 1.19222 -2.42538 -2.54676 -1.08171 -0.816629 1.0204 -0.72571 2.73283 -1.34942 -0.345882 -1.03576 -3.20272 -1.67066 -2.82621 1.21535 0.17803 1.09294 -2.75251 -0.339747 -0.435209 1.60492 1.18035 -0.00144959 1.51846 -1.29177 -0.629765 -3.25011 2.83305 1.45807 0.839182 -3.20849 -0.448119 0.201163 1.61484 2.33386 -1.33618 2.61289 2.2488 -1.50812 -0.987747 -1.90693 -0.750374 2.11088 1.44837 -2.56805 1.7154 -0.00383035 2.76081 1.1476 1.94106 -1.78898 -0.590182 0.404996 -3.71067 1.59409 -2.39761 0.921278 1.10104 -0.847728 -2.26654 -1.23785 -0.0744499 -3.51074 -0.271324 1.4396 0.859903 -1.07805 2.31988 0.211936 -0.732917 -0.557161 1.78157 -2.00227 -3.33575 -1.81541 -1.83665 1.80503 -0.943433 -1.45681 0.546755 -1.91368 2.49973 -1.38623 1.35775 -1.07762 -0.828654 -2.89985 -2.7306 2.44254 2.73695 2.34872 2.72287 0.38815 -1.71726 -1.33431 -1.4039 -0.775427 -0.393155 -2.42349 2.06007 -0.29165 -0.857616 2.17696 1.14064 1.31466 2.29702 2.23977 3.03087 2.4342 -1.50879 -1.77342 -1.32513 -3.2575 3.67359 1.86763 0.660345 -3.34991 1.59564 1.4577 0.947218 1.23809 -2.37012 0.533662 0.466857 0.587221 1.40716 3.08199 -1.87852 0.905618 0.0593436 -2.06286 -1.78519 -1.63898 -1.65281 3.52567 0.845317 -1.97435 1.45243 2.61103 -1.70518 -2.16393 2.71836 -0.801461 -0.0593742 1.9807 1.11925 0.252953 -0.273461 2.61307 1.73835 1.38828 -1.28017 2.30535 0.0380413 -0.817056 -3.21175 -0.858257 0.201071 -1.71998 -0.0720696 2.86231 -1.67322 2.92518 -1.72916 0.960584 1.76096 0.101429 -1.69153 1.14376 -0.658147 1.91518 -1.64392 -1.94068 1.84394 -2.60886 -1.20495 -1.30367 0.399685 1.33179 2.12084 1.36697 3.1819 -0.604861 2.32803 0.672735 -1.87446 1.05376 -2.33392 -3.63456 0.973559 -0.41641 2.29501 -0.493775 1.42502 -3.25716 1.87113 -3.17183 0.668889 2.29808 0.598331 0.71305 -1.91747 3.05001 -0.228446 0.682775 -2.62042 1.51931 0.346248 0.816935 -2.01628 -3.05327 -1.43585 0.9991 -1.08544 -0.237327 -2.83177 -1.59989 0.963178 2.1845 -1.7649 3.10371 -0.560397 1.09725 -1.84156 3.2803 1.27636 -1.12618 0.814402 -2.18316 -0.23748 0.290491 0.439939 -2.191 -0.301569 -0.806192 2.25448 1.81712 3.24404 0.0778069 0.35754 -1.6999 -0.753243 -0.777531 -0.066118 -3.87236 2.33148 -2.44332 2.29393 2.57895 1.52734 -2.10555 -1.21331 0.732155 1.72074 -1.29284 -0.889599 0.657839 1.7089 -1.91676 -1.9438 -0.689395 3.14022 1.03523 -2.78574 2.53843 -2.88069 0.807688 -1.3261 -2.89594 -2.23904 -0.656747 1.2496 2.13585 -1.53 -3.43567 -0.736885 -1.09728 0.233207 -0.375912 0.413724 2.33087 0.701544 -2.21526 -0.231956 -0.841258 1.34424 0.08034 1.39914 1.14418 2.4573 0.41705 2.70813 -0.775399 2.30557 -1.73024 1.95875 2.03886 -1.81846 2.63266 -0.944323 -2.28299 -2.33801 -2.62625 0.0986816 2.34484 -2.15868 -3.34085 -1.25823 1.00493 1.82738 1.59305 1.89372 -1.19036 2.27489 2.73756 1.78327 -2.17824 -0.755776 -4.33447 -3.07091 -1.72419 -0.837385 1.20247 -0.962295 -2.99465 -1.83086 -1.48715 0.366879 -3.52026 -3.37259 0.691348 -0.41818 2.36053 -1.91655 2.00866 -2.36285 -3.02141 -1.54495 1.47509 -0.284082 -0.353664 -1.27269 -0.127278 -0.244927 3.20064 1.94285 1.91573 -3.40777 -1.30855 -0.239372 1.69251 2.26113 -3.3796 2.37207 1.04839 -0.530854 1.63093 1.04799 0.064684 -1.21145 2.06191 2.10561 2.28792 -0.409787 -0.730598 -3.43122 -1.13228 1.25448 0.121235 0.310816 -2.73899 0.687597 1.57074 1.95307 0.654455 3.67637 -0.280969 0.307306 -2.23583 2.11122 -0.730812 -1.36019 -0.828288 -0.387539 -1.22317 -0.461486 -3.15542 -0.416929 -0.389889 3.66471 1.00633 1.23016 2.01668 2.17091 -1.99284 0.57535 -2.78885 2.06771 1.35305 -0.00444073 -2.1136 0.315638 -2.45233 1.31518 1.05226 -0.0696585 -0.0907468 -0.00898742 1.61301 0.876293 1.00889 0.412718 1.58707 -1.96553 -0.104053 2.85603 -2.62479 0.0220191 -3.23779 -0.88435 -1.01692 -2.85203 -2.7996 3.35348 -0.393277 1.28472 -2.28381 -0.812086 2.48376 0.935464 -2.35303 -2.43847 -0.579531 -3.71812 2.14705 -2.58655 -2.10301 -2.5086 -1.60905 0.690188 0.160512 -1.93577 -1.34344 -2.27447 -1.79105 0.503296 -1.56143 0.521638 -2.92339 0.0883969 1.25396 -1.03997 -1.6785 -0.965804 1.29104 2.47757 1.12654 2.8145 -2.43771 2.23486 1.91639 1.93409 0.714301 1.3106 0.90028 -1.07122 3.15196 -1.04656 -2.55759 -1.12486 -1.36611 0.420346 1.67149 -0.808359 2.99589 -0.565461 1.23003 -1.98854 -2.84581 0.794931 -1.426 -1.09032 1.05293 2.165 -1.27163 3.26437 -1.29729 3.57727 1.90156 -1.96629 -2.02559 -0.321101 -0.130299 -0.767952 -1.70027 -2.74385 -2.46643 1.88154 2.93647 0.0624561 1.55667 -2.27398 -0.0464642 0.484649 3.48728 -0.514736 0.596072 1.08129 2.27612 1.93034 3.17907 -0.482025 -1.4089 0.564211 -2.82573 -0.0640129 0.837412 -0.813731 2.6421 -2.71671 -0.711676 -3.87754 0.662999 -1.3601 -2.76445 -2.59638 -2.06966 2.06902 0.560732 -3.32854 0.156148 -2.97667 2.6395 -2.90486 1.44702 3.84221 -0.0202185 2.07826 -0.691809 0.362972 -0.495087 1.03734 2.42999 3.18932 -2.11678 -1.9633 0.914292 -2.36535 0.814096 -1.44559 3.09657 1.8835 -2.32485 -0.833109 -1.38089 0.393399 1.43704 -1.57037 -3.08614 -0.925123 -1.74817 -1.26333 1.74833 2.27664 -0.378567 -1.56003 0.992477 0.108233 2.55301 -0.990311 -1.73585 0.133503 -0.394772 1.51654 1.60574 -1.03694 -0.763467 2.21804 0.8502 -1.2214 0.354946 0.529054 -1.165 -2.67905 -2.51926 -2.84071 -0.884014 0.370999 0.428587 -1.30304 -2.66068 1.25685 -3.09084 -0.579226 0.930128 -0.582492 1.96538 -1.37631 -1.75095 -0.445281 -1.3587 -2.77473 -0.122425 1.40299 -2.20311 2.95796 -0.814157 2.65033 0.468871 -1.0949 -1.15948 -0.957777 -0.312616 -1.32308 1.40752 3.19625 -0.843974 -0.00129683 1.7071 1.16106 -2.30438 -3.00129 2.07735 1.2538 0.866043 -1.02568 0.201621 -1.80131 -0.335932 -1.08358 -0.342311 3.10989 -1.28897 -0.422941 -2.15734 -1.66272 -1.16884 -1.64249 -0.568331 -1.28201 -0.571321 -3.19851 1.02565 3.25567 2.57105 -1.02922 3.14544 -1.23535 -0.817855 -0.510254 2.22781 -2.49209 2.25527 -1.46527 -1.22106 1.36054 2.48673 -0.44644 2.3428 -2.47153 -0.757637 -0.00608791 2.44033 1.35754 -0.740485 0.822733 -1.86439 1.25936 -0.00944529 -1.88142 2.38513 -1.71052 -1.00343 -1.4833 0.826062 0.405423 0.29577 -2.21016 3.16128 -2.06096 -2.92753 3.34362 -0.205344 1.3124 -1.34475 -3.08974 -0.122394 1.52896 -0.833018 2.22146 1.41577 -0.528504 -0.243644 2.93861 -2.40002 3.53845 0.815256 -1.37332 -2.98662 -1.3522 -1.91136 -1.9506 -1.13005 3.14433 1.08388 2.56702 -2.05559 0.634495 1.68336 2.91978 2.3486 1.2879 -0.628819 -1.82215 -2.19463 2.63129 -3.02468 2.13771 -1.41293 3.36667 -0.665807 -1.05327 0.763313 3.24893 -0.206931 0.238823 1.92137 -1.45093 -0.0618454 0.559663 3.01432 2.13766 1.47064 -0.634766 2.49057 0.718173 -1.36734 -0.626194 -3.63542 3.24179 2.08636 -1.44845 -1.61752 -1.96395 -0.346523 -2.48398 2.93892 -1.32262 -0.174185 -1.36511 1.90299 1.13726 1.4462 -2.39517 0.0096595 2.23763 -0.529145 -0.210562 1.96986 -2.05748 -0.781014 2.09813 1.95786 -2.47992 2.01271 -2.31274 0.633152 -2.89702 -1.38244 -1.73405 0.351527 0.682531 0.388882 -0.716192 -3.28054 0.0648364 -1.47406 -0.211722 -2.84498 -1.17952 2.3486 0.226615 -0.398465 2.76112 1.9926 -2.02281 -0.939283 1.97108 -0.560517 -1.10833 0.0924861 -0.0719167 1.28033 -0.374477 -2.05529 1.74262 0.121967 -2.95647 -0.535035 3.04753 2.04338 -0.521943 -0.549318 1.56867 0.00624063 0.120258 1.59732 1.9112 -3.37317 0.330623 -2.30422 -1.41413 1.21667 2.14323 -0.758919 0.81449 0.494262 -0.248405 -0.897258 -0.860973 0.879829 -0.747475 1.41724 0.371273 0.775796 1.4309 -0.642583 -3.09084 -1.2626 -3.13261 -1.06566 -1.04439 -1.05367 2.15093 -0.509766 -1.33233 -0.11507 2.47149 1.03425 -2.23108 3.62556 -1.61475 -2.91634 0.65598 -2.36538 3.02193 0.160481 -1.46969 -2.49713 -1.47802 1.6041 0.58771 -1.49591 -3.01436 -0.146077 1.79374 0.389858 -2.29022 -1.14107 3.27966 -2.67085 -1.00063 -0.228752 -1.11132 -0.605746 0.331447 -2.42169 -1.09603 0.502838 2.1541 -0.169332 -0.512085 1.22192 0.10152 1.12267 -1.13167 3.33797 -1.09426 1.48016 -1.20259 -1.39773 -1.21132 -2.6861 0.319025 1.55557 0.610996 -0.907119 1.37329 -1.161 0.564303 -1.60602 1.27022 -0.101764 1.68549 1.4867 1.56354 -1.51413 1.97328 1.10515 -1.64246 1.86896 2.39102 -2.43234 1.57443 -1.85215 -1.46634 2.89797 2.2177 -1.40662 0.24453 -2.89845 -1.83924 2.40646 -0.0418256 -0.737037 -1.50863 0.808845 -0.945845 -1.3937 -2.05565 1.87025 1.00203 0.188376 1.45352 -3.02288 -0.421721 2.37259 -1.64652 -1.64853 -1.06413 -0.258385 -1.7349 3.52371 -2.18898 -1.39191 0.190268 2.16652 0.643315 -1.22432 1.85463 -0.800851 0.89375 -4.29238 1.82218 0.561315 -1.65684 1.76271 -0.580233 0.569948 2.64795 -0.352901 -1.00249 -3.73786 1.93785 0.749367 -0.441893 0.629643 0.736641 -2.49765 -1.71195 0.152394 1.98536 -0.559907 1.01942 1.53815 2.45041 -1.9044 -0.845439 -0.928022 -1.70237 -0.59595 -2.91425 1.48468 -1.88475 -0.237236 0.638951 1.74402 1.16259 1.4061 -0.425138 -0.323816 -1.86979 -0.750099 1.6793 1.82502 -0.808298 -2.13524 2.46923 0.450712 -1.37411 0.731422 3.05315 -0.918683 1.79361 -0.565436 2.16979 -0.484466 -2.2502 1.95525 0.942183 0.689612 -3.72959 0.711737 2.37469 -2.68973 1.57748 -1.48798 -1.87505 1.66236 1.54169 2.06764 1.5842 0.495697 1.64643 1.2303 1.79261 1.39908 1.49091 -1.39539 2.22808 -1.43353 0.117084 -0.305048 1.99044 3.36199 1.93916 -2.76056 -0.578921 0.589694 0.557802 -1.10701 1.68397 -0.123981 -0.75834 -0.0909607 -0.659551 1.06819 -2.64545 -2.01799 2.45069 -2.94374 -1.48801 -2.09728 -0.769448 -0.0716426 -1.25286 -0.81486 -2.20312 -1.14272 -0.5318 2.31988 2.0323 0.634586 -1.51209 -1.18914 3.09865 0.249382 -2.0938 0.651526 0.635228 -0.573977 2.12831 1.39688 -1.83286 -3.48065 -0.202597 2.48758 0.758645 -3.31918 -0.0723746 -0.019364 2.44245 1.69657 2.01149 -0.651829 -3.54578 -1.59516 -0.61002 0.492645 -3.19234 -0.896985 -1.33694 2.64215 2.23528 -2.15655 -3.57776 2.27713 3.03203 1.03032 1.08617 -2.25246 1.83009 0.220817 1.12157 1.73557 -3.16445 3.53882 1.43042 0.219565 2.56165 1.60346 -2.81663 2.09707 0.582645 -0.615086 -1.11644 0.122089 3.35116 -0.112385 2.93816 -0.687658 3.59659 1.07118 1.521 -3.51513 2.34732 0.913281 2.01045 2.07381 -0.898632 -2.97816 -2.22417 -1.1136 3.17952 1.70231 -1.39547 -2.04118 1.78935 -1.11538 -1.46115 2.15932 1.83693 -1.17901 -0.584811 0.701636 2.0107 1.95482 0.879284 0.223503 -0.826823 0.869915 2.16148 0.584902 -0.408567 -0.272362 0.393857 2.04314 1.03459 0.0952633 -2.25194 -1.03841 -2.72605 -1.42645 -0.821177 -2.29198 1.01381 1.12907 -0.950088 0.898449 0.784097 1.53857 -3.57224 -2.35797 0.829264 0.850566 0.32226 -1.05418 -1.47876 -0.72953 3.65455 -2.06691 -0.670935 -2.62372 0.236076 -0.967914 2.87666 1.06978 0.539522 1.79219 -1.88035 -2.82808 2.53848 -0.51706 1.17312 0.0649584 1.40472 2.13378 1.81968 1.29168 -0.663057 2.1668 2.23233 -0.486389 1.30886 -0.715981 -2.06087 -2.25991 2.01061 0.762794 -1.43398 -2.7721 -2.22795 -2.1874 0.383267 0.962721 -0.255669 -1.84278 0.192496 2.12645 0.122486 -1.51099 0.581149 2.45703 -0.309778 -2.03874 2.07802 -0.0922421 0.468962 -0.634556 2.24001 2.51133 2.75117 -0.842693 -2.79741 -0.145924 3.29897 1.98338 -0.276268 -1.93089 0.991928 -1.13372 2.25262 -1.24569 3.70136 1.70521 0.0569929 -1.28353 -1.32534 0.244591 3.93611 1.95698 -0.786756 1.1726 -0.445646 1.79524 3.91831 0.501557 -3.0754 -2.4555 -0.706 1.88731 -1.92637 -1.35894 -2.01634 3.04545 1.41995 -2.36511 -1.5781 -1.0815 2.89576 -1.05168 3.18468 2.75211 -2.65519 0.807504 -0.183126 -1.26507 -1.77295 1.25598 1.42193 -1.64005 -3.8401 0.652653 1.78852 0.162068 0.330226 -0.437101 -1.65591 -3.01067 1.30508 -1.55093 -1.29171 -1.53625 -2.7238 0.06505 -0.866924 0.78724 1.26549 0.963548 2.60786 0.549868 2.3248 1.01921 -3.08697 -1.30355 -1.73695 2.37716 2.40106 -0.692663 -2.07262 -0.269371 -3.21321 1.35031 -1.4262 0.33578 -1.26842 -0.941817 0.356471 1.66767 1.49545 0.0922422 -3.53241 2.12667 2.44651 -1.85874 -2.04088 0.698309 -3.29703 2.12059 -0.223807 1.9774 0.692785 1.61899 0.0366069 2.45502 -0.0920285 2.75748 2.08358 -0.515962 -2.35925 -1.8907 3.34744 3.82191 0.977035 -3.15645 -3.45749 -0.839917 0.831553 -0.256646 1.23678 1.54828 0.305811 2.25853 -0.683294 2.11324 -1.85081 -2.75285 -0.609866 -0.0123447 -0.39581 -2.43622 2.64624 1.8458 2.41931 -0.851512 0.212729 2.96025 -3.69355 0.7739 -2.46103 0.180044 -1.36941 0.108814 -1.16704 -1.25891 1.6059 0.249413 1.08846 2.31023 1.78407 -2.61923 -0.269005 0.174307 1.1155 3.71809 2.41342 0.976944 -2.63648 -1.60993 0.993393 1.91057 0.153188 0.417478 1.2249 -1.23095 1.4357 -1.55777 3.19198 -3.23 3.65174 -3.6337 -0.981582 -0.451292 -0.629399 -3.44503 -1.11354 -2.76783 0.693187 -0.241508 -2.11076 2.00233 -0.809184 1.41501 -0.244285 1.04747 0.670812 0.481719 0.974285 -1.68341 -0.456694 1.45975 3.34939 0.976088 3.07296 2.76255 2.51883 0.97908 -0.702639 0.0857113 0.467803 2.65198 2.89293 1.93675 2.5669 0.704168 -1.23275 2.97859 3.16631 -0.430204 -0.335078 1.34274 1.27911 0.483581 3.56015 1.57162 -0.616825 -0.80021 -0.875678 2.34182 -2.12697 -3.238 0.0476239 1.62772 0.194204 0.224601 3.49228 2.46167 1.18975 -0.261346 -0.534821 -3.05507 2.6915 1.90345 0.385708 -2.33254 -3.11431 1.79249 1.6333 -2.809 -2.513 2.55997 -0.646702 1.75523 -1.75151 -0.967541 -2.69422 -2.14198 -0.157765 -2.80467 -0.965102 -0.128407 1.63898 -1.02516 -1.85743 -1.65433 1.42108 0.227866 -1.05302 3.15871 0.556978 0.342066 2.30685 0.168142 -2.33041 -0.645817 -1.10735 1.52274 1.33285 0.990554 1.68784 0.285699 -0.180197 -1.46073 -0.00291474 0.530396 3.44445 2.95931 -2.25115 -2.43744 -1.48202 -1.87102 -1.63248 1.42614 2.45807 -0.352443 -0.999832 -0.652169 2.07909 0.0882136 -1.62153 1.27846 -0.40527 2.11492 3.09566 -1.8162 -2.63431 0.364742 -1.41861 -1.75193 -0.0781424 2.50638 -3.4443 2.63676 1.29171 1.37667 1.24093 1.9839 0.169607 -2.3955 -3.88405 0.254662 1.95164 -1.3732 -0.506164 1.14138 -0.827768 -0.495941 0.699072 1.64911 1.37331 3.44019 2.1349 1.02736 2.93464 1.41342 0.0118259 3.70258 -1.10131 1.82682 1.02678 0.369991 -2.67682 0.579837 -2.23104 -1.10039 -0.813761 -0.528321 -1.86433 -2.78739 -0.616703 -1.65913 1.54041 -0.214774 -0.159505 -2.15355 -1.809 -1.06572 1.2799 -2.70038 2.22363 -2.45459 2.66553 2.44851 -1.02992 -0.607028 -0.136463 2.62586 2.14156 3.71564 0.544529 1.16366 -1.79075 0.196219 1.86323 1.48154 2.76523 1.01112 -3.05697 -1.24471 1.13906 3.09524 1.70109 3.57196 1.06112 -1.71384 -2.96159 -3.52344 2.64325 -1.49634 -2.06475 0.820475 -0.535187 -1.3858 0.473449 0.810129 2.04466 -2.85579 1.32543 -2.82872 -0.52295 -2.50461 -0.26513 1.32958 2.51611 2.81611 0.524446 -1.4866 -0.112048 0.189321 -2.84196 -2.31075 -1.88581 -0.709697 1.39468 -2.268 3.62396 -1.82893 2.55582 0.737251 -3.56003 0.329096 -0.0505235 -3.11574 -0.780374 -1.28603 -0.528779 -1.24736 -3.07484 -1.16896 -0.0799738 3.50037 -2.08287 0.596347 3.05818 0.810097 -2.25994 2.09993 0.945814 -2.99126 -3.61194 -0.0666068 0.583712 -0.732398 -1.66913 0.239036 2.39179 -0.712256 -2.91988 -0.865612 2.55844 -2.62058 3.57873 1.67167 1.78959 -1.66019 1.19143 -3.01512 -1.51099 1.03515 1.58469 0.784834 1.90355 -0.905439 0.266961 0.853649 2.25845 -1.3779 -2.91911 1.69923 -2.57743 2.33224 1.42184 -0.976086 3.12826 1.01457 -0.534699 1.16329 -2.723 1.73625 -0.811594 -0.848034 -0.631016 1.68595 -2.53925 2.57361 -2.42144 -1.93256 1.99015 0.848155 -1.48632 -3.05218 3.40219 2.11815 -1.81205 0.466948 -1.76255 -2.6168 -1.76371 1.31384 -1.85569 -1.95317 -0.0937681 -0.120716 1.05187 2.52283 -2.144 -1.01387 -2.40039 1.0663 -1.70942 -1.39413 -2.3872 -1.51901 0.466277 -0.529877 -1.10418 -0.141926 1.09624 -0.0214697 -1.86888 -1.99437 1.68796 -2.68754 -0.836985 -1.2756 -2.65766 2.16149 2.44605 0.58359 0.0489671 0.9644 -1.05754 -0.64304 -1.99559 -0.922712 -0.752785 -1.22729 -3.0114 -1.23055 -0.777474 -1.26779 -2.6706 0.456755 1.92408 2.65968 1.48517 0.0771355 1.0988 2.13033 -0.221885 2.01533 2.03725 0.441588 1.3106 1.48175 0.0589158 -0.721015 -0.408536 0.753883 -1.58378 -0.866955 -3.09063 -0.81538 -1.10704 -1.37502 -4.0193 -0.615874 -0.116962 -3.60205 1.90284 -1.517 2.22863 1.72715 -1.05364 -2.12032 1.59879 1.50757 -0.78309 -1.61683 -2.3092 -1.22423 0.716682 -0.847972 0.0360877 -0.579592 2.83723 -0.660497 -1.3121 1.23821 2.81623 -0.149312 0.578433 -3.00813 0.187125 0.116108 1.8209 -1.3724 0.755897 0.289484 0.741249 3.30465 -2.86769 -2.22366 -2.08104 -2.60251 0.350703 -2.50265 -1.98024 1.12551 -3.39074 2.79609 0.699743 1.96226 -1.34027 0.393765 1.36279 0.488678 1.87937 -1.69883 -0.946059 0.83961 -1.44619 1.08998 0.268517 0.401913 -0.592535 -1.56803 -1.04332 1.9225 -0.0940126 1.31423 -2.49102 -2.32129 1.36669 3.83061 0.000869386 -1.1281 -2.59216 2.96305 -0.523194 0.89564 -2.23421 -0.746193 -1.44095 2.63785 2.01241 0.776869 2.15786 -3.52658 0.204795 2.31341 1.5676 -0.898236 0.998459 1.14077 0.72898 -0.114398 2.25274 0.33694 -1.06279 1.84886 2.66358 0.00996435 -1.21929 -3.01131 -1.54822 1.35757 2.58796 -0.940322 -1.36032 0.961623 -2.83479 -1.51892 -0.0534532 2.22717 2.10921 -1.46771 2.83497 1.36889 -0.531342 -1.51648 -2.26232 -0.146351 2.04546 1.82512 -2.00066 1.70353 2.10845 -1.75327 -2.43948 2.56617 0.805919 0.526826 -1.08239 0.960492 -2.94355 2.984 -0.610019 1.60093 2.19982 2.65137 -0.77604 1.20898 1.18706 0.826823 0.567873 -0.283441 -1.4038 1.15676 -0.155508 2.26873 -0.751503 -0.0912962 2.55826 -0.0686212 1.7104 1.59055 0.0632187 2.51004 0.461791 0.570925 3.32602 1.38668 0.012101 -0.141835 -1.78639 0.779763 -0.257134 1.69453 -1.6605 1.33523 -0.237602 -0.881142 2.99526 2.45279 -0.44998 -0.841536 1.20211 -1.74497 1.67301 -2.19661 -1.5856 -0.393521 -2.64307 -2.57981 -1.09685 -1.91362 -0.808695 0.760872 2.35201 2.32315 -1.24966 -1.77586 2.69886 1.59641 -0.588443 -3.474 -2.24749 -0.886118 -2.84761 -1.56751 -0.384609 -2.13347 1.6084 0.7154 0.443632 -0.528809 -2.83149 2.98311 -2.42206 0.906049 2.39829 1.5459 2.57446 0.543672 -0.440031 -1.02953 0.16512 0.39056 -1.4758 0.479888 -2.31582 -3.06309 -1.15844 1.85469 -2.0135 1.52509 1.2662 -1.00575 0.392392 -0.360103 1.50455 -1.20907 -2.31179 2.03188 -2.52426 1.47553 -1.28402 0.0744193 1.86329 -0.911237 -1.41919 -1.73524 -2.76328 -0.76136 -2.99001 2.27303 2.52979 -1.20699 1.89338 -2.55341 3.15035 -1.32758 2.53501 3.17745 -3.49099 -1.60923 -2.34799 1.03294 1.24437 1.50811 0.646885 2.06569 0.923994 -0.356074 -1.81461 1.1997 1.50986 -2.78541 -0.384548 2.10347 -0.63892 1.54581 0.25164 1.45736 1.06041 -2.48218 0.0635545 1.01796 0.844374 0.40289 -3.20709 0.388516 0.917494 0.0449386 0.0352947 0.900491 2.4328 3.04335 -0.685034 1.51188 2.42031 0.0943172 -0.313654 1.13115 -2.55756 -2.8531 -2.10957 -0.730537 -0.738715 0.529999 3.60099 0.430357 0.294671 -1.29598 0.787942 -2.8589 2.14648 2.8007 0.732979 -1.96617 -1.01131 1.5962 1.72575 -2.11842 -1.92003 -2.91514 -2.02758 -3.00564 -0.801121 2.30349 0.750801 0.885113 -0.725197 1.56094 -0.662969 1.60685 -2.00218 2.73734 2.74299 1.67252 -1.3124 -2.20065 0.78837 0.958907 0.203757 2.19656 0.543642 -0.495209 -0.821328 -1.71449 -3.32712 -1.3927 -1.64655 -1.5499 1.70926 1.12258 0.298242 1.06142 1.79026 -1.62131 2.2998 0.94377 1.89125 -2.39312 -2.30526 2.4968 3.08178 0.294794 -1.56622 2.13219 -1.16134 2.37048 -2.84807 -0.817331 -1.05116 -0.376186 1.53376 -0.0640426 -1.97169 -0.731422 -1.75257 -0.0476853 -1.80549 1.05562 1.23598 2.32346 0.917829 -0.161367 2.63907 2.02412 -3.41174 0.00331119 1.13418 0.0184488 -1.17535 -2.33712 -2.02623 -0.727974 3.05941 -2.97185 -0.498932 3.33151 1.43026 -2.14287 -1.57553 -1.37973 2.51111 -1.60889 0.636235 -1.88304 -1.09102 -0.316462 -2.15102 -0.438078 -3.73579 -0.272057 0.839427 -1.14394 2.68192 2.28951 0.574923 -0.195517 2.12307 -1.1497 -2.99309 0.86259 0.795297 2.5701 -2.18902 3.03914 -1.93538 0.671696 -2.1444 -2.3847 -1.07426 0.157125 -0.318903 -2.16585 -0.441344 -0.74171 2.7696 0.21572 -2.9926 1.53226 -0.114276 -0.343318 -2.49417 1.00404 3.27337 1.96925 0.487518 3.26516 -0.0147251 3.01533 -0.193655 -2.0678 2.12935 -1.90743 0.204001 1.37625 1.3121 0.729896 3.54984 -2.87917 3.06063 0.545717 -0.110096 -0.173726 -0.49588 1.32757 -0.167409 -1.74626 -1.90218 -3.011 -0.697149 -0.871777 -2.33346 -3.44009 -0.801126 -1.70444 -2.44617 1.86521 -1.02208 1.087 0.155568 -1.95021 -2.29281 1.29373 1.61896 -1.39382 1.6074 0.660864 -3.01103 -2.94087 2.62205 2.30319 -0.415341 0.965651 1.04397 1.95174 -2.118 0.384701 0.729103 0.437437 -2.30816 2.47541 -2.06993 1.31686 1.90681 1.37653 2.27877 -0.954757 -0.397061 1.02766 -1.0479 1.60807 3.77729 1.08348 2.55054 3.01005 1.49912 -3.41763 0.718726 2.5348 -1.23983 1.52216 1.04521 -0.823893 -3.19689 -0.000808483 0.26458 1.15188 2.20971 -0.928576 -1.69852 0.900468 -1.47162 -2.00605 0.18038 2.47385 2.72758 -2.00761 -1.66236 -1.27331 2.24907 -1.77869 2.36557 -0.787815 1.94841 0.0724358 -2.28314 2.1877 -1.30014 0.481475 -2.59266 -0.360713 1.94984 -0.604831 1.23956 -2.27038 -1.00212 -0.947706 -1.41415 3.57648 4.28796 1.23461 -1.74094 -0.235221 2.49026 0.146291 2.50143 -2.49332 -1.34375 -1.92537 1.62409 -0.154805 3.22677 -0.507325 1.32949 -0.185232 2.17299 0.754463 -1.75596 2.96482 3.05769 -2.95537 1.69904 -2.85222 1.28896 -2.26366 1.28148 0.984699 0.356288 1.81129 2.19708 1.90614 2.32403 2.50256 2.96706 -2.81584 -1.6333 1.8138 2.4967 1.85475 1.62733 1.07222 -0.957594 -2.06301 2.17684 3.16897 -1.88826 0.862285 1.3615 -0.351985 -0.174215 1.51044 2.31454 1.2951 1.77558 -3.23513 -1.08593 -2.61512 -3.0963 -3.00737 1.97242 -0.755592 1.44421 0.353328 -2.06844 -1.71576 1.4472 1.3438 -0.146291 -0.839793 -1.07378 1.48724 -0.0197912 -1.78571 2.15353 1.56989 -1.35366 1.85869 -0.86332 0.332545 -0.169332 -1.94661 0.811561 -1.97493 3.11956 2.53623 1.97502 -2.27422 -1.6312 -0.0390175 -2.50476 -0.162435 -1.15364 2.60083 0.82957 0.661412 1.13061 -0.229026 -1.62232 1.4591 0.552858 -1.37005 0.706671 1.90587 -1.53845 3.51227 1.17424 -2.65754 -0.911115 -1.54809 -1.01546 -0.265404 2.30346 -0.948195 -1.79228 1.74064 -0.972766 -1.64658 -2.20833 -3.20245 -0.397427 -0.133717 -2.899 1.63321 -0.115009 -1.58887 -2.98866 1.10521 -1.65327 1.9344 2.09258 2.778 -2.02782 -2.05125 1.91017 -1.8574 -2.77601 1.75804 1.97798 0.885265 -1.13579 -0.880322 0.391873 1.1089 -1.09148 1.50595 0.676612 -0.080309 -1.50092 -0.386716 -0.123371 0.278161 -2.02907 -1.7165 -2.57731 -0.474303 -3.09942 2.48719 -1.19527 -1.50989 -2.58765 2.52762 1.58237 0.578524 3.52603 1.12401 0.765509 -2.23815 1.8263 2.52546 0.0943478 -2.14077 -2.76243 0.314569 0.251335 3.02663 2.18212 -0.940595 1.53668 2.85674 -2.09761 1.46347 -2.96376 -0.00285344 -1.76423 -2.82304 -1.18212 2.6922 -2.38732 2.92171 -2.8198 -1.84636 -0.433744 -0.914986 -1.5061 2.17086 -2.46518 0.443846 -1.34219 -0.141987 1.23357 2.16887 2.70914 -1.04268 -0.618137 -0.230033 -0.387753 -2.40933 -2.93505 1.13734 0.762732 -1.12316 -0.488952 2.33273 -0.765999 0.314692 -1.43426 -1.70804 0.300317 -1.65974 -0.353877 -1.91096 0.265252 1.96453 0.452971 -3.07775 1.12999 -1.10439 -0.774453 2.47779 -0.871624 -1.94233 -2.18309 2.82444 -2.33587 -1.09676 -1.62506 -0.499084 -2.32031 1.43527 -0.0943485 1.94591 2.98622 1.3373 -2.49542 -1.06862 -0.410764 -2.87694 1.53488 2.1552 0.540193 -1.28979 -1.46753 -0.354915 2.34332 1.32168 -2.8766 -2.86347 -1.55011 -0.874279 -0.268762 0.0767084 -1.12551 0.518158 -0.645726 -0.590396 -0.541871 3.45248 2.20156 -0.196585 0.8155 1.72559 -0.541994 0.472716 0.494048 -1.37466 -2.03054 2.25124 0.377438 -2.15478 0.123921 0.0743278 -1.13585 3.07253 -2.29064 2.52621 0.853801 2.15657 -3.96483 -0.394009 0.0692312 1.26443 -2.9091 2.3728 -2.24984 2.92826 0.0294051 1.62269 0.245323 -0.609348 -2.24761 -0.744972 0.537385 2.15792 1.88248 -1.51328 1.23016 -0.839397 1.89842 -0.435636 1.03053 1.43566 -1.28005 -2.86146 -1.7454 1.72901 -0.47882 -0.0494857 -2.60724 -1.06893 2.05189 -3.01033 0.259727 0.746529 -2.74939 -2.22088 0.76542 -0.492371 -1.56772 1.94322 -0.163381 -0.463835 -1.17507 0.714514 1.51935 -0.0395673 -0.254204 -1.46219 -1.20574 2.39364 1.18929 -0.57477 1.13662 -0.620426 -1.88392 0.218436 -1.6492 2.01308 2.21783 1.4173 1.71283 0.638676 2.44271 -3.27153 2.94927 1.0381 -1.93815 2.9908 -3.91399 2.00795 -1.44086 -2.36761 -0.301233 -3.26275 -2.87763 -1.67869 -0.408353 2.89204 2.02079 3.95759 0.442626 -0.194265 -0.352321 -0.331202 0.440214 -2.30591 -0.487915 1.96523 2.44772 -1.71104 -0.0439624 -2.29299 1.72191 1.80418 -3.11611 3.04454 -0.278131 -1.36364 3.28286 3.98308 3.03521 1.71137 1.81312 0.73246 -2.04466 -0.125202 -0.745552 -0.502929 -1.25887 0.242881 -3.91359 -0.141804 2.08735 0.910016 -3.01537 -2.58847 1.84193 0.927412 1.51334 -2.18811 2.49661 -2.04716 -0.201743 -0.118397 2.48486 1.48334 2.45819 0.940719 -2.18181 2.0702 -1.42245 1.01308 -2.90892 1.4316 0.00230374 2.06691 3.38602 0.859566 0.736701 -0.0561389 1.11046 0.834422 -1.27138 -1.8665 -2.70283 0.250694 2.8176 1.05123 -1.60145 -0.841443 2.13188 -3.02733 -1.89494 1.4318 -2.28659 -2.71613 0.222526 -0.736762 2.65363 2.20153 0.135243 -0.100757 -1.48309 2.61957 1.88927 2.51386 -0.657807 -1.75959 -1.57379 -1.3659 1.99147 1.64548 -3.00151 0.0197612 1.13854 2.45877 -1.70301 2.40329 1.67005 0.266747 -0.676824 0.998401 2.78605 0.443022 0.537538 -0.816533 1.57743 1.53851 -0.687628 1.26256 1.36499 2.39273 1.22564 -1.28564 -2.42236 -0.378292 -2.77949 -2.16597 0.45413 -3.36102 2.16833 1.17287 -1.65296 -2.13353 -2.13914 3.68287 -1.08571 0.290002 -0.0321207 0.974293 -0.0279394 -0.981735 1.98542 -0.411313 2.30019 -1.00087 -2.28637 1.69779 -0.828867 -3.4497 0.287744 -0.869335 -3.10649 2.8611 -0.701361 1.13817 0.142659 2.12062 -2.96757 -1.19985 -1.63456 2.43011 -2.63981 -0.519501 -2.96177 -0.846507 2.30923 1.23879 0.0599536 -1.13494 -1.15304 -0.398434 -0.940076 0.547426 1.9109 -2.39758 -1.09523 1.19939 -0.789868 0.495484 0.182516 1.50684 -1.16164 3.04875 2.94658 -0.265129 -1.7801 1.8242 -1.49871 -3.50192 -1.57098 3.35046 -1.48978 1.56171 -0.593018 -1.4064 1.20595 3.33374 -0.88902 -0.365597 -3.01414 -2.79753 -0.871776 1.95469 -1.82401 3.37698 -0.218772 -2.75599 -1.76285 -2.61753 2.25973 -1.87169 2.20553 -0.124531 -0.189932 1.72864 0.637303 1.92375 0.5112 -0.543123 -2.15081 -2.58234 0.670354 -2.04527 -1.27129 -3.2362 2.36889 0.579772 1.89704 1.51566 2.19073 1.3472 -0.490997 0.102649 -0.33874 0.733833 2.46888 -0.689642 -1.56531 4.24948 1.34055 1.66917 -0.249016 0.179983 -2.25975 3.40591 1.20516 2.41391 -2.51428 -2.88221 0.350185 -2.24716 0.288324 0.824106 -0.827922 -0.385067 -0.73307 -0.452238 -3.0367 -1.46231 2.06483 0.089435 -1.37194 2.38625 1.85206 1.1465 -1.04759 -1.32931 -0.00642414 0.433409 2.86576 1.88481 -3.33587 0.960708 -1.77079 -1.73564 1.19366 0.128163 -1.81828 2.87943 -1.58215 2.78971 1.57144 -2.54111 1.82655 1.94294 1.50742 0.862865 -3.2225 -1.79481 1.56345 -2.40228 -0.430967 1.72602 0.660253 -1.70826 2.64392 0.696784 0.1639 1.52857 -1.28888 2.11227 3.225 -0.0512867 2.06411 -0.0600753 1.89616 1.02788 -0.12215 -2.64557 0.0551621 -1.56943 -2.23397 -0.808176 2.6652 1.35412 0.377895 -1.71885 -1.59528 2.76265 -1.68064 -0.190115 -0.801248 2.92134 3.17584 -0.622135 -1.32006 1.13576 -3.07967 -3.1028 -1.88593 3.10103 -0.510956 -0.00541691 0.818919 -2.22954 1.80192 0.0712761 -3.39114 -2.85292 -0.987716 -0.322291 2.29589 -2.09502 2.2687 -0.640967 -2.22195 4.2481 -0.236534 2.62747 -2.25106 -2.09105 -1.64233 0.216544 2.55518 -2.29915 2.55698 1.27868 0.235923 2.52042 -1.87715 1.67301 -2.722 1.21376 -0.898784 -2.99074 -0.88862 0.21041 -2.45423 1.59985 -0.118183 -2.66977 0.722328 -2.02772 0.531098 0.671117 0.0705132 0.107288 -0.286462 -1.01848 -0.290338 3.05113 -2.4183 -1.57181 -2.23653 -2.93883 -3.02559 1.16036 0.290704 -3.05687 1.03389 -0.41995 1.09945 2.73014 0.787088 1.72358 -2.77265 -0.633092 -0.278771 -1.33935 -1.62952 0.55237 2.88509 -2.68286 2.03905 -0.606601 -2.45554 0.628361 0.722755 -1.96706 1.93047 0.42706 -2.15029 -0.0970029 1.1003 1.9777 3.81483 -0.238945 1.45538 0.554751 -0.137775 1.16765 -0.0647451 1.97993 -0.895948 -0.443755 0.428251 -0.481566 -1.54636 -0.441221 0.424375 -1.95576 2.75675 1.73682 -1.55557 -0.121601 1.90016 2.37808 -3.72443 0.20745 2.1826 -2.48566 -0.455779 0.488342 2.72294 -0.184805 0.658518 3.74647 1.19506 -0.485321 1.65217 -2.82935 -1.33816 -1.97062 2.9578 2.91667 -1.20284 -1.57959 -2.35494 0.517396 2.27276 -1.64267 0.152547 0.815592 0.59122 -1.25811 2.04369 3.81608 -2.85002 3.64432 1.82057 0.37106 -0.186758 -1.28881 1.32675 -1.89994 -1.22524 3.7013 -1.23369 2.45413 1.99467 -0.698279 2.8755 1.32568 -2.01305 1.8874 1.27554 -0.882247 -1.75437 -2.62763 -1.46222 -0.328974 3.08299 -2.18316 -0.00596622 -4.04012 -0.832709 -3.06163 2.82069 0.963118 -1.46137 -1.80894 2.43145 1.61225 1.38492 -1.43609 -0.294 -1.77164 -0.642858 2.75544 2.08998 -2.6481 0.70954 -0.116901 -2.90739 2.36868 1.041 0.380978 1.21907 -0.157551 1.92219 0.243766 -3.13774 -0.0392624 1.18951 -2.72767 1.19311 -0.00541746 0.184347 1.47775 -0.428831 1.18428 1.72272 2.2994 -2.48355 -2.04457 1.07345 -1.20553 -0.233848 -3.12939 1.72831 1.45377 -3.54822 2.22274 0.242607 1.8011 -2.0732 -2.32049 -1.06688 0.431547 1.27453 -0.118915 1.70591 3.64707 2.03096 3.39993 1.80338 -0.659581 1.15032 -2.03273 -0.251762 1.29287 1.74644 0.375393 -1.73511 0.530671 -1.35934 0.957228 1.46124 -0.0941342 -1.75215 2.05528 0.052049 0.553376 0.831187 1.37985 1.90291 1.37918 -0.342433 -1.33023 -2.32022 0.241814 -3.91505 2.5552 2.8824 1.97563 3.11241 -0.967632 2.04228 -3.08156 -0.577456 -1.54245 1.37088 -1.90239 -0.545808 0.463225 -1.36605 -4.27211 0.524842 3.70441 0.536714 0.183004 2.5476 0.8419 0.399105 -1.9077 -2.63764 1.6684 1.40509 -2.27785 0.220786 -3.21779 0.202903 3.29489 3.44983 -1.28274 -0.857128 3.40484 1.83131 -1.06649 -1.07052 0.185873 2.72337 -0.424101 -1.02965 -1.61228 0.458129 0.406156 1.20559 3.01561 1.04628 -1.18493 2.69474 -1.30892 -1.28143 3.32195 0.746651 -0.609439 -1.66273 -1.53534 -1.12957 0.71604 1.20833 -0.509339 -0.669347 1.35595 -0.676244 0.751747 -0.414151 -3.10924 1.56891 -1.78962 -0.604679 2.60276 -3.0786 0.964458 -2.12865 -0.560213 0.178701 -1.80644 -0.739296 0.799081 3.23839 1.43945 -2.26403 0.277154 -1.53028 -2.38248 -1.02278 3.0487 -2.79725 0.676 -0.172964 1.02803 0.868511 2.3002 1.79792 1.47112 -3.18142 -0.42639 -0.284966 -2.82853 -0.637581 -2.99934 -1.72422 -0.0898616 -0.956893 -2.20425 0.804391 -0.688635 2.69239 0.846632 0.987717 -2.23488 2.29089 1.25808 1.86824 -1.43051 -1.83317 -1.11767 1.88074 -2.05135 -1.43664 2.74115 2.20843 -2.89362 -2.89427 -2.25305 1.24526 2.9677 0.202597 -1.37051 -1.55905 0.765419 1.90587 2.47384 2.31329 2.13112 1.26974 -2.22539 -1.09334 3.84178 0.7313 2.41686 -0.51999 1.88197 0.549532 1.48321 -1.29537 1.97743 -2.1686 1.30126 1.15215 -1.74595 0.178365 -0.369869 -0.645451 1.18133 -0.518708 -0.601108 -1.77991 3.45443 -0.100818 -0.102771 -1.91963 -3.02745 1.54868 -0.170125 0.156666 -2.4306 -2.06035 -0.863382 2.7212 1.65116 0.684881 -3.01238 -1.2618 2.39868 2.51681 -2.14168 -0.734779 -1.30837 -1.85847 1.08998 0.393399 -0.590579 0.964461 0.844097 2.01213 0.26336 2.21188 0.85481 1.17578 -1.17888 -0.510956 -2.11412 2.35626 1.87446 -0.702826 -1.69932 -2.63947 -0.189291 1.54752 0.64832 -1.80275 -0.858595 2.59836 0.673528 2.66865 -0.154408 -3.14937 -3.34212 -0.0240943 0.684209 0.431547 1.49622 2.11294 -1.8596 -1.00609 3.41574 0.33343 0.145009 2.17086 -3.25539 -2.52838 2.23904 2.70875 3.63569 2.39728 -0.666631 0.813765 1.14931 -3.61362 1.72101 -2.25677 1.60809 0.690802 2.49533 1.1726 2.6204 2.08416 -1.96513 -0.633427 2.68812 -1.33117 -1.29192 2.6918 0.798227 3.72477 -0.545503 -0.504425 -1.09154 0.877453 2.39981 0.887708 -2.27002 -1.62613 -0.83958 1.4508 -0.282159 -2.2607 1.99352 1.41674 0.669988 -1.39834 -2.55197 -2.66556 1.84516 3.96413 -3.32321 1.76576 -3.99507 -3.29654 -0.940564 -1.96516 0.285913 -2.41735 -2.70219 -2.4313 1.30608 -0.450834 2.63956 2.8545 -0.582766 0.609134 2.3822 -0.451902 -2.49661 -1.94554 -0.681036 0.764656 -1.76432 -2.67624 -2.72067 1.08113 -0.812204 2.28 0.42111 -1.7161 3.72001 -1.81544 1.43179 -0.608524 0.0358135 0.152302 0.29345 2.98305 1.3197 -0.63773 -0.230979 -0.634312 2.36083 -1.18663 1.26525 2.61191 -3.43149 0.900096 -0.771676 1.9943 -1.21105 -1.40811 0.729713 -2.14468 -2.17715 -2.50134 0.39758 2.43816 0.05974 2.60104 1.3501 -2.28885 2.12463 -1.07262 2.28622 -1.27977 -1.04802 1.96187 -2.60785 -1.50568 0.189261 0.0585803 -2.78135 -0.958021 3.33462 -2.34963 2.18273 -2.53467 -1.48016 -1.47247 1.85548 0.724555 -1.65867 -0.029496 2.68864 2.08473 1.64505 2.01827 2.33569 -3.22512 -3.32632 -0.34875 3.22637 0.891886 -0.517945 0.173086 -1.45199 -1.92186 -1.97536 -0.430173 2.29321 -0.991409 2.82536 0.128834 2.52518 1.21285 1.63102 1.09957 -0.476379 -1.73154 -2.04036 1.67567 -3.03804 -0.106647 -1.05281 -0.918714 1.77311 -1.02959 -1.60159 -1.95754 1.8625 0.0352338 2.44888 -0.577028 -2.67725 -1.74244 1.74678 -1.6915 0.306665 1.44809 -2.44428 -2.67963 1.21353 1.12175 -2.30975 -1.56336 1.34744 2.15026 -1.31518 1.10606 -0.298365 2.03151 -1.89192 -1.06596 -2.9723 0.311426 1.42438 -2.27853 -0.15807 0.186575 -1.68936 2.13869 0.527864 -0.18102 -0.164327 -0.185019 2.19354 -2.60321 1.40424 -1.87306 2.43249 2.46874 -4.12163 0.463622 1.65314 1.58606 -0.222556 1.25167 -1.87376 1.7819 -1.03767 -2.47784 3.41138 2.92055 -1.28371 1.29983 -0.686222 1.44605 2.62125 2.59457 -0.965224 -1.43662 3.14132 -1.72095 -2.33673 -0.617862 -1.68442 3.63208 -0.326624 3.05379 0.471282 1.82789 -2.42337 -0.564638 1.35733 3.15615 -2.60786 -1.69032 0.611331 2.24999 -0.916179 3.69218 -0.0392926 -0.894329 0.62827 0.258018 -1.93333 -0.825236 2.86238 1.42031 2.41842 -0.690252 -0.227104 -1.91231 2.18023 -0.156758 2.38156 -0.362972 -1.59809 -3.41464 1.87919 -0.870891 -0.503967 1.01705 -2.82749 -0.700476 1.38806 -1.53955 0.492584 -3.64246 2.2481 -2.48626 -0.776712 -0.878765 -2.79161 -2.47913 1.60956 1.5228 0.97319 1.36829 1.49664 1.01375 -0.273125 -0.616855 2.75901 -0.0980404 -1.75107 -1.38351 2.57596 1.15248 2.63871 1.29268 0.208243 0.679693 -0.442198 0.706213 -2.56607 0.668828 3.39764 0.345973 0.297357 -0.0493336 3.27477 -1.46823 3.32897 -0.0336161 0.265495 -0.661596 -2.10631 0.350032 1.78059 3.0953 -0.178365 0.662267 -0.510498 3.23696 -2.02406 -3.69437 -1.2995 0.790388 1.92165 -2.84705 -0.39877 1.27749 0.33987 0.918745 2.26736 3.31366 1.35654 0.807169 0.844158 2.68781 0.430845 1.46618 0.80961 0.198599 1.96647 2.78034 0.722999 -1.96489 -1.69966 1.53074 3.36517 1.97704 -1.7769 0.457793 2.68003 1.19933 1.68961 2.75391 -2.58124 0.962997 -0.124988 -0.480071 2.89658 2.96956 1.23428 2.2156 -3.23366 -0.336116 -1.28338 -2.36556 0.217338 0.266991 -1.20174 1.43744 1.50257 -1.18459 -1.51736 0.772039 -1.79716 0.994004 1.93015 -0.987533 2.13429 0.0411242 -1.13137 4.1488 0.303613 0.505066 -0.554628 -0.141866 -2.18096 -1.86185 0.673834 0.790685 2.16225 -2.29519 3.13265 -1.90437 -3.27212 0.987904 1.07216 2.72752 3.03816 -2.22814 1.58664 3.55435 -1.46573 2.0894 2.00609 2.80757 1.35904 2.50464 -1.83485 0.899212 2.02703 0.721442 -3.29363 -2.86082 -2.60331 1.29503 -2.92925 -1.61368 1.84794 -1.27343 -3.66358 -3.84165 -2.93251 1.7266 -2.44247 -0.758736 0.356471 2.92222 -1.23794 1.31878 3.85816 -2.20391 -1.736 -3.33761 2.61741 2.13402 -1.5542 0.408017 -1.12374 -1.23806 -1.33099 -1.54944 -1.48724 -0.141987 1.46643 3.4909 0.0270244 -2.38394 0.674811 1.26257 -0.0169532 -2.45517 1.66349 1.47385 0.313135 -2.81721 1.3135 2.49033 -0.612308 -2.48993 2.9073 1.29718 1.26083 2.84025 3.57953 0.764382 2.99467 -0.530915 0.492676 -3.24822 -0.529572 0.868298 -3.61417 1.0833 -2.4067 -2.30279 -2.34082 -0.0800958 -0.706824 1.42212 0.647129 -1.43289 1.23363 -2.18413 0.235649 3.24215 -2.36965 -1.87132 -0.514649 2.83711 -2.91197 0.201345 -2.59146 -0.792157 -2.13964 -2.68988 3.56388 -1.98185 -0.559084 3.02074 -0.381435 2.67301 -2.11083 -2.16869 2.54181 -0.630558 0.800882 -2.10827 0.577608 -3.19988 0.325434 -3.42792 -1.34134 -0.463409 0.139943 1.16866 0.41586 0.626194 3.78263 2.52542 -0.560427 -1.56766 -1.7439 -1.14855 1.94978 -2.74766 1.30318 -0.480682 1.52854 -4.26107 1.26232 -1.87895 1.07656 2.66205 0.910901 -2.4342 -2.35625 1.03804 -1.80088 -0.499542 2.2948 -2.83928 3.28545 0.832532 3.66217 -0.436033 2.77336 0.63889 2.3478 0.444395 -2.43652 1.24022 2.82407 0.58304 -0.779028 0.722266 -1.00584 -2.71186 1.2658 1.68637 1.06661 -0.602515 -3.70414 0.508728 -0.0989871 -1.13442 -0.654912 -1.10796 -0.519654 -0.0259255 1.38324 -0.0118873 0.66541 -0.311914 -1.63486 -0.12508 -0.108875 3.19796 -1.26329 1.66788 0.956679 -2.82841 -0.200857 -1.95323 -2.43249 2.7522 -1.15688 -2.5178 0.787423 -1.17043 1.45651 -2.06359 -1.94756 -0.379147 -0.0899223 -0.67154 0.908124 0.086993 2.03343 2.53693 -0.879254 -1.78135 0.479065 0.226371 -1.67451 2.72358 1.78907 -0.721869 -3.13964 -0.855963 0.164083 3.10372 -3.05175 -0.0607774 -1.65442 -2.3746 1.88035 -0.440794 -1.48535 -0.794351 1.35623 0.0462508 -2.38543 3.30135 -1.35824 2.1928 1.00459 -2.8687 1.69428 1.78517 1.84779 1.13326 -0.0838491 -0.0305338 0.144429 2.49277 -2.30764 3.2658 -1.18813 -1.47348 0.366207 3.26413 -3.27926 0.2004 0.810801 -0.465667 0.0911436 3.56217 -0.746406 0.779768 -1.84145 -0.626652 -0.49176 0.765023 -3.48877 -1.28145 0.270989 -1.94746 0.0100865 1.87477 -0.362393 2.07558 -2.30822 -0.779367 2.49842 2.58017 1.56799 -0.529114 -0.0353862 2.96913 0.720466 -2.98899 1.48596 -0.424742 -0.396817 0.618442 -1.18731 -3.59967 -3.04509 -2.651 -1.53949 -2.65445 -2.77088 0.872294 -2.16707 0.468199 -1.05156 0.0323341 2.65842 -2.70362 -0.111011 -3.07836 0.897931 -1.27016 1.50049 2.24453 -0.219138 1.56079 0.469543 0.251244 -0.878309 -0.855629 1.83201 -0.971144 0.578097 -1.74775 1.53946 0.424649 -0.995987 1.63782 0.887339 -0.61478 -0.445097 -2.65509 -1.2879 0.995499 -0.299707 3.29516 -2.24083 1.9926 -0.197104 0.176686 -1.86543 3.04259 -1.58426 1.17641 -2.76051 -1.4433 -3.04192 -0.422453 1.10051 0.329982 1.92487 -2.2412 -2.50448 2.78339 -1.71717 -0.374874 2.78825 0.0916316 0.216239 -0.997968 0.870247 -3.02461 -0.128285 1.02238 -0.875805 0.442686 0.262169 0.0405138 -2.19194 1.25595 0.985425 1.10152 1.7717 2.41306 1.91307 0.499146 -0.093341 -0.584749 -1.49386 2.45324 0.243217 1.6095 1.91624 -2.56439 -0.908735 -2.61603 0.521027 0.180593 0.139913 -0.501312 3.06194 -2.09429 0.916335 2.33112 -1.97237 1.7783 -0.486511 -0.680731 2.45141 -2.84407 -3.00908 -2.61484 -2.23263 0.635655 -1.64432 2.6156 1.89265 -1.56143 1.53024 2.98461 -0.817973 -1.83388 2.21151 1.3988 -1.58081 2.45435 2.03044 0.84672 1.49518 -3.43875 -2.08421 2.93141 -0.0656911 -1.58236 -1.93037 -3.43102 0.920333 -1.8304 1.45938 0.137532 -3.01811 1.74925 0.234672 -2.1506 -0.00785851 1.50009 1.97453 2.63868 -2.36056 2.39169 -0.829845 3.33511 0.0238498 -0.148427 -0.149861 -0.587069 -0.461516 1.75053 0.755684 -0.906232 1.68907 -2.43368 -1.03081 1.08092 0.00923163 0.262413 -1.59388 0.71351 -2.27129 0.90962 -0.927625 -0.184469 1.34933 3.58426 -1.50259 0.0239114 -2.21621 -1.42797 3.24612 1.87699 0.218803 1.41095 -3.08278 -0.556673 -1.64863 1.80076 1.5357 -3.22674 0.160329 -2.08348 0.740974 -1.04671 3.86757 2.15132 0.683843 -0.954391 -2.75761 2.82121 -2.96788 -0.30575 -2.08691 -3.13271 -0.00547806 -3.32244 -1.17012 -0.919171 1.76893 -2.81034 -0.452177 -0.114978 0.320032 0.131519 -2.52215 2.20589 2.89421 0.193075 -2.23465 -1.53888 -2.82487 1.0075 -0.0481432 1.20077 0.491425 -0.840068 0.07622 -0.572787 -2.02504 2.3295 -1.62817 3.13143 -0.914197 -0.652501 -0.785196 1.06881 3.39901 1.4549 -1.51825 -1.68424 1.0699 3.53507 -2.02895 -1.3713 0.877697 1.60971 -2.95531 3.14211 -1.74577 -1.62705 -0.852 2.43668 -1.79233 -0.950667 -0.638431 -2.49282 -0.456694 -0.645146 -2.3568 -1.3377 3.28958 -2.15728 -2.08412 -0.113788 -1.26391 -1.58429 -0.343501 1.69578 -4.01054 1.28384 -1.85591 1.02177 0.452147 1.15382 0.0215307 2.14907 0.130695 1.92503 3.32876 0.241051 1.18233 -2.32114 2.66248 -1.51309 1.60325 0.238853 -2.38116 2.39734 -2.53577 1.08501 2.17703 -0.719214 -2.39547 -0.0975527 0.175039 -0.563692 0.183553 1.54739 -2.45755 -1.9138 1.00258 -2.2922 1.4371 -1.4125 3.99931 -1.95414 2.94853 2.94807 1.82274 -1.90288 -3.47962 3.18089 2.89472 -2.28747 -2.24672 0.528717 -2.13747 1.32244 1.73545 2.08757 -0.146656 1.80356 -2.43304 0.862682 -0.570406 -2.76884 2.23024 0.787087 2.65995 0.297479 -2.54264 1.73475 1.20425 -1.32345 -3.23766 1.05824 1.82524 -0.881695 1.28225 2.6843 1.22832 1.55234 -1.4078 -0.70426 0.638188 -0.0179906 -0.853313 1.63419 2.01875 -2.5474 2.5029 1.45165 3.3406 0.870372 0.985217 2.14467 1.80485 2.9582 1.94417 -0.3988 1.42801 1.12758 2.26833 2.29196 2.89311 -1.45444 -0.697149 0.135426 2.07634 3.18368 -2.16524 -3.82761 -0.846416 3.12261 -1.70316 0.576297 -0.308191 2.9018 -3.15077 0.03209 -1.36517 1.18831 1.49481 -1.9814 2.58722 1.55118 0.883129 -1.98073 -1.69816 -1.3811 -1.03954 -0.802869 -2.21804 1.40447 0.122242 0.564516 1.89805 -1.92338 -0.977372 0.176626 -1.07073 0.960551 -1.30071 1.3837 -2.0646 0.0464339 1.16899 1.66901 0.365353 2.79212 1.14961 -1.89234 1.80662 -0.505402 -1.93382 -3.02523 1.28595 3.01829 -1.00505 3.53626 1.0233 3.15499 1.70456 1.54989 -2.95259 1.40238 2.44894 1.51578 -0.419828 -1.56156 2.66706 -0.804239 -0.407559 2.07466 2.24977 -2.55526 1.44244 -3.03121 0.523957 -2.12322 -1.00059 -1.1202 3.61756 3.40215 1.15966 0.742741 0.352778 0.162221 -0.839183 -1.65036 -0.664739 2.90025 -0.396665 1.91414 -1.61759 2.29052 -0.41876 -1.69911 -2.04216 -2.73515 1.83113 2.2051 -1.23732 2.86329 -2.69498 -0.942759 -2.8585 -1.36041 -0.925764 -1.05916 0.459075 0.159413 3.96708 -1.70185 -3.89707 -2.38738 -2.14836 -1.2897 -1.72791 3.07875 -1.03331 -3.46961 -0.799417 2.47308 -0.792917 1.6507 -4.01838 3.7064 0.770882 1.18639 -0.359127 3.088 -1.92613 1.35726 -1.38248 0.504975 -1.66175 1.34634 1.31185 -3.59251 0.76191 2.41971 0.852428 -1.86808 0.671178 -2.91368 1.73923 1.59338 2.57126 -1.41866 -2.47787 1.87932 -1.50992 -1.54883 -1.83204 -0.227348 0.531373 -1.47516 -1.72873 -0.259209 1.03593 -0.948897 1.7707 -1.58347 2.26303 -2.71805 1.3207 2.10439 0.994007 -0.714301 -2.02153 1.34478 1.96712 -0.731208 -2.63684 -0.933977 1.547 1.19002 0.938794 0.354183 -1.46154 -1.05419 1.58331 0.374325 -0.451201 2.90923 0.0961175 -2.5271 -1.19635 -2.89637 -2.19903 0.994122 -1.17364 -0.205985 1.90123 -2.16137 1.88392 0.772561 -2.25786 -0.700537 0.605319 -2.87464 -0.359279 -1.79667 -0.316279 0.757912 1.43227 1.89002 2.06041 0.460906 0.396359 0.0615102 0.5047 -1.20015 1.71604 0.0310225 -0.00849911 1.60764 -1.87504 2.40441 1.78315 1.35977 0.90245 -1.27798 -0.375576 -1.78016 0.867443 -0.901071 -2.04665 0.0284894 0.534181 -2.61387 -0.463225 2.02236 2.07918 1.89182 0.436216 2.5632 2.28152 2.18771 2.70871 -1.34307 -0.912061 2.03752 -0.247887 1.5466 0.96266 -1.02721 -1.30181 1.15602 -2.32421 -2.44678 2.76014 -1.32781 -0.31219 1.83717 -2.05739 1.03975 -0.213889 -0.902081 2.01976 -1.34476 0.128956 -0.684485 -1.81574 -1.96107 1.35549 -0.525361 -1.71949 2.76686 0.914163 -2.80039 1.02058 -2.5574 2.27078 1.76114 0.0948363 -1.00581 1.14681 1.97939 2.58063 2.07076 -1.54926 2.06288 -2.44406 -0.17333 3.05132 1.90806 -1.67456 -2.12865 3.05489 -3.10775 -1.8379 -0.334956 -0.258843 0.69529 -0.0253758 0.14449 0.812692 3.17306 -1.19622 -1.14269 3.11458 -1.17712 -0.444335 -0.611484 0.482666 1.86744 -2.1227 -3.64194 1.87331 2.48599 -1.41894 1.77338 -0.566286 0.232047 0.523713 -0.98555 -1.33236 3.15947 -0.651704 -1.76188 -0.647526 -2.30435 0.991348 -0.523957 0.365902 1.78947 0.366115 -1.78605 0.0748769 2.3641 -1.87556 0.72953 3.44848 2.61035 1.90519 -0.0288555 -0.456542 -2.85264 0.97615 -0.740272 0.527864 -2.4151 -3.32672 -0.407499 1.88945 1.51593 1.54728 1.83393 2.99333 -1.52765 1.61774 -2.4299 0.63947 1.87711 3.64914 1.91277 -3.22051 -2.48206 1.84831 0.0289777 -0.952075 2.58127 -1.10787 1.68461 1.2626 -1.22903 0.69129 2.57413 -1.44574 0.549043 -1.20147 0.726447 0.277917 -1.97538 -2.13699 2.76292 -1.63605 1.52628 -0.958205 -3.7114 1.26577 -2.61551 -0.228355 1.2036 -0.842998 1.96239 0.808634 -1.79457 2.54047 1.45767 -1.05797 -1.72284 -0.0814696 0.514283 -0.712287 -0.570559 -1.31466 1.17034 1.56787 0.486084 0.896744 -0.824351 1.28365 2.19237 -0.928295 -0.790323 1.18627 2.4252 -1.31506 -0.969161 -0.0459758 1.78959 -1.49637 -2.91081 0.479339 0.380581 -2.5723 1.63297 -2.32611 1.99169 1.98751 -2.15951 1.19909 -2.44732 -0.845592 -2.99122 0.0234539 -2.92219 -1.37381 -1.66983 -1.78074 -3.09709 1.23462 -2.71262 1.90095 3.49725 2.63944 2.20071 1.71064 -1.37359 -3.0392 -1.04637 1.76167 1.1531 -1.49261 -1.5636 -1.55881 3.25045 0.256218 -0.272546 2.98119 3.31457 2.24099 -0.443937 -1.79713 2.35589 -2.49487 0.0677053 3.34277 2.14974 2.77573 0.4288 -0.637944 -1.07341 1.51215 2.30087 1.65198 -1.11251 -0.508332 -1.28545 0.534975 1.32028 1.58152 -1.6247 -1.52625 -0.397885 -0.141988 1.93218 -2.61105 -0.132648 1.72687 1.24025 2.99662 -1.37704 -0.797493 0.149404 1.56781 1.093 1.00121 -3.15133 -1.98003 -2.42941 0.605564 -0.700171 -1.2568 -2.4353 -0.044908 -1.21206 -2.93117 3.01607 -0.079211 3.12489 1.78944 -3.63395 3.21832 2.53219 -0.369503 2.76575 -0.0818357 0.738869 -2.91448 -0.807017 1.20666 -0.678503 1.51871 2.7735 -0.445066 1.82161 1.93987 3.07692 -2.04586 0.667058 2.36175 -1.32665 1.36944 -1.56583 -1.85874 -0.267754 -1.92922 -1.52219 -1.78419 2.9413 -0.999867 0.460967 -2.36446 -0.469939 0.823405 -2.18298 -0.69657 1.67963 -0.168447 -2.32504 0.325221 0.0947142 1.34292 1.27871 0.876476 -2.97255 -1.23745 3.43063 1.99574 2.52637 1.95742 -3.00676 1.20436 2.19613 -0.898846 -0.0215003 0.366298 2.2492 -1.35235 0.255517 0.68738 -1.8715 1.58472 2.40884 -2.73426 -1.51596 -2.36966 0.77897 2.09566 2.78511 -1.47668 3.21572 -2.06682 0.346126 3.06511 -1.4253 -0.0690181 0.0533312 -0.929487 -1.50992 2.44385 2.56684 -3.11531 0.454802 -0.0832087 1.28375 -3.38299 -2.26425 0.259179 2.84254 -1.24508 -1.83793 1.61017 -0.550966 2.31045 1.31039 2.90413 0.80665 2.15456 -1.87666 0.140644 -1.06993 1.69992 0.491821 2.76667 0.62711 -1.41714 2.8288 -0.926283 -2.07457 2.5057 -0.829355 0.0235755 -2.77031 -1.10799 0.835098 -0.601596 3.48742 2.51374 -2.83488 -0.307733 2.14531 2.74385 0.395077 -1.35879 2.18059 0.594302 -0.836253 -0.194418 -2.01802 0.191763 0.711951 -1.89588 3.36908 -0.151509 -2.70926 1.71287 0.524079 -0.612064 -2.18344 3.22811 3.12484 -2.12438 -2.70173 -0.494354 3.45316 -2.58417 1.07368 0.0804012 -2.23592 0.169027 0.382199 -0.430845 1.69688 -1.75406 -0.691596 -3.03044 2.00685 -0.364925 -1.37628 -0.743538 0.401425 -2.18075 -1.43799 2.18273 -1.23812 -0.761818 0.0563825 -3.3088 -1.47088 -3.74701 0.470214 0.848002 -0.462004 0.769692 2.35598 -2.30777 1.08037 2.1743 2.26662 2.92461 0.477508 -2.25723 3.15874 2.82466 1.94286 -0.824961 0.412015 3.31524 2.01796 -1.5875 0.00123563 -1.42526 1.36197 1.3959 0.848306 0.103534 2.17593 -0.0811641 0.888043 -0.347316 -1.95881 1.23232 -1.1223 -0.0806453 1.45852 -0.441893 2.4823 0.416715 -0.137624 1.16674 1.66617 1.42471 -0.602634 -1.82423 -2.0779 -1.57538 2.23477 1.72565 -0.628086 2.92915 -1.29007 -0.3128 -1.73722 -1.89115 -0.933153 -2.4385 -1.09941 3.12639 2.08345 2.72199 2.54224 -0.421567 3.36514 -1.33957 -1.71655 1.95897 -1.41455 -0.607609 3.47268 -1.45657 -0.544831 2.67356 -1.31963 -3.39496 0.700019 2.18969 -3.24251 3.36682 2.83088 -1.62677 3.01097 -0.406186 -0.0141455 0.00193793 1.03221 -1.76072 -2.37412 -0.762582 0.205893 2.04112 0.363826 2.25985 -1.569 0.481445 -1.28799 3.1545 -1.91209 3.01482 4.02513 -1.79438 3.77849 -1.03203 -1.57831 -1.74372 2.8748 0.02205 -1.03291 1.28753 1.40481 -1.32076 -0.104541 2.87529 2.30776 2.62323 0.15453 -1.32028 2.58896 1.37726 3.05482 2.62577 -0.593234 -1.83076 0.302606 0.926466 -2.37664 -1.59403 -0.800607 1.61182 0.848216 2.66632 0.288843 -1.28821 1.50726 -1.38263 1.23104 0.758491 -0.030595 -0.237633 2.18783 -0.24578 0.260857 -0.577852 1.49924 -3.73023 0.397275 0.861978 -3.06932 2.82579 1.86839 -0.0346542 -1.72449 -2.78987 2.3023 2.36395 -2.40875 -0.103076 -2.15612 -1.57245 -2.14882 -0.78895 -2.72269 0.0240031 -2.70484 0.406369 -3.577 -1.54996 -2.74189 2.30423 0.842052 -0.55536 2.75657 -0.345149 0.378597 0.686468 0.618595 -2.12331 2.57105 2.68665 1.43592 1.32549 2.46298 2.47769 -2.88322 3.7558 2.84779 -1.99129 -2.6724 2.12737 0.473784 0.652684 1.59698 -0.586917 -1.75523 1.7299 0.36877 -1.43435 -0.0540025 3.45575 2.78483 -2.70143 -1.47415 1.21853 -3.52584 -1.16314 -1.53275 -2.40546 -0.862868 -1.7034 -1.72406 2.00465 2.19787 0.846598 2.62085 2.41906 1.31326 1.30856 -1.8452 3.01934 1.0161 1.35543 2.55048 -0.780501 1.27279 2.95912 -2.22399 -0.0429244 2.23989 2.24825 -0.847605 1.65458 2.99855 0.428861 1.21087 0.764715 1.54847 1.92823 -2.10754 -2.7002 -2.1563 1.41177 1.11644 -0.745647 0.149983 0.83729 0.246635 -2.67414 -0.494476 1.19598 -2.50866 1.84187 1.5669 2.09978 1.76728 -2.70297 -0.378475 -0.128407 0.0532399 3.40973 0.045885 2.29223 -2.22488 0.0988042 -0.00660775 0.66306 1.24248 -3.70451 -1.40749 2.33822 -0.324061 -1.01259 3.4343 1.38519 0.852367 -0.593936 2.63282 0.527466 2.90113 -0.23397 -1.75941 2.02656 1.28161 2.45443 3.29683 -1.33941 3.47427 2.08601 -2.70857 -2.54532 -3.58588 -1.67677 0.329676 -0.681402 1.20305 -2.12807 -4.23037 -1.75007 0.123463 -1.44549 -2.37368 3.25769 1.49545 -2.12713 -1.48984 -2.33831 3.39965 0.961196 -2.60767 -3.07216 2.80122 -1.66181 -1.02767 0.690161 -1.89464 -2.63419 -0.0714282 0.119159 -1.32278 -3.18239 1.83811 0.293573 -1.64655 -0.534849 -2.95924 1.72904 -0.51886 2.08843 -1.766 1.7208 0.511872 1.81644 1.07598 -2.34158 -3.31472 -2.796 3.57995 0.967269 -2.16902 1.95189 -0.418455 0.831248 -1.17992 1.67267 -1.94014 -2.64197 -1.30038 1.61686 -0.408536 2.3381 -0.960951 2.7555 -2.27813 2.25494 0.521852 0.133076 0.534944 3.70609 2.31115 3.89371 0.198904 1.88679 0.222617 -2.11345 2.77351 2.29393 1.23626 1.25939 -2.94273 1.30868 1.37548 -1.05843 -0.24102 -1.18939 -2.51233 -2.56952 -1.23061 2.48291 -0.043016 -4.22182 0.820813 -1.03917 -1.12203 -0.806984 -0.689184 -3.51407 0.725985 -2.84392 0.574404 -1.78614 -0.949813 1.46493 -1.61649 -2.15914 2.22661 -1.89747 0.957447 -3.30188 -1.20543 -1.65186 2.26342 -1.02571 2.41754 1.02599 1.88978 -1.77909 -1.01042 2.30474 -1.72712 -1.20226 -2.07326 -0.0464646 1.55826 1.41305 0.16918 -0.543886 -2.12187 -2.58405 1.92897 -1.10448 1.32693 1.99825 -2.28719 2.01049 3.41305 -0.0421922 2.65088 0.332972 2.27301 2.18712 -1.33642 -2.18786 -0.57532 0.533875 0.498809 -1.1693 -0.654671 1.1982 0.167836 -0.981002 -1.35144 0.317987 0.814096 -2.22384 3.15179 -0.0994746 -3.45688 0.901409 2.60434 0.755257 1.25042 0.242698 3.36724 -2.41494 1.96888 -0.230308 -1.18123 -1.10714 0.779061 1.97701 -1.22961 -3.1425 2.80229 -0.976641 -0.325587 1.83818 3.31673 2.51349 -2.09691 3.65943 0.520813 -3.67172 -2.1187 1.33962 1.98054 -2.58814 -2.64472 -2.58903 -1.71211 -1.08312 0.575015 -1.50513 -1.03422 1.62091 -0.324091 2.28277 -0.855205 2.01335 -1.96126 1.58276 3.05083 -0.034196 -1.09233 2.58781 -2.17369 -1.61466 0.0518965 -0.981002 -2.27508 1.76298 1.74717 3.30331 0.202933 -0.980514 -3.13796 3.43982 -3.05608 -2.44324 2.32958 1.71344 -1.65317 1.92167 -2.21718 1.90815 1.50699 0.984115 -1.35992 -0.819925 -0.776803 -0.956556 0.416746 0.245567 2.06197 3.76166 0.54822 -0.962935 -2.99278 -1.66703 -0.497467 -2.50995 0.733772 1.7992 0.467162 -2.39077 -2.97514 1.90969 -0.612308 0.477416 -2.62156 1.43923 -1.35897 -2.64264 2.31961 -2.63388 3.12673 -3.45184 0.462096 -2.18166 -1.94713 2.14785 0.843303 -1.80662 0.20333 1.38049 -1.43533 -0.642522 -2.03865 -1.35366 1.27346 2.33233 -1.12193 -1.05419 -2.49106 3.37335 4.06014 -1.16124 2.45419 -2.15209 0.161458 -0.407681 -0.885632 2.81776 -0.737404 1.67475 -1.53769 1.73203 1.41122 1.25094 -1.42435 -1.85963 2.11381 0.837138 -2.7002 -0.172201 2.55466 0.768196 0.467772 2.27859 -3.17651 1.6373 0.208609 0.880565 -1.06328 -2.63797 -0.62656 1.76783 -1.07222 -2.9662 -1.38653 -2.28564 -0.206595 2.20574 3.13827 -3.01735 1.57352 0.777562 -1.31228 -2.46777 0.347773 -0.867443 -0.251702 2.4986 -2.57154 -3.31893 1.54456 -0.658055 1.53354 -2.5299 0.835828 -2.41965 -1.78306 -0.986858 -0.946363 -1.49368 -2.6572 0.996109 2.80601 1.79646 1.87974 -0.982101 1.28277 1.42059 0.799018 -1.98024 -1.40722 2.75568 -1.64097 2.56003 -0.436063 3.31137 0.55356 0.590945 -1.96311 -1.02843 0.00895757 -1.10616 -1.81528 2.16311 0.109027 2.82981 1.88945 -0.149678 -2.36993 1.55835 2.70496 2.76963 1.66702 -0.614201 0.441313 -1.19576 1.13073 -0.604374 1.89777 0.908979 -0.399197 3.01854 -0.222709 -1.51056 1.81111 1.69703 -1.68394 -2.35611 1.55246 1.30475 -0.345515 -1.8296 -0.726844 1.47082 1.48483 0.749427 -1.84385 0.47116 0.0060272 4.20684 -0.0423143 -3.16155 2.71573 -0.738686 2.38598 -1.64887 -2.92912 -3.33285 0.302148 -1.44672 0.550325 -0.846692 -1.47333 0.466307 -1.85301 -0.931836 -0.472961 1.64472 -2.17482 -0.862469 1.77443 2.23425 0.970504 -1.76313 1.04604 -2.81163 -1.63554 2.59076 -3.54309 -1.70038 3.71924 -3.70093 -1.49912 -0.799386 2.29522 0.603702 0.882456 -0.00724852 0.642125 2.79306 0.421598 -3.34234 1.98891 1.15887 -0.188437 -2.09035 1.31353 -0.092914 -0.488525 -2.35922 -1.37121 -0.570284 -1.44451 -0.379085 -1.48965 1.84434 1.55814 -1.39541 2.40054 0.207328 2.6988 3.50244 0.718452 1.30868 -0.033158 2.77302 -0.691504 2.45043 -1.55396 0.692846 -1.74119 -0.879832 -2.07726 -1.34207 -3.38207 0.96205 -2.40396 3.17604 -1.95564 -1.0472 -1.82533 -1.29598 1.92033 0.189779 2.13838 -1.01234 -0.0435349 0.196555 -1.55396 1.05843 -2.1747 1.15142 2.47562 2.54706 0.849589 -3.05291 2.46918 -1.53522 -0.722205 0.486327 3.27261 -1.88548 0.181173 1.11909 -0.35406 1.28329 -1.50183 -2.36959 -1.07228 2.3738 -0.73603 -0.317164 2.33356 -2.36545 -1.45056 0.11803 3.67142 -0.861858 -0.853557 1.02947 -2.2466 -0.329584 -2.47201 -1.99367 1.28774 -0.817057 0.11507 2.45843 -2.47257 -2.03322 3.38119 -2.57263 0.463439 -1.79738 0.825205 -2.20968 -3.16271 2.04466 0.347163 3.26311 -1.24044 1.89311 2.05275 -0.893689 2.21065 3.01369 3.02259 1.94624 -0.790536 1.15789 -1.92516 -2.39007 -3.07045 -0.658147 -1.9464 -2.61346 0.541689 -0.559358 2.67356 -1.38312 -0.932082 0.750922 0.452178 -2.97911 3.02699 2.18294 -0.236777 0.667054 1.14974 3.23458 3.53748 0.989977 -1.04869 -1.59528 -2.35329 -1.23644 0.435179 -1.79637 -1.49814 -2.56281 2.71424 2.41302 1.89262 1.73631 -2.16967 -2.24398 1.6038 2.93782 1.5502 1.63208 -2.16088 -1.2716 -0.57709 2.07054 1.98192 -1.95439 -2.12294 -2.43756 1.72461 0.812662 -1.35824 -1.07363 0.0990177 -2.02785 0.268883 -0.138448 2.43927 1.72641 0.0425581 -1.65152 1.80613 0.385617 -2.94741 -2.4487 -1.09392 -0.26284 -0.282617 1.37677 -0.964248 1.33697 1.53235 0.350154 -1.91676 -0.369716 3.33077 3.95967 2.11702 2.31139 -3.16521 -0.870556 2.59376 0.821818 -0.221519 2.97502 -1.28256 0.402768 0.384304 2.49695 -1.02086 0.597018 -2.5256 3.37354 -0.589877 1.61631 -3.00126 -0.498077 -1.42129 1.47388 -1.74076 1.44958 3.86387 -1.70765 0.613162 -2.5311 1.03288 -2.3091 1.93626 -0.765697 -3.34005 -2.34143 1.6268 0.953629 -1.58789 0.821238 2.43149 2.01613 -0.265038 2.50546 -0.124073 1.82576 -2.02824 -1.49012 2.57892 -1.01549 1.44479 -0.0138711 2.23226 1.47498 -1.47003 -2.66218 0.530213 -2.99922 -1.7421 0.543672 0.82435 2.14422 -2.52853 -1.19021 3.79062 -2.50879 1.07073 -0.0395067 0.885968 -3.61427 -1.62247 -2.5319 -1.12181 1.4671 -0.8502 0.535432 -0.771432 -0.355983 3.27889 -0.869884 3.60993 0.669438 0.697699 3.38339 -3.66068 2.96199 -0.464873 -0.74778 0.0109714 -2.16146 -1.95561 0.861278 -1.89649 -2.18752 -1.6612 1.41815 1.8509 -1.89143 3.46436 -0.879925 -1.84852 1.05806 -2.15679 0.9514 -0.197836 -1.47357 0.61655 1.77897 -1.1672 -1.97059 -0.0820184 -1.3456 1.22771 0.696903 1.61252 -1.27346 2.81266 -1.26477 2.52671 2.67172 -1.41144 -0.448058 3.70658 2.04753 1.29468 0.192221 1.73084 -2.52219 2.48059 -1.75407 -1.38745 0.0724052 -3.13067 -0.116352 1.3197 1.99089 -1.706 -0.82615 -0.554262 1.5538 0.986069 -3.65942 0.0634026 -0.189596 1.49939 1.11684 2.28872 2.96697 -1.94951 0.849132 -1.40802 1.58148 3.55627 -2.48871 0.382382 1.93556 3.14836 -0.71778 0.899552 -2.51785 0.449552 2.84415 -0.056505 2.78346 -1.60892 2.05736 2.47293 1.83778 -1.15008 -2.82957 -0.395139 0.208548 0.891522 -1.78275 1.04527 0.857067 0.897441 2.76087 -0.517365 -3.91472 0.358242 0.63892 1.97609 0.498475 -0.386655 2.86836 -1.13228 1.39001 1.32052 0.363308 2.25371 -1.54379 -0.0659048 1.62458 0.541261 -1.74974 -2.02513 0.054704 1.12542 -1.72557 -2.62784 0.0583058 -2.28326 -1.87636 -0.341395 -2.41934 -0.649698 2.5849 3.3013 1.24114 -1.39315 1.0955 -1.05345 -2.27947 0.0792413 -1.52915 0.865611 1.55566 -1.38634 1.3063 -2.62583 2.9973 -0.642094 -3.04439 -0.484039 -1.90943 1.14629 1.50196 -3.21517 -0.367214 0.255882 -0.385159 0.169973 0.161245 0.0612355 -1.28966 1.3038 -1.36685 -2.37872 1.31524 1.9962 1.95183 0.729591 1.04107 0.933548 -2.00761 -2.54151 -2.92186 2.82515 -2.71253 -0.271996 -0.388454 1.77855 1.02675 -1.06713 -1.93233 -0.815836 0.527161 2.15554 0.598087 0.891948 1.83033 -2.00056 -0.296137 -1.04183 -1.41668 0.574099 1.41141 1.74861 2.8585 -1.3428 0.900922 -1.32619 2.06786 -0.424131 -0.00230365 -1.65781 -2.36703 -1.17318 -2.5694 -1.59012 0.559115 1.97475 -1.736 0.908432 0.576144 1.85615 -0.589359 1.33334 -0.000869553 -0.378353 -2.37057 -0.727423 1.96663 0.64768 0.917738 1.85841 -1.78886 -2.15291 -1.29949 2.8217 1.02116 0.41348 -1.27401 -1.56805 -2.45474 -0.473204 -1.9279 -2.89717 1.10259 2.05388 -1.82979 -3.05556 1.6475 -0.226157 1.25365 3.04582 1.05129 2.16097 -0.865769 1.76432 0.354091 -3.74598 2.71881 1.80985 0.642338 -1.35247 -1.83601 -0.602329 1.71189 0.128895 -2.91719 0.25753 -2.83238 1.00172 -0.294183 1.77504 2.12219 2.61994 0.402219 1.05174 -0.857371 2.16524 -0.529908 1.15987 3.61012 0.201956 -1.39959 -2.62211 2.13878 -1.96305 -1.08065 2.68451 1.21987 2.41852 -0.980577 2.29311 2.73996 0.60315 -1.11885 2.51059 1.53366 0.323694 -0.905135 -2.30294 -1.37466 -1.31042 1.28685 1.61323 0.316706 1.54846 -0.842906 -3.06926 3.77616 -1.65772 1.03477 -2.80757 -2.71394 1.99141 -1.64325 -1.00084 2.80644 0.830241 0.978225 1.70744 1.00587 -1.86378 0.716163 3.41806 3.4227 0.274224 1.03932 1.53665 -2.09359 0.992599 0.304163 0.687537 -0.997146 -0.0985594 -2.55329 -0.736735 -0.57062 -0.337611 1.53732 2.38953 1.30648 -1.07613 -0.900673 1.586 3.29607 1.53135 0.60614 1.90971 1.30374 0.0428936 2.05434 1.85291 2.90296 0.0854666 1.02535 1.78632 -0.865276 -2.42276 -1.86021 -1.77778 0.841475 2.35244 -3.69065 1.68226 1.19023 2.21722 1.69501 -1.55188 1.54139 1.96791 -3.22564 0.98204 -1.68073 -3.59595 -0.56885 0.289666 0.0411846 0.867046 -0.537325 -0.984209 1.16131 -1.66642 3.42203 -0.453154 1.88301 -1.39956 -1.80631 -1.09392 3.60233 -0.41528 0.214865 0.720374 1.13051 2.27672 -1.25897 -1.95946 1.35824 0.373837 1.07127 -2.70316 -1.48489 -0.872692 -2.86854 -0.830088 -1.31915 1.43356 2.32809 2.65936 2.70509 1.69959 2.07225 1.13042 2.19045 -1.48321 -0.112781 0.621616 0.699074 -2.32849 0.500458 -1.80857 3.8325 3.52539 0.82844 0.589388 -3.65296 2.29482 1.26033 -0.971295 -0.0404523 0.263847 3.14745 2.34496 -2.00557 2.45938 1.90278 -2.67944 -1.46097 1.8191 -2.38064 2.45666 -0.748939 0.386868 0.61182 -0.0274206 -2.51544 -2.43649 -3.21257 0.315668 -3.11446 -1.05446 3.25524 2.96348 0.113422 1.78419 -2.92473 -1.20528 -0.153524 -0.407681 -0.440245 1.81856 -0.272301 0.93657 2.02632 -1.46624 -0.59534 -2.06136 -1.58643 2.70784 3.32277 -0.476012 2.66603 1.85032 0.424833 2.94286 -0.710247 -2.83274 -3.5821 -1.39917 -0.00910972 -0.725959 -1.24166 1.72562 1.79881 1.44831 0.014725 -0.0976745 1.58179 0.707557 -2.23608 -2.98854 -1.63651 -0.511414 1.67771 1.59717 0.34167 2.21163 -3.04823 -1.80363 2.02062 -0.48886 -1.25805 -3.33273 -0.640629 1.41433 -0.24691 1.03762 -0.654576 -1.7537 1.64613 -1.08745 -1.10274 -1.45278 -2.58576 -2.02947 -3.49661 -1.22066 -0.612613 1.57749 2.5054 1.10549 -1.98277 0.0508591 1.42642 1.02339 -2.89469 1.60715 0.259148 1.13237 2.62366 0.52002 -1.88838 0.817118 -1.21148 1.52515 -1.87742 0.129597 -1.45642 0.997544 1.04976 -1.3529 -0.894455 -2.06206 -2.56278 -0.406979 0.731452 2.29626 -0.226768 -3.00428 1.36334 -2.33688 2.53479 1.17245 0.304773 -3.13552 2.53513 -1.68617 1.58857 1.48438 0.475188 -2.54367 1.18871 0.853189 -0.893719 -0.381771 -2.26525 -2.47103 0.910504 1.38317 -0.11449 -0.194724 -2.29577 -1.28601 2.01463 -0.726813 -2.92656 -2.72523 -0.63068 -0.0259869 -0.957319 3.04353 2.35601 -1.8303 -2.11018 -1.50162 1.10622 -1.73646 -3.49335 3.15718 0.985734 0.903058 -0.782845 -2.24938 2.19708 1.79542 -1.5455 1.81294 1.13484 2.26742 2.20831 -2.03206 0.648931 3.09984 -0.356929 -1.30307 -0.127827 -3.32973 0.799051 -2.13786 -0.231315 -0.0677355 0.777932 0.773873 0.0597705 -1.73679 2.32201 -0.920394 -0.317621 -0.284997 -1.80921 2.25665 0.436583 1.69364 2.24474 -1.01225 2.98027 -2.39703 0.638554 -1.79405 1.8241 -1.51575 1.03279 -2.91615 1.48602 -1.82377 1.23 -2.24718 3.45922 2.03813 0.138447 0.0313272 2.15132 0.754982 3.47644 1.9452 0.450713 0.26635 0.113513 -2.68097 -1.92442 1.34209 -1.53308 0.221854 2.36243 1.84224 -3.15233 -1.45307 1.65052 -3.81151 -1.8292 -1.491 0.918501 -1.91956 -0.0677664 1.33639 1.82899 0.986221 -1.13915 0.944011 -2.16308 -0.558932 0.147908 2.86458 -0.479614 -2.31722 0.666204 -0.778359 0.785928 -1.34243 1.07826 -0.974842 1.10954 -3.07595 2.24694 -1.43149 -1.53424 2.49203 3.84804 1.2138 -1.89817 0.120289 2.59571 -2.66093 -3.18376 -0.887128 0.986164 3.73746 3.89256 2.13719 -1.03719 2.23959 -3.65113 3.10003 -2.5856 2.85029 -2.33977 -2.38787 -0.0926087 -0.82606 -2.39664 3.07213 -2.439 -1.58685 1.38888 0.897351 2.4732 2.71915 1.72993 -3.05822 -1.40203 -0.820322 3.00954 -0.376766 -1.51138 1.22024 -0.803812 -2.20531 -2.19539 0.705236 1.67158 0.892922 -2.00597 0.514618 2.61945 2.39227 2.05657 1.88319 -2.86317 3.0967 -2.20891 -2.72117 0.723181 1.30102 -1.56159 0.10445 1.2994 -2.64677 0.119465 0.00190743 -1.57987 0.647404 -1.01802 4.04262 1.82936 -2.4216 1.45645 -1.41796 -0.981734 -0.5047 -1.47015 1.06438 1.94288 -0.826029 0.444334 0.551027 2.5535 -3.14888 -2.27633 -0.73545 -0.703101 1.34472 2.93998 -2.08077 1.24575 0.292047 2.11754 -2.87367 0.00852969 -0.959184 1.19094 -2.34887 2.0825 1.21993 0.415189 -1.1935 -2.20088 -0.476532 -2.86323 1.76108 -0.475768 2.74024 1.83494 -1.95482 2.26437 -2.44366 1.83396 2.0363 2.33806 3.16658 1.59708 3.7016 2.26876 -1.77775 0.00688182 3.38476 1.55331 0.148854 -2.46305 -0.0867794 -1.5354 -0.636051 -2.27594 -0.191702 1.54407 2.42727 -1.156 -2.11788 -0.0623646 -2.34842 3.1993 1.9995 -0.763253 0.211387 1.92424 -0.714912 -2.02492 2.27322 -0.284753 -1.43569 -0.558595 -1.81565 -0.611301 0.30758 1.96168 1.25103 -1.32287 -3.12938 2.30907 0.131367 -0.832743 0.304621 -3.60248 0.383908 1.78675 -3.47998 -0.0862298 -2.80662 -2.2536 -1.9139 0.0449999 2.813 -1.65625 0.445769 1.95964 3.74702 -0.466979 1.82743 -0.804483 3.213 0.671209 -0.364467 0.612461 1.90681 2.34192 0.602664 2.0663 -1.39123 -2.33352 0.478789 0.457732 -1.34399 0.00910997 -0.452849 1.31847 -1.1827 -3.52271 -1.26013 -0.418424 -1.40094 -1.8686 -1.35873 2.70246 1.51337 -0.697578 -2.84474 2.77824 1.34124 1.92867 -0.879192 1.82719 0.920941 3.3167 2.65655 1.88219 -0.507691 0.231254 2.51257 -2.94563 -0.869976 -1.2774 0.217399 3.22536 0.295221 -2.40478 -1.70664 -2.48093 -1.96214 -2.07351 3.32754 -1.78168 -2.1195 1.53952 -0.823283 1.27246 -1.08467 -1.162 -0.91102 -0.941328 0.144978 -1.09133 0.0218661 -1.44726 -1.40149 2.29705 -3.06044 -1.43817 -1.74473 -1.63721 2.36981 1.1798 -0.695075 3.62388 0.000655699 -3.88166 1.77772 2.98931 2.60215 0.0732597 2.07478 -0.704901 -0.951396 1.77683 2.43069 -0.958389 -3.27231 -1.10128 -1.16244 -0.255272 1.11443 -2.55088 -1.535 -0.197043 -2.20785 1.83674 0.103717 2.28957 -2.29589 -0.755347 1.66742 1.57401 1.91264 -0.523896 2.28072 2.17998 1.64905 -1.07433 1.98863 0.786325 -0.0615406 -2.16445 -3.38614 0.776044 1.5756 -0.509796 -2.20153 -2.75895 -3.26391 -3.49338 -2.2452 0.848036 -1.9951 1.87834 1.76447 -2.52829 -0.900154 1.92415 0.950209 2.00249 -2.92455 -1.19503 0.355006 0.232689 -0.714057 0.759713 1.85972 -1.76789 1.88944 0.716987 0.969009 0.112445 1.17367 3.44241 -2.00243 0.593081 1.48639 1.87385 -3.31066 -0.72834 -0.950179 -1.19756 -3.20196 0.00471513 2.44104 -0.443601 2.66282 -1.69309 0.0195167 -3.15841 -1.69215 0.1751 -1.91521 0.398404 0.101978 0.238975 -1.95909 1.62699 -2.49844 3.65277 -0.645085 0.842388 -2.08361 -1.37484 0.585421 -0.6897 -1.7762 -1.99849 -3.73399 -1.27654 -0.035051 -0.201163 -2.07714 -0.726478 -3.24499 -0.8976 -0.991683 -0.0249183 2.9356 -1.76826 1.03191 -1.60266 0.00364717 2.57843 2.66999 1.4614 0.848032 0.0234839 -0.865215 -0.54358 2.32177 2.34515 1.58493 -2.06535 -1.81532 0.513245 -1.14244 2.63843 -2.0529 1.28765 1.30532 -0.883221 1.6431 -0.981242 2.01577 3.18886 -0.931074 2.06081 1.19963 -2.09334 1.51449 -2.29953 -3.97624 0.180227 0.519776 0.0141456 -0.325068 -4.28796 -2.31091 3.54868 -3.0693 -2.59275 -2.90816 -0.755868 -0.975448 1.90697 1.28402 -0.503601 -1.91981 -0.594058 -1.52167 1.76914 -1.09886 -2.58762 -0.102405 -3.34033 1.39514 -1.40204 -3.16023 0.829695 2.41345 0.405576 1.48791 0.698832 2.28878 -0.439421 -1.00454 3.31591 -0.150075 -1.85011 -1.12279 0.307581 2.19902 3.42044 1.24007 0.316065 1.02617 -0.0464949 -0.119678 1.8263 -1.25054 -0.625706 0.784738 0.794532 -0.742897 2.25014 1.059 -0.0195167 0.533723 0.332881 1.82359 -1.60877 1.95482 -1.19341 -1.89982 2.74342 -0.474242 -1.31011 -2.77433 -3.65232 -2.14828 -1.94478 -2.17904 3.32525 1.1155 -2.78245 -1.14974 -0.441985 -1.15236 1.5506 -0.203574 -1.71485 -0.231834 -0.91438 -3.5108 -0.255608 -1.51749 2.55097 0.613927 0.771402 1.31088 -0.994398 0.432951 0.758278 1.03475 -0.273553 -2.24801 0.882366 -3.15926 0.501374 -0.338008 0.00584396 -1.75737 -0.0102088 -2.915 -1.84309 3.2622 -2.69813 1.66318 -0.00135811 1.6532 0.455138 1.01085 0.186728 -0.554751 -1.13683 0.871623 -0.969986 3.59394 -1.48245 3.2051 -1.64639 1.01198 -0.989728 -0.263909 -3.02513 -0.229118 0.0626083 -2.99971 -1.30493 -2.25414 -2.29125 1.4119 1.217 2.49194 1.79677 0.39053 -1.10939 3.62799 -1.04176 2.07555 0.69773 -1.48691 0.705328 -1.3414 2.37597 0.495575 2.81208 -2.13262 -2.90638 -0.487457 -3.36678 2.63147 2.58063 -1.67142 1.52195 0.458282 2.1169 -1.81331 2.99434 1.55813 0.292443 2.15923 1.80781 1.23946 1.93947 -2.02525 -1.39972 -0.385678 -2.85578 1.60749 1.25164 1.14022 2.74656 1.4049 0.620792 -0.969066 -1.77109 -1.95973 1.81779 1.06917 -0.590212 1.0674 -0.336513 -1.15166 -3.16423 -0.641454 -2.50351 -0.0195774 -0.709601 1.21242 1.98149 -0.705298 -1.68427 -1.59489 0.0746336 2.56476 -1.8372 -3.0273 -2.19418 -0.210013 3.0677 4.00166 -0.970565 3.56647 2.26696 -1.78913 3.80277 -0.424314 -3.34673 -1.39248 -1.45212 -0.275384 1.48319 -1.00725 -0.346126 -1.03237 2.03502 -2.39392 3.67216 -0.660314 1.6338 -0.316065 -2.23436 1.23574 -2.06163 0.214346 -2.43249 -1.53592 3.90782 -2.32663 -0.899579 2.10726 0.341762 2.01778 2.91978 1.71982 -0.587314 -0.278894 3.13262 2.89632 1.08809 -0.869366 0.450896 -1.26126 -3.14989 -0.0703602 -1.0681 3.25707 0.624515 -0.0182353 -0.433134 -0.770028 1.31579 2.3439 -2.63022 -0.436674 -0.135091 -2.27593 2.12563 1.67054 -0.77369 0.170919 1.45187 -1.08791 0.178457 1.26953 -0.668279 1.62201 -1.63111 -1.36962 -2.22582 0.752694 0.502595 2.95024 0.756447 -1.3279 -0.921491 2.42544 0.106402 -2.8596 0.581912 -1.19793 2.48148 0.00102283 -0.462676 -2.15941 -2.90251 -1.38467 -1.66956 -2.5228 -1.63111 3.57273 2.20165 0.465514 3.10949 -1.29339 -1.67874 0.776622 2.45645 -1.04918 -2.64884 2.54095 0.172048 -2.93864 -2.60154 1.81205 2.47546 -3.25832 1.76706 -1.06712 2.06725 -0.801833 2.41644 -0.209983 1.49677 -2.34102 2.53021 1.72946 1.5344 1.88637 1.10235 2.42352 -2.30072 0.215567 -0.0516526 -1.53659 0.603519 -1.8505 -0.955061 0.965074 -1.73444 0.0408796 0.607425 -2.03926 3.0518 1.89491 0.808145 -1.13128 1.40032 2.82106 0.545869 -1.18792 -2.01479 2.16707 -2.83189 0.0746333 -1.52457 -2.13409 -1.44333 2.47144 -1.45361 1.02696 2.47821 -1.08187 -2.70057 0.301049 -0.387906 -3.02223 1.7462 -1.94502 -2.84455 0.667058 -0.48764 -3.11778 -2.58444 -2.69581 -0.579471 1.48178 -0.704718 -1.32043 0.10445 -2.5607 1.0764 0.328853 -0.686956 2.93992 -1.59095 0.191275 -0.938703 1.94102 -0.0885492 -2.56619 -2.71846 -0.156087 3.28787 -0.276177 -0.866284 -1.81364 -2.63004 -2.27261 0.630377 3.39465 1.98988 -1.87889 1.73136 -1.87812 -0.91435 -0.108203 1.56693 -0.792856 -1.04515 0.209403 2.9427 -1.21727 -2.94871 3.65531 3.78464 1.56531 -1.75852 0.0816526 -2.32049 0.858714 -0.0802794 -2.10939 1.16878 1.3005 -2.10863 -2.9919 3.94752 -0.114277 -2.56967 -2.66251 2.63022 -0.704875 -0.583652 -2.0276 1.23794 0.0628832 -3.04112 0.950271 -2.94005 0.612369 2.41308 -2.17037 -2.9493 1.69324 3.19448 -0.13039 2.41431 3.2492 -0.700201 -1.90635 -0.463622 0.250145 2.93867 1.02156 0.918226 -1.48394 2.18106 -0.653903 -0.733283 2.06927 -3.96758 1.33975 2.40118 0.040025 -3.16506 1.27139 -1.87083 -3.33593 -2.59251 2.61271 0.751167 1.39468 1.82743 2.31787 -0.653966 0.668676 2.2608 -1.0436 0.498321 4.35293 -1.25106 1.98165 0.619327 -0.597384 3.35553 -0.0870846 0.521485 -2.234 -1.42032 -1.28204 2.40023 -0.937089 -2.55277 -0.82841 2.88023 0.0692312 -2.82343 -2.52444 1.28338 2.54141 -1.16488 1.91847 3.77219 -2.59195 -1.11342 -2.14238 -2.47293 -2.13603 4.03703 -3.19335 -1.3857 2.39404 0.285821 -2.0945 -0.30285 -0.74018 3.58979 -0.443083 -0.749028 -0.517151 -0.958113 -1.48929 2.43643 0.8502 -3.02345 2.17742 1.28533 -0.0213477 1.90306 0.44879 -1.64026 1.96611 1.67649 0.812937 -0.463744 -0.337397 2.8107 -3.96086 0.0736258 -0.909862 -2.65985 -2.78236 -0.379238 0.0468612 1.13796 -1.56747 0.319819 -0.57825 3.09209 -2.14757 -0.339015 1.25408 0.0530866 1.51798 1.24599 4.06939 2.95396 1.60694 -0.884197 0.520173 0.00798035 2.46032 1.7993 -0.133503 2.39755 0.148244 -1.26172 3.32433 0.350734 -0.140706 1.24661 -3.18639 1.02001 1.89275 1.65787 1.14196 -1.93578 -1.46484 -1.18117 -0.855725 0.343654 -1.39556 1.58655 -1.17571 1.63022 -3.06136 1.48037 0.0157934 -1.25658 -0.383053 0.151876 -1.39752 -1.98399 -0.813698 -1.17657 -1.17324 -0.504334 -1.31789 1.35397 -2.28442 2.78941 -2.28014 0.0882448 -1.84178 -1.04421 -2.55878 0.146168 -2.33477 2.35546 -1.40728 2.30667 -0.660132 -3.14205 1.5239 -1.856 -0.905804 -2.67887 -2.62095 1.5726 2.64094 -1.2589 2.27035 1.45584 -3.70979 -1.01687 -2.29083 -1.56421 -2.91267 -1.50049 -1.92094 -0.359829 -3.68439 0.940168 1.43024 -2.57801 2.90357 0.0595263 -0.620884 0.788493 -3.23989 -3.16741 -2.60938 0.677038 0.577028 -1.82102 1.22838 -2.26886 -2.87934 2.20562 -0.149221 0.736579 0.552278 -3.62619 -1.46414 2.37023 -0.195364 1.4964 -3.48252 -1.57953 -2.45492 -3.03099 0.909528 -1.86445 0.759347 -1.85197 -1.79481 -0.147359 3.48484 3.27374 -1.87151 0.568484 -2.27447 1.84895 3.12072 -0.394864 1.08086 2.88225 0.241722 -0.972884 2.11675 -2.1061 -0.228141 1.96794 0.0139927 1.10008 0.289026 -2.4808 3.52262 -1.32593 0.505859 -2.65659 2.75284 2.49508 -1.34961 2.6597 -1.16237 0.289514 0.666387 -2.23376 0.994402 -0.428129 -0.982039 -0.249138 0.0168001 2.2882 0.380215 2.54721 -2.26779 1.57397 -0.00645511 -0.00810309 2.45185 0.527955 1.96724 0.0431076 2.94628 0.409238 0.310908 0.808967 1.9774 0.166127 0.975509 0.551423 1.91966 0.699835 0.684881 -1.68698 1.4985 -1.22805 0.841136 -0.670172 -0.819437 1.95955 -1.71805 1.88197 2.24532 -0.434385 -0.826183 -1.25933 -1.93153 1.89266 2.82029 2.86711 0.651742 0.780771 -1.33267 1.51999 -2.07478 2.82191 0.289727 0.42581 -1.1411 -2.8469 2.63349 1.17266 -0.0887025 1.23724 1.302 3.47821 2.84535 -0.466125 -2.83683 -3.50787 -1.55198 -2.52749 -2.93865 2.7891 -2.82096 -1.37213 0.911934 -2.79566 2.2835 0.507263 -3.03608 1.17534 1.39816 -3.14317 -2.49097 1.73756 -1.81641 0.890271 -0.180929 1.83772 1.01342 -0.65244 1.59336 -0.883404 -1.75062 1.7917 0.697333 1.81795 -2.86173 1.04564 1.473 -2.01719 -0.142598 0.17925 0.403348 -1.41931 -1.25796 -0.0472278 -2.58897 -1.26144 1.22677 1.1183 -1.42614 -1.2796 -2.47083 -0.508301 -1.4642 -1.18377 0.610538 -1.80275 -2.60062 -2.20598 0.442595 -3.00743 0.375027 -2.92625 0.111896 0.0796383 1.97286 2.27734 -0.206503 -0.692145 -1.98347 2.31283 2.12576 -0.821725 1.26135 2.64689 0.0147252 0.54944 3.89443 -0.07564 -3.59544 -0.542665 -2.2955 -2.41217 2.03942 2.95238 0.197012 0.657964 -0.248863 -0.642095 -2.56296 1.32562 -2.6948 -3.13701 0.90434 3.51633 -0.666875 -0.151967 3.13644 1.08196 -2.61637 1.85368 -1.55331 1.7743 2.62623 0.599521 2.49472 0.65894 1.23354 -1.04226 1.99065 -0.875683 -1.0208 1.28737 -0.682745 0.143971 -3.92082 1.03642 3.34848 -1.05489 2.80662 0.0175633 1.24517 -0.256554 -1.08424 1.26501 1.51385 -3.30285 2.40362 -1.12426 -1.89753 1.73896 -3.36249 2.74623 -0.177817 -3.5592 2.38861 -1.39563 -0.130543 -2.4313 -1.20885 2.24962 -2.26476 0.482208 -2.23064 1.40283 1.27945 2.03649 -0.0444196 0.0738391 1.25164 -0.85783 -3.36541 -3.14669 -0.957777 -2.35876 1.74549 1.03508 -2.05833 1.65094 -0.530305 1.97267 1.69172 1.03661 -2.56015 0.580904 -3.39218 1.16722 2.0985 1.38571 3.05772 -2.38953 -0.762978 3.02782 2.57025 0.923262 -1.75 -1.37134 0.364803 2.19415 2.13201 1.92491 -3.42474 -0.505524 -3.25069 -2.42636 0.953811 0.893199 2.42142 -1.45791 -1.66706 -1.80674 -0.665349 -0.0205547 -1.36941 1.04454 0.832347 3.48383 -2.32455 -0.410824 -2.90193 -0.832901 -2.36221 3.29882 0.276207 -1.57407 -1.65692 -1.84645 -0.447966 -0.178091 -0.746894 1.82747 2.22726 1.98134 -0.606265 -1.9717 0.321009 1.91789 -1.98881 2.65457 3.72675 3.68567 1.23873 -0.0790891 -2.54218 1.76856 1.55255 -0.886451 2.01207 -2.88798 1.30266 2.12457 1.38559 1.20415 2.09459 -2.57019 -1.22976 -1.89014 3.3084 -3.33923 -1.53729 -0.129445 0.530732 1.42776 0.0172883 -0.833598 -1.81241 0.551789 -1.82438 1.65665 -2.84769 3.36224 0.601474 1.89659 -2.38403 2.21252 2.95482 -1.75639 -1.00346 -2.12438 -1.66706 0.655004 2.17263 -1.02889 -0.384457 3.78275 2.81882 0.0811034 0.737281 -3.72413 1.12603 -0.286157 0.42584 0.693553 -1.30999 -0.232322 -3.5661 -0.0654465 -3.15609 -2.34615 0.796183 -0.408048 0.221274 -1.26593 -2.85841 1.13686 2.82844 1.22692 0.596678 2.33971 -2.59174 -2.75569 -2.69492 -0.167775 -2.62415 1.10894 0.098926 1.22076 3.10738 0.610996 0.351008 2.65171 -1.13692 -1.63764 -1.45877 -0.758492 1.12981 -2.09878 2.56568 -0.728828 -2.34414 1.7053 1.32134 -2.44281 -3.03224 2.76963 2.59915 -1.09969 -1.3544 1.90504 2.81211 -1.97762 2.13985 0.414151 1.59466 0.895031 -1.59104 2.29904 0.802379 1.86686 2.1636 -2.34045 0.941907 0.496368 -2.0078 -3.56196 -0.434965 0.495911 2.1549 -2.83635 -0.343714 0.693304 -0.676916 -3.1429 1.54654 2.41702 0.0488453 0.749184 0.382534 2.21144 1.24414 0.968978 -1.3153 -0.710639 -2.55134 1.86088 1.02406 -1.37417 2.17415 2.08348 -1.65057 0.101428 -0.902509 1.14821 0.996658 -0.399747 3.39285 0.553376 0.909432 1.47 -2.0236 -1.82853 2.10677 0.248863 -0.049058 1.04274 -1.07711 -0.933271 2.02712 -0.765453 2.05666 2.6261 2.20555 -0.0785087 1.95549 -0.83091 -2.50039 -3.65848 2.57233 0.338496 -0.0197606 -3.21425 -1.98036 0.335872 1.92473 -2.72129 -2.84242 -2.71524 -2.65006 1.10206 -2.35687 -2.79228 -2.28826 -2.17788 -1.52624 -0.482757 1.05169 1.97581 -0.441465 2.43378 -0.628605 0.0688955 1.34234 -1.76878 -2.48123 -2.95269 2.02095 1.72135 2.36318 1.89466 0.374172 1.87807 -1.45748 1.51111 -0.25103 0.0124059 1.56757 2.53546 -0.775334 0.402951 1.55572 1.25924 0.490997 -0.215476 -2.61527 0.294916 -2.52921 -1.39096 1.54343 -1.84816 0.21688 0.476043 2.4573 3.37659 2.11678 2.64575 3.57889 1.41232 -1.06597 2.03709 -0.98439 2.8397 1.7212 2.62036 -0.0176549 -2.85521 -1.87093 -1.39465 1.85411 -1.31738 3.15251 1.33859 1.10744 2.98109 0.8343 1.3074 -2.07469 -0.950118 0.967026 1.1664 0.750496 -0.152211 -0.681707 -1.81663 0.565706 -2.43749 0.413266 2.01888 -0.813944 -2.13701 -2.59586 -0.761177 0.340816 2.77733 -0.939649 1.47303 -0.173025 -0.64539 -0.591494 -1.38034 1.51917 2.76694 3.05287 -1.99315 1.50965 2.00523 -3.29016 -1.08614 -2.8304 -3.17172 -0.0118868 1.36187 -2.5962 -0.879005 -1.06063 -1.42376 -1.11504 3.31414 1.42175 -1.96855 1.54831 4.02788 0.796548 2.48001 0.12743 1.58981 -1.00401 -0.12502 2.01078 -2.41143 -2.50824 -1.40823 1.20339 -0.884624 1.1935 0.854591 2.67271 -0.149739 -0.187979 -0.226554 -0.13976 2.6532 2.7158 -2.09988 -0.359706 1.81083 -1.18743 0.707007 -1.4913 0.599215 -1.51194 -1.10393 -1.72119 -0.68418 2.13311 0.945387 2.07137 1.44042 -1.71207 -1.20409 -1.12667 0.0768605 0.939492 2.08932 -3.5459 -1.66327 -3.0016 0.859416 -1.08684 -0.183401 0.49005 0.0863824 0.64542 -1.17187 1.48831 -0.98335 2.00316 1.53775 3.3269 -2.3417 -1.56262 0.666998 2.11462 3.35602 0.39761 0.918099 -1.90824 1.85133 -1.22582 0.77378 1.85231 -2.26287 1.16124 -1.16972 -1.03096 -0.289117 -2.27526 1.32095 0.0483871 0.530366 -2.04592 -2.01476 1.75046 0.0843684 4.08046 0.938886 1.8003 -0.521668 0.441802 -0.297052 2.52729 -1.45471 1.57734 3.04799 1.95964 3.68592 -3.66962 -3.19362 4.00679 -2.55527 1.74405 -0.684393 -2.23837 2.73151 -1.97298 -1.35909 -1.54673 -0.913068 -2.62524 2.23918 -2.92057 -0.0920592 2.9247 -1.78105 2.25512 1.03047 -2.3736 -1.14867 2.30187 0.583438 0.312037 0.48996 -0.884812 -1.4867 -1.25863 2.55399 0.837595 0.69129 -1.09029 0.733985 0.868446 0.00447052 -2.60462 1.07338 -1.75501 -1.65778 -0.970321 0.0823542 2.92225 -1.12127 2.6702 -2.45642 -0.0150307 -1.43677 2.35998 1.1614 2.32324 1.21877 -3.34942 -1.28646 -2.19976 1.16121 0.375759 -0.137684 2.44879 0.739631 0.648503 -0.722175 -1.28024 -2.2904 0.373959 0.235191 0.323694 3.84037 4.04878 -1.66525 -0.313074 2.66441 1.13399 -1.49069 1.56122 -2.22094 2.78303 -3.03194 1.81339 -1.40051 2.20183 -0.762337 0.929026 -1.02516 0.427152 -1.04558 1.25863 -0.42816 2.80119 -1.43457 2.54157 0.432371 -2.07606 0.594119 -1.26647 0.609683 -2.63196 -3.37448 -2.32449 -1.70689 -2.06942 -3.33029 2.62906 2.32443 -0.288598 -1.94203 2.21254 2.51163 -2.20861 2.52768 1.77048 -1.3496 0.798135 0.654149 2.70414 1.65525 -0.864448 -0.715919 -0.203727 1.70789 -0.837412 -0.873791 -3.93663 -2.16912 -2.90086 -1.84178 -1.83824 -1.20959 -0.0572981 2.00242 -3.11696 0.735542 -0.825576 -1.07067 -1.23128 2.47955 2.5397 0.64539 -2.62564 -2.16869 0.680517 2.51828 -2.78238 -0.118458 -3.09701 -0.601779 -1.06456 2.64786 -2.13802 -1.30621 2.68897 0.9919 -2.55905 2.8524 -2.65866 0.206229 -0.387875 1.90693 2.44482 1.18334 -0.444517 0.243461 -2.4382 3.57099 -2.18068 -2.75483 -0.0404218 -2.18148 -2.19756 1.9702 -0.798471 0.525116 -1.65933 1.51713 -1.32738 -1.011 0.677008 1.23888 -3.43316 1.37206 2.59921 2.45678 2.36826 3.37857 3.02339 1.83314 -2.64227 1.86018 2.80677 -0.941847 -1.82188 0.250237 2.07002 1.00847 2.98378 2.23403 -1.18917 1.03102 1.2119 -2.43856 -1.90999 -1.48813 -0.495544 1.41006 -2.43069 2.38296 -1.19024 -1.79889 2.6868 2.7259 3.19848 -2.72202 1.24563 2.12655 -2.57755 1.35311 1.70258 1.93852 2.75181 3.12608 -2.06724 4.11141 3.1141 -0.0154577 1.75562 -0.262017 2.07619 -1.80909 -1.99907 -1.01888 0.691778 -0.540437 2.39852 0.531617 0.750496 -1.66459 3.06993 -0.744179 1.45925 -1.72345 -3.0952 1.19078 0.0858336 2.84794 -3.39383 -2.46173 2.5961 -1.06737 1.67851 2.82069 1.818 -1.63178 -0.852763 -0.153218 2.16116 -1.08891 -0.711432 2.65396 1.42416 0.939157 -0.85255 0.0714893 -0.278253 0.795206 0.130726 1.07149 4.06276 2.18108 2.45156 -0.443083 -1.39251 0.505829 0.710822 1.74598 1.14156 -2.40591 -1.60783 -2.19121 -0.210318 -1.33477 1.55652 1.91178 -1.49154 -3.01738 1.51287 -3.67362 2.38391 3.08586 3.75138 -1.24057 1.26748 0.00703469 -1.08516 -1.44113 1.78056 2.38211 -1.90482 -2.045 -1.77949 1.85859 -0.769325 -1.01167 -1.60242 -1.29003 0.889935 -2.71472 0.93434 1.06114 0.221183 1.33556 -2.94008 2.63031 -2.65138 -2.57355 0.430448 2.39639 -1.00157 0.89329 1.00346 -2.90449 -1.36786 -0.161061 2.50333 -1.04555 1.87372 -0.0178685 1.50321 3.56531 -0.492737 -1.21279 -2.33987 1.31051 -0.170919 -0.465972 0.128407 -0.757606 -1.36624 -1.51599 0.688757 -3.17577 -0.383511 -1.20251 0.620426 -0.561922 0.473449 -1.64002 -3.15203 3.06743 1.47943 1.17144 1.397 -1.94096 0.825846 -0.54178 1.68436 2.37261 1.50052 -3.83955 1.68119 -1.77921 1.98827 2.95384 -3.52674 1.51069 0.575289 0.458647 0.255424 -1.0132 1.54023 3.79829 -2.71375 1.49047 -1.99174 -2.84498 -1.1599 -1.76905 1.7551 -0.511139 -0.318659 -0.514557 0.737007 2.06658 1.09774 -2.37421 -1.36639 -2.03597 -1.98011 2.88381 0.178823 -1.80519 2.26171 -3.24346 3.56559 0.622043 0.408444 -2.53586 1.7039 1.30853 -2.61014 -2.64145 0.613437 -2.53464 -2.73612 1.69746 -1.26726 0.64945 1.24481 2.68171 2.42413 1.37106 0.506806 1.1711 -0.540956 -0.23455 1.79558 1.97689 -0.237419 2.48487 -2.62439 2.14125 -0.8025 1.46744 -0.651433 1.11092 1.67325 0.740394 -0.130146 0.207602 -1.64442 -2.08904 1.30005 1.3045 1.26394 1.50446 -2.18441 -0.885691 0.0320907 -0.196707 1.51645 -2.0055 3.11782 -1.65439 -2.44296 3.67667 0.239921 -1.26397 -0.663579 -3.17605 -2.67377 -0.0702383 0.273217 -3.16991 -0.247612 1.64152 -2.79826 -1.24627 -1.84892 0.038682 -2.08141 2.80839 -1.42233 0.374629 -2.09022 -2.69834 -3.69178 -2.28466 -2.20913 0.441679 1.05547 -0.579165 -3.50714 2.90553 1.87937 -2.46717 -3.27893 -1.41528 1.57926 2.72779 0.722571 -2.58899 2.84474 -0.0103609 -0.109637 1.66639 0.945234 -0.338618 0.237877 -2.31332 0.245872 -0.972212 0.271752 -0.634679 1.32354 -2.91084 1.29949 0.359707 1.96962 -3.32055 -2.30382 -0.58884 -3.14284 -1.4129 -1.83116 1.68092 -0.842296 0.834635 -2.45606 0.51059 -0.116047 1.77079 1.11244 1.51276 2.24347 2.13625 0.0616321 0.397366 3.7841 -2.24704 -1.97105 -2.55823 -0.390103 -2.99995 0.302423 0.00877403 -1.54718 -1.27389 2.70566 3.01869 -1.12334 1.75953 1.6937 1.7858 1.39902 0.668648 0.695013 2.11928 -3.19072 2.93352 -2.77277 1.0995 -2.53339 -2.82295 -1.17964 2.43453 2.85524 2.62284 -2.72272 -0.198294 2.18304 0.423796 0.304071 3.08324 3.30209 2.02919 -0.959759 0.900007 -1.26894 0.237846 -1.47916 0.350184 1.06511 1.09886 0.60184 -1.64048 2.54807 2.31317 1.37796 -1.45026 1.09599 -0.706397 0.628605 -0.971388 -1.45376 -0.460051 -2.68232 0.0137485 -0.581885 0.483886 0.684244 1.68891 -2.03728 -2.53827 2.94829 2.20555 -2.21264 -3.03071 -0.829144 -1.76847 0.830945 0.857707 1.29473 -3.04323 0.976455 1.62299 -1.10448 -1.04176 -0.922074 1.44961 -0.319148 -0.167196 -3.31463 3.16048 -0.738323 0.00633216 -1.75193 -2.26687 -2.76826 -2.38104 3.07738 0.535157 -2.91478 1.90046 0.850323 -2.06356 0.00227333 -1.06511 -2.06279 0.45706 2.03652 -1.7724 -0.669621 2.10082 2.73218 -0.026994 -2.54141 1.03798 0.706183 2.43823 -1.33127 -0.712043 -2.77671 3.36071 2.65269 -2.43948 2.29684 1.77195 -2.3963 -1.08757 -1.65452 0.149708 -0.616337 1.3732 -3.06053 -1.69171 -2.52154 1.19902 1.66446 -2.07085 2.0294 -1.0909 -2.36474 1.14296 -1.28598 3.76313 1.6948 2.06367 -4.23418 0.831433 -1.17925 0.687384 -3.09331 2.31988 -1.21917 2.05617 -0.521943 -1.69809 -1.43961 0.0961791 -0.449096 1.51493 0.599094 0.0369728 0.294549 3.37677 0.363002 -3.1838 2.38687 -1.11895 1.28784 -1.62308 0.747475 2.52451 -2.37808 1.26403 0.372982 -1.0779 1.20064 -2.57458 2.55862 -2.72795 -1.31691 2.62537 -0.715824 -0.681951 0.285302 1.37368 -0.951219 0.973617 -0.464629 -0.218894 0.933423 2.25784 -0.911759 -1.75711 -0.826854 -3.29547 -1.87327 1.35915 0.0207067 0.896374 2.38284 -1.00188 -0.818369 -1.71766 0.307123 -3.09142 -0.395809 -0.0634022 2.42361 -2.21383 -2.09667 1.41006 -1.60697 -2.79814 -0.80018 -1.66349 0.824782 0.298731 0.658025 -0.0541246 -0.639867 0.66007 0.50177 2.14119 2.06508 1.26067 -1.21044 1.29788 -1.34069 -3.09734 -0.268212 2.43927 0.615482 -0.956127 -2.17198 0.944258 1.65803 -2.57465 0.611184 -1.55377 -1.30611 3.40493 -1.72697 -1.92342 -1.29333 0.399503 -1.04159 1.71036 0.643804 2.34838 1.00508 -0.629765 1.83039 -0.402585 -0.087817 -2.55524 1.93824 3.11532 -0.680028 -0.12154 -0.955461 -0.555361 -0.221671 -1.01449 -1.19152 0.296808 0.589755 3.05223 0.297754 -1.80518 0.50351 0.372341 0.498322 -2.92833 -0.453093 -2.11578 2.0363 1.23043 1.77158 -0.943981 0.142903 2.57053 -3.8044 -1.8202 1.39706 -1.51104 3.72773 2.73136 3.27227 -1.63764 0.346339 -0.0507676 3.02336 1.01335 1.32473 -2.70749 -1.0595 3.0706 1.77516 -0.0705431 -2.49417 1.62805 0.296777 -2.0829 1.4797 2.10854 -1.9897 -0.773051 -1.54953 -1.26083 -2.2438 0.271233 -3.12099 1.54453 -0.257958 3.0887 1.16805 -1.73829 2.41708 -0.156972 2.78825 2.08943 -3.14302 0.794961 -2.00835 0.668585 1.44141 -1.60169 0.146504 0.210013 -1.90064 -0.318903 1.21841 1.16744 2.91343 -1.43561 -1.56292 -0.632329 0.355007 -0.720313 -0.32574 -1.99873 -0.0634024 2.53516 2.56527 -2.61914 -0.437865 2.59205 -3.0928 -2.12609 0.355586 2.90447 1.36328 0.914442 2.24746 2.48123 -0.996715 -3.49847 1.10503 -0.377285 1.71781 -1.90837 -2.31622 -0.8072 3.02715 0.287316 -1.8184 0.0789061 -1.67445 2.2336 -2.32156 -2.00142 1.08852 0.12328 -0.757912 0.307673 -2.92899 0.721992 -1.01939 -1.03365 -2.96507 1.31537 -1.17528 0.321223 -3.96943 -2.01274 2.31795 -0.145161 -0.23278 -0.365535 0.198965 -0.433683 1.10195 0.622684 1.05642 -2.86814 2.18038 -0.507416 -1.16375 -2.49316 1.25704 -0.37878 3.48541 0.12151 -2.2695 -0.756935 1.50904 -0.669683 0.421965 1.74031 2.72807 -2.73008 1.62759 0.606204 3.01244 1.77982 2.98046 -1.01109 1.27612 0.544038 0.648626 -1.779 -2.48783 2.11141 -2.09746 0.241844 -0.849623 0.947341 2.58258 3.31985 -1.48196 3.1758 1.49915 -2.02275 1.6858 0.16686 -1.70566 -1.47016 1.48013 -2.37423 1.8 1.14034 -0.0585493 -1.65827 -0.582583 1.79902 -0.987623 0.248375 0.55832 -2.86867 1.73555 0.958175 -0.330501 3.44586 1.74067 -2.57913 -0.120227 -2.0807 2.30651 -0.131794 1.7949 3.33639 2.77421 -0.305994 -0.524262 3.27966 -2.40353 2.43508 -0.870586 -2.81586 1.80387 0.498505 3.54318 0.157979 -1.8361 -1.19795 1.7938 0.976516 -2.17492 -3.02373 -3.73353 -0.841655 -1.28417 0.287988 2.50806 2.52512 0.485839 -1.06011 -2.05016 1.15615 1.2705 2.90574 -1.96608 -2.85898 1.0577 -2.04824 -1.23232 2.03724 -3.05956 -0.99293 2.24224 3.43781 0.0349899 -2.46723 -0.85435 1.55969 -1.65495 -1.94752 -2.19847 1.25374 -0.642949 1.49432 -1.23644 2.34414 1.64325 -2.49454 2.49793 -1.29409 -1.74415 0.394162 1.18533 2.98497 0.195029 -1.14788 0.173543 -2.63568 -3.27163 0.120014 0.111164 -2.70997 0.846873 -2.25433 -1.70539 0.553285 -1.36505 0.59595 -1.74146 -1.35626 0.840464 3.27593 3.14263 -0.223899 1.42102 2.61368 1.86429 -1.50543 -0.650303 -1.6363 -1.37012 0.267235 0.465148 2.79051 -1.18529 1.96919 1.63935 0.281061 -3.25731 -1.33254 1.05251 -1.34881 -1.60083 0.61008 2.85091 2.29467 1.60562 0.825141 -0.0288555 -1.16506 -0.311518 1.23965 0.41235 -2.5637 3.17412 0.720527 2.73567 1.42743 1.53931 -1.05269 1.0742 2.39733 2.55109 -1.48135 1.43408 2.41723 -2.77666 -3.79609 -0.431882 1.54712 -3.07253 -2.25686 1.20177 0.278955 2.68064 0.0999942 -1.10589 -2.9211 2.14977 0.578707 1.31711 -0.320521 -1.60148 0.707556 -1.77149 2.27935 -3.09004 -1.70441 -2.07372 1.31023 0.91615 0.570345 0.461058 -0.0784481 2.56375 0.801065 -2.61032 -1.15572 -1.04762 0.315729 -0.646916 1.78624 -0.430144 1.31512 0.254417 0.0181434 1.16094 -1.60644 1.32483 -0.694952 -1.44168 -1.82921 1.85301 -3.16085 0.508209 1.93977 -1.13607 -0.668676 0.0209204 1.74073 1.52487 -2.08266 -2.7223 -0.236473 -2.43875 -0.966322 -0.372524 1.48718 0.464782 1.92207 -3.30087 -3.53842 1.77156 1.91566 1.16824 1.13839 -2.80448 -1.83525 -0.798285 0.656499 2.89696 2.96046 1.11873 0.989208 2.66483 -0.694312 0.293145 -1.64094 1.299 -3.09969 -0.167165 1.3265 0.968734 1.18563 0.0644395 0.457549 2.83271 -2.38831 -2.64228 -2.01985 1.69895 -2.217 2.31771 -0.669439 2.00737 1.63397 0.876903 -0.000381846 -1.08434 -1.7035 2.32065 -0.414914 1.77073 2.81382 -3.2257 -2.54682 -0.255058 1.35183 0.185171 -0.0799737 1.92052 -1.92463 -2.67154 2.35507 2.60184 -2.66703 -2.12835 2.11501 0.138417 2.31534 -0.973525 2.71528 1.03752 -0.159627 2.81788 -0.85756 1.65049 -3.57935 2.50686 -3.2839 3.21212 -0.727973 0.191916 -2.59321 -0.486877 -1.58503 -1.87467 1.01314 -2.0078 -2.46862 -2.22753 0.108142 -3.47812 0.726966 2.14693 -2.84064 1.67478 2.8589 -0.547944 1.72886 0.748177 1.58494 -0.438658 1.1581 -2.66785 -3.2116 1.36587 1.64854 3.69776 0.537202 -0.474975 2.13732 -3.21227 3.23101 -0.354243 -2.11873 -0.90318 0.0958129 1.42773 -0.849223 -0.788402 -2.32043 -0.200521 -0.0597704 1.30282 3.50644 -1.41684 -1.89564 -1.65643 2.54367 1.71388 -1.17626 1.33816 2.64258 -0.453368 -3.19396 -0.658665 1.60352 2.28448 -0.868942 -3.44903 0.0254677 3.05495 0.14272 3.25308 -1.40548 -1.33108 -2.70151 -1.09893 0.968489 -0.40646 -2.62107 1.11431 -1.08693 1.16674 -2.03566 1.86885 -2.15331 -1.41128 1.58567 -1.32864 2.4491 3.72166 2.45605 -2.0095 -3.50879 1.22283 2.18813 -0.270867 3.54248 -1.94802 0.404111 1.0198 -1.29101 3.87578 -0.356166 1.12328 -1.93486 4.40432 1.48011 -3.28872 0.926893 1.19191 -0.757912 1.3174 1.6294 -1.06914 2.25997 3.23177 0.962078 1.77152 0.0300451 3.62717 -2.08186 -3.30367 -1.78758 -2.80604 -2.08449 -3.51337 1.86385 -0.933855 1.14333 -0.696112 -2.18765 -2.68122 -2.80771 -1.57676 -1.41641 -0.179373 2.62665 1.15041 0.778695 -0.280755 -0.353847 -1.55282 0.315546 2.34487 -1.49261 0.305628 -2.56253 -1.19024 -2.1523 0.394802 -1.1039 0.0856199 -1.42456 2.01561 2.21169 -0.156941 1.48127 -1.10878 -1.57602 1.82936 0.225913 1.8311 -1.76777 -2.93043 3.86204 -0.209952 -0.0642877 0.673559 0.543428 -1.63706 -1.92167 0.522431 0.582432 -0.759221 -0.794229 0.626591 0.507599 0.659887 -0.360805 1.42746 -2.71952 -1.62073 1.67307 2.82914 -0.673894 1.21224 3.10326 1.23913 2.53507 -0.354366 -0.508789 0.401273 -0.108661 2.58145 -1.92891 -3.70041 -0.115253 -2.27597 0.705298 0.91667 1.36212 -1.34628 1.79451 0.125263 1.97325 -1.89027 -0.449187 -0.501221 1.87123 2.51966 2.53772 2.31582 2.81815 -2.69868 -0.118366 2.54471 0.357174 -1.02378 0.0679494 0.0890377 0.205161 -0.384548 -1.28088 0.0716115 0.521179 -0.341731 0.267968 -1.55729 -2.79072 -2.37039 -1.07133 -1.30935 -0.0901979 -0.2098 -3.1267 -0.0618458 -0.162404 -0.751809 -0.979995 -3.79615 -1.87932 1.56628 -1.66267 3.11128 2.79951 0.393399 -0.925825 3.8267 -0.863658 -0.846324 0.818155 1.50662 -0.59885 1.32244 -0.207663 -1.9641 2.77934 -0.678137 0.29226 -1.66105 3.56527 0.568026 3.67362 -0.956954 -0.704687 -0.303278 -3.207 1.77787 1.9753 -1.4945 1.31384 -1.10958 0.0608081 -1.36166 -1.22576 -0.14272 0.345118 -0.455504 -0.166463 0.17513 1.41327 0.746681 -3.40279 -1.98851 -3.18645 0.944319 -2.57297 3.39617 -1.39022 -1.01143 2.14571 0.234825 -1.53632 -2.7443 0.0387127 -2.07314 1.90871 -0.546663 -1.43749 1.86714 -2.03212 0.38821 -1.83613 1.6135 -0.224143 -2.26976 0.114703 0.0034641 1.35687 -1.70005 -3.22548 -2.00331 -1.78196 -3.0866 2.17983 -3.47036 -2.08571 2.31567 3.37051 1.16009 -2.76143 2.23079 1.36038 -0.217246 -1.80323 2.06669 -0.845653 3.20201 0.420622 -0.703253 -2.27786 0.835093 -1.82225 2.0584 -1.66706 1.33423 -2.36715 -0.00767543 0.157124 -1.59463 0.517212 1.86095 -2.45719 2.60416 -0.137166 0.969156 -1.12844 1.3938 -2.04341 1.92665 -1.59882 1.24194 -0.826945 -2.22298 -0.999807 0.0416429 -1.16201 -1.97041 0.181876 1.63401 0.783914 -2.3804 1.34326 -3.28299 -2.2514 2.3345 -0.384701 -1.08 0.27926 1.73182 -2.76954 2.32495 1.29059 -0.914869 0.815257 2.21646 2.94047 3.38439 2.51022 0.341823 -2.02501 1.92412 0.329218 2.46271 1.20144 -3.48727 1.66025 -1.52356 0.242363 -1.169 1.31387 0.895189 -0.768075 -2.02858 0.0287329 -1.04509 2.60587 -0.308557 -4.16369 0.144734 -0.355739 1.4115 2.19609 0.430509 2.92235 1.48685 -1.69977 0.958598 0.325098 2.78654 -2.5366 0.51886 2.78507 0.111134 -2.00472 -1.45138 0.392972 -0.520936 0.466399 2.95897 0.0453347 0.812815 -3.22579 1.564 -1.72028 -1.94292 -0.0875122 -2.60361 0.455504 -1.73939 -2.14705 -1.31195 -0.0621509 2.6511 -0.554933 -2.20369 3.43878 -0.764442 -0.262719 -0.137623 -1.82749 -1.04146 -0.368434 0.475952 -3.01649 -1.05321 2.27209 -0.866741 -1.90119 -1.12682 -1.9236 1.76615 2.66483 2.97313 0.818094 2.12474 0.72336 -0.26165 -0.339961 0.295862 -2.21493 1.82933 -2.44686 -1.86384 -0.348597 -2.77412 2.90099 -0.0966368 2.64783 2.15832 -2.10299 1.86555 -2.08077 3.84096 3.44516 0.170309 -1.05095 0.546693 0.0625479 -0.244438 0.951031 -0.950695 -1.32098 0.581972 3.29855 -0.0337078 2.73176 1.96849 -2.3598 -2.967 -1.53247 1.31341 1.86369 -0.15923 -3.14437 -0.0183261 0.558077 0.0680719 2.0178 1.63853 -2.8614 2.73744 -0.418363 -0.188315 1.28362 3.52899 -1.13369 1.96532 -3.1595 -2.31771 1.30224 1.86146 -1.13722 -1.48301 -0.00590538 -1.50318 -1.07329 2.10347 -1.16707 1.39243 -2.61084 2.11528 2.0634 1.516 0.740854 2.39535 1.71152 -2.37686 -0.288812 2.26577 2.78141 2.29482 2.28201 1.11198 -0.37585 2.45178 1.26455 0.27517 -1.61133 0.630833 0.59891 -1.21798 -2.04326 1.80235 0.0288857 -0.0569625 0.272881 0.00712607 3.31039 1.35162 -1.52966 0.599857 1.60989 -3.685 -3.2941 1.37622 1.24834 3.2489 -1.89836 0.365718 -0.553683 0.0629448 -0.291589 2.57199 -1.77119 1.07686 -0.110767 0.441557 -0.857345 2.48807 0.0368507 -0.656865 -0.0540027 0.929823 -0.97618 1.83659 0.92494 -1.85062 1.29784 1.01504 -0.00865238 -2.66638 -2.97554 -0.299799 -0.776676 2.11937 1.18609 -2.22671 -0.00157132 -2.18654 1.03981 2.42019 1.38006 0.860851 -1.15295 -0.42465 0.912584 -1.91606 2.27264 -0.655827 -1.52015 -2.26812 1.36645 -0.31576 -2.6149 0.866345 -0.468475 1.12831 -0.692023 -2.88484 1.38265 1.82963 -1.70655 1.32995 2.90656 0.709873 1.43246 -0.829234 2.82475 1.99303 3.38519 -3.84181 0.569734 -2.09569 -1.5901 -2.78425 2.77677 -0.182699 -1.95313 -3.75959 -0.298853 2.6287 2.11915 -1.27181 -0.535005 1.64261 0.200674 -0.0121005 -0.460204 1.7482 -0.783364 2.97548 1.37231 